~o
<STREAMINFO> 1 25
<VECSIZE> 25<NULLD><MFCC_D_N_Z_0><DIAGC>
~s "silst"
<MEAN> 25
 -1.099638e+001 7.649714e-001 -2.933375e+000 2.815301e+000 -5.555352e-001 6.841297e+000 2.206003e+000 1.723437e+000 1.310288e+000 2.711734e+000 2.835898e+000 2.533405e+000 -1.641828e-002 -3.933996e-003 -8.834903e-003 -1.590321e-003 -1.003766e-002 -3.228970e-004 -1.074126e-002 -1.626441e-003 6.260579e-003 -1.035188e-003 -7.596405e-003 6.655207e-003 -1.659379e-002
<VARIANCE> 25
 1.511116e+001 5.099136e+000 5.511100e+000 1.138540e+001 2.931989e+001 2.593676e+001 2.875626e+001 1.580842e+001 2.188651e+001 1.396728e+001 2.961334e+001 7.397732e+000 1.096369e-001 1.492150e-001 2.710896e-001 3.813349e-001 4.400441e-001 5.831153e-001 6.610001e-001 6.786329e-001 7.574713e-001 7.276700e-001 7.117982e-001 6.599190e-001 6.712239e-002
<GCONST> 6.569907e+001
~h "b"
<BEGINHMM>
<NUMSTATES> 5
<STATE> 2
<MEAN> 25
 -5.747564e+000 3.501646e+000 -7.258197e-001 1.238261e+000 2.995328e+000 2.476040e+000 -1.615816e-001 6.781126e-001 -7.794001e-001 2.578401e+000 5.829707e-001 2.230949e-001 2.367303e-001 4.253132e-001 4.314335e-001 1.053792e-001 -8.435328e-002 5.471411e-002 4.008411e-002 1.951445e-001 -1.041017e-001 -1.065527e-001 4.396658e-001 7.196324e-002 7.035425e-002
<VARIANCE> 25
 1.333996e+002 4.138209e+001 2.513511e+001 2.841289e+001 3.576732e+001 4.090907e+001 2.714963e+001 1.936063e+001 3.043496e+001 3.039275e+001 3.476466e+001 1.744230e+001 5.215751e+000 3.014430e+000 3.375561e+000 2.384265e+000 2.804263e+000 3.048470e+000 2.417664e+000 1.784111e+000 2.208424e+000 2.689376e+000 2.569146e+000 1.227707e+000 3.705993e+000
<GCONST> 1.006128e+002
<STATE> 3
<MEAN> 25
 4.546359e+000 8.225105e+000 2.663034e+000 2.767932e+000 2.953522e+000 1.440878e+000 -8.524720e-001 1.164147e+000 -1.294754e+000 -1.341915e+000 5.726284e-001 -1.198040e+000 1.815674e+000 4.491637e-001 3.623832e-002 -6.955519e-001 1.243859e-001 -8.892907e-001 -1.130601e-001 -1.186896e-001 -6.567778e-002 -3.958412e-001 -3.054177e-001 -2.854608e-001 1.747967e+000
<VARIANCE> 25
 9.442077e+001 8.775149e+001 4.745214e+001 4.476613e+001 6.777010e+001 5.032336e+001 3.239374e+001 2.861784e+001 4.535013e+001 4.263332e+001 4.392184e+001 2.673941e+001 7.593062e+000 5.871744e+000 4.692938e+000 3.636770e+000 6.016759e+000 6.110890e+000 3.120710e+000 2.600996e+000 4.901931e+000 4.517819e+000 4.620995e+000 1.938265e+000 6.399947e+000
<GCONST> 1.117120e+002
<STATE> 4
<MEAN> 25
 7.151329e+000 1.106322e+000 2.173926e+000 -4.374355e+000 2.266815e+000 -7.207391e+000 2.130618e-001 -9.320470e-001 -5.277692e+000 8.281364e-001 2.547501e+000 -1.519397e+000 2.445826e-001 -2.451546e-001 -1.030727e-001 -2.625436e-003 6.516018e-002 -2.243798e-001 -3.328864e-002 -2.689506e-001 5.398004e-002 1.560041e-001 -2.663693e-002 -1.232201e-001 3.990912e-001
<VARIANCE> 25
 1.287382e+002 1.109400e+002 6.459145e+001 5.961887e+001 6.845315e+001 1.157380e+002 3.493612e+001 6.308963e+001 9.491483e+001 5.988482e+001 5.093290e+001 3.465323e+001 3.721556e+000 5.642852e+000 3.474425e+000 3.906367e+000 6.314581e+000 6.822590e+000 3.850336e+000 4.498781e+000 7.196694e+000 3.717895e+000 4.703467e+000 2.188205e+000 4.289817e+000
<GCONST> 1.159087e+002
<TRANSP> 5
 0.000000e+000 1.000000e+000 0.000000e+000 0.000000e+000 0.000000e+000
 0.000000e+000 6.424471e-001 3.575529e-001 0.000000e+000 0.000000e+000
 0.000000e+000 0.000000e+000 5.325465e-001 4.674535e-001 0.000000e+000
 0.000000e+000 0.000000e+000 0.000000e+000 7.132525e-001 2.867475e-001
 0.000000e+000 0.000000e+000 0.000000e+000 0.000000e+000 0.000000e+000
<ENDHMM>
~h "d"
<BEGINHMM>
<NUMSTATES> 5
<STATE> 2
<MEAN> 25
 -9.113400e+000 1.197574e-001 -3.248936e+000 3.118755e+000 -5.041195e-001 6.626786e+000 -6.324691e-001 7.175851e-001 2.217122e+000 1.605542e+000 -2.415037e-001 1.434669e+000 -1.251469e-001 -6.490494e-002 -3.408277e-002 -2.386970e-002 -3.356528e-002 7.109188e-002 3.483891e-003 -6.605467e-002 -4.189112e-002 7.543893e-002 1.440609e-001 7.137199e-002 -8.510241e-002
<VARIANCE> 25
 2.665544e+001 1.611764e+001 1.343883e+001 1.598835e+001 3.064535e+001 2.109990e+001 2.011479e+001 1.275733e+001 1.371536e+001 1.677322e+001 1.432548e+001 9.160721e+000 6.999125e-001 7.028146e-001 7.202675e-001 9.647653e-001 8.123833e-001 8.610215e-001 1.109896e+000 8.184745e-001 9.952052e-001 9.581083e-001 1.170738e+000 8.026148e-001 3.665732e-001
<GCONST> 7.707408e+001
<STATE> 3
<MEAN> 25
 -2.893084e+000 3.288393e+000 4.799957e-001 2.562671e+000 2.458019e+000 6.051511e+000 -1.927164e+000 -5.374469e-001 2.034588e-001 2.945783e-001 1.297539e+000 6.034906e-001 2.326539e+000 5.633036e-001 1.372313e+000 6.362054e-002 7.365293e-001 6.431594e-002 -1.165514e+000 -4.375439e-001 5.894625e-002 -8.035452e-001 3.574022e-002 2.816223e-002 2.103153e+000
<VARIANCE> 25
 7.978967e+001 7.786214e+001 6.311822e+001 6.003637e+001 4.328944e+001 3.442328e+001 3.340658e+001 2.689383e+001 2.594242e+001 2.499305e+001 3.370882e+001 9.877945e+000 7.326912e+000 1.300899e+001 7.675489e+000 5.372250e+000 7.162147e+000 4.151538e+000 6.029376e+000 3.787335e+000 4.990211e+000 3.979382e+000 4.843616e+000 1.693929e+000 5.426907e+000
<GCONST> 1.108928e+002
<STATE> 4
<MEAN> 25
 8.672255e+000 2.980114e+000 4.193229e+000 4.825761e+000 2.844510e+000 3.150536e+000 -3.765363e+000 -6.219837e+000 6.977482e-001 2.258383e+000 5.628405e+000 2.191331e-001 7.895074e-001 -4.717872e-001 9.263574e-002 2.612383e-002 -1.803124e-002 -5.274426e-001 -1.432931e-001 -2.942479e-001 1.235547e-001 2.190938e-001 2.061599e-001 -1.866737e-001 1.067106e+000
<VARIANCE> 25
 5.107654e+001 2.005000e+002 7.995126e+001 4.480991e+001 8.447562e+001 7.283644e+001 4.418528e+001 7.263421e+001 3.847378e+001 4.927775e+001 4.301247e+001 2.635894e+001 3.361209e+000 1.851452e+001 6.407960e+000 3.229754e+000 1.073783e+001 8.378772e+000 4.447228e+000 6.780789e+000 5.156714e+000 6.199326e+000 4.007893e+000 2.992772e+000 7.169609e+000
<GCONST> 1.177299e+002
<TRANSP> 5
 0.000000e+000 1.000000e+000 0.000000e+000 0.000000e+000 0.000000e+000
 0.000000e+000 9.178826e-001 8.211743e-002 0.000000e+000 0.000000e+000
 0.000000e+000 0.000000e+000 6.124443e-001 3.875557e-001 0.000000e+000
 0.000000e+000 0.000000e+000 0.000000e+000 8.204166e-001 1.795834e-001
 0.000000e+000 0.000000e+000 0.000000e+000 0.000000e+000 0.000000e+000
<ENDHMM>
~h "g"
<BEGINHMM>
<NUMSTATES> 5
<STATE> 2
<MEAN> 25
 5.838316e+000 -1.359452e+000 5.795385e+000 4.536162e+000 3.348433e+000 -6.205760e-001 -3.968780e+000 -8.122580e+000 -2.192300e-001 2.543625e+000 2.414901e+000 -2.040508e+000 -2.126166e-001 -1.484447e-001 7.165248e-001 4.204038e-001 5.187752e-001 -3.191296e-001 -5.959159e-001 1.177195e-001 1.234254e-001 -3.192751e-001 -2.896918e-001 -2.414220e-001 1.700575e-001
<VARIANCE> 25
 6.410479e+001 1.882534e+002 1.111297e+002 9.031504e+001 1.007364e+002 1.150884e+002 5.150328e+001 9.966914e+001 5.262748e+001 6.111225e+001 3.438607e+001 3.485507e+001 2.923269e+000 2.210652e+001 6.415407e+000 7.866642e+000 1.056631e+001 1.162164e+001 5.383912e+000 7.296343e+000 4.541344e+000 4.700809e+000 3.313763e+000 3.702747e+000 8.613394e+000
<GCONST> 1.219184e+002
<STATE> 3
<MEAN> 25
 1.492757e+000 -2.892599e+000 1.016079e+001 1.006911e+001 1.310210e+001 -5.401832e+000 -1.201903e+001 -3.135633e+000 -1.124672e+000 2.413747e-001 -5.251765e-002 -5.584594e+000 1.701207e-001 3.161789e-001 1.398761e-001 6.060948e-001 5.232224e-001 4.310585e-001 -1.097262e+000 6.051666e-001 3.562596e-002 -1.029721e-001 1.946499e-001 -2.073102e-001 -3.710360e-001
<VARIANCE> 25
 4.349355e+001 4.798572e+001 8.173899e+001 7.921300e+001 1.016421e+002 7.608849e+001 8.919004e+001 3.409249e+001 3.431768e+001 4.391241e+001 3.510090e+001 2.349045e+001 2.246609e+000 1.863532e+000 3.012262e+000 4.126964e+000 3.242908e+000 4.419527e+000 5.638480e+000 1.953290e+000 1.888587e+000 1.308559e+000 1.512502e+000 1.409458e+000 1.647388e+000
<GCONST> 1.045467e+002
<STATE> 4
<MEAN> 25
 -4.319769e+000 -1.320378e+000 1.656658e+000 5.610801e+000 9.377046e+000 2.301355e+000 -7.775256e+000 5.194980e-001 3.168284e-001 2.270433e+000 2.151992e+000 -2.446536e+000 -1.904721e-001 9.765759e-002 -2.230992e-001 -1.726345e-001 -3.300886e-001 1.881756e-001 3.643857e-001 5.336487e-002 3.755981e-002 4.477418e-002 6.575465e-002 1.046129e-001 -3.121981e-001
<VARIANCE> 25
 7.420703e+001 2.340022e+001 5.798923e+001 4.751651e+001 1.383273e+002 4.881954e+001 1.452396e+002 2.204508e+001 2.506655e+001 2.758007e+001 2.316926e+001 3.903651e+001 3.979042e-001 4.797307e-001 6.701366e-001 8.191279e-001 1.218374e+000 7.919324e-001 2.061457e+000 9.502161e-001 8.791550e-001 8.261419e-001 7.316206e-001 9.492640e-001 3.699497e-001
<GCONST> 8.826504e+001
<TRANSP> 5
 0.000000e+000 1.000000e+000 0.000000e+000 0.000000e+000 0.000000e+000
 0.000000e+000 8.815423e-001 1.184577e-001 0.000000e+000 0.000000e+000
 0.000000e+000 0.000000e+000 7.270915e-001 2.729085e-001 0.000000e+000
 0.000000e+000 0.000000e+000 0.000000e+000 8.908735e-001 1.091265e-001
 0.000000e+000 0.000000e+000 0.000000e+000 0.000000e+000 0.000000e+000
<ENDHMM>
~h "k"
<BEGINHMM>
<NUMSTATES> 5
<STATE> 2
<MEAN> 25
 -3.343716e+000 -1.862486e+000 -9.784203e-001 -2.301840e+000 -2.044177e+000 2.226212e+000 2.032130e+000 1.474188e+000 1.472654e+000 2.624354e-001 6.592714e-001 1.610351e+000 1.074135e+000 -1.546649e+000 2.559997e-001 -1.554147e+000 -1.740237e+000 -8.462258e-001 4.079408e-001 -7.399800e-001 -4.053488e-003 -3.745903e-001 1.109207e+000 2.531166e-001 2.388950e+000
<VARIANCE> 25
 9.896251e+001 1.233300e+002 6.609464e+001 5.383816e+001 1.237490e+002 9.143108e+001 5.963219e+001 7.161900e+001 3.333197e+001 5.834671e+001 4.307736e+001 3.446936e+001 1.351613e+001 1.525906e+001 9.306470e+000 7.887834e+000 2.235401e+001 1.658350e+001 6.791281e+000 9.282175e+000 4.274668e+000 7.252016e+000 6.451458e+000 5.589868e+000 1.736870e+001
<GCONST> 1.256611e+002
<STATE> 3
<MEAN> 25
 2.271329e+000 -4.654638e+000 1.780367e+000 -9.249891e+000 -1.137879e+001 -6.704266e+000 4.011578e+000 -2.349782e+000 1.738824e-001 -1.468452e+000 6.490405e+000 1.964841e+000 2.117257e+000 1.741097e+000 3.879476e-001 -2.759692e-001 -1.354466e-001 -3.459764e+000 1.916180e-001 -3.469680e-003 -8.580872e-001 -3.399856e-001 -3.700854e-001 -9.825339e-001 1.797861e+000
<VARIANCE> 25
 7.197862e+001 1.286896e+002 1.374301e+002 8.001572e+001 2.329669e+002 1.547322e+002 7.173428e+001 1.305264e+002 5.104947e+001 5.769429e+001 7.501439e+001 6.310363e+001 5.940268e+000 9.842176e+000 8.221498e+000 1.250541e+001 1.414104e+001 1.610341e+001 7.810741e+000 9.170887e+000 5.121593e+000 5.172149e+000 8.009786e+000 5.929098e+000 9.652487e+000
<GCONST> 1.282791e+002
<STATE> 4
<MEAN> 25
 7.964329e+000 3.448675e-001 9.583461e-001 -5.028717e+000 -1.427284e+000 -1.325989e+001 3.493767e+000 3.358290e-001 -3.659944e+000 1.921908e+000 8.103854e-001 -1.604432e+000 8.211910e-001 6.951715e-001 1.659844e-001 8.647902e-001 4.705105e-001 -2.758520e-001 -5.326400e-001 7.151432e-002 -5.606405e-002 1.648424e-001 -7.245847e-001 -4.480768e-001 -3.153688e-002
<VARIANCE> 25
 6.061149e+001 1.027503e+002 9.367872e+001 8.352277e+001 2.464982e+002 1.193829e+002 8.217500e+001 1.270337e+002 7.255688e+001 7.162320e+001 6.627042e+001 5.137680e+001 4.176288e+000 4.291690e+000 4.748684e+000 5.511139e+000 4.171099e+000 1.157293e+001 6.011778e+000 6.808575e+000 4.627635e+000 3.905845e+000 5.281802e+000 4.238332e+000 3.173520e+000
<GCONST> 1.207777e+002
<TRANSP> 5
 0.000000e+000 1.000000e+000 0.000000e+000 0.000000e+000 0.000000e+000
 0.000000e+000 7.698426e-001 2.301574e-001 0.000000e+000 0.000000e+000
 0.000000e+000 0.000000e+000 5.755138e-001 4.244862e-001 0.000000e+000
 0.000000e+000 0.000000e+000 0.000000e+000 7.180346e-001 2.819655e-001
 0.000000e+000 0.000000e+000 0.000000e+000 0.000000e+000 0.000000e+000
<ENDHMM>
~h "l"
<BEGINHMM>
<NUMSTATES> 5
<STATE> 2
<MEAN> 25
 1.144341e+001 -2.204138e-001 -1.974453e+000 -1.984698e+000 -4.704944e+000 -6.225473e+000 2.421690e+000 2.734857e+000 -3.533212e+000 -6.222763e+000 -9.959086e-001 -3.673720e-001 9.384270e-001 -4.519585e-001 -5.702261e-001 -4.736151e-001 -3.706952e-001 -1.179968e+000 7.163881e-001 2.938544e-001 -5.970351e-001 -5.340401e-001 1.910366e-001 2.336111e-001 1.170465e+000
<VARIANCE> 25
 5.492603e+001 9.259039e+001 8.971611e+001 5.584782e+001 1.119065e+002 1.161707e+002 9.508569e+001 8.249737e+001 1.084983e+002 6.417860e+001 6.513187e+001 4.914230e+001 4.658518e+000 8.027744e+000 5.701880e+000 5.874223e+000 7.662635e+000 1.111814e+001 8.882971e+000 7.549430e+000 8.674358e+000 6.021505e+000 5.406950e+000 3.847303e+000 6.104250e+000
<GCONST> 1.229435e+002
<STATE> 3
<MEAN> 25
 1.267402e+001 -1.899393e+000 -1.129056e+000 -3.265769e+000 -7.888806e+000 -9.221533e+000 5.351471e+000 3.122306e+000 -6.404236e+000 -7.934110e+000 -6.603506e-001 6.674767e-002 -2.120153e-001 1.572434e-001 -3.468109e-002 -2.330388e-001 1.084491e-001 2.233431e-001 3.149902e-001 8.097660e-002 9.054857e-002 3.135515e-001 5.307340e-002 4.325835e-001 -1.993664e-001
<VARIANCE> 25
 3.281245e+001 4.050847e+001 6.495348e+001 5.146980e+001 1.514937e+002 9.002091e+001 1.146562e+002 7.944462e+001 1.131832e+002 6.268587e+001 8.968369e+001 7.569071e+001 9.682227e-001 2.304303e+000 2.726145e+000 3.600565e+000 4.326057e+000 4.662533e+000 4.971852e+000 4.486280e+000 4.347407e+000 4.102650e+000 3.378133e+000 3.053714e+000 1.224004e+000
<GCONST> 1.121941e+002
<STATE> 4
<MEAN> 25
 9.923866e+000 -2.629098e+000 -3.740785e+000 -4.908840e+000 -2.862432e+000 -8.713759e+000 4.462835e+000 2.646814e+000 -4.168673e+000 -2.553086e+000 2.342753e-001 1.087813e+000 -2.163854e-001 3.914832e-002 2.581950e-002 9.598672e-003 9.599849e-002 1.952744e-001 -5.949711e-002 -6.340225e-002 2.389535e-001 2.851472e-001 2.108397e-002 1.169253e-002 -2.309713e-001
<VARIANCE> 25
 6.881525e+001 3.850856e+001 3.939035e+001 5.660838e+001 8.634222e+001 1.180851e+002 9.959422e+001 8.372156e+001 7.343192e+001 6.003199e+001 6.576888e+001 3.983661e+001 6.450641e-001 1.061779e+000 1.221712e+000 1.690995e+000 2.160148e+000 2.185927e+000 2.579203e+000 2.341661e+000 2.404682e+000 2.175865e+000 1.940922e+000 1.756914e+000 6.741849e-001
<GCONST> 1.022444e+002
<TRANSP> 5
 0.000000e+000 1.000000e+000 0.000000e+000 0.000000e+000 0.000000e+000
 0.000000e+000 6.994568e-001 3.005433e-001 0.000000e+000 0.000000e+000
 0.000000e+000 0.000000e+000 7.201174e-001 2.798826e-001 0.000000e+000
 0.000000e+000 0.000000e+000 0.000000e+000 8.709819e-001 1.290181e-001
 0.000000e+000 0.000000e+000 0.000000e+000 0.000000e+000 0.000000e+000
<ENDHMM>
~h "m"
<BEGINHMM>
<NUMSTATES> 5
<STATE> 2
<MEAN> 25
 5.961667e+000 8.152959e+000 1.311694e+000 4.489793e+000 2.006342e+000 2.106369e+000 1.455644e+000 1.730050e+000 -2.270952e+000 -4.374632e+000 -7.553679e+000 -6.892113e+000 -7.660677e-001 1.327763e-001 3.080117e-001 5.356213e-001 2.301199e-001 5.090668e-001 -8.611858e-002 -7.332829e-002 3.659298e-001 3.154539e-001 -5.566290e-002 -3.188286e-001 -7.438147e-001
<VARIANCE> 25
 3.083016e+001 4.588483e+001 4.045024e+001 5.129458e+001 4.301040e+001 3.978468e+001 3.417698e+001 3.542066e+001 6.043927e+001 3.235983e+001 3.609230e+001 5.536633e+001 9.156264e-001 1.447815e+000 1.687376e+000 2.536722e+000 1.768091e+000 1.708376e+000 2.036144e+000 1.517230e+000 2.036564e+000 1.887259e+000 2.350979e+000 2.933470e+000 5.654919e-001
<GCONST> 9.723828e+001
<STATE> 3
<MEAN> 25
 1.124838e-001 5.498373e+000 1.203454e+000 2.888923e+000 8.614092e-001 4.475356e+000 9.683313e-001 1.259055e+000 5.444896e-001 -1.049365e+000 -4.027913e+000 -3.404886e+000 -1.158316e+000 -9.771623e-001 -7.689298e-001 -5.023313e-001 -1.986150e-001 2.971244e-001 1.365003e-001 3.205676e-002 3.040224e-001 6.557357e-001 6.595503e-001 7.193660e-001 -6.515934e-001
<VARIANCE> 25
 6.236617e+001 5.664558e+001 3.593534e+001 7.311901e+001 4.540177e+001 3.763733e+001 3.288630e+001 2.367261e+001 3.198819e+001 2.069408e+001 3.008919e+001 4.760258e+001 2.485775e+000 2.706665e+000 2.782146e+000 2.600571e+000 2.035386e+000 2.052126e+000 1.775311e+000 1.905530e+000 2.435576e+000 1.941171e+000 2.370612e+000 1.855273e+000 1.447190e+000
<GCONST> 9.979160e+001
<STATE> 4
<MEAN> 25
 -8.245266e+000 6.440281e-001 -2.588569e+000 2.297812e+000 1.140104e+000 8.197811e+000 -6.922863e-001 1.392536e+000 3.013379e+000 2.633639e+000 -3.953080e-001 1.991053e+000 -1.054195e-001 -7.696162e-002 -6.395344e-002 1.450111e-002 -6.025158e-003 3.575718e-002 -1.911109e-003 2.528042e-002 1.972630e-002 7.167023e-002 7.460094e-002 9.403978e-002 -9.214083e-002
<VARIANCE> 25
 2.082797e+001 7.968071e+000 8.299356e+000 1.411005e+001 2.634262e+001 2.188998e+001 1.515881e+001 1.478586e+001 1.307389e+001 1.485371e+001 1.233456e+001 1.127726e+001 2.246762e-001 2.842890e-001 3.683917e-001 4.680577e-001 5.957932e-001 7.334456e-001 7.260534e-001 8.186069e-001 8.112027e-001 8.367049e-001 8.336351e-001 7.920290e-001 1.013856e-001
<GCONST> 6.884702e+001
<TRANSP> 5
 0.000000e+000 1.000000e+000 0.000000e+000 0.000000e+000 0.000000e+000
 0.000000e+000 8.024690e-001 1.975310e-001 0.000000e+000 0.000000e+000
 0.000000e+000 0.000000e+000 6.895149e-001 3.104850e-001 0.000000e+000
 0.000000e+000 0.000000e+000 0.000000e+000 9.485279e-001 5.147209e-002
 0.000000e+000 0.000000e+000 0.000000e+000 0.000000e+000 0.000000e+000
<ENDHMM>
~h "n"
<BEGINHMM>
<NUMSTATES> 5
<STATE> 2
<MEAN> 25
 8.105792e+000 1.033751e+001 3.019525e+000 3.322021e+000 6.731491e+000 1.383773e+000 -2.090227e-001 -3.659878e+000 -8.547108e+000 -2.190639e+000 -3.957267e+000 1.627918e+000 -8.414246e-001 8.392946e-001 8.551534e-001 7.360418e-001 -1.545851e-001 7.398255e-001 -3.947853e-001 6.782781e-002 2.771260e-001 -4.686960e-001 -3.742942e-001 -2.095220e-001 -1.168825e+000
<VARIANCE> 25
 3.253442e+001 6.123144e+001 4.033395e+001 4.708628e+001 4.941599e+001 5.363554e+001 4.723274e+001 5.064907e+001 5.496001e+001 7.144639e+001 7.918050e+001 5.139686e+001 9.357717e-001 3.632631e+000 2.349135e+000 3.839322e+000 3.192623e+000 4.832605e+000 2.867981e+000 3.232310e+000 3.876222e+000 4.951039e+000 4.088706e+000 3.746524e+000 8.796909e-001
<GCONST> 1.072837e+002
<STATE> 3
<MEAN> 25
 4.947538e-001 8.767409e+000 4.666864e+000 7.064626e+000 2.589277e+000 5.131049e+000 -2.414480e+000 -2.724329e+000 -1.618060e+000 -2.194245e+000 -3.180286e+000 -2.319327e+000 -1.445092e+000 -1.225408e+000 -9.160501e-001 -3.123105e-001 -1.744515e-001 3.903549e-001 1.453972e-001 2.778999e-001 7.111563e-001 4.529613e-001 2.590670e-001 2.015226e-001 -8.483588e-001
<VARIANCE> 25
 5.101103e+001 4.405407e+001 4.457205e+001 5.827885e+001 2.651616e+001 3.438041e+001 3.219683e+001 2.434437e+001 2.971282e+001 2.255657e+001 2.550442e+001 2.049039e+001 1.712655e+000 2.881644e+000 2.877937e+000 2.649982e+000 1.680333e+000 1.919699e+000 1.919494e+000 1.827546e+000 1.723316e+000 1.750050e+000 2.264593e+000 1.496330e+000 6.106532e-001
<GCONST> 9.565786e+001
<STATE> 4
<MEAN> 25
 -8.513377e+000 3.480645e-001 -2.503771e+000 2.532752e+000 6.742859e-001 7.351695e+000 -1.001059e+000 6.078154e-001 2.630353e+000 1.927212e+000 -3.754206e-001 1.465596e+000 -1.575670e-001 -1.529940e-001 -8.263050e-002 -5.477783e-002 -6.857208e-002 4.603288e-002 6.336659e-002 1.065181e-001 1.001758e-001 8.646214e-002 7.980672e-002 7.221162e-002 -8.621919e-002
<VARIANCE> 25
 2.751428e+001 1.303761e+001 1.272280e+001 1.541077e+001 2.912512e+001 2.100898e+001 1.643024e+001 1.669959e+001 1.450470e+001 1.603377e+001 1.428802e+001 1.008792e+001 3.594648e-001 5.297168e-001 5.508478e-001 5.868044e-001 7.653567e-001 8.442411e-001 9.825028e-001 9.671163e-001 9.577731e-001 1.035742e+000 9.554690e-001 7.020271e-001 1.704152e-001
<GCONST> 7.410631e+001
<TRANSP> 5
 0.000000e+000 1.000000e+000 0.000000e+000 0.000000e+000 0.000000e+000
 0.000000e+000 8.678597e-001 1.321403e-001 0.000000e+000 0.000000e+000
 0.000000e+000 0.000000e+000 7.488145e-001 2.511856e-001 0.000000e+000
 0.000000e+000 0.000000e+000 0.000000e+000 9.441228e-001 5.587721e-002
 0.000000e+000 0.000000e+000 0.000000e+000 0.000000e+000 0.000000e+000
<ENDHMM>
~h "p"
<BEGINHMM>
<NUMSTATES> 5
<STATE> 2
<MEAN> 25
 -8.794671e+000 1.673697e+000 -2.742704e+000 7.230577e-001 1.172207e+000 5.481030e+000 -1.712070e-001 1.801599e+000 1.391289e+000 3.609474e+000 6.618840e-001 1.792995e+000 -1.266463e-001 -2.347630e-001 -1.721377e-001 -1.193833e-002 -6.495741e-002 -1.075871e-002 -1.495086e-001 -1.112806e-001 8.292225e-002 -1.976626e-002 -2.066287e-002 -4.002722e-003 -4.110569e-002
<VARIANCE> 25
 3.905912e+001 1.197425e+001 1.043089e+001 1.900502e+001 3.444621e+001 2.962513e+001 2.432376e+001 1.337722e+001 1.346868e+001 1.655649e+001 1.797401e+001 9.545037e+000 3.788040e+000 1.684787e+000 1.254670e+000 1.420445e+000 2.007075e+000 1.847555e+000 1.938051e+000 1.642658e+000 1.440480e+000 1.280170e+000 1.567477e+000 1.008233e+000 2.614316e+000
<GCONST> 8.757986e+001
<STATE> 3
<MEAN> 25
 -4.532368e+000 7.908653e-001 -3.484349e+000 2.399746e-001 -5.343282e-001 4.304584e+000 -9.634944e-001 1.036899e+000 1.890124e+000 2.760279e+000 8.543408e-001 1.770339e+000 3.857566e+000 -2.377726e-001 -9.588498e-002 -1.117890e+000 -1.405629e+000 -2.281399e+000 -6.054398e-001 -5.271322e-001 5.480310e-001 -1.472209e+000 -6.391817e-001 -3.665080e-001 3.865321e+000
<VARIANCE> 25
 5.854613e+001 2.037645e+001 1.470067e+001 2.726455e+001 3.469024e+001 3.769999e+001 2.514815e+001 2.487523e+001 2.338214e+001 1.676921e+001 1.649986e+001 1.374747e+001 1.021959e+001 7.170225e+000 4.681751e+000 4.410217e+000 8.101035e+000 9.466659e+000 6.190764e+000 5.597980e+000 4.827117e+000 3.835136e+000 6.010094e+000 3.386012e+000 7.627721e+000
<GCONST> 1.072055e+002
<STATE> 4
<MEAN> 25
 5.585216e+000 -1.529763e+000 -3.552384e+000 -2.957996e+000 -2.827156e+000 -4.226295e+000 4.461905e-001 -1.013286e+000 2.275160e+000 -2.241344e+000 1.589673e-001 2.249388e-001 3.354029e+000 -4.300631e-001 -2.512995e-001 -1.054698e+000 -1.249767e+000 -2.976063e+000 8.005817e-001 -4.217840e-001 -3.360068e-001 -1.027169e+000 -1.400892e-001 -9.184202e-001 3.856854e+000
<VARIANCE> 25
 1.193962e+002 1.048229e+002 7.572849e+001 5.377778e+001 9.994244e+001 1.025827e+002 6.720210e+001 6.929137e+001 5.268082e+001 4.492961e+001 6.281787e+001 3.971025e+001 1.114878e+001 9.857183e+000 7.119001e+000 5.735731e+000 1.098439e+001 1.251927e+001 7.963445e+000 7.646562e+000 6.254127e+000 4.999930e+000 6.933288e+000 5.087569e+000 1.024510e+001
<GCONST> 1.237406e+002
<TRANSP> 5
 0.000000e+000 1.000000e+000 0.000000e+000 0.000000e+000 0.000000e+000
 0.000000e+000 8.545386e-001 1.454614e-001 0.000000e+000 0.000000e+000
 0.000000e+000 0.000000e+000 3.408183e-001 6.591818e-001 0.000000e+000
 0.000000e+000 0.000000e+000 0.000000e+000 6.349320e-001 3.650680e-001
 0.000000e+000 0.000000e+000 0.000000e+000 0.000000e+000 0.000000e+000
<ENDHMM>
~h "r"
<BEGINHMM>
<NUMSTATES> 5
<STATE> 2
<MEAN> 25
 1.389523e+001 -6.199966e+000 -6.734902e+000 -4.958291e+000 -5.160594e+000 -2.462520e+000 -4.363365e-001 -3.626440e+000 3.876248e+000 -1.526969e+000 -1.448482e+000 5.346035e+000 3.637164e-002 9.383725e-002 -3.410610e-001 -2.043089e-001 6.389432e-001 2.593485e-001 -6.054950e-001 3.535572e-002 -6.968622e-002 -2.538700e-001 4.168448e-001 2.613661e-001 -9.198732e-002
<VARIANCE> 25
 1.644984e+001 4.556734e+001 4.140385e+001 3.299972e+001 6.434219e+001 7.278712e+001 5.775023e+001 4.432886e+001 5.322603e+001 4.767377e+001 1.185276e+002 3.756478e+001 9.224554e-001 3.672391e+000 2.744986e+000 1.999446e+000 3.946452e+000 5.142226e+000 3.872167e+000 3.244539e+000 2.844960e+000 3.186615e+000 3.746985e+000 3.549538e+000 7.808791e-001
<GCONST> 1.053348e+002
<STATE> 3
<MEAN> 25
 1.428176e+001 8.114262e-001 -9.206079e+000 -6.140954e+000 4.190068e+000 -3.133414e+000 -3.196141e+000 -5.821705e-001 -8.613202e-001 -5.525295e+000 -8.322327e-001 2.952465e+000 -3.902386e-001 1.768725e+000 3.597283e-001 4.513810e-001 8.144503e-001 8.053107e-001 3.871309e-001 -1.134693e-002 -1.116886e+000 -4.259374e-001 -4.570657e-001 -7.662197e-001 -1.157204e+000
<VARIANCE> 25
 3.315937e+001 6.113572e+001 5.522628e+001 4.913242e+001 7.168433e+001 6.937016e+001 6.190817e+001 5.488625e+001 6.337968e+001 5.862884e+001 1.099219e+002 5.730755e+001 2.316535e+000 5.402610e+000 7.959315e+000 3.339474e+000 4.895215e+000 8.706567e+000 5.297163e+000 4.258293e+000 6.001661e+000 5.397005e+000 7.674441e+000 3.560855e+000 1.542296e+000
<GCONST> 1.149731e+002
<STATE> 4
<MEAN> 25
 1.024706e+001 5.381071e+000 -4.937522e+000 -4.328587e+000 2.424707e+000 1.075717e+000 -1.297009e+000 -2.828133e+000 -7.190606e+000 -5.588765e+000 -2.669530e+000 -4.284135e-002 -3.668286e-001 3.692452e-001 4.670451e-001 8.457622e-001 2.074913e-001 -2.166033e-002 -3.658086e-001 1.668014e-001 2.601045e-002 2.808285e-001 -5.209132e-002 -5.753474e-001 -5.927142e-001
<VARIANCE> 25
 2.428444e+001 6.918064e+001 5.703579e+001 5.285889e+001 4.734945e+001 7.462524e+001 4.995789e+001 3.129280e+001 4.643786e+001 6.872848e+001 6.334311e+001 4.688960e+001 1.577356e+000 1.339903e+000 2.748070e+000 3.055372e+000 2.195695e+000 3.836290e+000 2.899226e+000 2.075986e+000 3.445207e+000 3.291811e+000 2.809170e+000 2.751435e+000 1.096589e+000
<GCONST> 1.043417e+002
<TRANSP> 5
 0.000000e+000 1.000000e+000 0.000000e+000 0.000000e+000 0.000000e+000
 0.000000e+000 8.941104e-001 1.058896e-001 0.000000e+000 0.000000e+000
 0.000000e+000 0.000000e+000 7.306481e-001 2.693519e-001 0.000000e+000
 0.000000e+000 0.000000e+000 0.000000e+000 7.723421e-001 2.276579e-001
 0.000000e+000 0.000000e+000 0.000000e+000 0.000000e+000 0.000000e+000
<ENDHMM>
~h "s"
<BEGINHMM>
<NUMSTATES> 5
<STATE> 2
<MEAN> 25
 -7.573003e+000 -9.537173e+000 1.035857e+001 -3.985991e+000 -1.094714e+000 6.931328e+000 1.068008e+000 -3.995375e+000 4.054165e+000 1.956716e+000 3.803943e+000 9.805166e-001 -2.886370e+000 -2.044965e+000 3.246174e+000 -1.447730e+000 3.016843e-001 3.785843e-001 9.876238e-001 -8.719460e-001 7.121754e-001 -2.366515e-001 1.424454e+000 -1.522719e-001 1.245422e+000
<VARIANCE> 25
 9.343166e+001 1.306594e+002 1.487493e+002 7.139225e+001 7.353258e+001 8.805024e+001 9.365702e+001 5.096157e+001 4.824147e+001 4.075405e+001 4.009796e+001 3.599035e+001 5.660802e+000 6.312234e+000 1.041621e+001 5.970852e+000 6.609485e+000 6.562531e+000 8.970844e+000 3.891593e+000 5.418128e+000 4.213847e+000 4.588417e+000 3.724796e+000 3.967136e+000
<GCONST> 1.191056e+002
<STATE> 3
<MEAN> 25
 -2.011023e+001 -1.462888e+001 1.800344e+001 -1.112561e+001 2.921377e+000 4.376530e+000 5.761850e+000 -8.599001e+000 7.897655e+000 5.428052e-001 9.873784e+000 -1.321198e+000 -1.523845e-001 -3.121343e-002 -5.327424e-001 -1.612406e-001 9.440153e-002 -3.550395e-001 -1.271944e-001 -4.234165e-001 1.019360e-002 -9.948491e-002 8.278856e-002 1.079874e-001 7.542373e-002
<VARIANCE> 25
 4.029082e+001 1.284691e+002 6.616611e+001 7.067389e+001 9.034665e+001 9.082661e+001 1.089193e+002 4.419510e+001 3.652059e+001 2.664114e+001 2.918242e+001 3.059644e+001 3.890031e+000 3.968113e+000 2.947791e+000 1.960601e+000 2.081685e+000 2.614779e+000 2.587770e+000 2.426044e+000 2.629603e+000 2.144636e+000 2.033740e+000 1.633157e+000 1.104041e+000
<GCONST> 1.051672e+002
<STATE> 4
<MEAN> 25
 -1.099009e+001 -9.120388e+000 1.125799e+001 -9.871107e+000 2.504829e+000 5.589140e-001 3.607712e+000 -8.562688e+000 4.287684e+000 2.679372e-001 5.464618e+000 3.253802e-001 3.616937e+000 1.572753e+000 -1.942161e+000 1.007137e+000 -6.048726e-001 -8.657279e-001 -1.309278e+000 7.797205e-001 -1.035502e+000 -3.141148e-001 -1.810686e+000 1.101326e-001 -1.308125e-001
<VARIANCE> 25
 1.376439e+002 6.957512e+001 8.504924e+001 8.289458e+001 7.864439e+001 7.268459e+001 7.313662e+001 6.394758e+001 5.415176e+001 4.087796e+001 5.640724e+001 3.117334e+001 8.499708e+000 6.834071e+000 7.072124e+000 4.844933e+000 5.152327e+000 6.091629e+000 5.942064e+000 6.498204e+000 4.949374e+000 3.831470e+000 5.636404e+000 3.631757e+000 3.135084e+000
<GCONST> 1.180509e+002
<TRANSP> 5
 0.000000e+000 1.000000e+000 0.000000e+000 0.000000e+000 0.000000e+000
 0.000000e+000 7.793288e-001 2.206712e-001 0.000000e+000 0.000000e+000
 0.000000e+000 0.000000e+000 8.086495e-001 1.913505e-001 0.000000e+000
 0.000000e+000 0.000000e+000 0.000000e+000 6.393294e-001 3.606706e-001
 0.000000e+000 0.000000e+000 0.000000e+000 0.000000e+000 0.000000e+000
<ENDHMM>
~h "t"
<BEGINHMM>
<NUMSTATES> 5
<STATE> 2
<MEAN> 25
 -6.344892e+000 2.033725e+000 -1.550353e+000 1.262422e+000 1.034184e+000 3.681942e+000 1.936929e+000 3.066832e-001 4.521606e-001 2.570727e+000 7.963312e-001 1.001509e+000 -2.267185e-001 -2.908654e-001 3.375335e-001 -6.361662e-002 5.041263e-001 -4.048777e-002 -5.813215e-001 -3.307965e-001 -4.320392e-002 4.968911e-002 -1.514821e-001 -1.004257e-002 1.553416e-001
<VARIANCE> 25
 8.959963e+001 2.991865e+001 2.227586e+001 2.172824e+001 4.628195e+001 3.038428e+001 3.761798e+001 3.053836e+001 2.240206e+001 2.494656e+001 3.233564e+001 1.457766e+001 7.140073e+000 6.371997e+000 3.599717e+000 2.702236e+000 4.597984e+000 3.912134e+000 3.649603e+000 4.240331e+000 2.648898e+000 2.983447e+000 3.593167e+000 1.887461e+000 7.598740e+000
<GCONST> 1.045306e+002
<STATE> 3
<MEAN> 25
 -1.810356e-001 -1.004048e+000 -2.039343e-001 9.437736e-001 -5.141421e-001 3.135186e+000 -1.322174e-001 -2.853600e+000 3.349896e-001 1.906257e+000 3.344485e-001 9.456288e-001 1.919285e+000 -2.143383e+000 6.755072e-001 -9.891555e-001 -5.020624e-001 -8.514817e-001 -5.854042e-001 -1.095722e+000 1.881154e-001 -5.906662e-001 -2.747790e-001 2.647976e-002 3.319061e+000
<VARIANCE> 25
 1.123590e+002 1.219916e+002 4.975244e+001 3.735176e+001 6.707385e+001 5.449380e+001 4.794368e+001 5.645768e+001 3.661153e+001 4.901616e+001 3.973956e+001 2.362986e+001 1.267918e+001 1.768454e+001 8.066540e+000 5.718936e+000 1.225760e+001 1.158368e+001 8.288279e+000 9.085613e+000 5.789637e+000 7.168508e+000 7.210782e+000 3.387747e+000 1.599931e+001
<GCONST> 1.216603e+002
<STATE> 4
<MEAN> 25
 3.903510e+000 -4.051924e+000 -6.580303e-002 -2.804310e+000 1.354528e+000 -2.141380e+000 1.387821e+000 -3.876800e+000 -3.423382e-001 1.621250e+000 2.370158e-001 1.355182e+000 9.985389e-001 -6.383371e-002 4.804960e-001 -1.153610e-001 2.818080e-001 -1.220019e+000 -2.048634e-001 -1.656885e-001 -4.774216e-001 -5.731404e-001 -2.398478e-001 -5.758573e-001 1.421996e+000
<VARIANCE> 25
 1.299972e+002 1.634138e+002 8.409091e+001 5.872403e+001 1.457285e+002 1.460702e+002 1.064836e+002 1.061959e+002 8.396643e+001 7.553593e+001 6.439836e+001 4.523631e+001 9.335503e+000 1.253907e+001 7.585862e+000 6.852441e+000 8.637461e+000 1.427112e+001 8.319853e+000 8.410932e+000 6.555601e+000 6.754994e+000 7.551063e+000 4.856060e+000 1.322667e+001
<GCONST> 1.281974e+002
<TRANSP> 5
 0.000000e+000 1.000000e+000 0.000000e+000 0.000000e+000 0.000000e+000
 0.000000e+000 6.876014e-001 3.123986e-001 0.000000e+000 0.000000e+000
 0.000000e+000 0.000000e+000 5.497653e-001 4.502347e-001 0.000000e+000
 0.000000e+000 0.000000e+000 0.000000e+000 7.816237e-001 2.183762e-001
 0.000000e+000 0.000000e+000 0.000000e+000 0.000000e+000 0.000000e+000
<ENDHMM>
~h "y"
<BEGINHMM>
<NUMSTATES> 5
<STATE> 2
<MEAN> 25
 1.056800e+001 -8.252951e+000 -8.862482e+000 -3.192117e+000 3.889043e+000 -9.280470e+000 1.177679e+001 -3.613149e+000 8.715882e-001 6.656790e+000 -6.752053e-001 -2.037701e+000 1.546426e+000 -2.850090e-001 7.235900e-001 2.584280e-001 7.370152e-001 -1.939252e+000 2.651162e-001 -9.778703e-001 -8.249532e-002 1.377274e+000 -9.531900e-004 -4.101481e-001 2.026096e+000
<VARIANCE> 25
 6.597696e+001 2.138477e+001 6.339578e+001 3.930814e+001 5.149626e+001 1.377604e+002 1.096721e+002 4.867757e+001 4.324323e+001 7.597814e+001 2.442412e+001 3.278661e+001 8.520348e+000 2.617429e+000 8.390027e+000 4.022686e+000 3.442847e+000 5.440149e+000 1.038840e+001 4.249844e+000 2.357833e+000 4.146472e+000 3.606333e+000 3.914725e+000 8.140265e+000
<GCONST> 1.136179e+002
<STATE> 3
<MEAN> 25
 8.876471e+000 -4.087818e+000 1.463045e+001 1.236967e+001 6.810493e+000 -1.988957e+001 -5.033472e+000 -5.665371e+000 -6.844404e-001 5.137079e+000 -2.193613e+000 -4.048692e+000 -8.636072e-002 4.286556e-001 4.873341e-001 4.047929e-001 4.837247e-002 1.201686e-001 -8.518234e-001 2.251487e-001 -1.944955e-002 -5.996706e-001 7.770790e-001 2.154791e-001 -2.557242e-001
<VARIANCE> 25
 1.601600e+001 2.529879e+001 8.144646e+001 1.054141e+002 8.556636e+001 1.553271e+002 3.457062e+001 8.484024e+001 7.816634e+001 3.014165e+001 4.147466e+001 2.580163e+001 1.284165e+000 1.094138e+000 1.129461e+001 7.504351e+000 7.082835e-001 4.443125e+000 3.234179e+000 6.186337e+000 2.171689e+000 5.123361e+000 5.741150e+000 2.498903e+000 1.248842e+000
<GCONST> 1.074455e+002
<STATE> 4
<MEAN> 25
 1.345563e+001 -2.472082e+000 3.022841e+000 3.924110e+000 4.096844e+000 -2.321881e+000 -5.984689e+000 -5.284124e+000 2.562009e+000 -8.761554e-001 6.127639e+000 -1.606715e+000 -1.609865e-001 2.363655e-001 -7.656791e-001 -4.467890e-001 -2.273835e-001 1.400611e+000 6.489627e-001 6.516603e-001 1.612340e-001 -1.690996e-001 -2.218897e-001 1.554741e-001 -6.478859e-001
<VARIANCE> 25
 1.102534e+001 1.487215e+002 1.030462e+002 1.751084e+002 6.836039e+001 1.019405e+002 1.001941e+002 3.378460e+001 1.517918e+001 7.740052e+001 6.209507e+001 4.480951e+001 1.118071e+000 3.215804e+000 4.450507e+000 8.752238e+000 2.448894e+000 4.652219e+000 4.480463e+000 2.739649e+000 2.879689e+000 5.618981e+000 4.913278e+000 2.814067e+000 1.969174e+000
<GCONST> 1.110966e+002
<TRANSP> 5
 0.000000e+000 1.000000e+000 0.000000e+000 0.000000e+000 0.000000e+000
 0.000000e+000 8.790529e-001 1.209471e-001 0.000000e+000 0.000000e+000
 0.000000e+000 0.000000e+000 8.981175e-001 1.018825e-001 0.000000e+000
 0.000000e+000 0.000000e+000 0.000000e+000 9.057230e-001 9.427708e-002
 0.000000e+000 0.000000e+000 0.000000e+000 0.000000e+000 0.000000e+000
<ENDHMM>
~h "aa"
<BEGINHMM>
<NUMSTATES> 5
<STATE> 2
<MEAN> 25
 8.289693e+000 -3.672811e+000 -4.904738e+000 -5.145326e+000 -1.738747e+000 -4.520019e+000 2.645450e+000 -1.211624e+000 -3.074694e-001 -4.274442e-001 -8.826661e-001 1.455534e+000 7.975108e-001 -5.814561e-001 -6.438321e-001 -4.292929e-001 -3.257478e-001 -1.454232e-001 5.225466e-001 -4.291788e-002 2.109825e-001 1.441415e-001 -2.332384e-001 3.567418e-001 8.185660e-001
<VARIANCE> 25
 9.694400e+001 5.640387e+001 5.615767e+001 6.266698e+001 7.658739e+001 9.541494e+001 6.481560e+001 6.758518e+001 6.287708e+001 4.960051e+001 7.367764e+001 5.249569e+001 4.377955e+000 4.041784e+000 3.512128e+000 3.813067e+000 3.959467e+000 4.370750e+000 3.900811e+000 4.039997e+000 3.782216e+000 4.005673e+000 3.552779e+000 3.272169e+000 3.864069e+000
<GCONST> 1.139061e+002
<STATE> 3
<MEAN> 25
 9.822306e+000 -4.270564e+000 -6.285223e+000 -5.735751e+000 -2.776646e+000 -4.342022e+000 3.475588e+000 -5.970464e-001 7.845548e-001 4.416522e-001 -1.757503e+000 2.282759e+000 -4.177737e-001 4.163878e-001 1.726700e-001 4.014694e-001 1.686491e-001 5.522521e-001 -1.087095e-001 -1.902230e-002 -1.707056e-002 1.078506e-001 -1.911049e-001 -6.249406e-003 -7.207482e-001
<VARIANCE> 25
 6.769618e+001 5.157956e+001 4.787194e+001 4.847324e+001 7.007288e+001 9.498093e+001 6.090056e+001 6.736884e+001 6.120921e+001 4.580590e+001 7.038867e+001 5.602258e+001 2.889504e+000 3.500106e+000 2.696020e+000 3.199302e+000 3.080545e+000 3.922156e+000 3.000159e+000 3.626559e+000 3.188411e+000 2.953534e+000 3.515165e+000 2.470468e+000 3.030481e+000
<GCONST> 1.100558e+002
<STATE> 4
<MEAN> 25
 2.883497e+000 -2.573208e+000 -4.007924e+000 -2.843234e+000 -2.413035e+000 -1.862819e-001 1.084682e+000 -3.822528e-001 5.847299e-001 9.599373e-001 -7.475566e-001 2.238750e+000 -3.950318e-001 3.424304e-001 2.340684e-001 4.314669e-001 1.743358e-001 4.074505e-001 -6.660987e-002 5.449322e-002 -1.238762e-001 1.418978e-002 1.912051e-001 -1.450937e-001 -6.209789e-001
<VARIANCE> 25
 1.203353e+002 3.258554e+001 2.491342e+001 4.707330e+001 4.486763e+001 7.924019e+001 5.369894e+001 3.755407e+001 3.720091e+001 2.994429e+001 4.533200e+001 2.793156e+001 1.380739e+000 1.603214e+000 1.263661e+000 1.697809e+000 1.692316e+000 2.280103e+000 1.945943e+000 1.909035e+000 1.938977e+000 1.677137e+000 2.246650e+000 1.531258e+000 1.365678e+000
<GCONST> 9.818008e+001
<TRANSP> 5
 0.000000e+000 1.000000e+000 0.000000e+000 0.000000e+000 0.000000e+000
 0.000000e+000 6.166090e-001 3.833910e-001 0.000000e+000 0.000000e+000
 0.000000e+000 0.000000e+000 5.555592e-001 4.444408e-001 0.000000e+000
 0.000000e+000 0.000000e+000 0.000000e+000 7.942928e-001 2.057072e-001
 0.000000e+000 0.000000e+000 0.000000e+000 0.000000e+000 0.000000e+000
<ENDHMM>
~h "ah"
<BEGINHMM>
<NUMSTATES> 5
<STATE> 2
<MEAN> 25
 -2.785214e+000 -1.840048e+000 4.135045e+000 -1.074332e+000 -9.298410e-001 3.244112e+000 1.284008e+000 -2.350477e+000 1.431125e+000 9.330576e-001 2.223441e+000 1.155529e+000 1.211484e+000 -5.740508e-001 6.572251e-001 -3.860468e-001 1.724593e-002 -3.566692e-001 3.774475e-001 -7.440113e-001 -3.092607e-001 -3.994286e-001 -6.615868e-002 4.284627e-002 1.754603e+000
<VARIANCE> 25
 1.444133e+002 1.373159e+002 1.274880e+002 8.790749e+001 9.372368e+001 7.788168e+001 6.267417e+001 7.140459e+001 5.405181e+001 3.172820e+001 4.595256e+001 2.315758e+001 1.151984e+001 1.303214e+001 1.606792e+001 9.046325e+000 9.739458e+000 1.175013e+001 7.127811e+000 6.348993e+000 9.614217e+000 5.535306e+000 5.204090e+000 2.605190e+000 1.121735e+001
<GCONST> 1.244270e+002
<STATE> 3
<MEAN> 25
 -3.102128e+000 -5.693210e+000 9.580438e+000 -6.107812e+000 2.304116e+000 1.639094e+000 2.985195e+000 -6.051414e+000 4.400335e+000 -2.339935e+000 3.482253e+000 7.921957e-001 1.154602e+000 -2.754519e-002 -1.279740e-001 -5.155286e-001 8.827426e-001 -1.209868e+000 9.637690e-002 -4.934754e-001 -7.741195e-001 -6.745484e-001 -5.547265e-002 -4.595572e-001 1.783032e+000
<VARIANCE> 25
 2.214470e+002 1.120769e+002 2.272755e+002 1.613007e+002 1.090897e+002 9.070631e+001 7.046133e+001 1.075304e+002 1.292967e+002 5.313827e+001 5.267944e+001 3.223635e+001 1.231971e+001 1.167848e+001 1.027294e+001 7.001280e+000 7.928583e+000 1.077850e+001 7.966668e+000 7.522020e+000 1.055478e+001 6.372767e+000 7.934679e+000 3.702847e+000 8.870060e+000
<GCONST> 1.285380e+002
<STATE> 4
<MEAN> 25
 3.206981e+000 8.954051e-001 5.525838e+000 -5.662620e+000 4.535122e+000 -2.133882e+000 1.934738e+000 -4.154898e+000 -2.310218e+000 -1.021072e+000 2.761190e-001 1.021396e-001 1.446027e+000 1.068776e+000 -1.240419e+000 9.802252e-001 3.450251e-002 -7.696341e-002 -6.344122e-001 7.959870e-001 -7.689208e-001 -4.324070e-002 -6.931093e-001 8.441058e-002 -7.037908e-001
<VARIANCE> 25
 1.918720e+002 1.037457e+002 1.227539e+002 1.143916e+002 8.588771e+001 1.185372e+002 8.797575e+001 1.196398e+002 1.278836e+002 5.568511e+001 8.014640e+001 3.925223e+001 9.220363e+000 9.695008e+000 5.711406e+000 5.142617e+000 5.484138e+000 1.244978e+001 6.415278e+000 6.509192e+000 1.130320e+001 4.873323e+000 6.147957e+000 3.790352e+000 5.961082e+000
<GCONST> 1.255812e+002
<TRANSP> 5
 0.000000e+000 1.000000e+000 0.000000e+000 0.000000e+000 0.000000e+000
 0.000000e+000 3.314967e-001 6.685033e-001 0.000000e+000 0.000000e+000
 0.000000e+000 0.000000e+000 4.418921e-001 5.581079e-001 0.000000e+000
 0.000000e+000 0.000000e+000 0.000000e+000 7.697882e-001 2.302118e-001
 0.000000e+000 0.000000e+000 0.000000e+000 0.000000e+000 0.000000e+000
<ENDHMM>
~h "ao"
<BEGINHMM>
<NUMSTATES> 5
<STATE> 2
<MEAN> 25
 4.201684e+000 -4.850640e+000 6.124063e+000 -6.389133e+000 -3.976734e+000 -6.828498e+000 2.347643e+000 -1.370618e+000 -2.575879e+000 -8.609647e+000 -6.231815e-001 2.110901e+000 3.871867e+000 2.475394e+000 -1.763232e+000 4.723573e-001 -1.571830e+000 -1.556303e+000 -1.858391e-001 1.325312e+000 1.338486e-001 -7.117625e-001 -2.336378e+000 -5.770245e-001 5.134493e-001
<VARIANCE> 25
 9.965953e+001 6.348363e+001 3.210617e+001 3.897353e+001 1.108364e+002 9.213843e+001 5.185068e+001 6.629398e+001 5.413170e+001 4.379625e+001 3.760420e+001 2.949261e+001 5.577541e+000 8.554139e+000 2.683399e+000 1.853355e+000 3.595401e+000 7.599464e+000 9.664563e+000 3.596070e+000 3.276046e+000 8.076984e+000 7.464244e+000 2.637796e+000 1.367581e+000
<GCONST> 1.128815e+002
<STATE> 3
<MEAN> 25
 9.731943e+000 -2.536224e+000 3.045740e+000 -5.493996e+000 -7.631063e+000 -9.016413e+000 1.407829e+000 2.338056e-001 -6.530118e-002 -7.694334e+000 -4.298442e+000 6.378313e-001 1.770738e+000 7.482554e-001 -1.105436e+000 3.045506e-001 -1.755362e+000 -9.802514e-001 -2.782052e-001 7.362189e-001 9.682720e-001 7.014061e-001 -1.493073e+000 -9.191545e-001 1.315802e-001
<VARIANCE> 25
 5.379310e+001 1.540339e+001 2.254523e+001 2.715733e+001 1.224311e+002 5.882331e+001 7.044019e+001 6.296855e+001 6.192818e+001 4.976076e+001 5.364111e+001 3.312856e+001 2.820626e+000 3.102814e+000 1.800249e+000 1.482979e+000 3.179765e+000 3.234571e+000 5.738113e+000 2.577277e+000 2.139136e+000 4.176952e+000 5.028423e+000 1.701782e+000 9.387128e-001
<GCONST> 1.043286e+002
<STATE> 4
<MEAN> 25
 1.304671e+001 -1.297501e+000 3.486238e+000 -4.796668e+000 -1.654737e+001 -1.251903e+001 5.514607e-001 3.015040e+000 1.841914e+000 -3.379636e+000 -6.819902e+000 -3.730141e+000 1.974033e-001 1.981589e-001 -1.394112e-001 6.963635e-002 -2.940846e-001 1.298971e-001 -1.027892e-001 1.701899e-001 -5.484601e-002 2.823516e-001 -1.321142e-001 -1.931173e-001 -1.758011e-001
<VARIANCE> 25
 1.549577e+001 1.872519e+001 1.353373e+001 2.188281e+001 1.235849e+002 4.128962e+001 8.545601e+001 6.742631e+001 7.818105e+001 4.027195e+001 5.794698e+001 4.574493e+001 3.769552e-001 7.404260e-001 8.888448e-001 9.572326e-001 3.088571e+000 1.388186e+000 1.644362e+000 2.002273e+000 1.517947e+000 1.550242e+000 1.445406e+000 1.522057e+000 3.399981e-001
<GCONST> 9.221717e+001
<TRANSP> 5
 0.000000e+000 1.000000e+000 0.000000e+000 0.000000e+000 0.000000e+000
 0.000000e+000 3.702357e-001 6.297643e-001 0.000000e+000 0.000000e+000
 0.000000e+000 0.000000e+000 3.377634e-001 6.622366e-001 0.000000e+000
 0.000000e+000 0.000000e+000 0.000000e+000 8.777855e-001 1.222145e-001
 0.000000e+000 0.000000e+000 0.000000e+000 0.000000e+000 0.000000e+000
<ENDHMM>
~h "aw"
<BEGINHMM>
<NUMSTATES> 5
<STATE> 2
<MEAN> 25
 1.344030e+001 -2.229130e+000 -2.517661e+000 -1.012127e+001 -9.589888e-001 -1.228420e+001 -8.007319e+000 2.164158e+000 1.760772e+000 1.245440e+000 -1.124422e+001 -5.044573e+000 1.017970e-002 2.414126e-001 2.782175e-001 3.590249e-001 -3.735854e-001 -2.573383e-001 -4.987658e-001 -6.725601e-002 2.499970e-001 -3.032935e-002 1.525404e-001 -5.749177e-001 -1.733484e-001
<VARIANCE> 25
 1.652685e+000 3.953473e+001 9.527605e+000 1.657797e+001 1.474550e+001 1.738084e+001 6.877900e+001 4.540003e+000 2.303136e+001 5.839215e+000 1.180118e+001 2.012853e+001 7.465166e-002 2.258633e+000 4.275682e-001 9.934652e-001 4.723550e-001 5.722340e-001 9.684903e-001 7.035705e-001 1.477566e+000 1.055435e+000 1.634045e+000 4.583878e-001 9.739369e-001
<GCONST> 7.265146e+001
<STATE> 3
<MEAN> 25
 8.491887e+000 2.344606e+000 -3.258413e+000 -1.795159e+000 -6.717629e+000 -3.867813e+000 6.037729e+000 1.464477e+000 -3.864069e+000 -5.177347e+000 -6.247393e+000 -3.568179e+000 -7.945893e-001 4.106594e-001 1.468077e-001 9.959600e-002 -3.630190e-001 3.392314e-001 5.187875e-001 6.030917e-002 -1.955647e-001 1.345027e-001 9.846190e-001 4.986722e-001 -8.404113e-001
<VARIANCE> 25
 1.055688e+002 1.225433e+001 7.219326e+000 1.318354e+001 5.857525e+001 3.105141e+001 1.560561e+002 3.175822e+001 3.179373e+001 2.782225e+001 3.904755e+001 1.790532e+001 1.306142e+000 1.243111e+000 1.813322e-001 7.708974e-001 1.378307e+000 2.203120e+000 2.286418e+000 1.805223e+000 3.227237e+000 2.923773e+000 2.190947e+000 1.771776e+000 1.647985e+000
<GCONST> 9.216305e+001
<STATE> 4
<MEAN> 25
 -1.144796e+000 9.990507e+000 8.686402e-001 5.167307e-001 -4.722562e+000 1.434559e+000 4.523454e+000 9.707065e-001 1.622039e+000 2.383150e+000 3.954027e+000 -6.028668e-001 -5.017919e-001 -6.126707e-002 9.469651e-002 2.080884e-001 2.958112e-001 4.646345e-001 1.792365e-001 -1.111424e-001 -2.388202e-003 1.608376e-001 1.416494e-001 2.287262e-001 -3.825851e-001
<VARIANCE> 25
 1.001354e+002 6.647047e+001 1.974038e+001 4.801865e+001 1.514738e+001 1.033377e+002 1.189354e+002 1.432312e+001 1.493898e+001 1.149380e+001 1.782886e+001 3.303125e+001 1.452450e+000 1.717067e+000 1.003266e+000 1.437842e+000 1.425244e+000 1.748655e+000 2.910910e+000 1.416920e+000 9.352778e-001 1.172237e+000 9.343286e-001 9.519085e-001 4.967760e-001
<GCONST> 9.081039e+001
<TRANSP> 5
 0.000000e+000 1.000000e+000 0.000000e+000 0.000000e+000 0.000000e+000
 0.000000e+000 9.394630e-001 6.053698e-002 0.000000e+000 0.000000e+000
 0.000000e+000 0.000000e+000 9.007245e-001 9.927553e-002 0.000000e+000
 0.000000e+000 0.000000e+000 0.000000e+000 9.630088e-001 3.699122e-002
 0.000000e+000 0.000000e+000 0.000000e+000 0.000000e+000 0.000000e+000
<ENDHMM>
~h "ch"
<BEGINHMM>
<NUMSTATES> 5
<STATE> 2
<MEAN> 25
 -5.188173e+000 -2.789049e-001 -2.605649e+000 3.744643e+000 -1.678071e+000 4.776020e+000 4.171278e-001 -2.599261e+000 2.103056e+000 3.422526e+000 8.789168e-001 1.848231e+000 -4.813532e-001 -5.111109e-001 -1.249435e-001 -6.553207e-001 5.571434e-002 2.067839e-001 -5.884838e-001 -1.115144e-001 7.386920e-001 1.518264e-001 -6.426886e-001 2.173753e-001 -6.871819e-002
<VARIANCE> 25
 1.060013e+002 2.420402e+001 3.387559e+001 1.671575e+001 3.312246e+001 2.242170e+001 2.793606e+001 8.699550e+001 2.074025e+001 3.351259e+001 1.473979e+001 6.903558e+000 4.463687e+000 1.879331e+000 4.228603e+000 1.671406e+000 1.573820e+000 1.879636e+000 3.128154e+000 2.224423e+000 2.436728e+000 3.627396e+000 1.753285e+000 6.277413e-001 9.751009e+000
<GCONST> 9.736790e+001
<STATE> 3
<MEAN> 25
 2.384341e-002 -1.502323e+000 -1.834852e+000 3.060715e+000 1.356071e+000 5.478900e+000 -4.528095e-001 -5.575562e+000 3.239187e+000 7.176470e+000 5.788397e-001 -5.877620e-001 -5.264901e-001 -8.190875e-001 5.802032e-001 -3.762461e-001 6.217078e-001 -6.832961e-002 -5.318546e-001 9.706742e-001 -2.606275e-002 -6.443155e-001 1.227823e-002 -1.261583e-001 3.017294e-001
<VARIANCE> 25
 1.458204e+002 7.054297e+001 5.168407e+001 1.836425e+001 4.617984e+001 4.873063e+001 1.710647e+001 1.121594e+002 1.800824e+001 3.455445e+001 1.100406e+001 1.196338e+001 1.409330e+001 1.553458e+001 5.116382e+000 3.159915e+000 8.059176e+000 9.701836e+000 3.711890e+000 1.199041e+001 2.700329e+000 2.602775e+000 1.386581e+000 1.196156e+000 1.948782e+001
<GCONST> 1.103850e+002
<STATE> 4
<MEAN> 25
 -5.072384e-001 -1.801165e+001 7.242474e+000 -7.898710e-001 -1.011060e+000 2.085593e+000 -8.631646e+000 -3.594702e+000 5.671044e+000 4.710481e-001 2.371724e+000 9.157592e-001 1.885747e+000 -4.561864e-001 6.260544e-001 6.294200e-001 -3.610724e-002 -6.962944e-001 -1.603762e-001 -4.568712e-001 -6.407549e-001 8.492574e-002 2.933231e-001 -3.613021e-001 1.838495e+000
<VARIANCE> 25
 9.077088e+001 1.379060e+002 8.587143e+001 6.085390e+001 1.291208e+002 1.136152e+002 5.452491e+001 4.653593e+001 4.915638e+001 5.330547e+001 1.475274e+001 1.726370e+001 7.889915e+000 3.375113e+001 1.155816e+001 1.147875e+001 1.084382e+001 1.874405e+001 7.487659e+000 6.802200e+000 1.155734e+001 6.183076e+000 2.516278e+000 1.948970e+000 1.574443e+001
<GCONST> 1.231199e+002
<TRANSP> 5
 0.000000e+000 1.000000e+000 0.000000e+000 0.000000e+000 0.000000e+000
 0.000000e+000 6.800727e-001 3.199273e-001 0.000000e+000 0.000000e+000
 0.000000e+000 0.000000e+000 7.152413e-001 2.847587e-001 0.000000e+000
 0.000000e+000 0.000000e+000 0.000000e+000 8.235791e-001 1.764209e-001
 0.000000e+000 0.000000e+000 0.000000e+000 0.000000e+000 0.000000e+000
<ENDHMM>
~h "eh"
<BEGINHMM>
<NUMSTATES> 5
<STATE> 2
<MEAN> 25
 1.285476e+001 -6.249643e+000 -6.914198e+000 -3.179184e-001 1.002544e+001 -1.019911e+001 -1.217158e+001 -9.964060e+000 -8.051133e+000 2.583172e+000 2.156472e+000 2.411918e+000 -1.899020e-001 -6.774920e-001 4.219871e-001 9.131054e-001 9.672485e-002 -1.023631e+000 -4.203353e-001 -8.323539e-001 7.650470e-003 1.005769e+000 9.375114e-002 -3.830331e-001 2.356845e-001
<VARIANCE> 25
 7.818739e+000 2.545856e+001 2.509036e+001 3.232296e+001 6.401434e+001 1.024362e+002 4.354872e+001 3.166261e+001 5.244791e+001 3.880003e+001 6.976350e+001 5.014038e+001 2.812372e-001 1.139378e+000 1.368146e+000 8.731570e-001 2.951219e+000 3.086939e+000 2.715735e+000 1.513807e+000 1.809179e+000 2.076154e+000 1.782077e+000 1.983125e+000 4.623503e-001
<GCONST> 9.421155e+001
<STATE> 3
<MEAN> 25
 8.195869e+000 -3.407938e+000 -6.284103e-001 7.041582e+000 6.467254e+000 -1.614003e+001 -1.284548e+001 -1.032274e+001 -4.506850e+000 9.562364e+000 9.336519e-001 -5.196969e+000 -1.004562e+000 1.006283e+000 3.155896e-001 -1.259174e-001 -2.627546e-001 1.212948e+000 -5.698442e-002 5.965204e-001 6.729069e-001 -1.899488e-001 -5.019632e-001 4.655042e-002 -1.482925e+000
<VARIANCE> 25
 2.460044e+001 3.610318e+001 4.339342e+001 6.729497e+001 3.480153e+001 1.904399e+002 6.416913e+001 2.983139e+001 4.406318e+001 5.296523e+001 5.279709e+001 7.204739e+001 2.522294e+000 2.671099e+000 2.030655e+000 3.210661e+000 2.173246e+000 3.587728e+000 3.844413e+000 1.926241e+000 1.999628e+000 3.194032e+000 2.464037e+000 3.083477e+000 1.798490e+000
<GCONST> 1.053781e+002
<STATE> 4
<MEAN> 25
 -5.411004e+000 1.520613e+000 -2.148700e+000 3.342680e+000 2.153973e+000 6.579094e+000 -2.758888e+000 -6.494641e-002 2.872925e+000 3.221686e+000 1.922903e-001 1.986934e+000 -3.359241e-001 2.856849e-002 -3.097035e-002 1.571308e-002 -7.305464e-002 4.462426e-001 5.602860e-001 3.555966e-001 6.637880e-002 -8.756556e-002 1.029357e-001 1.448818e-001 -3.424181e-001
<VARIANCE> 25
 2.397150e+001 6.044853e+000 7.361397e+000 1.427423e+001 2.739281e+001 3.667172e+001 5.107212e+001 3.342452e+001 1.434390e+001 1.977124e+001 1.936540e+001 1.538191e+001 4.130232e-001 3.729270e-001 3.577094e-001 5.556458e-001 6.658407e-001 1.259223e+000 1.742833e+000 1.102035e+000 9.236247e-001 9.852759e-001 1.002224e+000 1.069087e+000 3.093569e-001
<GCONST> 7.706841e+001
<TRANSP> 5
 0.000000e+000 1.000000e+000 0.000000e+000 0.000000e+000 0.000000e+000
 0.000000e+000 8.875593e-001 1.124407e-001 0.000000e+000 0.000000e+000
 0.000000e+000 0.000000e+000 8.870278e-001 1.129722e-001 0.000000e+000
 0.000000e+000 0.000000e+000 0.000000e+000 9.517174e-001 4.828258e-002
 0.000000e+000 0.000000e+000 0.000000e+000 0.000000e+000 0.000000e+000
<ENDHMM>
~h "hh"
<BEGINHMM>
<NUMSTATES> 5
<STATE> 2
<MEAN> 25
 4.205300e+000 2.744700e+000 -7.740454e+000 -7.068947e+000 -3.777932e+000 5.561728e+000 2.418953e+000 2.209070e+000 9.207104e-001 -1.265728e+000 -3.817387e+000 -8.032994e-001 -1.531938e+000 -5.402055e-001 -4.447488e-001 -2.611586e-001 2.605911e-001 3.825347e-001 -7.182331e-002 4.820473e-002 3.287409e-001 4.581787e-001 3.311263e-001 8.241588e-001 -1.082889e+000
<VARIANCE> 25
 3.376870e+001 3.283709e+001 5.831838e+001 5.612598e+001 8.586200e+001 4.853399e+001 4.852729e+001 3.872797e+001 4.039721e+001 3.342023e+001 2.250388e+001 3.412757e+001 1.938827e+000 3.151548e+000 3.555838e+000 2.571338e+000 2.991239e+000 3.803781e+000 5.085704e+000 3.639990e+000 2.406533e+000 2.328808e+000 2.285811e+000 2.134052e+000 1.304085e+000
<GCONST> 1.037238e+002
<STATE> 3
<MEAN> 25
 -2.327904e+000 3.023872e+000 -4.548005e+000 -5.632019e+000 -3.724013e+000 3.421353e+000 1.754137e+000 3.402523e+000 1.101262e+000 4.442299e-001 -2.016570e+000 4.624176e-001 -1.730209e+000 -5.709105e-001 5.332921e-001 1.179173e+000 9.536040e-001 1.347271e-001 -2.186352e-001 -2.228245e-001 1.224583e-001 7.211898e-001 5.491465e-001 3.367136e-001 -1.056604e+000
<VARIANCE> 25
 4.168047e+001 1.265391e+001 3.035545e+001 6.506262e+001 4.229391e+001 1.936955e+001 4.193842e+001 2.459417e+001 2.459595e+001 2.409953e+001 1.529532e+001 2.580510e+001 1.380104e+000 6.746151e-001 1.769733e+000 2.822608e+000 2.563702e+000 2.546297e+000 2.685927e+000 2.183180e+000 1.707711e+000 1.224879e+000 2.237817e+000 1.767312e+000 7.515266e-001
<GCONST> 9.282245e+001
<STATE> 4
<MEAN> 25
 -9.040258e+000 4.287622e-001 -3.374413e+000 2.401623e+000 8.687417e-001 7.190925e+000 -1.074122e+000 1.331546e+000 2.813956e+000 2.282459e+000 3.286121e-001 2.180823e+000 -1.051302e-001 -7.213491e-002 -3.654024e-002 5.315790e-002 6.773479e-002 7.865623e-002 -3.137015e-002 -6.030000e-002 -8.654185e-004 8.312650e-002 9.247892e-002 1.196362e-001 -7.904537e-002
<VARIANCE> 25
 1.746560e+001 5.477594e+000 7.673876e+000 1.416045e+001 2.920729e+001 2.380456e+001 1.407463e+001 1.211662e+001 1.150985e+001 1.498914e+001 1.260851e+001 8.575109e+000 2.375266e-001 3.107402e-001 3.779992e-001 5.146261e-001 6.660226e-001 6.823187e-001 7.609363e-001 8.663133e-001 9.218324e-001 9.276881e-001 9.506908e-001 7.879155e-001 9.501828e-002
<GCONST> 6.846519e+001
<TRANSP> 5
 0.000000e+000 1.000000e+000 0.000000e+000 0.000000e+000 0.000000e+000
 0.000000e+000 6.339442e-001 3.660558e-001 0.000000e+000 0.000000e+000
 0.000000e+000 0.000000e+000 6.344219e-001 3.655781e-001 0.000000e+000
 0.000000e+000 0.000000e+000 0.000000e+000 9.460733e-001 5.392673e-002
 0.000000e+000 0.000000e+000 0.000000e+000 0.000000e+000 0.000000e+000
<ENDHMM>
~h "ih"
<BEGINHMM>
<NUMSTATES> 5
<STATE> 2
<MEAN> 25
 4.021028e+000 -3.103302e+000 1.512593e+001 1.588619e+001 7.314888e+000 -1.141866e+001 -1.158450e+001 -8.534640e-001 1.252133e+000 -3.808368e+000 -3.571419e+000 -5.496922e+000 2.356768e-001 1.881736e-001 6.271998e-001 8.573382e-001 7.934266e-001 -1.212941e+000 -8.016251e-001 9.562165e-001 -3.459503e-001 -2.189960e-001 -4.541383e-001 -4.416929e-001 1.488282e-001
<VARIANCE> 25
 3.722725e+001 7.085614e+001 1.057740e+002 9.098253e+001 1.092861e+002 1.657268e+002 6.824290e+001 1.059630e+002 7.351231e+001 6.574822e+001 4.678819e+001 4.662926e+001 4.061485e+000 8.300316e+000 8.118349e+000 8.612676e+000 7.127782e+000 1.449012e+001 7.522429e+000 7.765405e+000 5.572508e+000 5.546316e+000 4.723139e+000 4.405467e+000 4.140195e+000
<GCONST> 1.222155e+002
<STATE> 3
<MEAN> 25
 3.195210e+000 -2.732608e+000 1.116455e+001 1.196827e+001 1.453615e+001 -1.079305e+001 -1.717601e+001 1.819201e+000 -4.597334e+000 -2.907682e+000 -1.699890e+000 -7.351830e+000 -5.777782e-002 5.404198e-001 -1.049289e+000 -9.336007e-001 -5.857373e-001 8.555034e-001 7.180630e-001 -6.476260e-001 -3.167460e-001 2.976649e-001 3.901179e-001 4.815463e-001 -5.803013e-001
<VARIANCE> 25
 2.186831e+001 4.243406e+001 6.333389e+001 5.412478e+001 1.349541e+002 1.106599e+002 7.671140e+001 6.141228e+001 5.833619e+001 4.260300e+001 3.810676e+001 4.155441e+001 1.367604e+000 2.460626e+000 3.626839e+000 3.605319e+000 3.686061e+000 4.444315e+000 5.578097e+000 4.429310e+000 2.929929e+000 2.685027e+000 2.482761e+000 2.668829e+000 2.104072e+000
<GCONST> 1.086593e+002
<STATE> 4
<MEAN> 25
 1.352242e+000 -8.579079e-001 1.174424e+000 2.756743e+000 5.408861e+000 -4.682583e+000 -4.059254e+000 -2.916325e+000 -3.517063e+000 1.514363e+000 8.444210e-001 -1.407058e+000 -3.885549e-001 -1.611286e-001 -1.082397e+000 -1.096496e+000 -9.414476e-001 9.059470e-001 1.468498e+000 6.771876e-002 2.491310e-001 2.990380e-001 1.955677e-001 7.336740e-001 -5.283067e-001
<VARIANCE> 25
 9.129958e+001 5.909308e+001 4.183813e+001 5.757506e+001 5.739447e+001 1.348210e+002 6.816511e+001 4.742613e+001 4.761065e+001 4.772383e+001 4.545252e+001 3.732021e+001 1.791535e+000 2.179578e+000 2.400496e+000 2.652539e+000 2.943498e+000 3.478433e+000 4.065475e+000 3.072339e+000 3.013570e+000 2.731055e+000 2.826515e+000 2.703615e+000 1.433530e+000
<GCONST> 1.070929e+002
<TRANSP> 5
 0.000000e+000 1.000000e+000 0.000000e+000 0.000000e+000 0.000000e+000
 0.000000e+000 8.450825e-001 1.549175e-001 0.000000e+000 0.000000e+000
 0.000000e+000 0.000000e+000 8.170921e-001 1.829079e-001 0.000000e+000
 0.000000e+000 0.000000e+000 0.000000e+000 7.717813e-001 2.282187e-001
 0.000000e+000 0.000000e+000 0.000000e+000 0.000000e+000 0.000000e+000
<ENDHMM>
~h "jh"
<BEGINHMM>
<NUMSTATES> 5
<STATE> 2
<MEAN> 25
 -5.973858e-001 -4.535068e-001 3.383986e+000 5.395450e+000 4.664333e+000 -3.000789e-001 -5.073131e+000 1.343935e+000 -4.687814e-001 -1.449632e+000 1.678240e+000 -4.905342e-001 -7.062072e-001 -1.733091e+000 8.069196e-001 -5.914732e-001 -5.975755e-001 1.385912e-001 -2.302818e-001 -6.151266e-001 1.032355e+000 3.110095e-001 1.983547e-001 5.127314e-001 7.672875e-001
<VARIANCE> 25
 6.515862e+001 1.675049e+002 4.959376e+001 5.203432e+001 4.750348e+001 5.198565e+001 7.674952e+001 2.776491e+001 4.004188e+001 4.665060e+001 3.510642e+001 1.738630e+001 3.769135e+000 1.926775e+001 4.207875e+000 3.919578e+000 6.621679e+000 5.345993e+000 8.092678e+000 2.284139e+000 3.241848e+000 6.004603e+000 3.531490e+000 1.421790e+000 9.705209e+000
<GCONST> 1.129501e+002
<STATE> 3
<MEAN> 25
 6.479403e-001 -1.077903e+001 1.012982e+001 2.131634e+000 5.778934e+000 -1.753166e+000 -7.210054e+000 -1.006075e+001 1.040305e+000 -3.878756e+000 9.283710e-001 4.030988e-001 1.672325e+000 1.979560e+000 -8.835340e-001 8.108726e-001 8.518459e-001 -4.574253e-001 4.095380e-001 -8.029287e-001 -1.677198e+000 -2.660920e-001 -3.418425e-001 -8.215727e-001 9.863400e-002
<VARIANCE> 25
 7.339666e+001 1.167674e+002 4.517990e+001 6.310516e+001 9.246436e+001 1.060543e+002 5.381064e+001 6.813821e+001 5.084930e+001 2.913466e+001 3.510324e+001 6.718743e+001 4.994534e+000 8.621288e+000 7.298976e+000 4.334350e+000 6.094558e+000 1.167458e+001 8.249624e+000 8.692806e+000 4.222617e+000 2.967249e+000 3.925874e+000 5.175772e+000 2.308187e+000
<GCONST> 1.175533e+002
<STATE> 4
<MEAN> 25
 6.494144e+000 4.213820e+000 3.315007e+000 1.639149e+000 1.470920e+000 -3.197896e+000 -3.833015e+000 1.355214e+000 -3.546876e+000 -4.810508e+000 -4.234217e+000 -7.914120e+000 -1.167141e-001 7.203029e-001 -3.733678e-001 -2.545102e-001 -8.972933e-001 -2.229316e-001 6.704612e-001 7.023578e-001 2.931693e-001 2.048131e-001 -1.993189e-001 -5.369077e-001 -6.066163e-001
<VARIANCE> 25
 3.769393e+001 5.008867e+001 1.673452e+001 1.982620e+001 3.828244e+001 2.853944e+001 3.911917e+001 9.169209e+001 5.489419e+001 3.682083e+001 2.322915e+001 2.709124e+001 6.646608e-001 1.568094e+000 1.029345e+000 1.632996e+000 1.563753e+000 2.383950e+000 2.614180e+000 2.676152e+000 2.334390e+000 1.345257e+000 1.894765e+000 2.571430e+000 3.748729e-001
<GCONST> 9.410074e+001
<TRANSP> 5
 0.000000e+000 1.000000e+000 0.000000e+000 0.000000e+000 0.000000e+000
 0.000000e+000 8.821963e-001 1.178037e-001 0.000000e+000 0.000000e+000
 0.000000e+000 0.000000e+000 8.085857e-001 1.914143e-001 0.000000e+000
 0.000000e+000 0.000000e+000 0.000000e+000 8.359449e-001 1.640551e-001
 0.000000e+000 0.000000e+000 0.000000e+000 0.000000e+000 0.000000e+000
<ENDHMM>
~h "ng"
<BEGINHMM>
<NUMSTATES> 5
<STATE> 2
<MEAN> 25
 1.306557e+001 -9.168363e-002 -5.902012e+000 -4.995977e+000 -2.940888e+000 -5.146796e+000 7.986935e+000 7.659168e+000 -2.672668e+000 -6.411970e+000 -9.383951e-001 3.250676e+000 -3.639318e-001 1.659337e+000 1.142315e+000 5.111536e-001 -5.318944e-001 8.853353e-001 2.335283e-001 2.899031e-001 -2.819581e-001 -1.794683e-001 -2.311246e-001 -5.052634e-001 -1.202492e+000
<VARIANCE> 25
 1.804965e+001 8.820524e+001 5.613084e+001 3.703739e+001 4.806523e+001 6.048324e+001 6.856990e+001 6.665395e+001 7.828100e+001 4.815889e+001 4.819500e+001 4.207241e+001 4.562195e-001 2.232521e+000 2.474075e+000 2.310506e+000 2.043757e+000 3.449235e+000 4.029935e+000 4.203869e+000 3.592557e+000 3.755704e+000 2.554195e+000 2.963753e+000 5.432229e-001
<GCONST> 1.037716e+002
<STATE> 3
<MEAN> 25
 8.341716e+000 1.018632e+001 3.927544e+000 -1.674218e-001 -2.840266e+000 1.133358e-001 2.786331e+000 3.987503e+000 -1.868521e+000 -3.199224e+000 -3.931294e+000 -2.947219e+000 -9.295098e-001 5.466889e-001 5.802699e-001 1.212164e+000 7.833022e-001 -2.446154e-002 -1.076587e+000 -3.831731e-001 5.204436e-001 4.494078e-001 -4.207056e-001 -7.046335e-001 -1.079754e+000
<VARIANCE> 25
 2.111092e+001 7.204401e+001 4.201187e+001 4.580763e+001 4.460247e+001 4.398801e+001 5.053308e+001 3.581280e+001 6.379757e+001 2.742844e+001 4.675174e+001 3.104535e+001 1.026062e+000 1.792858e+000 1.849269e+000 3.154806e+000 1.910615e+000 2.266866e+000 3.033607e+000 2.148864e+000 2.293771e+000 2.281941e+000 2.220981e+000 2.166836e+000 4.722068e-001
<GCONST> 9.885651e+001
<STATE> 4
<MEAN> 25
 -1.724511e+000 4.530455e+000 -1.142634e-001 2.871708e+000 2.199433e-001 3.951777e+000 -4.736226e-001 2.878094e+000 2.999110e+000 1.763867e+000 -2.217020e+000 -3.896102e-001 -5.167194e-001 -1.331953e-001 -1.176647e-001 6.585812e-002 9.572420e-002 2.518443e-001 1.047747e-001 4.207194e-004 8.432719e-002 1.961283e-001 2.249373e-001 7.852275e-002 -4.051619e-001
<VARIANCE> 25
 6.029869e+001 2.640418e+001 2.229418e+001 2.542699e+001 3.489559e+001 5.324873e+001 3.539363e+001 3.206817e+001 3.360281e+001 2.044570e+001 2.561337e+001 2.580824e+001 6.279521e-001 9.193321e-001 9.036804e-001 9.059660e-001 1.021574e+000 1.136110e+000 1.355818e+000 1.150453e+000 1.168733e+000 1.081561e+000 1.281211e+000 9.833146e-001 3.178813e-001
<GCONST> 8.641113e+001
<TRANSP> 5
 0.000000e+000 1.000000e+000 0.000000e+000 0.000000e+000 0.000000e+000
 0.000000e+000 8.339716e-001 1.660284e-001 0.000000e+000 0.000000e+000
 0.000000e+000 0.000000e+000 7.434844e-001 2.565156e-001 0.000000e+000
 0.000000e+000 0.000000e+000 0.000000e+000 9.296003e-001 7.039963e-002
 0.000000e+000 0.000000e+000 0.000000e+000 0.000000e+000 0.000000e+000
<ENDHMM>
~h "ny"
<BEGINHMM>
<NUMSTATES> 5
<STATE> 2
<MEAN> 25
 5.868196e+000 -1.405154e+000 -3.169037e-001 -9.774765e-001 2.690665e+000 -9.546664e+000 -1.182836e+001 4.891718e+000 -1.828442e+000 -9.834469e+000 -2.003565e+000 -2.696951e+000 2.810897e-001 -4.729426e-001 -8.074164e-001 -3.302957e-001 1.386313e+000 3.040634e-001 -7.076065e-001 9.755561e-001 -6.769852e-001 -5.053058e-001 2.732700e-001 -2.680380e-001 2.406757e-001
<VARIANCE> 25
 6.452660e+001 6.039239e+001 7.264878e+000 2.630124e+001 5.075443e+001 9.693387e+001 2.663959e+001 5.046703e+001 5.882540e+001 3.528201e+001 1.426873e+001 9.403703e+001 1.128834e+000 8.829324e-001 1.028571e+000 1.875064e+000 1.819463e+000 1.624102e+000 2.421228e+000 8.690284e-001 1.378420e+000 5.578601e-001 7.581338e-001 1.198779e+000 6.261147e-001
<GCONST> 9.166635e+001
<STATE> 3
<MEAN> 25
 7.674885e+000 -1.822915e+000 -1.212136e+000 4.043258e+000 1.132301e+001 -4.849908e+000 -1.367177e+001 2.399553e+000 -1.126447e+000 -4.224133e+000 -4.157074e+000 -6.355688e+000 -3.296113e-002 -4.691609e-001 -1.265921e-001 -4.366928e-002 1.215996e-001 6.614032e-001 1.958024e-001 -7.313812e-001 8.608678e-002 4.674518e-001 -8.917890e-002 6.571171e-001 1.514577e-001
<VARIANCE> 25
 2.655284e+001 7.671587e+001 1.991670e+001 2.787010e+001 6.823861e+001 3.275562e+001 8.601846e+001 4.781380e+001 1.542395e+001 3.106760e+001 1.567674e+001 8.726398e+001 4.580585e-001 4.835615e+000 2.935238e+000 3.245697e+000 5.672047e+000 4.263762e+000 1.048387e+001 7.396594e+000 1.820436e+000 2.825536e+000 2.173131e+000 4.256501e+000 2.395897e+000
<GCONST> 1.046345e+002
<STATE> 4
<MEAN> 25
 8.761288e+000 2.079916e-002 -1.889450e+000 1.200500e+000 9.604707e+000 -6.246853e+000 -1.312582e+001 4.247356e+000 -3.279399e+000 -5.131658e+000 -2.790346e+000 -4.618805e+000 6.311271e-002 1.598127e-001 3.445022e-003 -2.617746e-001 -5.633841e-001 -3.880602e-001 -2.876103e-002 2.914554e-001 1.772832e-001 4.346207e-002 5.495489e-003 -1.534359e-001 -7.368937e-003
<VARIANCE> 25
 2.929444e+001 5.392575e+001 5.729936e+000 2.631887e+001 1.610085e+002 6.628580e+001 1.024677e+002 5.564868e+001 1.778401e+001 2.303587e+001 1.256788e+001 3.870921e+001 3.041421e-001 2.800743e+000 7.395636e-001 1.227529e+000 1.170322e+001 4.265082e+000 1.097367e+001 5.076518e+000 2.234973e+000 2.639356e+000 2.701908e+000 1.639671e+000 9.367203e-001
<GCONST> 9.932577e+001
<TRANSP> 5
 0.000000e+000 1.000000e+000 0.000000e+000 0.000000e+000 0.000000e+000
 0.000000e+000 6.377922e-001 3.622078e-001 0.000000e+000 0.000000e+000
 0.000000e+000 0.000000e+000 8.512473e-001 1.487527e-001 0.000000e+000
 0.000000e+000 0.000000e+000 0.000000e+000 8.618034e-001 1.381966e-001
 0.000000e+000 0.000000e+000 0.000000e+000 0.000000e+000 0.000000e+000
<ENDHMM>
~h "sp"
<BEGINHMM>
<NUMSTATES> 3
<STATE> 2
~s "silst"
<TRANSP> 3
 0.000000e+000 7.000000e-001 3.000000e-001
 0.000000e+000 9.000000e-001 9.999999e-002
 0.000000e+000 0.000000e+000 0.000000e+000
<ENDHMM>
~h "uw"
<BEGINHMM>
<NUMSTATES> 5
<STATE> 2
<MEAN> 25
 1.073756e+001 6.303445e+000 4.124424e+000 -2.549269e+000 -5.243342e+000 -1.065285e+001 -9.756120e-001 2.734434e-001 -5.061274e+000 -4.547609e+000 -1.850663e-001 -6.522787e+000 1.142305e+000 1.179059e+000 9.330859e-001 -1.840561e-002 -7.836359e-001 -1.907898e+000 1.210448e-001 1.396155e+000 -1.079348e+000 -2.968292e-001 -1.188643e-001 -1.287156e+000 5.532176e-001
<VARIANCE> 25
 3.944427e+001 8.166245e+001 6.435725e+001 5.120276e+001 1.827641e+002 1.348517e+002 1.061051e+002 8.373179e+001 9.981976e+001 5.806990e+001 7.571416e+001 6.646026e+001 4.538700e+000 9.691493e+000 6.530733e+000 6.668630e+000 1.065838e+001 1.301366e+001 9.923743e+000 9.075498e+000 1.008937e+001 5.391506e+000 6.895109e+000 6.473392e+000 4.844867e+000
<GCONST> 1.248811e+002
<STATE> 3
<MEAN> 25
 1.102689e+001 9.813312e+000 7.347228e+000 -2.479770e+000 -9.923862e+000 -1.357189e+001 -6.745934e-002 3.563875e+000 -6.135701e+000 -3.295573e+000 3.592483e-001 -8.644655e+000 -3.857128e-001 3.805337e-002 -1.924190e-001 -8.363020e-002 4.045170e-001 6.532465e-001 -5.118971e-001 4.246126e-001 7.685186e-001 8.162446e-002 -5.329492e-001 4.840719e-001 -5.423936e-001
<VARIANCE> 25
 2.651519e+001 6.410390e+001 4.212212e+001 4.245124e+001 1.474137e+002 1.013681e+002 9.880100e+001 8.145535e+001 9.083109e+001 6.100778e+001 6.507941e+001 8.729827e+001 2.052988e+000 3.028711e+000 3.031930e+000 2.687253e+000 6.080434e+000 5.247463e+000 4.701197e+000 4.099030e+000 4.635633e+000 3.378095e+000 4.324852e+000 3.592934e+000 1.741183e+000
<GCONST> 1.131397e+002
<STATE> 4
<MEAN> 25
 6.552034e+000 6.591483e+000 5.122642e+000 -1.769808e+000 -4.752581e+000 -8.257937e+000 -5.134268e+000 4.232184e+000 -1.926151e+000 -3.484203e+000 -2.472066e+000 -4.571743e+000 -5.201401e-001 -5.500316e-001 -5.848883e-001 1.095424e-001 4.449573e-001 9.371721e-001 2.155423e-001 -2.656390e-001 1.598266e-001 4.330213e-002 -1.074038e-001 3.969225e-001 -3.914720e-001
<VARIANCE> 25
 7.446279e+001 5.588952e+001 4.027902e+001 4.451625e+001 8.868459e+001 9.400589e+001 6.964317e+001 5.808463e+001 6.812923e+001 6.566932e+001 5.393610e+001 4.161208e+001 1.337200e+000 2.050420e+000 1.478967e+000 1.686783e+000 2.269798e+000 2.814887e+000 2.519675e+000 2.310371e+000 2.512961e+000 2.207930e+000 2.480711e+000 1.867192e+000 9.903207e-001
<GCONST> 1.040040e+002
<TRANSP> 5
 0.000000e+000 1.000000e+000 0.000000e+000 0.000000e+000 0.000000e+000
 0.000000e+000 6.382164e-001 3.617836e-001 0.000000e+000 0.000000e+000
 0.000000e+000 0.000000e+000 7.219778e-001 2.780222e-001 0.000000e+000
 0.000000e+000 0.000000e+000 0.000000e+000 8.607361e-001 1.392639e-001
 0.000000e+000 0.000000e+000 0.000000e+000 0.000000e+000 0.000000e+000
<ENDHMM>
~h "sil"
<BEGINHMM>
<NUMSTATES> 5
<STATE> 2
<MEAN> 25
 -1.209160e+001 1.840717e+000 -4.461204e+000 4.097949e+000 -5.866706e-001 8.668097e+000 -3.197964e-001 2.382677e+000 2.482332e+000 1.497597e+000 2.315324e+000 7.896323e-001 6.179997e-002 -3.626803e-002 1.979165e-002 3.701449e-002 -6.460234e-002 -4.263481e-002 -3.582960e-002 -7.313609e-002 1.406102e-002 9.344290e-002 6.005251e-002 6.352513e-002 2.884172e-002
<VARIANCE> 25
 5.074664e+001 1.645474e+001 2.188877e+001 3.316644e+001 3.904060e+001 3.445681e+001 3.438728e+001 1.559140e+001 1.920342e+001 1.577982e+001 1.564155e+001 7.641276e+000 8.892837e-001 5.451782e-001 6.707098e-001 7.975832e-001 8.786214e-001 1.262828e+000 1.475531e+000 1.058868e+000 1.180418e+000 1.064269e+000 7.587502e-001 7.946545e-001 5.575455e-001
<GCONST> 8.158655e+001
<STATE> 3
~s "silst"
<STATE> 4
<MEAN> 25
 1.334937e+000 2.693599e-001 -8.813164e-002 -1.195377e+000 -5.301063e-002 -2.362152e+000 1.367640e+000 -6.419860e-001 -7.961346e-001 -1.926390e-001 -3.163736e-001 -8.844780e-001 4.659412e-002 5.448216e-003 2.868548e-002 -4.284344e-003 9.054611e-003 -1.823890e-002 -1.515681e-002 -2.657183e-002 -1.228950e-002 -1.981888e-002 -2.063400e-002 -4.512134e-003 4.989341e-002
<VARIANCE> 25
 1.218775e+002 6.128721e+001 9.223875e+001 7.244910e+001 7.104997e+001 1.714875e+002 7.927036e+001 5.877459e+001 8.156495e+001 4.666236e+001 5.172006e+001 3.906558e+001 2.869669e+000 2.896867e+000 3.162006e+000 2.959558e+000 2.917227e+000 5.599781e+000 3.850105e+000 3.530571e+000 3.948315e+000 2.823766e+000 2.925941e+000 2.206465e+000 3.229399e+000
<GCONST> 1.125883e+002
<TRANSP> 5
 0.000000e+000 1.000000e+000 0.000000e+000 0.000000e+000 0.000000e+000
 0.000000e+000 6.963726e-001 1.036274e-001 2.000000e-001 0.000000e+000
 0.000000e+000 0.000000e+000 9.749769e-001 2.502305e-002 0.000000e+000
 0.000000e+000 2.000000e-001 0.000000e+000 7.814677e-001 1.853238e-002
 0.000000e+000 0.000000e+000 0.000000e+000 0.000000e+000 0.000000e+000
<ENDHMM>
