~o
<STREAMINFO> 1 25
<VECSIZE> 25<NULLD><MFCC_D_N_Z_0><DIAGC>
~h "b"
<BEGINHMM>
<NUMSTATES> 5
<STATE> 2
<MEAN> 25
 -5.747564e+00 3.501646e+00 -7.258197e-01 1.238261e+00 2.995328e+00 2.476040e+00 -1.615816e-01 6.781126e-01 -7.794001e-01 2.578401e+00 5.829707e-01 2.230949e-01 2.367303e-01 4.253132e-01 4.314335e-01 1.053792e-01 -8.435328e-02 5.471411e-02 4.008411e-02 1.951445e-01 -1.041017e-01 -1.065527e-01 4.396658e-01 7.196324e-02 7.035425e-02
<VARIANCE> 25
 1.333996e+02 4.138209e+01 2.513511e+01 2.841289e+01 3.576732e+01 4.090907e+01 2.714963e+01 1.936063e+01 3.043496e+01 3.039275e+01 3.476466e+01 1.744230e+01 5.215751e+00 3.014430e+00 3.375561e+00 2.384265e+00 2.804263e+00 3.048470e+00 2.417664e+00 1.784111e+00 2.208424e+00 2.689376e+00 2.569146e+00 1.227707e+00 3.705993e+00
<GCONST> 1.006128e+02
<STATE> 3
<MEAN> 25
 4.546359e+00 8.225105e+00 2.663034e+00 2.767932e+00 2.953522e+00 1.440878e+00 -8.524720e-01 1.164147e+00 -1.294754e+00 -1.341915e+00 5.726284e-01 -1.198040e+00 1.815674e+00 4.491637e-01 3.623832e-02 -6.955519e-01 1.243859e-01 -8.892907e-01 -1.130601e-01 -1.186896e-01 -6.567778e-02 -3.958412e-01 -3.054177e-01 -2.854608e-01 1.747967e+00
<VARIANCE> 25
 9.442077e+01 8.775149e+01 4.745214e+01 4.476613e+01 6.777010e+01 5.032336e+01 3.239374e+01 2.861784e+01 4.535013e+01 4.263332e+01 4.392184e+01 2.673941e+01 7.593062e+00 5.871744e+00 4.692938e+00 3.636770e+00 6.016759e+00 6.110890e+00 3.120710e+00 2.600996e+00 4.901931e+00 4.517819e+00 4.620995e+00 1.938265e+00 6.399947e+00
<GCONST> 1.117120e+02
<STATE> 4
<MEAN> 25
 7.151329e+00 1.106322e+00 2.173926e+00 -4.374355e+00 2.266815e+00 -7.207391e+00 2.130618e-01 -9.320470e-01 -5.277692e+00 8.281364e-01 2.547501e+00 -1.519397e+00 2.445826e-01 -2.451546e-01 -1.030727e-01 -2.625436e-03 6.516018e-02 -2.243798e-01 -3.328864e-02 -2.689506e-01 5.398004e-02 1.560041e-01 -2.663693e-02 -1.232201e-01 3.990912e-01
<VARIANCE> 25
 1.287382e+02 1.109400e+02 6.459145e+01 5.961887e+01 6.845315e+01 1.157380e+02 3.493612e+01 6.308963e+01 9.491483e+01 5.988482e+01 5.093290e+01 3.465323e+01 3.721556e+00 5.642852e+00 3.474425e+00 3.906367e+00 6.314581e+00 6.822590e+00 3.850336e+00 4.498781e+00 7.196694e+00 3.717895e+00 4.703467e+00 2.188205e+00 4.289817e+00
<GCONST> 1.159087e+02
<TRANSP> 5
 0.000000e+00 1.000000e+00 0.000000e+00 0.000000e+00 0.000000e+00
 0.000000e+00 6.424471e-01 3.575529e-01 0.000000e+00 0.000000e+00
 0.000000e+00 0.000000e+00 5.325465e-01 4.674535e-01 0.000000e+00
 0.000000e+00 0.000000e+00 0.000000e+00 7.132525e-01 2.867475e-01
 0.000000e+00 0.000000e+00 0.000000e+00 0.000000e+00 0.000000e+00
<ENDHMM>
~h "d"
<BEGINHMM>
<NUMSTATES> 5
<STATE> 2
<MEAN> 25
 -9.113400e+00 1.197574e-01 -3.248936e+00 3.118755e+00 -5.041195e-01 6.626786e+00 -6.324691e-01 7.175851e-01 2.217122e+00 1.605542e+00 -2.415037e-01 1.434669e+00 -1.251469e-01 -6.490494e-02 -3.408277e-02 -2.386970e-02 -3.356528e-02 7.109188e-02 3.483891e-03 -6.605467e-02 -4.189112e-02 7.543893e-02 1.440609e-01 7.137199e-02 -8.510241e-02
<VARIANCE> 25
 2.665544e+01 1.611764e+01 1.343883e+01 1.598835e+01 3.064535e+01 2.109990e+01 2.011479e+01 1.275733e+01 1.371536e+01 1.677322e+01 1.432548e+01 9.160721e+00 6.999125e-01 7.028146e-01 7.202675e-01 9.647653e-01 8.123833e-01 8.610215e-01 1.109896e+00 8.184745e-01 9.952052e-01 9.581083e-01 1.170738e+00 8.026148e-01 3.665732e-01
<GCONST> 7.707409e+01
<STATE> 3
<MEAN> 25
 -2.893084e+00 3.288393e+00 4.799957e-01 2.562671e+00 2.458019e+00 6.051511e+00 -1.927164e+00 -5.374469e-01 2.034588e-01 2.945783e-01 1.297539e+00 6.034906e-01 2.326539e+00 5.633036e-01 1.372313e+00 6.362054e-02 7.365293e-01 6.431594e-02 -1.165514e+00 -4.375439e-01 5.894625e-02 -8.035452e-01 3.574022e-02 2.816223e-02 2.103153e+00
<VARIANCE> 25
 7.978967e+01 7.786214e+01 6.311822e+01 6.003637e+01 4.328944e+01 3.442328e+01 3.340658e+01 2.689383e+01 2.594242e+01 2.499305e+01 3.370882e+01 9.877945e+00 7.326912e+00 1.300899e+01 7.675489e+00 5.372250e+00 7.162147e+00 4.151538e+00 6.029376e+00 3.787335e+00 4.990211e+00 3.979382e+00 4.843616e+00 1.693929e+00 5.426907e+00
<GCONST> 1.108928e+02
<STATE> 4
<MEAN> 25
 8.672255e+00 2.980114e+00 4.193229e+00 4.825761e+00 2.844510e+00 3.150536e+00 -3.765363e+00 -6.219837e+00 6.977482e-01 2.258383e+00 5.628405e+00 2.191331e-01 7.895074e-01 -4.717872e-01 9.263574e-02 2.612383e-02 -1.803124e-02 -5.274426e-01 -1.432931e-01 -2.942479e-01 1.235547e-01 2.190938e-01 2.061599e-01 -1.866737e-01 1.067106e+00
<VARIANCE> 25
 5.107654e+01 2.005000e+02 7.995126e+01 4.480991e+01 8.447562e+01 7.283644e+01 4.418528e+01 7.263421e+01 3.847378e+01 4.927775e+01 4.301247e+01 2.635894e+01 3.361209e+00 1.851452e+01 6.407960e+00 3.229754e+00 1.073783e+01 8.378772e+00 4.447228e+00 6.780789e+00 5.156714e+00 6.199326e+00 4.007893e+00 2.992772e+00 7.169609e+00
<GCONST> 1.177299e+02
<TRANSP> 5
 0.000000e+00 1.000000e+00 0.000000e+00 0.000000e+00 0.000000e+00
 0.000000e+00 9.178826e-01 8.211744e-02 0.000000e+00 0.000000e+00
 0.000000e+00 0.000000e+00 6.124443e-01 3.875557e-01 0.000000e+00
 0.000000e+00 0.000000e+00 0.000000e+00 8.204166e-01 1.795834e-01
 0.000000e+00 0.000000e+00 0.000000e+00 0.000000e+00 0.000000e+00
<ENDHMM>
~h "g"
<BEGINHMM>
<NUMSTATES> 5
<STATE> 2
<MEAN> 25
 5.838316e+00 -1.359452e+00 5.795385e+00 4.536162e+00 3.348433e+00 -6.205760e-01 -3.968780e+00 -8.122580e+00 -2.192300e-01 2.543625e+00 2.414901e+00 -2.040508e+00 -2.126166e-01 -1.484447e-01 7.165248e-01 4.204038e-01 5.187752e-01 -3.191296e-01 -5.959159e-01 1.177195e-01 1.234254e-01 -3.192751e-01 -2.896918e-01 -2.414220e-01 1.700575e-01
<VARIANCE> 25
 6.410479e+01 1.882534e+02 1.111297e+02 9.031504e+01 1.007364e+02 1.150884e+02 5.150328e+01 9.966914e+01 5.262748e+01 6.111225e+01 3.438607e+01 3.485507e+01 2.923269e+00 2.210652e+01 6.415407e+00 7.866642e+00 1.056631e+01 1.162164e+01 5.383912e+00 7.296343e+00 4.541344e+00 4.700809e+00 3.313763e+00 3.702747e+00 8.613394e+00
<GCONST> 1.219184e+02
<STATE> 3
<MEAN> 25
 1.492757e+00 -2.892599e+00 1.016079e+01 1.006911e+01 1.310210e+01 -5.401832e+00 -1.201903e+01 -3.135633e+00 -1.124672e+00 2.413747e-01 -5.251765e-02 -5.584594e+00 1.701207e-01 3.161789e-01 1.398761e-01 6.060948e-01 5.232224e-01 4.310585e-01 -1.097262e+00 6.051666e-01 3.562596e-02 -1.029721e-01 1.946499e-01 -2.073102e-01 -3.710360e-01
<VARIANCE> 25
 4.349355e+01 4.798572e+01 8.173899e+01 7.921300e+01 1.016421e+02 7.608849e+01 8.919004e+01 3.409249e+01 3.431768e+01 4.391241e+01 3.510090e+01 2.349045e+01 2.246609e+00 1.863532e+00 3.012262e+00 4.126964e+00 3.242908e+00 4.419527e+00 5.638480e+00 1.953290e+00 1.888587e+00 1.308559e+00 1.512502e+00 1.409458e+00 1.647388e+00
<GCONST> 1.045467e+02
<STATE> 4
<MEAN> 25
 -4.319769e+00 -1.320378e+00 1.656658e+00 5.610801e+00 9.377046e+00 2.301355e+00 -7.775256e+00 5.194980e-01 3.168284e-01 2.270433e+00 2.151992e+00 -2.446536e+00 -1.904721e-01 9.765759e-02 -2.230992e-01 -1.726345e-01 -3.300886e-01 1.881756e-01 3.643857e-01 5.336487e-02 3.755981e-02 4.477418e-02 6.575465e-02 1.046129e-01 -3.121981e-01
<VARIANCE> 25
 7.420703e+01 2.340022e+01 5.798923e+01 4.751651e+01 1.383273e+02 4.881954e+01 1.452396e+02 2.204508e+01 2.506655e+01 2.758007e+01 2.316926e+01 3.903651e+01 3.979042e-01 4.797307e-01 6.701366e-01 8.191279e-01 1.218374e+00 7.919324e-01 2.061457e+00 9.502161e-01 8.791550e-01 8.261419e-01 7.316206e-01 9.492640e-01 3.699497e-01
<GCONST> 8.826504e+01
<TRANSP> 5
 0.000000e+00 1.000000e+00 0.000000e+00 0.000000e+00 0.000000e+00
 0.000000e+00 8.815422e-01 1.184577e-01 0.000000e+00 0.000000e+00
 0.000000e+00 0.000000e+00 7.270915e-01 2.729085e-01 0.000000e+00
 0.000000e+00 0.000000e+00 0.000000e+00 8.908736e-01 1.091265e-01
 0.000000e+00 0.000000e+00 0.000000e+00 0.000000e+00 0.000000e+00
<ENDHMM>
~h "k"
<BEGINHMM>
<NUMSTATES> 5
<STATE> 2
<MEAN> 25
 -3.343716e+00 -1.862486e+00 -9.784203e-01 -2.301840e+00 -2.044177e+00 2.226212e+00 2.032130e+00 1.474188e+00 1.472654e+00 2.624354e-01 6.592714e-01 1.610351e+00 1.074135e+00 -1.546649e+00 2.559997e-01 -1.554147e+00 -1.740237e+00 -8.462258e-01 4.079408e-01 -7.399800e-01 -4.053488e-03 -3.745903e-01 1.109207e+00 2.531166e-01 2.388950e+00
<VARIANCE> 25
 9.896251e+01 1.233300e+02 6.609464e+01 5.383816e+01 1.237490e+02 9.143108e+01 5.963219e+01 7.161900e+01 3.333197e+01 5.834671e+01 4.307736e+01 3.446936e+01 1.351613e+01 1.525906e+01 9.306470e+00 7.887834e+00 2.235401e+01 1.658350e+01 6.791281e+00 9.282175e+00 4.274668e+00 7.252016e+00 6.451458e+00 5.589868e+00 1.736870e+01
<GCONST> 1.256611e+02
<STATE> 3
<MEAN> 25
 2.271329e+00 -4.654638e+00 1.780367e+00 -9.249891e+00 -1.137879e+01 -6.704266e+00 4.011578e+00 -2.349782e+00 1.738824e-01 -1.468452e+00 6.490405e+00 1.964841e+00 2.117257e+00 1.741097e+00 3.879476e-01 -2.759692e-01 -1.354466e-01 -3.459764e+00 1.916180e-01 -3.469680e-03 -8.580872e-01 -3.399856e-01 -3.700854e-01 -9.825339e-01 1.797861e+00
<VARIANCE> 25
 7.197862e+01 1.286896e+02 1.374301e+02 8.001572e+01 2.329669e+02 1.547322e+02 7.173428e+01 1.305264e+02 5.104947e+01 5.769429e+01 7.501439e+01 6.310363e+01 5.940268e+00 9.842176e+00 8.221498e+00 1.250541e+01 1.414104e+01 1.610341e+01 7.810741e+00 9.170887e+00 5.121593e+00 5.172149e+00 8.009786e+00 5.929098e+00 9.652487e+00
<GCONST> 1.282791e+02
<STATE> 4
<MEAN> 25
 7.964329e+00 3.448675e-01 9.583461e-01 -5.028717e+00 -1.427284e+00 -1.325989e+01 3.493767e+00 3.358290e-01 -3.659944e+00 1.921908e+00 8.103854e-01 -1.604432e+00 8.211910e-01 6.951715e-01 1.659844e-01 8.647902e-01 4.705105e-01 -2.758520e-01 -5.326400e-01 7.151432e-02 -5.606405e-02 1.648424e-01 -7.245847e-01 -4.480768e-01 -3.153688e-02
<VARIANCE> 25
 6.061149e+01 1.027503e+02 9.367872e+01 8.352277e+01 2.464982e+02 1.193829e+02 8.217500e+01 1.270337e+02 7.255688e+01 7.162320e+01 6.627042e+01 5.137680e+01 4.176288e+00 4.291690e+00 4.748684e+00 5.511139e+00 4.171099e+00 1.157293e+01 6.011778e+00 6.808575e+00 4.627635e+00 3.905845e+00 5.281802e+00 4.238332e+00 3.173520e+00
<GCONST> 1.207777e+02
<TRANSP> 5
 0.000000e+00 1.000000e+00 0.000000e+00 0.000000e+00 0.000000e+00
 0.000000e+00 7.698426e-01 2.301574e-01 0.000000e+00 0.000000e+00
 0.000000e+00 0.000000e+00 5.755138e-01 4.244862e-01 0.000000e+00
 0.000000e+00 0.000000e+00 0.000000e+00 7.180346e-01 2.819655e-01
 0.000000e+00 0.000000e+00 0.000000e+00 0.000000e+00 0.000000e+00
<ENDHMM>
~h "l"
<BEGINHMM>
<NUMSTATES> 5
<STATE> 2
<MEAN> 25
 1.144341e+01 -2.204138e-01 -1.974453e+00 -1.984698e+00 -4.704944e+00 -6.225473e+00 2.421690e+00 2.734857e+00 -3.533212e+00 -6.222763e+00 -9.959086e-01 -3.673720e-01 9.384270e-01 -4.519585e-01 -5.702261e-01 -4.736151e-01 -3.706952e-01 -1.179968e+00 7.163881e-01 2.938544e-01 -5.970351e-01 -5.340401e-01 1.910366e-01 2.336111e-01 1.170465e+00
<VARIANCE> 25
 5.492603e+01 9.259039e+01 8.971611e+01 5.584782e+01 1.119065e+02 1.161707e+02 9.508569e+01 8.249737e+01 1.084983e+02 6.417860e+01 6.513187e+01 4.914230e+01 4.658518e+00 8.027744e+00 5.701880e+00 5.874223e+00 7.662635e+00 1.111814e+01 8.882971e+00 7.549430e+00 8.674358e+00 6.021505e+00 5.406950e+00 3.847303e+00 6.104250e+00
<GCONST> 1.229434e+02
<STATE> 3
<MEAN> 25
 1.267402e+01 -1.899393e+00 -1.129056e+00 -3.265769e+00 -7.888806e+00 -9.221533e+00 5.351471e+00 3.122306e+00 -6.404236e+00 -7.934110e+00 -6.603506e-01 6.674767e-02 -2.120153e-01 1.572434e-01 -3.468109e-02 -2.330388e-01 1.084491e-01 2.233431e-01 3.149902e-01 8.097660e-02 9.054857e-02 3.135515e-01 5.307340e-02 4.325835e-01 -1.993664e-01
<VARIANCE> 25
 3.281245e+01 4.050847e+01 6.495348e+01 5.146980e+01 1.514937e+02 9.002091e+01 1.146562e+02 7.944462e+01 1.131832e+02 6.268587e+01 8.968369e+01 7.569071e+01 9.682227e-01 2.304303e+00 2.726145e+00 3.600565e+00 4.326057e+00 4.662533e+00 4.971852e+00 4.486280e+00 4.347407e+00 4.102650e+00 3.378133e+00 3.053714e+00 1.224004e+00
<GCONST> 1.121941e+02
<STATE> 4
<MEAN> 25
 9.923866e+00 -2.629098e+00 -3.740785e+00 -4.908840e+00 -2.862432e+00 -8.713759e+00 4.462835e+00 2.646814e+00 -4.168673e+00 -2.553086e+00 2.342753e-01 1.087813e+00 -2.163854e-01 3.914832e-02 2.581950e-02 9.598672e-03 9.599849e-02 1.952744e-01 -5.949711e-02 -6.340225e-02 2.389535e-01 2.851472e-01 2.108397e-02 1.169253e-02 -2.309713e-01
<VARIANCE> 25
 6.881525e+01 3.850856e+01 3.939035e+01 5.660838e+01 8.634222e+01 1.180851e+02 9.959422e+01 8.372156e+01 7.343192e+01 6.003199e+01 6.576888e+01 3.983661e+01 6.450641e-01 1.061779e+00 1.221712e+00 1.690995e+00 2.160148e+00 2.185927e+00 2.579203e+00 2.341661e+00 2.404682e+00 2.175865e+00 1.940922e+00 1.756914e+00 6.741849e-01
<GCONST> 1.022444e+02
<TRANSP> 5
 0.000000e+00 1.000000e+00 0.000000e+00 0.000000e+00 0.000000e+00
 0.000000e+00 6.994568e-01 3.005433e-01 0.000000e+00 0.000000e+00
 0.000000e+00 0.000000e+00 7.201174e-01 2.798826e-01 0.000000e+00
 0.000000e+00 0.000000e+00 0.000000e+00 8.709819e-01 1.290181e-01
 0.000000e+00 0.000000e+00 0.000000e+00 0.000000e+00 0.000000e+00
<ENDHMM>
~h "m"
<BEGINHMM>
<NUMSTATES> 5
<STATE> 2
<MEAN> 25
 5.961667e+00 8.152959e+00 1.311694e+00 4.489793e+00 2.006342e+00 2.106369e+00 1.455644e+00 1.730050e+00 -2.270952e+00 -4.374632e+00 -7.553679e+00 -6.892113e+00 -7.660677e-01 1.327763e-01 3.080117e-01 5.356213e-01 2.301199e-01 5.090668e-01 -8.611858e-02 -7.332829e-02 3.659298e-01 3.154539e-01 -5.566290e-02 -3.188286e-01 -7.438147e-01
<VARIANCE> 25
 3.083016e+01 4.588483e+01 4.045024e+01 5.129458e+01 4.301040e+01 3.978468e+01 3.417698e+01 3.542066e+01 6.043927e+01 3.235983e+01 3.609230e+01 5.536633e+01 9.156264e-01 1.447815e+00 1.687376e+00 2.536722e+00 1.768091e+00 1.708376e+00 2.036144e+00 1.517230e+00 2.036564e+00 1.887259e+00 2.350979e+00 2.933470e+00 5.654919e-01
<GCONST> 9.723830e+01
<STATE> 3
<MEAN> 25
 1.124838e-01 5.498373e+00 1.203454e+00 2.888923e+00 8.614092e-01 4.475356e+00 9.683313e-01 1.259055e+00 5.444896e-01 -1.049365e+00 -4.027913e+00 -3.404886e+00 -1.158316e+00 -9.771623e-01 -7.689298e-01 -5.023313e-01 -1.986150e-01 2.971244e-01 1.365003e-01 3.205676e-02 3.040224e-01 6.557357e-01 6.595503e-01 7.193660e-01 -6.515934e-01
<VARIANCE> 25
 6.236617e+01 5.664558e+01 3.593534e+01 7.311901e+01 4.540177e+01 3.763733e+01 3.288630e+01 2.367261e+01 3.198819e+01 2.069408e+01 3.008919e+01 4.760258e+01 2.485775e+00 2.706665e+00 2.782146e+00 2.600571e+00 2.035386e+00 2.052126e+00 1.775311e+00 1.905530e+00 2.435576e+00 1.941171e+00 2.370612e+00 1.855273e+00 1.447190e+00
<GCONST> 9.979161e+01
<STATE> 4
<MEAN> 25
 -8.245266e+00 6.440281e-01 -2.588569e+00 2.297812e+00 1.140104e+00 8.197811e+00 -6.922863e-01 1.392536e+00 3.013379e+00 2.633639e+00 -3.953080e-01 1.991053e+00 -1.054195e-01 -7.696162e-02 -6.395344e-02 1.450111e-02 -6.025158e-03 3.575718e-02 -1.911109e-03 2.528042e-02 1.972630e-02 7.167023e-02 7.460094e-02 9.403978e-02 -9.214083e-02
<VARIANCE> 25
 2.082797e+01 7.968071e+00 8.299356e+00 1.411005e+01 2.634262e+01 2.188998e+01 1.515881e+01 1.478586e+01 1.307389e+01 1.485371e+01 1.233456e+01 1.127726e+01 2.246762e-01 2.842890e-01 3.683917e-01 4.680577e-01 5.957932e-01 7.334456e-01 7.260534e-01 8.186069e-01 8.112027e-01 8.367049e-01 8.336351e-01 7.920290e-01 1.013856e-01
<GCONST> 6.884702e+01
<TRANSP> 5
 0.000000e+00 1.000000e+00 0.000000e+00 0.000000e+00 0.000000e+00
 0.000000e+00 8.024691e-01 1.975310e-01 0.000000e+00 0.000000e+00
 0.000000e+00 0.000000e+00 6.895149e-01 3.104850e-01 0.000000e+00
 0.000000e+00 0.000000e+00 0.000000e+00 9.485279e-01 5.147209e-02
 0.000000e+00 0.000000e+00 0.000000e+00 0.000000e+00 0.000000e+00
<ENDHMM>
~h "n"
<BEGINHMM>
<NUMSTATES> 5
<STATE> 2
<MEAN> 25
 8.105792e+00 1.033751e+01 3.019525e+00 3.322021e+00 6.731491e+00 1.383773e+00 -2.090227e-01 -3.659878e+00 -8.547108e+00 -2.190639e+00 -3.957267e+00 1.627918e+00 -8.414246e-01 8.392946e-01 8.551534e-01 7.360418e-01 -1.545851e-01 7.398255e-01 -3.947853e-01 6.782781e-02 2.771260e-01 -4.686960e-01 -3.742942e-01 -2.095220e-01 -1.168825e+00
<VARIANCE> 25
 3.253442e+01 6.123144e+01 4.033395e+01 4.708628e+01 4.941599e+01 5.363554e+01 4.723274e+01 5.064907e+01 5.496001e+01 7.144639e+01 7.918050e+01 5.139686e+01 9.357717e-01 3.632631e+00 2.349135e+00 3.839322e+00 3.192623e+00 4.832605e+00 2.867981e+00 3.232310e+00 3.876222e+00 4.951039e+00 4.088706e+00 3.746524e+00 8.796909e-01
<GCONST> 1.072837e+02
<STATE> 3
<MEAN> 25
 4.947538e-01 8.767409e+00 4.666864e+00 7.064626e+00 2.589277e+00 5.131049e+00 -2.414480e+00 -2.724329e+00 -1.618060e+00 -2.194245e+00 -3.180286e+00 -2.319327e+00 -1.445092e+00 -1.225408e+00 -9.160501e-01 -3.123105e-01 -1.744515e-01 3.903549e-01 1.453972e-01 2.778999e-01 7.111563e-01 4.529613e-01 2.590670e-01 2.015226e-01 -8.483588e-01
<VARIANCE> 25
 5.101103e+01 4.405407e+01 4.457205e+01 5.827885e+01 2.651616e+01 3.438041e+01 3.219683e+01 2.434437e+01 2.971282e+01 2.255657e+01 2.550442e+01 2.049039e+01 1.712655e+00 2.881644e+00 2.877937e+00 2.649982e+00 1.680333e+00 1.919699e+00 1.919494e+00 1.827546e+00 1.723316e+00 1.750050e+00 2.264593e+00 1.496330e+00 6.106532e-01
<GCONST> 9.565788e+01
<STATE> 4
<MEAN> 25
 -8.513377e+00 3.480645e-01 -2.503771e+00 2.532752e+00 6.742859e-01 7.351695e+00 -1.001059e+00 6.078154e-01 2.630353e+00 1.927212e+00 -3.754206e-01 1.465596e+00 -1.575670e-01 -1.529940e-01 -8.263050e-02 -5.477783e-02 -6.857208e-02 4.603288e-02 6.336659e-02 1.065181e-01 1.001758e-01 8.646214e-02 7.980672e-02 7.221162e-02 -8.621919e-02
<VARIANCE> 25
 2.751428e+01 1.303761e+01 1.272280e+01 1.541077e+01 2.912512e+01 2.100898e+01 1.643024e+01 1.669959e+01 1.450470e+01 1.603377e+01 1.428802e+01 1.008792e+01 3.594648e-01 5.297168e-01 5.508478e-01 5.868044e-01 7.653567e-01 8.442411e-01 9.825028e-01 9.671163e-01 9.577731e-01 1.035742e+00 9.554690e-01 7.020271e-01 1.704152e-01
<GCONST> 7.410630e+01
<TRANSP> 5
 0.000000e+00 1.000000e+00 0.000000e+00 0.000000e+00 0.000000e+00
 0.000000e+00 8.678598e-01 1.321403e-01 0.000000e+00 0.000000e+00
 0.000000e+00 0.000000e+00 7.488145e-01 2.511856e-01 0.000000e+00
 0.000000e+00 0.000000e+00 0.000000e+00 9.441227e-01 5.587721e-02
 0.000000e+00 0.000000e+00 0.000000e+00 0.000000e+00 0.000000e+00
<ENDHMM>
~h "p"
<BEGINHMM>
<NUMSTATES> 5
<STATE> 2
<MEAN> 25
 -8.794671e+00 1.673697e+00 -2.742704e+00 7.230577e-01 1.172207e+00 5.481030e+00 -1.712070e-01 1.801599e+00 1.391289e+00 3.609474e+00 6.618840e-01 1.792995e+00 -1.266463e-01 -2.347630e-01 -1.721377e-01 -1.193833e-02 -6.495741e-02 -1.075871e-02 -1.495086e-01 -1.112806e-01 8.292225e-02 -1.976626e-02 -2.066287e-02 -4.002722e-03 -4.110569e-02
<VARIANCE> 25
 3.905912e+01 1.197425e+01 1.043089e+01 1.900502e+01 3.444621e+01 2.962513e+01 2.432376e+01 1.337722e+01 1.346868e+01 1.655649e+01 1.797401e+01 9.545037e+00 3.788040e+00 1.684787e+00 1.254670e+00 1.420445e+00 2.007075e+00 1.847555e+00 1.938051e+00 1.642658e+00 1.440480e+00 1.280170e+00 1.567477e+00 1.008233e+00 2.614316e+00
<GCONST> 8.757986e+01
<STATE> 3
<MEAN> 25
 -4.532368e+00 7.908653e-01 -3.484349e+00 2.399746e-01 -5.343282e-01 4.304584e+00 -9.634944e-01 1.036899e+00 1.890124e+00 2.760279e+00 8.543408e-01 1.770339e+00 3.857566e+00 -2.377726e-01 -9.588498e-02 -1.117890e+00 -1.405629e+00 -2.281399e+00 -6.054398e-01 -5.271322e-01 5.480310e-01 -1.472209e+00 -6.391817e-01 -3.665080e-01 3.865321e+00
<VARIANCE> 25
 5.854613e+01 2.037645e+01 1.470067e+01 2.726455e+01 3.469024e+01 3.769999e+01 2.514815e+01 2.487523e+01 2.338214e+01 1.676921e+01 1.649986e+01 1.374747e+01 1.021959e+01 7.170225e+00 4.681751e+00 4.410217e+00 8.101035e+00 9.466659e+00 6.190764e+00 5.597980e+00 4.827117e+00 3.835136e+00 6.010094e+00 3.386012e+00 7.627721e+00
<GCONST> 1.072055e+02
<STATE> 4
<MEAN> 25
 5.585216e+00 -1.529763e+00 -3.552384e+00 -2.957996e+00 -2.827156e+00 -4.226295e+00 4.461905e-01 -1.013286e+00 2.275160e+00 -2.241344e+00 1.589673e-01 2.249388e-01 3.354029e+00 -4.300631e-01 -2.512995e-01 -1.054698e+00 -1.249767e+00 -2.976063e+00 8.005817e-01 -4.217840e-01 -3.360068e-01 -1.027169e+00 -1.400892e-01 -9.184202e-01 3.856854e+00
<VARIANCE> 25
 1.193962e+02 1.048229e+02 7.572849e+01 5.377778e+01 9.994244e+01 1.025827e+02 6.720210e+01 6.929137e+01 5.268082e+01 4.492961e+01 6.281787e+01 3.971025e+01 1.114878e+01 9.857183e+00 7.119001e+00 5.735731e+00 1.098439e+01 1.251927e+01 7.963445e+00 7.646562e+00 6.254127e+00 4.999930e+00 6.933288e+00 5.087569e+00 1.024510e+01
<GCONST> 1.237406e+02
<TRANSP> 5
 0.000000e+00 1.000000e+00 0.000000e+00 0.000000e+00 0.000000e+00
 0.000000e+00 8.545386e-01 1.454614e-01 0.000000e+00 0.000000e+00
 0.000000e+00 0.000000e+00 3.408183e-01 6.591818e-01 0.000000e+00
 0.000000e+00 0.000000e+00 0.000000e+00 6.349319e-01 3.650680e-01
 0.000000e+00 0.000000e+00 0.000000e+00 0.000000e+00 0.000000e+00
<ENDHMM>
~h "r"
<BEGINHMM>
<NUMSTATES> 5
<STATE> 2
<MEAN> 25
 1.389523e+01 -6.199966e+00 -6.734902e+00 -4.958291e+00 -5.160594e+00 -2.462520e+00 -4.363365e-01 -3.626440e+00 3.876248e+00 -1.526969e+00 -1.448482e+00 5.346035e+00 3.637164e-02 9.383725e-02 -3.410610e-01 -2.043089e-01 6.389432e-01 2.593485e-01 -6.054950e-01 3.535572e-02 -6.968622e-02 -2.538700e-01 4.168448e-01 2.613661e-01 -9.198732e-02
<VARIANCE> 25
 1.644984e+01 4.556734e+01 4.140385e+01 3.299972e+01 6.434219e+01 7.278712e+01 5.775023e+01 4.432886e+01 5.322603e+01 4.767377e+01 1.185276e+02 3.756478e+01 9.224554e-01 3.672391e+00 2.744986e+00 1.999446e+00 3.946452e+00 5.142226e+00 3.872167e+00 3.244539e+00 2.844960e+00 3.186615e+00 3.746985e+00 3.549538e+00 7.808791e-01
<GCONST> 1.053348e+02
<STATE> 3
<MEAN> 25
 1.428176e+01 8.114262e-01 -9.206079e+00 -6.140954e+00 4.190068e+00 -3.133414e+00 -3.196141e+00 -5.821705e-01 -8.613202e-01 -5.525295e+00 -8.322327e-01 2.952465e+00 -3.902386e-01 1.768725e+00 3.597283e-01 4.513810e-01 8.144503e-01 8.053107e-01 3.871309e-01 -1.134693e-02 -1.116886e+00 -4.259374e-01 -4.570657e-01 -7.662197e-01 -1.157204e+00
<VARIANCE> 25
 3.315937e+01 6.113572e+01 5.522628e+01 4.913242e+01 7.168433e+01 6.937016e+01 6.190817e+01 5.488625e+01 6.337968e+01 5.862884e+01 1.099219e+02 5.730755e+01 2.316535e+00 5.402610e+00 7.959315e+00 3.339474e+00 4.895215e+00 8.706567e+00 5.297163e+00 4.258293e+00 6.001661e+00 5.397005e+00 7.674441e+00 3.560855e+00 1.542296e+00
<GCONST> 1.149731e+02
<STATE> 4
<MEAN> 25
 1.024706e+01 5.381071e+00 -4.937522e+00 -4.328587e+00 2.424707e+00 1.075717e+00 -1.297009e+00 -2.828133e+00 -7.190606e+00 -5.588765e+00 -2.669530e+00 -4.284135e-02 -3.668286e-01 3.692452e-01 4.670451e-01 8.457622e-01 2.074913e-01 -2.166033e-02 -3.658086e-01 1.668014e-01 2.601045e-02 2.808285e-01 -5.209132e-02 -5.753474e-01 -5.927142e-01
<VARIANCE> 25
 2.428444e+01 6.918064e+01 5.703579e+01 5.285889e+01 4.734945e+01 7.462524e+01 4.995789e+01 3.129280e+01 4.643786e+01 6.872848e+01 6.334311e+01 4.688960e+01 1.577356e+00 1.339903e+00 2.748070e+00 3.055372e+00 2.195695e+00 3.836290e+00 2.899226e+00 2.075986e+00 3.445207e+00 3.291811e+00 2.809170e+00 2.751435e+00 1.096589e+00
<GCONST> 1.043417e+02
<TRANSP> 5
 0.000000e+00 1.000000e+00 0.000000e+00 0.000000e+00 0.000000e+00
 0.000000e+00 8.941104e-01 1.058896e-01 0.000000e+00 0.000000e+00
 0.000000e+00 0.000000e+00 7.306481e-01 2.693519e-01 0.000000e+00
 0.000000e+00 0.000000e+00 0.000000e+00 7.723421e-01 2.276579e-01
 0.000000e+00 0.000000e+00 0.000000e+00 0.000000e+00 0.000000e+00
<ENDHMM>
~h "s"
<BEGINHMM>
<NUMSTATES> 5
<STATE> 2
<MEAN> 25
 -7.573003e+00 -9.537173e+00 1.035857e+01 -3.985991e+00 -1.094714e+00 6.931328e+00 1.068008e+00 -3.995375e+00 4.054165e+00 1.956716e+00 3.803943e+00 9.805166e-01 -2.886370e+00 -2.044965e+00 3.246174e+00 -1.447730e+00 3.016843e-01 3.785843e-01 9.876238e-01 -8.719460e-01 7.121754e-01 -2.366515e-01 1.424454e+00 -1.522719e-01 1.245422e+00
<VARIANCE> 25
 9.343166e+01 1.306594e+02 1.487493e+02 7.139225e+01 7.353258e+01 8.805024e+01 9.365702e+01 5.096157e+01 4.824147e+01 4.075405e+01 4.009796e+01 3.599035e+01 5.660802e+00 6.312234e+00 1.041621e+01 5.970852e+00 6.609485e+00 6.562531e+00 8.970844e+00 3.891593e+00 5.418128e+00 4.213847e+00 4.588417e+00 3.724796e+00 3.967136e+00
<GCONST> 1.191056e+02
<STATE> 3
<MEAN> 25
 -2.011023e+01 -1.462888e+01 1.800344e+01 -1.112561e+01 2.921377e+00 4.376530e+00 5.761850e+00 -8.599001e+00 7.897655e+00 5.428052e-01 9.873784e+00 -1.321198e+00 -1.523845e-01 -3.121343e-02 -5.327424e-01 -1.612406e-01 9.440153e-02 -3.550395e-01 -1.271944e-01 -4.234165e-01 1.019360e-02 -9.948491e-02 8.278856e-02 1.079874e-01 7.542373e-02
<VARIANCE> 25
 4.029082e+01 1.284691e+02 6.616611e+01 7.067389e+01 9.034665e+01 9.082661e+01 1.089193e+02 4.419510e+01 3.652059e+01 2.664114e+01 2.918242e+01 3.059644e+01 3.890031e+00 3.968113e+00 2.947791e+00 1.960601e+00 2.081685e+00 2.614779e+00 2.587770e+00 2.426044e+00 2.629603e+00 2.144636e+00 2.033740e+00 1.633157e+00 1.104041e+00
<GCONST> 1.051672e+02
<STATE> 4
<MEAN> 25
 -1.099009e+01 -9.120388e+00 1.125799e+01 -9.871107e+00 2.504829e+00 5.589140e-01 3.607712e+00 -8.562688e+00 4.287684e+00 2.679372e-01 5.464618e+00 3.253802e-01 3.616937e+00 1.572753e+00 -1.942161e+00 1.007137e+00 -6.048726e-01 -8.657279e-01 -1.309278e+00 7.797205e-01 -1.035502e+00 -3.141148e-01 -1.810686e+00 1.101326e-01 -1.308125e-01
<VARIANCE> 25
 1.376439e+02 6.957512e+01 8.504924e+01 8.289458e+01 7.864439e+01 7.268459e+01 7.313662e+01 6.394758e+01 5.415176e+01 4.087796e+01 5.640724e+01 3.117334e+01 8.499708e+00 6.834071e+00 7.072124e+00 4.844933e+00 5.152327e+00 6.091629e+00 5.942064e+00 6.498204e+00 4.949374e+00 3.831470e+00 5.636404e+00 3.631757e+00 3.135084e+00
<GCONST> 1.180509e+02
<TRANSP> 5
 0.000000e+00 1.000000e+00 0.000000e+00 0.000000e+00 0.000000e+00
 0.000000e+00 7.793288e-01 2.206712e-01 0.000000e+00 0.000000e+00
 0.000000e+00 0.000000e+00 8.086495e-01 1.913505e-01 0.000000e+00
 0.000000e+00 0.000000e+00 0.000000e+00 6.393294e-01 3.606705e-01
 0.000000e+00 0.000000e+00 0.000000e+00 0.000000e+00 0.000000e+00
<ENDHMM>
~h "t"
<BEGINHMM>
<NUMSTATES> 5
<STATE> 2
<MEAN> 25
 -6.344892e+00 2.033725e+00 -1.550353e+00 1.262422e+00 1.034184e+00 3.681942e+00 1.936929e+00 3.066832e-01 4.521606e-01 2.570727e+00 7.963312e-01 1.001509e+00 -2.267185e-01 -2.908654e-01 3.375335e-01 -6.361662e-02 5.041263e-01 -4.048777e-02 -5.813215e-01 -3.307965e-01 -4.320392e-02 4.968911e-02 -1.514821e-01 -1.004257e-02 1.553416e-01
<VARIANCE> 25
 8.959963e+01 2.991865e+01 2.227586e+01 2.172824e+01 4.628195e+01 3.038428e+01 3.761798e+01 3.053836e+01 2.240206e+01 2.494656e+01 3.233564e+01 1.457766e+01 7.140073e+00 6.371997e+00 3.599717e+00 2.702236e+00 4.597984e+00 3.912134e+00 3.649603e+00 4.240331e+00 2.648898e+00 2.983447e+00 3.593167e+00 1.887461e+00 7.598740e+00
<GCONST> 1.045306e+02
<STATE> 3
<MEAN> 25
 -1.810356e-01 -1.004048e+00 -2.039343e-01 9.437736e-01 -5.141421e-01 3.135186e+00 -1.322174e-01 -2.853600e+00 3.349896e-01 1.906257e+00 3.344485e-01 9.456288e-01 1.919285e+00 -2.143383e+00 6.755072e-01 -9.891555e-01 -5.020624e-01 -8.514817e-01 -5.854042e-01 -1.095722e+00 1.881154e-01 -5.906662e-01 -2.747790e-01 2.647976e-02 3.319061e+00
<VARIANCE> 25
 1.123590e+02 1.219916e+02 4.975244e+01 3.735176e+01 6.707385e+01 5.449380e+01 4.794368e+01 5.645768e+01 3.661153e+01 4.901616e+01 3.973956e+01 2.362986e+01 1.267918e+01 1.768454e+01 8.066540e+00 5.718936e+00 1.225760e+01 1.158368e+01 8.288279e+00 9.085613e+00 5.789637e+00 7.168508e+00 7.210782e+00 3.387747e+00 1.599931e+01
<GCONST> 1.216603e+02
<STATE> 4
<MEAN> 25
 3.903510e+00 -4.051924e+00 -6.580303e-02 -2.804310e+00 1.354528e+00 -2.141380e+00 1.387821e+00 -3.876800e+00 -3.423382e-01 1.621250e+00 2.370158e-01 1.355182e+00 9.985389e-01 -6.383371e-02 4.804960e-01 -1.153610e-01 2.818080e-01 -1.220019e+00 -2.048634e-01 -1.656885e-01 -4.774216e-01 -5.731404e-01 -2.398478e-01 -5.758573e-01 1.421996e+00
<VARIANCE> 25
 1.299972e+02 1.634138e+02 8.409091e+01 5.872403e+01 1.457285e+02 1.460702e+02 1.064836e+02 1.061959e+02 8.396643e+01 7.553593e+01 6.439836e+01 4.523631e+01 9.335503e+00 1.253907e+01 7.585862e+00 6.852441e+00 8.637461e+00 1.427112e+01 8.319853e+00 8.410932e+00 6.555601e+00 6.754994e+00 7.551063e+00 4.856060e+00 1.322667e+01
<GCONST> 1.281974e+02
<TRANSP> 5
 0.000000e+00 1.000000e+00 0.000000e+00 0.000000e+00 0.000000e+00
 0.000000e+00 6.876014e-01 3.123986e-01 0.000000e+00 0.000000e+00
 0.000000e+00 0.000000e+00 5.497653e-01 4.502347e-01 0.000000e+00
 0.000000e+00 0.000000e+00 0.000000e+00 7.816238e-01 2.183763e-01
 0.000000e+00 0.000000e+00 0.000000e+00 0.000000e+00 0.000000e+00
<ENDHMM>
~h "y"
<BEGINHMM>
<NUMSTATES> 5
<STATE> 2
<MEAN> 25
 1.056800e+01 -8.252951e+00 -8.862482e+00 -3.192117e+00 3.889043e+00 -9.280470e+00 1.177679e+01 -3.613149e+00 8.715882e-01 6.656790e+00 -6.752053e-01 -2.037701e+00 1.546426e+00 -2.850090e-01 7.235900e-01 2.584280e-01 7.370152e-01 -1.939252e+00 2.651162e-01 -9.778703e-01 -8.249532e-02 1.377274e+00 -9.531900e-04 -4.101481e-01 2.026096e+00
<VARIANCE> 25
 6.597696e+01 2.138477e+01 6.339578e+01 3.930814e+01 5.149626e+01 1.377604e+02 1.096721e+02 4.867757e+01 4.324323e+01 7.597814e+01 2.442412e+01 3.278661e+01 8.520348e+00 2.617429e+00 8.390027e+00 4.022686e+00 3.442847e+00 5.440149e+00 1.038840e+01 4.249844e+00 2.357833e+00 4.146472e+00 3.606333e+00 3.914725e+00 8.140265e+00
<GCONST> 1.136179e+02
<STATE> 3
<MEAN> 25
 8.876471e+00 -4.087818e+00 1.463045e+01 1.236967e+01 6.810493e+00 -1.988957e+01 -5.033472e+00 -5.665371e+00 -6.844404e-01 5.137079e+00 -2.193613e+00 -4.048692e+00 -8.636072e-02 4.286556e-01 4.873341e-01 4.047929e-01 4.837247e-02 1.201686e-01 -8.518234e-01 2.251487e-01 -1.944955e-02 -5.996706e-01 7.770790e-01 2.154791e-01 -2.557242e-01
<VARIANCE> 25
 1.601600e+01 2.529879e+01 8.144646e+01 1.054141e+02 8.556636e+01 1.553271e+02 3.457062e+01 8.484024e+01 7.816634e+01 3.014165e+01 4.147466e+01 2.580163e+01 1.284165e+00 1.094138e+00 1.129461e+01 7.504351e+00 7.082835e-01 4.443125e+00 3.234179e+00 6.186337e+00 2.171689e+00 5.123361e+00 5.741150e+00 2.498903e+00 1.248842e+00
<GCONST> 1.074455e+02
<STATE> 4
<MEAN> 25
 1.345563e+01 -2.472082e+00 3.022841e+00 3.924110e+00 4.096844e+00 -2.321881e+00 -5.984689e+00 -5.284124e+00 2.562009e+00 -8.761554e-01 6.127639e+00 -1.606715e+00 -1.609865e-01 2.363655e-01 -7.656791e-01 -4.467890e-01 -2.273835e-01 1.400611e+00 6.489627e-01 6.516603e-01 1.612340e-01 -1.690996e-01 -2.218897e-01 1.554741e-01 -6.478859e-01
<VARIANCE> 25
 1.102534e+01 1.487215e+02 1.030462e+02 1.751084e+02 6.836039e+01 1.019405e+02 1.001941e+02 3.378460e+01 1.517918e+01 7.740052e+01 6.209507e+01 4.480951e+01 1.118071e+00 3.215804e+00 4.450507e+00 8.752238e+00 2.448894e+00 4.652219e+00 4.480463e+00 2.739649e+00 2.879689e+00 5.618981e+00 4.913278e+00 2.814067e+00 1.969174e+00
<GCONST> 1.110966e+02
<TRANSP> 5
 0.000000e+00 1.000000e+00 0.000000e+00 0.000000e+00 0.000000e+00
 0.000000e+00 8.790529e-01 1.209471e-01 0.000000e+00 0.000000e+00
 0.000000e+00 0.000000e+00 8.981175e-01 1.018825e-01 0.000000e+00
 0.000000e+00 0.000000e+00 0.000000e+00 9.057230e-01 9.427708e-02
 0.000000e+00 0.000000e+00 0.000000e+00 0.000000e+00 0.000000e+00
<ENDHMM>
~h "aa"
<BEGINHMM>
<NUMSTATES> 5
<STATE> 2
<MEAN> 25
 8.289693e+00 -3.672811e+00 -4.904738e+00 -5.145326e+00 -1.738747e+00 -4.520019e+00 2.645450e+00 -1.211624e+00 -3.074694e-01 -4.274442e-01 -8.826661e-01 1.455534e+00 7.975108e-01 -5.814561e-01 -6.438321e-01 -4.292929e-01 -3.257478e-01 -1.454232e-01 5.225466e-01 -4.291788e-02 2.109825e-01 1.441415e-01 -2.332384e-01 3.567418e-01 8.185660e-01
<VARIANCE> 25
 9.694400e+01 5.640387e+01 5.615767e+01 6.266698e+01 7.658739e+01 9.541494e+01 6.481560e+01 6.758518e+01 6.287708e+01 4.960051e+01 7.367764e+01 5.249569e+01 4.377955e+00 4.041784e+00 3.512128e+00 3.813067e+00 3.959467e+00 4.370750e+00 3.900811e+00 4.039997e+00 3.782216e+00 4.005673e+00 3.552779e+00 3.272169e+00 3.864069e+00
<GCONST> 1.139061e+02
<STATE> 3
<MEAN> 25
 9.822306e+00 -4.270564e+00 -6.285223e+00 -5.735751e+00 -2.776646e+00 -4.342022e+00 3.475588e+00 -5.970464e-01 7.845548e-01 4.416522e-01 -1.757503e+00 2.282759e+00 -4.177737e-01 4.163878e-01 1.726700e-01 4.014694e-01 1.686491e-01 5.522521e-01 -1.087095e-01 -1.902230e-02 -1.707056e-02 1.078506e-01 -1.911049e-01 -6.249406e-03 -7.207482e-01
<VARIANCE> 25
 6.769618e+01 5.157956e+01 4.787194e+01 4.847324e+01 7.007288e+01 9.498093e+01 6.090056e+01 6.736884e+01 6.120921e+01 4.580590e+01 7.038867e+01 5.602258e+01 2.889504e+00 3.500106e+00 2.696020e+00 3.199302e+00 3.080545e+00 3.922156e+00 3.000159e+00 3.626559e+00 3.188411e+00 2.953534e+00 3.515165e+00 2.470468e+00 3.030481e+00
<GCONST> 1.100558e+02
<STATE> 4
<MEAN> 25
 2.883497e+00 -2.573208e+00 -4.007924e+00 -2.843234e+00 -2.413035e+00 -1.862819e-01 1.084682e+00 -3.822528e-01 5.847299e-01 9.599373e-01 -7.475566e-01 2.238750e+00 -3.950318e-01 3.424304e-01 2.340684e-01 4.314669e-01 1.743358e-01 4.074505e-01 -6.660987e-02 5.449322e-02 -1.238762e-01 1.418978e-02 1.912051e-01 -1.450937e-01 -6.209789e-01
<VARIANCE> 25
 1.203353e+02 3.258554e+01 2.491342e+01 4.707330e+01 4.486763e+01 7.924019e+01 5.369894e+01 3.755407e+01 3.720091e+01 2.994429e+01 4.533200e+01 2.793156e+01 1.380739e+00 1.603214e+00 1.263661e+00 1.697809e+00 1.692316e+00 2.280103e+00 1.945943e+00 1.909035e+00 1.938977e+00 1.677137e+00 2.246650e+00 1.531258e+00 1.365678e+00
<GCONST> 9.818008e+01
<TRANSP> 5
 0.000000e+00 1.000000e+00 0.000000e+00 0.000000e+00 0.000000e+00
 0.000000e+00 6.166090e-01 3.833910e-01 0.000000e+00 0.000000e+00
 0.000000e+00 0.000000e+00 5.555592e-01 4.444408e-01 0.000000e+00
 0.000000e+00 0.000000e+00 0.000000e+00 7.942928e-01 2.057072e-01
 0.000000e+00 0.000000e+00 0.000000e+00 0.000000e+00 0.000000e+00
<ENDHMM>
~h "ah"
<BEGINHMM>
<NUMSTATES> 5
<STATE> 2
<MEAN> 25
 -2.785214e+00 -1.840048e+00 4.135045e+00 -1.074332e+00 -9.298410e-01 3.244112e+00 1.284008e+00 -2.350477e+00 1.431125e+00 9.330576e-01 2.223441e+00 1.155529e+00 1.211484e+00 -5.740508e-01 6.572251e-01 -3.860468e-01 1.724593e-02 -3.566692e-01 3.774475e-01 -7.440113e-01 -3.092607e-01 -3.994286e-01 -6.615868e-02 4.284627e-02 1.754603e+00
<VARIANCE> 25
 1.444133e+02 1.373159e+02 1.274880e+02 8.790749e+01 9.372368e+01 7.788168e+01 6.267417e+01 7.140459e+01 5.405181e+01 3.172820e+01 4.595256e+01 2.315758e+01 1.151984e+01 1.303214e+01 1.606792e+01 9.046325e+00 9.739458e+00 1.175013e+01 7.127811e+00 6.348993e+00 9.614217e+00 5.535306e+00 5.204090e+00 2.605190e+00 1.121735e+01
<GCONST> 1.244270e+02
<STATE> 3
<MEAN> 25
 -3.102128e+00 -5.693210e+00 9.580438e+00 -6.107812e+00 2.304116e+00 1.639094e+00 2.985195e+00 -6.051414e+00 4.400335e+00 -2.339935e+00 3.482253e+00 7.921957e-01 1.154602e+00 -2.754519e-02 -1.279740e-01 -5.155286e-01 8.827426e-01 -1.209868e+00 9.637690e-02 -4.934754e-01 -7.741195e-01 -6.745484e-01 -5.547265e-02 -4.595572e-01 1.783032e+00
<VARIANCE> 25
 2.214470e+02 1.120769e+02 2.272755e+02 1.613007e+02 1.090897e+02 9.070631e+01 7.046133e+01 1.075304e+02 1.292967e+02 5.313827e+01 5.267944e+01 3.223635e+01 1.231971e+01 1.167848e+01 1.027294e+01 7.001280e+00 7.928583e+00 1.077850e+01 7.966668e+00 7.522020e+00 1.055478e+01 6.372767e+00 7.934679e+00 3.702847e+00 8.870060e+00
<GCONST> 1.285380e+02
<STATE> 4
<MEAN> 25
 3.206981e+00 8.954051e-01 5.525838e+00 -5.662620e+00 4.535122e+00 -2.133882e+00 1.934738e+00 -4.154898e+00 -2.310218e+00 -1.021072e+00 2.761190e-01 1.021396e-01 1.446027e+00 1.068776e+00 -1.240419e+00 9.802252e-01 3.450251e-02 -7.696341e-02 -6.344122e-01 7.959870e-01 -7.689208e-01 -4.324070e-02 -6.931093e-01 8.441058e-02 -7.037908e-01
<VARIANCE> 25
 1.918720e+02 1.037457e+02 1.227539e+02 1.143916e+02 8.588771e+01 1.185372e+02 8.797575e+01 1.196398e+02 1.278836e+02 5.568511e+01 8.014640e+01 3.925223e+01 9.220363e+00 9.695008e+00 5.711406e+00 5.142617e+00 5.484138e+00 1.244978e+01 6.415278e+00 6.509192e+00 1.130320e+01 4.873323e+00 6.147957e+00 3.790352e+00 5.961082e+00
<GCONST> 1.255812e+02
<TRANSP> 5
 0.000000e+00 1.000000e+00 0.000000e+00 0.000000e+00 0.000000e+00
 0.000000e+00 3.314967e-01 6.685033e-01 0.000000e+00 0.000000e+00
 0.000000e+00 0.000000e+00 4.418921e-01 5.581079e-01 0.000000e+00
 0.000000e+00 0.000000e+00 0.000000e+00 7.697882e-01 2.302118e-01
 0.000000e+00 0.000000e+00 0.000000e+00 0.000000e+00 0.000000e+00
<ENDHMM>
~h "ao"
<BEGINHMM>
<NUMSTATES> 5
<STATE> 2
<MEAN> 25
 4.201684e+00 -4.850640e+00 6.124063e+00 -6.389133e+00 -3.976734e+00 -6.828498e+00 2.347643e+00 -1.370618e+00 -2.575879e+00 -8.609647e+00 -6.231815e-01 2.110901e+00 3.871867e+00 2.475394e+00 -1.763232e+00 4.723573e-01 -1.571830e+00 -1.556303e+00 -1.858391e-01 1.325312e+00 1.338486e-01 -7.117625e-01 -2.336378e+00 -5.770245e-01 5.134493e-01
<VARIANCE> 25
 9.965953e+01 6.348363e+01 3.210617e+01 3.897353e+01 1.108364e+02 9.213843e+01 5.185068e+01 6.629398e+01 5.413170e+01 4.379625e+01 3.760420e+01 2.949261e+01 5.577541e+00 8.554139e+00 2.683399e+00 1.853355e+00 3.595401e+00 7.599464e+00 9.664563e+00 3.596070e+00 3.276046e+00 8.076984e+00 7.464244e+00 2.637796e+00 1.367581e+00
<GCONST> 1.128815e+02
<STATE> 3
<MEAN> 25
 9.731943e+00 -2.536224e+00 3.045740e+00 -5.493996e+00 -7.631063e+00 -9.016413e+00 1.407829e+00 2.338056e-01 -6.530118e-02 -7.694334e+00 -4.298442e+00 6.378313e-01 1.770738e+00 7.482554e-01 -1.105436e+00 3.045506e-01 -1.755362e+00 -9.802514e-01 -2.782052e-01 7.362189e-01 9.682720e-01 7.014061e-01 -1.493073e+00 -9.191545e-01 1.315802e-01
<VARIANCE> 25
 5.379310e+01 1.540339e+01 2.254523e+01 2.715733e+01 1.224311e+02 5.882331e+01 7.044019e+01 6.296855e+01 6.192818e+01 4.976076e+01 5.364111e+01 3.312856e+01 2.820626e+00 3.102814e+00 1.800249e+00 1.482979e+00 3.179765e+00 3.234571e+00 5.738113e+00 2.577277e+00 2.139136e+00 4.176952e+00 5.028423e+00 1.701782e+00 9.387128e-01
<GCONST> 1.043285e+02
<STATE> 4
<MEAN> 25
 1.304671e+01 -1.297501e+00 3.486238e+00 -4.796668e+00 -1.654737e+01 -1.251903e+01 5.514607e-01 3.015040e+00 1.841914e+00 -3.379636e+00 -6.819902e+00 -3.730141e+00 1.974033e-01 1.981589e-01 -1.394112e-01 6.963635e-02 -2.940846e-01 1.298971e-01 -1.027892e-01 1.701899e-01 -5.484601e-02 2.823516e-01 -1.321142e-01 -1.931173e-01 -1.758011e-01
<VARIANCE> 25
 1.549577e+01 1.872519e+01 1.353373e+01 2.188281e+01 1.235849e+02 4.128962e+01 8.545601e+01 6.742631e+01 7.818105e+01 4.027195e+01 5.794698e+01 4.574493e+01 3.769552e-01 7.404260e-01 8.888448e-01 9.572326e-01 3.088571e+00 1.388186e+00 1.644362e+00 2.002273e+00 1.517947e+00 1.550242e+00 1.445406e+00 1.522057e+00 3.399981e-01
<GCONST> 9.221716e+01
<TRANSP> 5
 0.000000e+00 1.000000e+00 0.000000e+00 0.000000e+00 0.000000e+00
 0.000000e+00 3.702357e-01 6.297643e-01 0.000000e+00 0.000000e+00
 0.000000e+00 0.000000e+00 3.377634e-01 6.622366e-01 0.000000e+00
 0.000000e+00 0.000000e+00 0.000000e+00 8.777855e-01 1.222145e-01
 0.000000e+00 0.000000e+00 0.000000e+00 0.000000e+00 0.000000e+00
<ENDHMM>
~h "aw"
<BEGINHMM>
<NUMSTATES> 5
<STATE> 2
<MEAN> 25
 1.344030e+01 -2.229130e+00 -2.517661e+00 -1.012127e+01 -9.589888e-01 -1.228420e+01 -8.007319e+00 2.164158e+00 1.760772e+00 1.245440e+00 -1.124422e+01 -5.044573e+00 1.017970e-02 2.414126e-01 2.782175e-01 3.590249e-01 -3.735854e-01 -2.573383e-01 -4.987658e-01 -6.725601e-02 2.499970e-01 -3.032935e-02 1.525404e-01 -5.749177e-01 -1.733484e-01
<VARIANCE> 25
 1.652685e+00 3.953473e+01 9.527605e+00 1.657797e+01 1.474550e+01 1.738084e+01 6.877900e+01 4.540003e+00 2.303136e+01 5.839215e+00 1.180118e+01 2.012853e+01 7.465166e-02 2.258633e+00 4.275682e-01 9.934652e-01 4.723550e-01 5.722340e-01 9.684903e-01 7.035705e-01 1.477566e+00 1.055435e+00 1.634045e+00 4.583878e-01 9.739369e-01
<GCONST> 7.265146e+01
<STATE> 3
<MEAN> 25
 8.491887e+00 2.344606e+00 -3.258413e+00 -1.795159e+00 -6.717629e+00 -3.867813e+00 6.037729e+00 1.464477e+00 -3.864069e+00 -5.177347e+00 -6.247393e+00 -3.568179e+00 -7.945893e-01 4.106594e-01 1.468077e-01 9.959600e-02 -3.630190e-01 3.392314e-01 5.187875e-01 6.030917e-02 -1.955647e-01 1.345027e-01 9.846190e-01 4.986722e-01 -8.404113e-01
<VARIANCE> 25
 1.055688e+02 1.225433e+01 7.219326e+00 1.318354e+01 5.857525e+01 3.105141e+01 1.560561e+02 3.175822e+01 3.179373e+01 2.782225e+01 3.904755e+01 1.790532e+01 1.306142e+00 1.243111e+00 1.813322e-01 7.708974e-01 1.378307e+00 2.203120e+00 2.286418e+00 1.805223e+00 3.227237e+00 2.923773e+00 2.190947e+00 1.771776e+00 1.647985e+00
<GCONST> 9.216302e+01
<STATE> 4
<MEAN> 25
 -1.144796e+00 9.990507e+00 8.686402e-01 5.167307e-01 -4.722562e+00 1.434559e+00 4.523454e+00 9.707065e-01 1.622039e+00 2.383150e+00 3.954027e+00 -6.028668e-01 -5.017919e-01 -6.126707e-02 9.469651e-02 2.080884e-01 2.958112e-01 4.646345e-01 1.792365e-01 -1.111424e-01 -2.388202e-03 1.608376e-01 1.416494e-01 2.287262e-01 -3.825851e-01
<VARIANCE> 25
 1.001354e+02 6.647047e+01 1.974038e+01 4.801865e+01 1.514738e+01 1.033377e+02 1.189354e+02 1.432312e+01 1.493898e+01 1.149380e+01 1.782886e+01 3.303125e+01 1.452450e+00 1.717067e+00 1.003266e+00 1.437842e+00 1.425244e+00 1.748655e+00 2.910910e+00 1.416920e+00 9.352778e-01 1.172237e+00 9.343286e-01 9.519085e-01 4.967760e-01
<GCONST> 9.081039e+01
<TRANSP> 5
 0.000000e+00 1.000000e+00 0.000000e+00 0.000000e+00 0.000000e+00
 0.000000e+00 9.394630e-01 6.053698e-02 0.000000e+00 0.000000e+00
 0.000000e+00 0.000000e+00 9.007245e-01 9.927553e-02 0.000000e+00
 0.000000e+00 0.000000e+00 0.000000e+00 9.630088e-01 3.699122e-02
 0.000000e+00 0.000000e+00 0.000000e+00 0.000000e+00 0.000000e+00
<ENDHMM>
~h "ch"
<BEGINHMM>
<NUMSTATES> 5
<STATE> 2
<MEAN> 25
 -5.188173e+00 -2.789049e-01 -2.605649e+00 3.744643e+00 -1.678071e+00 4.776020e+00 4.171278e-01 -2.599261e+00 2.103056e+00 3.422526e+00 8.789168e-01 1.848231e+00 -4.813532e-01 -5.111109e-01 -1.249435e-01 -6.553207e-01 5.571434e-02 2.067839e-01 -5.884838e-01 -1.115144e-01 7.386920e-01 1.518264e-01 -6.426886e-01 2.173753e-01 -6.871819e-02
<VARIANCE> 25
 1.060013e+02 2.420402e+01 3.387559e+01 1.671575e+01 3.312246e+01 2.242170e+01 2.793606e+01 8.699550e+01 2.074025e+01 3.351259e+01 1.473979e+01 6.903558e+00 4.463687e+00 1.879331e+00 4.228603e+00 1.671406e+00 1.573820e+00 1.879636e+00 3.128154e+00 2.224423e+00 2.436728e+00 3.627396e+00 1.753285e+00 6.277413e-01 9.751009e+00
<GCONST> 9.736790e+01
<STATE> 3
<MEAN> 25
 2.384341e-02 -1.502323e+00 -1.834852e+00 3.060715e+00 1.356071e+00 5.478900e+00 -4.528095e-01 -5.575562e+00 3.239187e+00 7.176470e+00 5.788397e-01 -5.877620e-01 -5.264901e-01 -8.190875e-01 5.802032e-01 -3.762461e-01 6.217078e-01 -6.832961e-02 -5.318546e-01 9.706742e-01 -2.606275e-02 -6.443155e-01 1.227823e-02 -1.261583e-01 3.017294e-01
<VARIANCE> 25
 1.458204e+02 7.054297e+01 5.168407e+01 1.836425e+01 4.617984e+01 4.873063e+01 1.710647e+01 1.121594e+02 1.800824e+01 3.455445e+01 1.100406e+01 1.196338e+01 1.409330e+01 1.553458e+01 5.116382e+00 3.159915e+00 8.059176e+00 9.701836e+00 3.711890e+00 1.199041e+01 2.700329e+00 2.602775e+00 1.386581e+00 1.196156e+00 1.948782e+01
<GCONST> 1.103850e+02
<STATE> 4
<MEAN> 25
 -5.072384e-01 -1.801165e+01 7.242474e+00 -7.898710e-01 -1.011060e+00 2.085593e+00 -8.631646e+00 -3.594702e+00 5.671044e+00 4.710481e-01 2.371724e+00 9.157592e-01 1.885747e+00 -4.561864e-01 6.260544e-01 6.294200e-01 -3.610724e-02 -6.962944e-01 -1.603762e-01 -4.568712e-01 -6.407549e-01 8.492574e-02 2.933231e-01 -3.613021e-01 1.838495e+00
<VARIANCE> 25
 9.077088e+01 1.379060e+02 8.587143e+01 6.085390e+01 1.291208e+02 1.136152e+02 5.452491e+01 4.653593e+01 4.915638e+01 5.330547e+01 1.475274e+01 1.726370e+01 7.889915e+00 3.375113e+01 1.155816e+01 1.147875e+01 1.084382e+01 1.874405e+01 7.487659e+00 6.802200e+00 1.155734e+01 6.183076e+00 2.516278e+00 1.948970e+00 1.574443e+01
<GCONST> 1.231199e+02
<TRANSP> 5
 0.000000e+00 1.000000e+00 0.000000e+00 0.000000e+00 0.000000e+00
 0.000000e+00 6.800727e-01 3.199273e-01 0.000000e+00 0.000000e+00
 0.000000e+00 0.000000e+00 7.152412e-01 2.847587e-01 0.000000e+00
 0.000000e+00 0.000000e+00 0.000000e+00 8.235791e-01 1.764209e-01
 0.000000e+00 0.000000e+00 0.000000e+00 0.000000e+00 0.000000e+00
<ENDHMM>
~h "eh"
<BEGINHMM>
<NUMSTATES> 5
<STATE> 2
<MEAN> 25
 1.285476e+01 -6.249643e+00 -6.914198e+00 -3.179184e-01 1.002544e+01 -1.019911e+01 -1.217158e+01 -9.964060e+00 -8.051133e+00 2.583172e+00 2.156472e+00 2.411918e+00 -1.899020e-01 -6.774920e-01 4.219871e-01 9.131054e-01 9.672485e-02 -1.023631e+00 -4.203353e-01 -8.323539e-01 7.650470e-03 1.005769e+00 9.375114e-02 -3.830331e-01 2.356845e-01
<VARIANCE> 25
 7.818739e+00 2.545856e+01 2.509036e+01 3.232296e+01 6.401434e+01 1.024362e+02 4.354872e+01 3.166261e+01 5.244791e+01 3.880003e+01 6.976350e+01 5.014038e+01 2.812372e-01 1.139378e+00 1.368146e+00 8.731570e-01 2.951219e+00 3.086939e+00 2.715735e+00 1.513807e+00 1.809179e+00 2.076154e+00 1.782077e+00 1.983125e+00 4.623503e-01
<GCONST> 9.421156e+01
<STATE> 3
<MEAN> 25
 8.195869e+00 -3.407938e+00 -6.284103e-01 7.041582e+00 6.467254e+00 -1.614003e+01 -1.284548e+01 -1.032274e+01 -4.506850e+00 9.562364e+00 9.336519e-01 -5.196969e+00 -1.004562e+00 1.006283e+00 3.155896e-01 -1.259174e-01 -2.627546e-01 1.212948e+00 -5.698442e-02 5.965204e-01 6.729069e-01 -1.899488e-01 -5.019632e-01 4.655042e-02 -1.482925e+00
<VARIANCE> 25
 2.460044e+01 3.610318e+01 4.339342e+01 6.729497e+01 3.480153e+01 1.904399e+02 6.416913e+01 2.983139e+01 4.406318e+01 5.296523e+01 5.279709e+01 7.204739e+01 2.522294e+00 2.671099e+00 2.030655e+00 3.210661e+00 2.173246e+00 3.587728e+00 3.844413e+00 1.926241e+00 1.999628e+00 3.194032e+00 2.464037e+00 3.083477e+00 1.798490e+00
<GCONST> 1.053781e+02
<STATE> 4
<MEAN> 25
 -5.411004e+00 1.520613e+00 -2.148700e+00 3.342680e+00 2.153973e+00 6.579094e+00 -2.758888e+00 -6.494641e-02 2.872925e+00 3.221686e+00 1.922903e-01 1.986934e+00 -3.359241e-01 2.856849e-02 -3.097035e-02 1.571308e-02 -7.305464e-02 4.462426e-01 5.602860e-01 3.555966e-01 6.637880e-02 -8.756556e-02 1.029357e-01 1.448818e-01 -3.424181e-01
<VARIANCE> 25
 2.397150e+01 6.044853e+00 7.361397e+00 1.427423e+01 2.739281e+01 3.667172e+01 5.107212e+01 3.342452e+01 1.434390e+01 1.977124e+01 1.936540e+01 1.538191e+01 4.130232e-01 3.729270e-01 3.577094e-01 5.556458e-01 6.658407e-01 1.259223e+00 1.742833e+00 1.102035e+00 9.236247e-01 9.852759e-01 1.002224e+00 1.069087e+00 3.093569e-01
<GCONST> 7.706839e+01
<TRANSP> 5
 0.000000e+00 1.000000e+00 0.000000e+00 0.000000e+00 0.000000e+00
 0.000000e+00 8.875594e-01 1.124407e-01 0.000000e+00 0.000000e+00
 0.000000e+00 0.000000e+00 8.870279e-01 1.129722e-01 0.000000e+00
 0.000000e+00 0.000000e+00 0.000000e+00 9.517174e-01 4.828258e-02
 0.000000e+00 0.000000e+00 0.000000e+00 0.000000e+00 0.000000e+00
<ENDHMM>
~h "hh"
<BEGINHMM>
<NUMSTATES> 5
<STATE> 2
<MEAN> 25
 4.205300e+00 2.744700e+00 -7.740454e+00 -7.068947e+00 -3.777932e+00 5.561728e+00 2.418953e+00 2.209070e+00 9.207104e-01 -1.265728e+00 -3.817387e+00 -8.032994e-01 -1.531938e+00 -5.402055e-01 -4.447488e-01 -2.611586e-01 2.605911e-01 3.825347e-01 -7.182331e-02 4.820473e-02 3.287409e-01 4.581787e-01 3.311263e-01 8.241588e-01 -1.082889e+00
<VARIANCE> 25
 3.376870e+01 3.283709e+01 5.831838e+01 5.612598e+01 8.586200e+01 4.853399e+01 4.852729e+01 3.872797e+01 4.039721e+01 3.342023e+01 2.250388e+01 3.412757e+01 1.938827e+00 3.151548e+00 3.555838e+00 2.571338e+00 2.991239e+00 3.803781e+00 5.085704e+00 3.639990e+00 2.406533e+00 2.328808e+00 2.285811e+00 2.134052e+00 1.304085e+00
<GCONST> 1.037238e+02
<STATE> 3
<MEAN> 25
 -2.327904e+00 3.023872e+00 -4.548005e+00 -5.632019e+00 -3.724013e+00 3.421353e+00 1.754137e+00 3.402523e+00 1.101262e+00 4.442299e-01 -2.016570e+00 4.624176e-01 -1.730209e+00 -5.709105e-01 5.332921e-01 1.179173e+00 9.536040e-01 1.347271e-01 -2.186352e-01 -2.228245e-01 1.224583e-01 7.211898e-01 5.491465e-01 3.367136e-01 -1.056604e+00
<VARIANCE> 25
 4.168047e+01 1.265391e+01 3.035545e+01 6.506262e+01 4.229391e+01 1.936955e+01 4.193842e+01 2.459417e+01 2.459595e+01 2.409953e+01 1.529532e+01 2.580510e+01 1.380104e+00 6.746151e-01 1.769733e+00 2.822608e+00 2.563702e+00 2.546297e+00 2.685927e+00 2.183180e+00 1.707711e+00 1.224879e+00 2.237817e+00 1.767312e+00 7.515266e-01
<GCONST> 9.282245e+01
<STATE> 4
<MEAN> 25
 -9.040258e+00 4.287622e-01 -3.374413e+00 2.401623e+00 8.687417e-01 7.190925e+00 -1.074122e+00 1.331546e+00 2.813956e+00 2.282459e+00 3.286121e-01 2.180823e+00 -1.051302e-01 -7.213491e-02 -3.654024e-02 5.315790e-02 6.773479e-02 7.865623e-02 -3.137015e-02 -6.030000e-02 -8.654185e-04 8.312650e-02 9.247892e-02 1.196362e-01 -7.904537e-02
<VARIANCE> 25
 1.746560e+01 5.477594e+00 7.673876e+00 1.416045e+01 2.920729e+01 2.380456e+01 1.407463e+01 1.211662e+01 1.150985e+01 1.498914e+01 1.260851e+01 8.575109e+00 2.375266e-01 3.107402e-01 3.779992e-01 5.146261e-01 6.660226e-01 6.823187e-01 7.609363e-01 8.663133e-01 9.218324e-01 9.276881e-01 9.506908e-01 7.879155e-01 9.501828e-02
<GCONST> 6.846518e+01
<TRANSP> 5
 0.000000e+00 1.000000e+00 0.000000e+00 0.000000e+00 0.000000e+00
 0.000000e+00 6.339442e-01 3.660558e-01 0.000000e+00 0.000000e+00
 0.000000e+00 0.000000e+00 6.344219e-01 3.655781e-01 0.000000e+00
 0.000000e+00 0.000000e+00 0.000000e+00 9.460733e-01 5.392672e-02
 0.000000e+00 0.000000e+00 0.000000e+00 0.000000e+00 0.000000e+00
<ENDHMM>
~h "ih"
<BEGINHMM>
<NUMSTATES> 5
<STATE> 2
<MEAN> 25
 4.021028e+00 -3.103302e+00 1.512593e+01 1.588619e+01 7.314888e+00 -1.141866e+01 -1.158450e+01 -8.534640e-01 1.252133e+00 -3.808368e+00 -3.571419e+00 -5.496922e+00 2.356768e-01 1.881736e-01 6.271998e-01 8.573382e-01 7.934266e-01 -1.212941e+00 -8.016251e-01 9.562165e-01 -3.459503e-01 -2.189960e-01 -4.541383e-01 -4.416929e-01 1.488282e-01
<VARIANCE> 25
 3.722725e+01 7.085614e+01 1.057740e+02 9.098253e+01 1.092861e+02 1.657268e+02 6.824290e+01 1.059630e+02 7.351231e+01 6.574822e+01 4.678819e+01 4.662926e+01 4.061485e+00 8.300316e+00 8.118349e+00 8.612676e+00 7.127782e+00 1.449012e+01 7.522429e+00 7.765405e+00 5.572508e+00 5.546316e+00 4.723139e+00 4.405467e+00 4.140195e+00
<GCONST> 1.222155e+02
<STATE> 3
<MEAN> 25
 3.195210e+00 -2.732608e+00 1.116455e+01 1.196827e+01 1.453615e+01 -1.079305e+01 -1.717601e+01 1.819201e+00 -4.597334e+00 -2.907682e+00 -1.699890e+00 -7.351830e+00 -5.777782e-02 5.404198e-01 -1.049289e+00 -9.336007e-01 -5.857373e-01 8.555034e-01 7.180630e-01 -6.476260e-01 -3.167460e-01 2.976649e-01 3.901179e-01 4.815463e-01 -5.803013e-01
<VARIANCE> 25
 2.186831e+01 4.243406e+01 6.333389e+01 5.412478e+01 1.349541e+02 1.106599e+02 7.671140e+01 6.141228e+01 5.833619e+01 4.260300e+01 3.810676e+01 4.155441e+01 1.367604e+00 2.460626e+00 3.626839e+00 3.605319e+00 3.686061e+00 4.444315e+00 5.578097e+00 4.429310e+00 2.929929e+00 2.685027e+00 2.482761e+00 2.668829e+00 2.104072e+00
<GCONST> 1.086593e+02
<STATE> 4
<MEAN> 25
 1.352242e+00 -8.579079e-01 1.174424e+00 2.756743e+00 5.408861e+00 -4.682583e+00 -4.059254e+00 -2.916325e+00 -3.517063e+00 1.514363e+00 8.444210e-01 -1.407058e+00 -3.885549e-01 -1.611286e-01 -1.082397e+00 -1.096496e+00 -9.414476e-01 9.059470e-01 1.468498e+00 6.771876e-02 2.491310e-01 2.990380e-01 1.955677e-01 7.336740e-01 -5.283067e-01
<VARIANCE> 25
 9.129958e+01 5.909308e+01 4.183813e+01 5.757506e+01 5.739447e+01 1.348210e+02 6.816511e+01 4.742613e+01 4.761065e+01 4.772383e+01 4.545252e+01 3.732021e+01 1.791535e+00 2.179578e+00 2.400496e+00 2.652539e+00 2.943498e+00 3.478433e+00 4.065475e+00 3.072339e+00 3.013570e+00 2.731055e+00 2.826515e+00 2.703615e+00 1.433530e+00
<GCONST> 1.070929e+02
<TRANSP> 5
 0.000000e+00 1.000000e+00 0.000000e+00 0.000000e+00 0.000000e+00
 0.000000e+00 8.450825e-01 1.549175e-01 0.000000e+00 0.000000e+00
 0.000000e+00 0.000000e+00 8.170921e-01 1.829079e-01 0.000000e+00
 0.000000e+00 0.000000e+00 0.000000e+00 7.717813e-01 2.282187e-01
 0.000000e+00 0.000000e+00 0.000000e+00 0.000000e+00 0.000000e+00
<ENDHMM>
~h "jh"
<BEGINHMM>
<NUMSTATES> 5
<STATE> 2
<MEAN> 25
 -5.973858e-01 -4.535068e-01 3.383986e+00 5.395450e+00 4.664333e+00 -3.000789e-01 -5.073131e+00 1.343935e+00 -4.687814e-01 -1.449632e+00 1.678240e+00 -4.905342e-01 -7.062072e-01 -1.733091e+00 8.069196e-01 -5.914732e-01 -5.975755e-01 1.385912e-01 -2.302818e-01 -6.151266e-01 1.032355e+00 3.110095e-01 1.983547e-01 5.127314e-01 7.672875e-01
<VARIANCE> 25
 6.515862e+01 1.675049e+02 4.959376e+01 5.203432e+01 4.750348e+01 5.198565e+01 7.674952e+01 2.776491e+01 4.004188e+01 4.665060e+01 3.510642e+01 1.738630e+01 3.769135e+00 1.926775e+01 4.207875e+00 3.919578e+00 6.621679e+00 5.345993e+00 8.092678e+00 2.284139e+00 3.241848e+00 6.004603e+00 3.531490e+00 1.421790e+00 9.705209e+00
<GCONST> 1.129501e+02
<STATE> 3
<MEAN> 25
 6.479403e-01 -1.077903e+01 1.012982e+01 2.131634e+00 5.778934e+00 -1.753166e+00 -7.210054e+00 -1.006075e+01 1.040305e+00 -3.878756e+00 9.283710e-01 4.030988e-01 1.672325e+00 1.979560e+00 -8.835340e-01 8.108726e-01 8.518459e-01 -4.574253e-01 4.095380e-01 -8.029287e-01 -1.677198e+00 -2.660920e-01 -3.418425e-01 -8.215727e-01 9.863400e-02
<VARIANCE> 25
 7.339666e+01 1.167674e+02 4.517990e+01 6.310516e+01 9.246436e+01 1.060543e+02 5.381064e+01 6.813821e+01 5.084930e+01 2.913466e+01 3.510324e+01 6.718743e+01 4.994534e+00 8.621288e+00 7.298976e+00 4.334350e+00 6.094558e+00 1.167458e+01 8.249624e+00 8.692806e+00 4.222617e+00 2.967249e+00 3.925874e+00 5.175772e+00 2.308187e+00
<GCONST> 1.175533e+02
<STATE> 4
<MEAN> 25
 6.494144e+00 4.213820e+00 3.315007e+00 1.639149e+00 1.470920e+00 -3.197896e+00 -3.833015e+00 1.355214e+00 -3.546876e+00 -4.810508e+00 -4.234217e+00 -7.914120e+00 -1.167141e-01 7.203029e-01 -3.733678e-01 -2.545102e-01 -8.972933e-01 -2.229316e-01 6.704612e-01 7.023578e-01 2.931693e-01 2.048131e-01 -1.993189e-01 -5.369077e-01 -6.066163e-01
<VARIANCE> 25
 3.769393e+01 5.008867e+01 1.673452e+01 1.982620e+01 3.828244e+01 2.853944e+01 3.911917e+01 9.169209e+01 5.489419e+01 3.682083e+01 2.322915e+01 2.709124e+01 6.646608e-01 1.568094e+00 1.029345e+00 1.632996e+00 1.563753e+00 2.383950e+00 2.614180e+00 2.676152e+00 2.334390e+00 1.345257e+00 1.894765e+00 2.571430e+00 3.748729e-01
<GCONST> 9.410074e+01
<TRANSP> 5
 0.000000e+00 1.000000e+00 0.000000e+00 0.000000e+00 0.000000e+00
 0.000000e+00 8.821962e-01 1.178037e-01 0.000000e+00 0.000000e+00
 0.000000e+00 0.000000e+00 8.085857e-01 1.914143e-01 0.000000e+00
 0.000000e+00 0.000000e+00 0.000000e+00 8.359450e-01 1.640551e-01
 0.000000e+00 0.000000e+00 0.000000e+00 0.000000e+00 0.000000e+00
<ENDHMM>
~h "ng"
<BEGINHMM>
<NUMSTATES> 5
<STATE> 2
<MEAN> 25
 1.306557e+01 -9.168363e-02 -5.902012e+00 -4.995977e+00 -2.940888e+00 -5.146796e+00 7.986935e+00 7.659168e+00 -2.672668e+00 -6.411970e+00 -9.383951e-01 3.250676e+00 -3.639318e-01 1.659337e+00 1.142315e+00 5.111536e-01 -5.318944e-01 8.853353e-01 2.335283e-01 2.899031e-01 -2.819581e-01 -1.794683e-01 -2.311246e-01 -5.052634e-01 -1.202492e+00
<VARIANCE> 25
 1.804965e+01 8.820524e+01 5.613084e+01 3.703739e+01 4.806523e+01 6.048324e+01 6.856990e+01 6.665395e+01 7.828100e+01 4.815889e+01 4.819500e+01 4.207241e+01 4.562195e-01 2.232521e+00 2.474075e+00 2.310506e+00 2.043757e+00 3.449235e+00 4.029935e+00 4.203869e+00 3.592557e+00 3.755704e+00 2.554195e+00 2.963753e+00 5.432229e-01
<GCONST> 1.037716e+02
<STATE> 3
<MEAN> 25
 8.341716e+00 1.018632e+01 3.927544e+00 -1.674218e-01 -2.840266e+00 1.133358e-01 2.786331e+00 3.987503e+00 -1.868521e+00 -3.199224e+00 -3.931294e+00 -2.947219e+00 -9.295098e-01 5.466889e-01 5.802699e-01 1.212164e+00 7.833022e-01 -2.446154e-02 -1.076587e+00 -3.831731e-01 5.204436e-01 4.494078e-01 -4.207056e-01 -7.046335e-01 -1.079754e+00
<VARIANCE> 25
 2.111092e+01 7.204401e+01 4.201187e+01 4.580763e+01 4.460247e+01 4.398801e+01 5.053308e+01 3.581280e+01 6.379757e+01 2.742844e+01 4.675174e+01 3.104535e+01 1.026062e+00 1.792858e+00 1.849269e+00 3.154806e+00 1.910615e+00 2.266866e+00 3.033607e+00 2.148864e+00 2.293771e+00 2.281941e+00 2.220981e+00 2.166836e+00 4.722068e-01
<GCONST> 9.885651e+01
<STATE> 4
<MEAN> 25
 -1.724511e+00 4.530455e+00 -1.142634e-01 2.871708e+00 2.199433e-01 3.951777e+00 -4.736226e-01 2.878094e+00 2.999110e+00 1.763867e+00 -2.217020e+00 -3.896102e-01 -5.167194e-01 -1.331953e-01 -1.176647e-01 6.585812e-02 9.572420e-02 2.518443e-01 1.047747e-01 4.207194e-04 8.432719e-02 1.961283e-01 2.249373e-01 7.852275e-02 -4.051619e-01
<VARIANCE> 25
 6.029869e+01 2.640418e+01 2.229418e+01 2.542699e+01 3.489559e+01 5.324873e+01 3.539363e+01 3.206817e+01 3.360281e+01 2.044570e+01 2.561337e+01 2.580824e+01 6.279521e-01 9.193321e-01 9.036804e-01 9.059660e-01 1.021574e+00 1.136110e+00 1.355818e+00 1.150453e+00 1.168733e+00 1.081561e+00 1.281211e+00 9.833146e-01 3.178813e-01
<GCONST> 8.641112e+01
<TRANSP> 5
 0.000000e+00 1.000000e+00 0.000000e+00 0.000000e+00 0.000000e+00
 0.000000e+00 8.339716e-01 1.660284e-01 0.000000e+00 0.000000e+00
 0.000000e+00 0.000000e+00 7.434844e-01 2.565156e-01 0.000000e+00
 0.000000e+00 0.000000e+00 0.000000e+00 9.296004e-01 7.039964e-02
 0.000000e+00 0.000000e+00 0.000000e+00 0.000000e+00 0.000000e+00
<ENDHMM>
~h "ny"
<BEGINHMM>
<NUMSTATES> 5
<STATE> 2
<MEAN> 25
 5.868196e+00 -1.405154e+00 -3.169037e-01 -9.774765e-01 2.690665e+00 -9.546664e+00 -1.182836e+01 4.891718e+00 -1.828442e+00 -9.834469e+00 -2.003565e+00 -2.696951e+00 2.810897e-01 -4.729426e-01 -8.074164e-01 -3.302957e-01 1.386313e+00 3.040634e-01 -7.076065e-01 9.755561e-01 -6.769852e-01 -5.053058e-01 2.732700e-01 -2.680380e-01 2.406757e-01
<VARIANCE> 25
 6.452660e+01 6.039239e+01 7.264878e+00 2.630124e+01 5.075443e+01 9.693387e+01 2.663959e+01 5.046703e+01 5.882540e+01 3.528201e+01 1.426873e+01 9.403703e+01 1.128834e+00 8.829324e-01 1.028571e+00 1.875064e+00 1.819463e+00 1.624102e+00 2.421228e+00 8.690284e-01 1.378420e+00 5.578601e-01 7.581338e-01 1.198779e+00 6.261147e-01
<GCONST> 9.166634e+01
<STATE> 3
<MEAN> 25
 7.674885e+00 -1.822915e+00 -1.212136e+00 4.043258e+00 1.132301e+01 -4.849908e+00 -1.367177e+01 2.399553e+00 -1.126447e+00 -4.224133e+00 -4.157074e+00 -6.355688e+00 -3.296113e-02 -4.691609e-01 -1.265921e-01 -4.366928e-02 1.215996e-01 6.614032e-01 1.958024e-01 -7.313812e-01 8.608678e-02 4.674518e-01 -8.917890e-02 6.571171e-01 1.514577e-01
<VARIANCE> 25
 2.655284e+01 7.671587e+01 1.991670e+01 2.787010e+01 6.823861e+01 3.275562e+01 8.601846e+01 4.781380e+01 1.542395e+01 3.106760e+01 1.567674e+01 8.726398e+01 4.580585e-01 4.835615e+00 2.935238e+00 3.245697e+00 5.672047e+00 4.263762e+00 1.048387e+01 7.396594e+00 1.820436e+00 2.825536e+00 2.173131e+00 4.256501e+00 2.395897e+00
<GCONST> 1.046345e+02
<STATE> 4
<MEAN> 25
 8.761288e+00 2.079916e-02 -1.889450e+00 1.200500e+00 9.604707e+00 -6.246853e+00 -1.312582e+01 4.247356e+00 -3.279399e+00 -5.131658e+00 -2.790346e+00 -4.618805e+00 6.311271e-02 1.598127e-01 3.445022e-03 -2.617746e-01 -5.633841e-01 -3.880602e-01 -2.876103e-02 2.914554e-01 1.772832e-01 4.346207e-02 5.495489e-03 -1.534359e-01 -7.368937e-03
<VARIANCE> 25
 2.929444e+01 5.392575e+01 5.729936e+00 2.631887e+01 1.610085e+02 6.628580e+01 1.024677e+02 5.564868e+01 1.778401e+01 2.303587e+01 1.256788e+01 3.870921e+01 3.041421e-01 2.800743e+00 7.395636e-01 1.227529e+00 1.170322e+01 4.265082e+00 1.097367e+01 5.076518e+00 2.234973e+00 2.639356e+00 2.701908e+00 1.639671e+00 9.367203e-01
<GCONST> 9.932577e+01
<TRANSP> 5
 0.000000e+00 1.000000e+00 0.000000e+00 0.000000e+00 0.000000e+00
 0.000000e+00 6.377922e-01 3.622078e-01 0.000000e+00 0.000000e+00
 0.000000e+00 0.000000e+00 8.512473e-01 1.487527e-01 0.000000e+00
 0.000000e+00 0.000000e+00 0.000000e+00 8.618034e-01 1.381966e-01
 0.000000e+00 0.000000e+00 0.000000e+00 0.000000e+00 0.000000e+00
<ENDHMM>
~h "uw"
<BEGINHMM>
<NUMSTATES> 5
<STATE> 2
<MEAN> 25
 1.073756e+01 6.303445e+00 4.124424e+00 -2.549269e+00 -5.243342e+00 -1.065285e+01 -9.756120e-01 2.734434e-01 -5.061274e+00 -4.547609e+00 -1.850663e-01 -6.522787e+00 1.142305e+00 1.179059e+00 9.330859e-01 -1.840561e-02 -7.836359e-01 -1.907898e+00 1.210448e-01 1.396155e+00 -1.079348e+00 -2.968292e-01 -1.188643e-01 -1.287156e+00 5.532176e-01
<VARIANCE> 25
 3.944427e+01 8.166245e+01 6.435725e+01 5.120276e+01 1.827641e+02 1.348517e+02 1.061051e+02 8.373179e+01 9.981976e+01 5.806990e+01 7.571416e+01 6.646026e+01 4.538700e+00 9.691493e+00 6.530733e+00 6.668630e+00 1.065838e+01 1.301366e+01 9.923743e+00 9.075498e+00 1.008937e+01 5.391506e+00 6.895109e+00 6.473392e+00 4.844867e+00
<GCONST> 1.248811e+02
<STATE> 3
<MEAN> 25
 1.102689e+01 9.813312e+00 7.347228e+00 -2.479770e+00 -9.923862e+00 -1.357189e+01 -6.745934e-02 3.563875e+00 -6.135701e+00 -3.295573e+00 3.592483e-01 -8.644655e+00 -3.857128e-01 3.805337e-02 -1.924190e-01 -8.363020e-02 4.045170e-01 6.532465e-01 -5.118971e-01 4.246126e-01 7.685186e-01 8.162446e-02 -5.329492e-01 4.840719e-01 -5.423936e-01
<VARIANCE> 25
 2.651519e+01 6.410390e+01 4.212212e+01 4.245124e+01 1.474137e+02 1.013681e+02 9.880100e+01 8.145535e+01 9.083109e+01 6.100778e+01 6.507941e+01 8.729827e+01 2.052988e+00 3.028711e+00 3.031930e+00 2.687253e+00 6.080434e+00 5.247463e+00 4.701197e+00 4.099030e+00 4.635633e+00 3.378095e+00 4.324852e+00 3.592934e+00 1.741183e+00
<GCONST> 1.131397e+02
<STATE> 4
<MEAN> 25
 6.552034e+00 6.591483e+00 5.122642e+00 -1.769808e+00 -4.752581e+00 -8.257937e+00 -5.134268e+00 4.232184e+00 -1.926151e+00 -3.484203e+00 -2.472066e+00 -4.571743e+00 -5.201401e-01 -5.500316e-01 -5.848883e-01 1.095424e-01 4.449573e-01 9.371721e-01 2.155423e-01 -2.656390e-01 1.598266e-01 4.330213e-02 -1.074038e-01 3.969225e-01 -3.914720e-01
<VARIANCE> 25
 7.446279e+01 5.588952e+01 4.027902e+01 4.451625e+01 8.868459e+01 9.400589e+01 6.964317e+01 5.808463e+01 6.812923e+01 6.566932e+01 5.393610e+01 4.161208e+01 1.337200e+00 2.050420e+00 1.478967e+00 1.686783e+00 2.269798e+00 2.814887e+00 2.519675e+00 2.310371e+00 2.512961e+00 2.207930e+00 2.480711e+00 1.867192e+00 9.903207e-01
<GCONST> 1.040040e+02
<TRANSP> 5
 0.000000e+00 1.000000e+00 0.000000e+00 0.000000e+00 0.000000e+00
 0.000000e+00 6.382164e-01 3.617836e-01 0.000000e+00 0.000000e+00
 0.000000e+00 0.000000e+00 7.219778e-01 2.780222e-01 0.000000e+00
 0.000000e+00 0.000000e+00 0.000000e+00 8.607361e-01 1.392639e-01
 0.000000e+00 0.000000e+00 0.000000e+00 0.000000e+00 0.000000e+00
<ENDHMM>
~h "sil"
<BEGINHMM>
<NUMSTATES> 5
<STATE> 2
<MEAN> 25
 -1.209160e+01 1.840717e+00 -4.461204e+00 4.097949e+00 -5.866706e-01 8.668097e+00 -3.197964e-01 2.382677e+00 2.482332e+00 1.497597e+00 2.315324e+00 7.896323e-01 6.179997e-02 -3.626803e-02 1.979165e-02 3.701449e-02 -6.460234e-02 -4.263481e-02 -3.582960e-02 -7.313609e-02 1.406102e-02 9.344290e-02 6.005251e-02 6.352513e-02 2.884172e-02
<VARIANCE> 25
 5.074664e+01 1.645474e+01 2.188877e+01 3.316644e+01 3.904060e+01 3.445681e+01 3.438728e+01 1.559140e+01 1.920342e+01 1.577982e+01 1.564155e+01 7.641276e+00 8.892837e-01 5.451782e-01 6.707098e-01 7.975832e-01 8.786214e-01 1.262828e+00 1.475531e+00 1.058868e+00 1.180418e+00 1.064269e+00 7.587502e-01 7.946545e-01 5.575455e-01
<GCONST> 8.158652e+01
<STATE> 3
<MEAN> 25
 -1.099638e+01 7.649714e-01 -2.933375e+00 2.815301e+00 -5.555352e-01 6.841297e+00 2.206003e+00 1.723437e+00 1.310288e+00 2.711734e+00 2.835898e+00 2.533405e+00 -1.641828e-02 -3.933996e-03 -8.834903e-03 -1.590321e-03 -1.003766e-02 -3.228970e-04 -1.074126e-02 -1.626441e-03 6.260579e-03 -1.035188e-03 -7.596405e-03 6.655207e-03 -1.659379e-02
<VARIANCE> 25
 1.511116e+01 5.099136e+00 5.511100e+00 1.138540e+01 2.931989e+01 2.593676e+01 2.875626e+01 1.580842e+01 2.188651e+01 1.396728e+01 2.961334e+01 7.397732e+00 1.096369e-01 1.492150e-01 2.710896e-01 3.813349e-01 4.400441e-01 5.831153e-01 6.610001e-01 6.786329e-01 7.574713e-01 7.276700e-01 7.117982e-01 6.599190e-01 6.712239e-02
<GCONST> 6.569907e+01
<STATE> 4
<MEAN> 25
 1.334937e+00 2.693599e-01 -8.813164e-02 -1.195377e+00 -5.301063e-02 -2.362152e+00 1.367640e+00 -6.419860e-01 -7.961346e-01 -1.926390e-01 -3.163736e-01 -8.844780e-01 4.659412e-02 5.448216e-03 2.868548e-02 -4.284344e-03 9.054611e-03 -1.823890e-02 -1.515681e-02 -2.657183e-02 -1.228950e-02 -1.981888e-02 -2.063400e-02 -4.512134e-03 4.989341e-02
<VARIANCE> 25
 1.218775e+02 6.128721e+01 9.223875e+01 7.244910e+01 7.104997e+01 1.714875e+02 7.927036e+01 5.877459e+01 8.156495e+01 4.666236e+01 5.172006e+01 3.906558e+01 2.869669e+00 2.896867e+00 3.162006e+00 2.959558e+00 2.917227e+00 5.599781e+00 3.850105e+00 3.530571e+00 3.948315e+00 2.823766e+00 2.925941e+00 2.206465e+00 3.229399e+00
<GCONST> 1.125883e+02
<TRANSP> 5
 0.000000e+00 1.000000e+00 0.000000e+00 0.000000e+00 0.000000e+00
 0.000000e+00 8.704658e-01 1.295342e-01 0.000000e+00 0.000000e+00
 0.000000e+00 0.000000e+00 9.749770e-01 2.502306e-02 0.000000e+00
 0.000000e+00 0.000000e+00 0.000000e+00 9.768345e-01 2.316547e-02
 0.000000e+00 0.000000e+00 0.000000e+00 0.000000e+00 0.000000e+00
<ENDHMM>
