~o
<STREAMINFO> 1 25
<VECSIZE> 25<NULLD><MFCC_D_N_Z_0><DIAGC>
~h "proto"
<BEGINHMM>
<NUMSTATES> 5
<STATE> 2
<MEAN> 25
 2.481439e-09 2.733401e-08 -4.544851e-08 3.073167e-09 -4.271893e-08 1.083959e-08 -4.677513e-08 -6.849726e-08 4.629316e-08 -1.278896e-09 3.068395e-08 -5.830905e-08 6.220947e-03 -6.668540e-05 3.443832e-03 7.827750e-04 -2.788523e-04 -4.575030e-04 -5.142158e-05 -1.696644e-03 1.645152e-03 1.080281e-03 -2.298390e-03 2.171089e-03 5.288277e-03
<VARIANCE> 25
 1.311829e+02 6.985144e+01 7.543746e+01 6.826369e+01 8.358325e+01 1.202408e+02 7.341937e+01 5.599661e+01 5.857484e+01 4.532789e+01 5.085606e+01 4.049463e+01 3.213131e+00 3.732349e+00 3.142889e+00 2.892455e+00 3.407330e+00 4.639533e+00 3.453807e+00 3.176147e+00 3.110892e+00 2.689194e+00 2.866488e+00 2.262733e+00 3.056438e+00
<GCONST> 1.116261e+02
<STATE> 3
<MEAN> 25
 2.481439e-09 2.733401e-08 -4.544851e-08 3.073167e-09 -4.271893e-08 1.083959e-08 -4.677513e-08 -6.849726e-08 4.629316e-08 -1.278896e-09 3.068395e-08 -5.830905e-08 6.220947e-03 -6.668540e-05 3.443832e-03 7.827750e-04 -2.788523e-04 -4.575030e-04 -5.142158e-05 -1.696644e-03 1.645152e-03 1.080281e-03 -2.298390e-03 2.171089e-03 5.288277e-03
<VARIANCE> 25
 1.311829e+02 6.985144e+01 7.543746e+01 6.826369e+01 8.358325e+01 1.202408e+02 7.341937e+01 5.599661e+01 5.857484e+01 4.532789e+01 5.085606e+01 4.049463e+01 3.213131e+00 3.732349e+00 3.142889e+00 2.892455e+00 3.407330e+00 4.639533e+00 3.453807e+00 3.176147e+00 3.110892e+00 2.689194e+00 2.866488e+00 2.262733e+00 3.056438e+00
<GCONST> 1.116261e+02
<STATE> 4
<MEAN> 25
 2.481439e-09 2.733401e-08 -4.544851e-08 3.073167e-09 -4.271893e-08 1.083959e-08 -4.677513e-08 -6.849726e-08 4.629316e-08 -1.278896e-09 3.068395e-08 -5.830905e-08 6.220947e-03 -6.668540e-05 3.443832e-03 7.827750e-04 -2.788523e-04 -4.575030e-04 -5.142158e-05 -1.696644e-03 1.645152e-03 1.080281e-03 -2.298390e-03 2.171089e-03 5.288277e-03
<VARIANCE> 25
 1.311829e+02 6.985144e+01 7.543746e+01 6.826369e+01 8.358325e+01 1.202408e+02 7.341937e+01 5.599661e+01 5.857484e+01 4.532789e+01 5.085606e+01 4.049463e+01 3.213131e+00 3.732349e+00 3.142889e+00 2.892455e+00 3.407330e+00 4.639533e+00 3.453807e+00 3.176147e+00 3.110892e+00 2.689194e+00 2.866488e+00 2.262733e+00 3.056438e+00
<GCONST> 1.116261e+02
<TRANSP> 5
 0.000000e+00 1.000000e+00 0.000000e+00 0.000000e+00 0.000000e+00
 0.000000e+00 6.000000e-01 4.000000e-01 0.000000e+00 0.000000e+00
 0.000000e+00 0.000000e+00 6.000000e-01 4.000000e-01 0.000000e+00
 0.000000e+00 0.000000e+00 0.000000e+00 7.000000e-01 3.000000e-01
 0.000000e+00 0.000000e+00 0.000000e+00 0.000000e+00 0.000000e+00
<ENDHMM>
