~o
<STREAMINFO> 1 25
<VECSIZE> 25<NULLD><MFCC_D_N_Z_0><DIAGC>
~s "silst"
<MEAN> 25
 -9.973299e+000 3.944868e-001 -3.148606e+000 2.677548e+000 -2.628184e-002 7.360588e+000 4.465739e-001 1.328613e+000 2.208538e+000 2.422288e+000 1.103546e+000 2.273573e+000 -3.485907e-002 -8.559124e-003 -1.741900e-002 1.474652e-002 -1.351812e-002 1.539420e-002 2.846696e-003 1.777172e-002 -3.652356e-003 1.935765e-002 1.014837e-002 2.190063e-002 -4.603126e-002
<VARIANCE> 25
 1.517982e+001 5.756546e+000 6.235802e+000 1.137027e+001 2.953722e+001 2.186810e+001 2.313217e+001 1.443473e+001 1.617973e+001 1.384394e+001 2.139148e+001 7.647184e+000 7.891404e-002 1.512843e-001 2.369801e-001 3.405054e-001 4.561415e-001 5.437492e-001 6.325597e-001 6.704555e-001 7.180694e-001 7.254000e-001 7.077066e-001 6.363117e-001 3.056438e-002
<GCONST> 6.333399e+001
~h "b"
<BEGINHMM>
<NUMSTATES> 5
<STATE> 2
<MEAN> 25
 -2.386002e+000 4.276955e+000 -1.132517e+000 2.191264e+000 8.012456e-001 4.110829e+000 2.831111e+000 1.771609e+000 -7.625628e-001 1.492681e+000 2.432342e+000 1.359666e+000 1.029685e+000 6.969903e-001 4.061036e-001 1.480573e-001 5.727720e-001 1.109100e-001 -5.072862e-001 1.060963e-001 -2.923227e-001 -3.673507e-001 -8.855681e-002 -2.059650e-001 5.807057e-001
<VARIANCE> 25
 1.152535e+002 5.016366e+001 2.146424e+001 2.284468e+001 3.815870e+001 4.100907e+001 3.190878e+001 2.517391e+001 2.653036e+001 2.249761e+001 4.455487e+001 1.718955e+001 6.291940e+000 2.942202e+000 3.168166e+000 2.684335e+000 4.869167e+000 2.263194e+000 3.646050e+000 2.078563e+000 2.293925e+000 2.295782e+000 3.382155e+000 1.258530e+000 5.245657e+000
<GCONST> 1.021326e+002
<STATE> 3
<MEAN> 25
 9.552142e+000 1.450075e+001 4.995801e+000 5.288244e+000 2.553712e+000 3.459420e+000 -2.361499e+000 1.068407e+000 6.259033e-001 -2.216302e+000 -3.003062e+000 -2.655551e+000 1.902650e+000 3.425364e-001 1.201834e-001 -9.527408e-002 1.342833e-001 -1.008378e+000 -9.664166e-002 -3.239421e-001 -2.083441e-001 -3.604513e-001 2.770760e-002 -4.420284e-001 1.783724e+000
<VARIANCE> 25
 3.993468e+001 4.946201e+001 3.695134e+001 3.289750e+001 6.689465e+001 3.916906e+001 4.280131e+001 3.733900e+001 4.372355e+001 3.611456e+001 3.543688e+001 2.937997e+001 7.382433e+000 1.056550e+001 6.644035e+000 4.582282e+000 6.114429e+000 7.264016e+000 5.177338e+000 4.026465e+000 7.463582e+000 5.614465e+000 5.974004e+000 3.164412e+000 5.939702e+000
<GCONST> 1.132584e+002
<STATE> 4
<MEAN> 25
 1.416096e+001 1.792096e-001 1.685816e+000 -4.312785e+000 7.077277e+000 -8.089724e+000 -1.336027e+000 3.073418e+000 -9.664687e+000 2.576185e+000 4.288871e+000 2.048850e-001 3.351498e-002 -9.128583e-001 -3.667848e-001 8.112138e-002 2.543355e-001 -3.532328e-001 -2.907346e-001 -5.016209e-001 -1.057511e-001 1.048603e-001 3.046605e-001 -2.521542e-001 5.672706e-001
<VARIANCE> 25
 1.259663e+001 9.898763e+001 2.614429e+001 6.900177e+001 6.196251e+001 1.269281e+002 3.283886e+001 3.970167e+001 7.022282e+001 5.786997e+001 5.717044e+001 4.644757e+001 1.575276e+000 9.962622e+000 3.468087e+000 5.964354e+000 6.638952e+000 1.369055e+001 4.336966e+000 3.761616e+000 7.377576e+000 3.839303e+000 4.633727e+000 3.566001e+000 6.743443e+000
<GCONST> 1.140520e+002
<TRANSP> 5
 0.000000e+000 1.000000e+000 0.000000e+000 0.000000e+000 0.000000e+000
 0.000000e+000 6.293350e-001 3.706650e-001 0.000000e+000 0.000000e+000
 0.000000e+000 0.000000e+000 7.188956e-001 2.811045e-001 0.000000e+000
 0.000000e+000 0.000000e+000 0.000000e+000 7.000585e-001 2.999415e-001
 0.000000e+000 0.000000e+000 0.000000e+000 0.000000e+000 0.000000e+000
<ENDHMM>
~h "d"
<BEGINHMM>
<NUMSTATES> 5
<STATE> 2
<MEAN> 25
 -9.101710e+000 9.512054e-001 -1.631380e+000 3.900739e+000 -1.490878e+000 5.824234e+000 2.946439e+000 -6.430221e-002 1.595954e-001 1.951300e+000 2.509231e+000 1.245599e+000 -1.892440e-002 -4.626818e-002 1.484134e-002 -7.404270e-002 -3.454241e-002 1.617708e-001 -1.069402e-001 -3.010068e-001 -1.197654e-001 7.563868e-002 1.703026e-001 6.377647e-002 6.018722e-002
<VARIANCE> 25
 3.684922e+001 1.926989e+001 1.500801e+001 1.825366e+001 2.047964e+001 2.120113e+001 3.810030e+001 1.514326e+001 1.698071e+001 1.164407e+001 2.750243e+001 8.306002e+000 6.831782e-001 9.173179e-001 1.012788e+000 1.213421e+000 1.035075e+000 1.346667e+000 1.641695e+000 1.317407e+000 1.289424e+000 1.218311e+000 1.305605e+000 9.790465e-001 4.262140e-001
<GCONST> 8.196133e+001
<STATE> 3
<MEAN> 25
 -3.228838e+000 2.675140e+000 3.377958e-001 4.535484e+000 2.146229e+000 7.155279e+000 -2.747245e+000 -1.175212e+000 5.461996e-001 -2.846256e-001 2.981278e-001 5.097284e-001 3.520491e+000 1.537485e+000 2.237553e+000 7.302152e-001 1.421431e+000 -4.757158e-002 -1.649688e+000 -7.736290e-001 -3.268275e-001 -9.251950e-001 -1.334085e-001 -8.341258e-002 2.797994e+000
<VARIANCE> 25
 6.574808e+001 7.056017e+001 6.480366e+001 6.852890e+001 3.351861e+001 3.426265e+001 3.025378e+001 2.362392e+001 2.864379e+001 2.665922e+001 3.522345e+001 8.222938e+000 4.844468e+000 1.214688e+001 7.762838e+000 7.098762e+000 7.027854e+000 3.123036e+000 5.844938e+000 3.161878e+000 4.765551e+000 3.328748e+000 4.300395e+000 1.910050e+000 3.178447e+000
<GCONST> 1.088284e+002
<STATE> 4
<MEAN> 25
 1.043091e+001 3.955417e+000 3.341248e+000 4.539792e+000 3.472343e+000 3.790624e+000 -4.292904e+000 -7.120301e+000 7.674187e-001 3.181587e+000 5.913464e+000 1.133030e+000 5.520421e-001 -6.632075e-001 -1.491065e-001 -2.780468e-001 4.794088e-001 -4.221952e-001 -6.286836e-002 -6.279323e-003 6.351770e-002 -6.808534e-002 1.020256e-001 -1.669088e-001 1.062052e+000
<VARIANCE> 25
 3.330516e+001 2.127390e+002 8.948712e+001 5.870732e+001 8.845557e+001 7.080060e+001 4.345516e+001 6.517938e+001 3.650975e+001 5.473818e+001 4.304997e+001 2.473472e+001 3.801642e+000 1.907815e+001 7.119985e+000 3.547177e+000 1.060653e+001 8.974855e+000 3.982603e+000 6.275566e+000 5.860888e+000 7.257943e+000 4.424722e+000 3.687766e+000 8.131382e+000
<GCONST> 1.185672e+002
<TRANSP> 5
 0.000000e+000 1.000000e+000 0.000000e+000 0.000000e+000 0.000000e+000
 0.000000e+000 7.331794e-001 2.668206e-001 0.000000e+000 0.000000e+000
 0.000000e+000 0.000000e+000 6.489077e-001 3.510924e-001 0.000000e+000
 0.000000e+000 0.000000e+000 0.000000e+000 8.325766e-001 1.674234e-001
 0.000000e+000 0.000000e+000 0.000000e+000 0.000000e+000 0.000000e+000
<ENDHMM>
~h "g"
<BEGINHMM>
<NUMSTATES> 5
<STATE> 2
<MEAN> 25
 4.217320e+000 9.564753e-001 7.362949e+000 4.740861e+000 3.978226e+000 6.812086e-001 -2.898708e+000 -6.420689e+000 9.720421e-001 1.204233e+000 2.128296e+000 -1.591838e+000 -2.587810e-001 -1.146848e+000 1.127378e+000 -9.335608e-002 3.194483e-001 -9.321458e-001 -3.327003e-001 -5.039989e-001 1.045279e-001 -5.035825e-001 3.217861e-002 -2.575040e-001 1.321574e+000
<VARIANCE> 25
 6.151288e+001 1.912629e+002 8.720258e+001 1.040894e+002 8.425410e+001 1.020455e+002 5.887637e+001 8.348130e+001 5.592417e+001 5.107877e+001 3.212321e+001 2.831813e+001 3.421860e+000 2.276148e+001 6.114788e+000 1.026435e+001 1.024082e+001 1.337282e+001 6.989971e+000 7.974682e+000 5.850329e+000 4.671831e+000 4.191514e+000 3.525566e+000 9.809699e+000
<GCONST> 1.224826e+002
<STATE> 3
<MEAN> 25
 9.255403e-001 -5.665225e+000 1.521092e+001 6.387442e+000 9.242230e+000 -1.072970e+001 -8.431656e+000 -3.681612e+000 -2.195145e+000 3.180711e-002 2.800208e+000 -4.636538e+000 9.156558e-001 5.431051e-001 4.496636e-001 8.112805e-001 8.994470e-001 -4.950182e-001 -1.434430e+000 1.047176e+000 -8.710409e-001 2.154006e-001 2.074877e-001 -2.677297e-001 -3.298191e-003
<VARIANCE> 25
 5.372044e+001 2.686312e+001 1.023475e+002 1.086362e+002 8.709037e+001 6.528689e+001 7.380195e+001 4.868218e+001 6.173510e+001 4.135853e+001 5.376284e+001 2.742753e+001 9.412216e-001 1.568562e+000 5.510936e+000 5.421477e+000 3.452974e+000 5.140528e+000 5.604653e+000 2.301723e+000 3.827801e+000 2.046197e+000 3.248387e+000 2.824560e+000 7.713129e-001
<GCONST> 1.077470e+002
<STATE> 4
<MEAN> 25
 3.255708e+000 -4.579222e+000 1.444011e+001 1.094122e+001 1.685628e+001 -7.370524e+000 -1.806246e+001 2.123029e+000 -3.912782e+000 -4.318388e-001 2.832918e+000 -6.335082e+000 1.720833e-001 3.292114e-002 -4.477193e-001 -4.552729e-002 -3.535675e-003 9.232447e-002 -4.068565e-001 1.943111e-001 -9.261965e-002 -2.863364e-001 -4.306759e-002 -1.136025e-001 -1.473055e-001
<VARIANCE> 25
 1.927741e+001 3.053787e+001 8.761501e+001 6.298537e+001 1.395902e+002 7.756724e+001 7.480060e+001 5.088231e+001 4.253313e+001 3.973052e+001 3.022610e+001 3.134602e+001 1.330121e-001 3.831090e-001 5.504180e-001 7.275375e-001 7.042086e-001 6.852979e-001 1.638054e+000 9.673063e-001 7.871563e-001 8.983934e-001 8.206376e-001 7.280766e-001 2.012195e-001
<GCONST> 8.613599e+001
<TRANSP> 5
 0.000000e+000 1.000000e+000 0.000000e+000 0.000000e+000 0.000000e+000
 0.000000e+000 8.731339e-001 1.268661e-001 0.000000e+000 0.000000e+000
 0.000000e+000 0.000000e+000 7.640297e-001 2.359703e-001 0.000000e+000
 0.000000e+000 0.000000e+000 0.000000e+000 8.100259e-001 1.899741e-001
 0.000000e+000 0.000000e+000 0.000000e+000 0.000000e+000 0.000000e+000
<ENDHMM>
~h "k"
<BEGINHMM>
<NUMSTATES> 5
<STATE> 2
<MEAN> 25
 -7.172807e+000 5.449457e-001 -9.731013e-001 -7.592657e-001 -3.601624e-001 4.368899e+000 1.648540e+000 2.566690e+000 1.795217e+000 1.555290e+000 -1.795100e-001 1.615426e+000 8.189380e-001 -1.879788e+000 3.718658e-001 -2.284657e+000 -1.692679e+000 -1.038798e+000 4.198381e-001 -1.234099e+000 -4.169606e-002 -1.069872e-001 1.427099e+000 2.672726e-001 2.726030e+000
<VARIANCE> 25
 5.183385e+001 7.195363e+001 1.958753e+001 2.720782e+001 6.833139e+001 3.085560e+001 3.676605e+001 3.952544e+001 2.109425e+001 3.427842e+001 2.411400e+001 2.115334e+001 1.156961e+001 1.538101e+001 6.209311e+000 7.181421e+000 2.309606e+001 1.524575e+001 7.199338e+000 8.259505e+000 3.878670e+000 7.857656e+000 5.842939e+000 5.758776e+000 1.641290e+001
<GCONST> 1.168621e+002
<STATE> 3
<MEAN> 25
 -2.133272e-001 -8.181086e+000 1.184834e+000 -1.203149e+001 -1.335315e+001 -4.290702e+000 4.793075e+000 -4.945478e+000 1.137882e+000 -1.721085e+000 9.486730e+000 3.819198e+000 2.304953e+000 5.502092e-001 8.673561e-001 -1.651123e+000 -1.848945e+000 -3.941807e+000 9.919651e-001 -7.728294e-001 -6.117718e-001 -9.448212e-001 1.033627e+000 -4.574160e-001 3.668708e+000
<VARIANCE> 25
 4.464875e+001 1.864093e+002 1.390829e+002 5.782341e+001 2.311339e+002 2.258017e+002 9.606448e+001 1.512963e+002 4.560482e+001 7.157516e+001 5.681583e+001 6.997984e+001 5.272808e+000 1.175268e+001 9.637607e+000 1.305440e+001 1.853836e+001 1.662371e+001 7.048685e+000 1.112249e+001 3.547256e+000 4.712364e+000 7.645673e+000 4.837903e+000 9.185521e+000
<GCONST> 1.284904e+002
<STATE> 4
<MEAN> 25
 1.925264e+000 1.477409e+000 2.354411e+000 -9.086454e+000 -8.709199e+000 -1.251016e+001 3.778199e+000 -3.469721e+000 -9.089634e-001 -3.546696e-001 5.436893e+000 -6.742004e-001 2.037870e+000 1.346785e+000 4.400278e-001 2.011634e+000 1.440567e+000 -7.577717e-001 -1.066534e+000 8.565353e-001 -2.788185e-001 -1.562763e-002 -1.718199e+000 -7.738334e-001 4.011496e-002
<VARIANCE> 25
 5.645833e+001 1.262134e+002 6.841365e+001 1.002014e+002 1.405319e+002 1.312111e+002 5.932176e+001 1.141462e+002 4.386237e+001 6.151025e+001 5.510092e+001 5.637195e+001 6.299324e+000 6.310509e+000 5.416009e+000 5.389544e+000 5.035975e+000 1.407782e+001 7.306462e+000 7.284725e+000 4.833704e+000 4.214534e+000 4.365829e+000 6.146767e+000 3.332392e+000
<GCONST> 1.210351e+002
<TRANSP> 5
 0.000000e+000 1.000000e+000 0.000000e+000 0.000000e+000 0.000000e+000
 0.000000e+000 6.879877e-001 3.120123e-001 0.000000e+000 0.000000e+000
 0.000000e+000 0.000000e+000 5.536274e-001 4.463726e-001 0.000000e+000
 0.000000e+000 0.000000e+000 0.000000e+000 5.918733e-001 4.081267e-001
 0.000000e+000 0.000000e+000 0.000000e+000 0.000000e+000 0.000000e+000
<ENDHMM>
~h "l"
<BEGINHMM>
<NUMSTATES> 5
<STATE> 2
<MEAN> 25
 8.818651e+000 8.188481e-001 -3.052107e+000 -2.458488e+000 -4.010899e+000 -2.275477e+000 2.302604e+000 1.626053e+000 -7.347047e-001 -5.671091e+000 -2.490647e+000 -2.092896e-001 2.962907e-001 -1.185397e-001 -8.175499e-001 -5.183242e-002 4.402010e-001 -2.657916e-001 -2.753768e-002 -5.375493e-002 -4.570368e-001 -4.469071e-002 2.865939e-003 1.809265e-001 1.593715e-001
<VARIANCE> 25
 1.039439e+002 6.954887e+001 7.221060e+001 5.551144e+001 8.961378e+001 1.044895e+002 1.228774e+002 8.593576e+001 9.881284e+001 5.686131e+001 7.323795e+001 4.780830e+001 7.180582e+000 6.743731e+000 6.878623e+000 4.785643e+000 8.527678e+000 9.493061e+000 1.194067e+001 8.587536e+000 1.032224e+001 6.888573e+000 6.268720e+000 3.816482e+000 5.156675e+000
<GCONST> 1.238107e+002
<STATE> 3
<MEAN> 25
 1.194698e+001 -2.023735e+000 -7.119828e-001 -3.979735e+000 -9.618181e+000 -1.015195e+001 5.399534e+000 3.981431e+000 -7.804732e+000 -7.588187e+000 -2.404200e-001 -7.973559e-001 -2.427157e-001 9.674928e-002 -1.092446e-001 -2.856632e-001 5.594564e-002 -7.805618e-002 2.402958e-001 2.132951e-001 6.380412e-003 2.329518e-001 1.957765e-001 3.218072e-001 -1.914714e-001
<VARIANCE> 25
 3.613356e+001 3.145389e+001 4.789533e+001 5.130741e+001 1.009464e+002 8.177077e+001 1.063370e+002 7.509252e+001 9.452599e+001 5.906880e+001 7.361439e+001 6.661450e+001 8.797778e-001 1.582901e+000 2.117855e+000 2.646933e+000 3.679653e+000 2.996415e+000 3.875563e+000 3.215812e+000 3.452009e+000 3.339968e+000 2.619427e+000 2.640652e+000 9.450875e-001
<GCONST> 1.072191e+002
<STATE> 4
<MEAN> 25
 1.125820e+001 -4.628267e+000 -5.431540e+000 -5.903236e+000 -8.229341e-001 -1.306216e+001 5.650957e+000 4.447069e-001 -5.915266e+000 -4.415880e-001 2.485201e+000 1.558096e-001 -1.228653e-001 -1.372507e-001 -7.940264e-002 -2.890100e-002 1.732295e-001 -8.397278e-002 3.206713e-002 5.389879e-003 1.542122e-001 2.168502e-001 5.916338e-002 -5.489761e-003 -4.206862e-002
<VARIANCE> 25
 4.252252e+001 2.596146e+001 3.473811e+001 5.092728e+001 6.203338e+001 7.787506e+001 8.786626e+001 7.397173e+001 6.489715e+001 5.924315e+001 5.779685e+001 3.712296e+001 4.900824e-001 6.598792e-001 9.070058e-001 1.657847e+000 2.129485e+000 1.702683e+000 2.014227e+000 1.945767e+000 2.061687e+000 1.868162e+000 1.738119e+000 1.705867e+000 4.156068e-001
<GCONST> 9.711006e+001
<TRANSP> 5
 0.000000e+000 1.000000e+000 0.000000e+000 0.000000e+000 0.000000e+000
 0.000000e+000 6.408674e-001 3.591327e-001 0.000000e+000 0.000000e+000
 0.000000e+000 0.000000e+000 7.830123e-001 2.169877e-001 0.000000e+000
 0.000000e+000 0.000000e+000 0.000000e+000 8.567365e-001 1.432635e-001
 0.000000e+000 0.000000e+000 0.000000e+000 0.000000e+000 0.000000e+000
<ENDHMM>
~h "m"
<BEGINHMM>
<NUMSTATES> 5
<STATE> 2
<MEAN> 25
 6.664574e+000 9.415215e+000 1.873581e+000 4.084815e+000 1.913026e+000 2.550007e+000 1.601283e+000 1.421492e+000 -3.060335e+000 -5.243235e+000 -9.026112e+000 -8.035422e+000 -7.690976e-001 2.691378e-001 6.650433e-001 7.959256e-001 2.655805e-001 4.241313e-001 -1.560186e-001 -2.608772e-001 1.342327e-001 3.327604e-001 1.151691e-001 -2.892749e-001 -7.315503e-001
<VARIANCE> 25
 2.393356e+001 3.083655e+001 3.042196e+001 4.233933e+001 3.208147e+001 2.832140e+001 3.020580e+001 3.048234e+001 6.053004e+001 3.476991e+001 2.731025e+001 4.104057e+001 5.041378e-001 8.389846e-001 1.148734e+000 1.523324e+000 1.282440e+000 1.423485e+000 2.032912e+000 1.180554e+000 1.912725e+000 1.633379e+000 2.188848e+000 2.063618e+000 2.962458e-001
<GCONST> 9.062945e+001
<STATE> 3
<MEAN> 25
 -3.484768e+000 6.667630e+000 2.605742e+000 5.458844e+000 3.333198e+000 5.349286e+000 9.278167e-001 6.153539e-001 -1.048383e+000 -2.268022e-001 -2.069541e+000 -2.258203e+000 -1.458450e+000 -1.263154e+000 -1.010871e+000 -6.270062e-001 -1.775702e-001 2.897676e-001 1.376701e-001 1.283302e-001 5.209474e-001 8.834227e-001 5.841808e-001 6.536032e-001 -7.986752e-001
<VARIANCE> 25
 5.048569e+001 3.785514e+001 3.041456e+001 4.199942e+001 3.225926e+001 3.026973e+001 4.010464e+001 2.613735e+001 3.830541e+001 2.902547e+001 2.705470e+001 2.480644e+001 2.097332e+000 2.486516e+000 2.405583e+000 2.259073e+000 2.050779e+000 2.063906e+000 2.336636e+000 2.249000e+000 3.147060e+000 2.533235e+000 2.752089e+000 1.701604e+000 9.376097e-001
<GCONST> 9.801829e+001
<STATE> 4
<MEAN> 25
 -6.725525e+000 1.604296e+000 -1.643328e+000 2.606248e+000 3.389479e+000 1.021024e+001 -3.990228e-001 3.027407e+000 3.708709e+000 3.299408e+000 -4.637370e-001 2.471956e+000 -4.824005e-002 -2.924350e-002 -5.629780e-002 4.183482e-004 -3.518576e-002 4.039086e-002 -1.458253e-002 4.951449e-002 2.055693e-002 4.762593e-002 3.127953e-002 8.281550e-002 -8.323290e-002
<VARIANCE> 25
 1.612564e+001 6.201324e+000 5.215906e+000 9.597464e+000 1.063254e+001 2.290373e+001 8.987435e+000 1.186682e+001 1.202237e+001 1.354076e+001 1.098032e+001 1.275607e+001 1.041530e-001 1.708121e-001 2.757653e-001 3.703099e-001 4.668237e-001 6.304556e-001 6.394570e-001 7.456461e-001 7.714834e-001 7.980957e-001 7.529908e-001 7.699484e-001 4.307125e-002
<GCONST> 6.221523e+001
<TRANSP> 5
 0.000000e+000 1.000000e+000 0.000000e+000 0.000000e+000 0.000000e+000
 0.000000e+000 8.173944e-001 1.826056e-001 0.000000e+000 0.000000e+000
 0.000000e+000 0.000000e+000 7.452967e-001 2.547034e-001 0.000000e+000
 0.000000e+000 0.000000e+000 0.000000e+000 9.208341e-001 7.916593e-002
 0.000000e+000 0.000000e+000 0.000000e+000 0.000000e+000 0.000000e+000
<ENDHMM>
~h "n"
<BEGINHMM>
<NUMSTATES> 5
<STATE> 2
<MEAN> 25
 1.072691e+001 9.840021e+000 1.050538e+000 1.957660e+000 7.929095e+000 3.808311e-001 4.181917e-001 -3.568726e+000 -8.897459e+000 -1.358628e+000 -5.253076e+000 2.215126e+000 -6.847939e-001 1.547792e+000 1.151723e+000 9.952451e-001 -7.758866e-002 9.889733e-001 -6.429177e-001 -2.558448e-001 -1.144538e-001 -6.935821e-001 -4.438004e-001 -2.689879e-001 -1.388075e+000
<VARIANCE> 25
 1.473741e+001 7.337720e+001 4.418346e+001 5.307199e+001 5.834539e+001 6.875346e+001 5.352767e+001 6.189977e+001 6.246877e+001 8.011528e+001 1.025906e+002 4.854645e+001 5.854102e-001 3.716531e+000 2.043338e+000 5.128119e+000 4.142567e+000 5.755469e+000 3.580028e+000 3.761542e+000 4.815219e+000 5.107289e+000 5.297563e+000 4.244271e+000 1.071002e+000
<GCONST> 1.094091e+002
<STATE> 3
<MEAN> 25
 9.172530e-001 8.804584e+000 4.045032e+000 6.716412e+000 2.732109e+000 5.591103e+000 -3.862759e+000 -3.915710e+000 -2.323496e+000 -2.089764e+000 -2.989433e+000 -1.631134e+000 -1.413540e+000 -1.120326e+000 -7.882584e-001 -2.112224e-001 -1.714201e-001 4.043595e-001 2.419622e-001 4.132341e-001 7.364240e-001 4.793389e-001 3.601466e-001 1.308870e-001 -8.452182e-001
<VARIANCE> 25
 3.986597e+001 4.126836e+001 3.906454e+001 4.835792e+001 2.359682e+001 2.674637e+001 3.560345e+001 2.911417e+001 2.581300e+001 2.457867e+001 2.720074e+001 1.912948e+001 1.298476e+000 2.292396e+000 2.316946e+000 2.125331e+000 1.475016e+000 1.740946e+000 1.713421e+000 1.805666e+000 1.530336e+000 2.176682e+000 2.461907e+000 1.459606e+000 4.430126e-001
<GCONST> 9.342052e+001
<STATE> 4
<MEAN> 25
 -1.049235e+001 -1.273850e+000 -4.229252e+000 3.561507e+000 -2.219563e+000 6.720085e+000 -2.221538e+000 -1.200867e+000 3.007093e+000 7.168131e-001 -4.036986e-001 9.088432e-001 -1.125435e-001 -1.284267e-001 -9.142345e-002 -1.128089e-001 -1.165131e-001 -3.120165e-002 5.820655e-002 1.221792e-001 1.413585e-001 1.005376e-001 8.262613e-002 9.348325e-002 -6.351947e-002
<VARIANCE> 25
 1.742894e+001 9.597301e+000 9.861910e+000 1.236695e+001 3.233036e+001 1.173336e+001 1.024219e+001 1.292700e+001 1.257662e+001 1.367860e+001 8.951409e+000 8.146640e+000 2.177022e-001 4.051559e-001 5.162438e-001 5.991094e-001 6.949205e-001 7.114606e-001 8.798274e-001 1.023014e+000 8.820097e-001 9.032127e-001 9.059210e-001 8.129734e-001 9.211184e-002
<GCONST> 6.880238e+001
<TRANSP> 5
 0.000000e+000 1.000000e+000 0.000000e+000 0.000000e+000 0.000000e+000
 0.000000e+000 8.812712e-001 1.187287e-001 0.000000e+000 0.000000e+000
 0.000000e+000 0.000000e+000 8.751461e-001 1.248539e-001 0.000000e+000
 0.000000e+000 0.000000e+000 0.000000e+000 8.872517e-001 1.127483e-001
 0.000000e+000 0.000000e+000 0.000000e+000 0.000000e+000 0.000000e+000
<ENDHMM>
~h "p"
<BEGINHMM>
<NUMSTATES> 5
<STATE> 2
<MEAN> 25
 -8.427659e+000 2.019476e+000 -2.547446e+000 1.919938e+000 -1.779651e+000 4.923320e+000 7.873198e-001 8.741261e-001 1.862672e+000 2.754149e+000 2.113945e+000 1.988142e+000 -2.684548e-001 -5.142788e-001 -3.896068e-001 -1.333456e-001 2.605086e-002 -1.693476e-001 -2.009057e-001 -2.857848e-001 5.514420e-002 6.936385e-002 8.184844e-002 -2.930785e-002 7.018964e-003
<VARIANCE> 25
 2.656309e+001 1.293810e+001 9.983804e+000 1.961175e+001 3.950255e+001 1.777354e+001 3.321910e+001 1.604076e+001 2.053198e+001 1.440152e+001 2.384968e+001 9.435262e+000 4.226050e+000 1.892117e+000 1.183683e+000 1.581067e+000 2.423356e+000 1.877759e+000 1.989085e+000 1.761446e+000 1.795113e+000 1.376787e+000 1.480512e+000 1.094932e+000 2.325419e+000
<GCONST> 8.870814e+001
<STATE> 3
<MEAN> 25
 -6.579100e+000 1.454515e+000 -3.422571e+000 1.138854e+000 4.365702e-001 4.969206e+000 -9.530481e-001 3.210483e-001 1.569050e+000 2.925259e+000 1.192769e+000 2.021515e+000 4.495018e+000 2.349178e-003 -2.293998e-001 -1.596295e+000 -1.563537e+000 -3.443612e+000 -6.508456e-001 -1.031312e+000 2.722442e-001 -1.677960e+000 -5.961426e-001 -7.334303e-001 4.783527e+000
<VARIANCE> 25
 2.693723e+001 1.108231e+001 1.091880e+001 2.045417e+001 2.455383e+001 3.157101e+001 1.784543e+001 1.957228e+001 1.741558e+001 1.320130e+001 1.262360e+001 1.063896e+001 5.917887e+000 6.189976e+000 4.531486e+000 3.553370e+000 8.379241e+000 1.020841e+001 6.810914e+000 8.278388e+000 4.952981e+000 3.631815e+000 6.086339e+000 3.767535e+000 2.831525e+000
<GCONST> 1.018252e+002
<STATE> 4
<MEAN> 25
 6.320769e+000 -2.119395e-001 -4.879056e+000 -4.116422e+000 -5.028490e+000 -6.850436e+000 -7.007748e-001 -3.012846e+000 2.432520e+000 -3.830924e+000 1.556792e-001 -7.432084e-001 5.424796e+000 -6.554040e-001 -6.045402e-001 -1.741069e+000 -2.129949e+000 -4.844124e+000 1.274260e+000 -1.007722e-001 -4.389457e-001 -1.648117e+000 -3.198474e-001 -1.521654e+000 5.991179e+000
<VARIANCE> 25
 6.132061e+001 7.658437e+001 6.205517e+001 3.612034e+001 6.746066e+001 1.021606e+002 7.543520e+001 9.923393e+001 4.516113e+001 4.889766e+001 4.262447e+001 4.136267e+001 5.027040e+000 8.395920e+000 6.460042e+000 5.484979e+000 1.084501e+001 1.043771e+001 9.988603e+000 9.473917e+000 6.651073e+000 6.272811e+000 6.614435e+000 5.395902e+000 4.990410e+000
<GCONST> 1.205527e+002
<TRANSP> 5
 0.000000e+000 1.000000e+000 0.000000e+000 0.000000e+000 0.000000e+000
 0.000000e+000 7.042384e-001 2.957616e-001 0.000000e+000 0.000000e+000
 0.000000e+000 0.000000e+000 4.284497e-001 5.715504e-001 0.000000e+000
 0.000000e+000 0.000000e+000 0.000000e+000 4.415251e-001 5.584750e-001
 0.000000e+000 0.000000e+000 0.000000e+000 0.000000e+000 0.000000e+000
<ENDHMM>
~h "r"
<BEGINHMM>
<NUMSTATES> 5
<STATE> 2
<MEAN> 25
 1.372762e+001 -6.329797e+000 -5.265587e+000 -4.623901e+000 -7.841102e+000 -9.449769e-001 7.442320e-001 -4.000491e+000 5.167013e+000 -7.765245e-002 -4.782868e+000 5.770133e+000 -4.203112e-002 -7.313928e-002 -1.302571e-001 -1.354376e-001 5.758299e-001 5.170038e-001 -7.111542e-001 -2.098740e-001 -1.431196e-001 -2.153750e-001 5.552728e-001 2.846985e-001 -5.628838e-002
<VARIANCE> 25
 9.984982e+000 4.095211e+001 2.631816e+001 3.797925e+001 4.425125e+001 5.082443e+001 5.920883e+001 3.046174e+001 4.462342e+001 3.930508e+001 1.035549e+002 3.693048e+001 4.513802e-001 2.134967e+000 1.673694e+000 1.723478e+000 3.119296e+000 3.488263e+000 3.059656e+000 1.912919e+000 2.063356e+000 2.547795e+000 3.147337e+000 2.720298e+000 6.054257e-001
<GCONST> 9.828363e+001
<STATE> 3
<MEAN> 25
 1.576807e+001 -1.850158e+000 -1.001856e+001 -6.173010e+000 4.868815e+000 -3.184995e+000 -5.945003e+000 -8.115173e-001 1.381225e+000 -5.400787e+000 2.343430e+000 4.864233e+000 -4.057220e-002 1.293862e+000 -3.258141e-001 3.466100e-001 1.052397e+000 1.012667e-001 1.521799e-001 1.780545e-001 -7.006681e-001 -4.558069e-002 -5.590976e-001 -6.241392e-001 -7.529555e-001
<VARIANCE> 25
 2.725035e+001 5.591767e+001 5.231521e+001 4.855097e+001 9.317249e+001 8.289575e+001 8.143399e+001 5.609102e+001 4.973195e+001 5.243798e+001 8.583041e+001 4.620473e+001 2.761331e+000 7.778502e+000 7.705338e+000 3.764649e+000 5.559906e+000 1.274275e+001 7.113446e+000 5.575911e+000 6.574661e+000 6.098814e+000 6.572237e+000 4.922272e+000 2.021446e+000
<GCONST> 1.168937e+002
<STATE> 4
<MEAN> 25
 1.049409e+001 4.626448e+000 -6.153295e+000 -5.175282e+000 3.490373e+000 1.531051e+000 -1.653040e+000 -3.076437e+000 -6.952859e+000 -4.084853e+000 -2.514714e+000 1.102676e+000 -3.187332e-001 4.908040e-001 6.823270e-001 6.737378e-001 1.351500e-001 1.419832e-002 2.612134e-002 1.529393e-001 -4.070370e-001 7.457384e-002 -1.891062e-001 -8.384871e-001 -4.635179e-001
<VARIANCE> 25
 2.435412e+001 5.498616e+001 3.740923e+001 4.097209e+001 5.969416e+001 7.607479e+001 5.103803e+001 3.530362e+001 4.001068e+001 5.896686e+001 7.302367e+001 3.626184e+001 1.684191e+000 1.474786e+000 3.137476e+000 2.933572e+000 2.705609e+000 3.924325e+000 3.362171e+000 2.281668e+000 3.976566e+000 3.211913e+000 2.730902e+000 2.884366e+000 1.173242e+000
<GCONST> 1.043471e+002
<TRANSP> 5
 0.000000e+000 1.000000e+000 0.000000e+000 0.000000e+000 0.000000e+000
 0.000000e+000 8.693745e-001 1.306255e-001 0.000000e+000 0.000000e+000
 0.000000e+000 0.000000e+000 8.060658e-001 1.939342e-001 0.000000e+000
 0.000000e+000 0.000000e+000 0.000000e+000 7.690773e-001 2.309227e-001
 0.000000e+000 0.000000e+000 0.000000e+000 0.000000e+000 0.000000e+000
<ENDHMM>
~h "s"
<BEGINHMM>
<NUMSTATES> 5
<STATE> 2
<MEAN> 25
 -8.030554e+000 -8.504804e+000 1.042661e+001 -4.179871e+000 8.466155e-003 7.037614e+000 1.072554e+000 -4.219489e+000 4.068699e+000 2.600142e+000 3.013847e+000 1.347576e+000 -2.947348e+000 -2.007218e+000 3.788679e+000 -1.941419e+000 4.782010e-001 2.115451e-001 1.157348e+000 -1.099429e+000 9.936014e-001 -2.650486e-001 1.502365e+000 -1.402883e-001 1.811512e+000
<VARIANCE> 25
 8.325160e+001 1.015034e+002 1.477861e+002 7.183810e+001 6.676936e+001 7.896033e+001 8.849403e+001 5.530080e+001 5.233704e+001 4.268616e+001 4.155563e+001 3.760439e+001 5.761277e+000 5.511671e+000 9.834809e+000 6.588501e+000 6.605009e+000 7.349429e+000 9.143148e+000 4.254998e+000 6.329052e+000 5.112671e+000 5.191802e+000 3.963208e+000 4.184301e+000
<GCONST> 1.194959e+002
<STATE> 3
<MEAN> 25
 -2.197027e+001 -1.148767e+001 1.888978e+001 -1.310517e+001 5.890175e+000 2.717787e+000 6.564866e+000 -9.220405e+000 9.162991e+000 -1.571905e-001 1.020774e+001 -2.221025e+000 -3.106762e-001 -1.936171e-001 -3.112471e-001 -1.394384e-001 1.461299e-001 -9.528846e-002 -1.397719e-001 -3.268471e-001 4.292052e-002 -3.191198e-002 1.846675e-001 6.330797e-002 6.433043e-002
<VARIANCE> 25
 1.538120e+001 9.431551e+001 5.318650e+001 6.280738e+001 5.616693e+001 5.964596e+001 7.868203e+001 3.625002e+001 3.213050e+001 2.644711e+001 2.420726e+001 2.470613e+001 2.403957e+000 1.454227e+000 1.568809e+000 1.538302e+000 1.505898e+000 1.738038e+000 1.950416e+000 2.069976e+000 2.349609e+000 1.988075e+000 1.916973e+000 1.719746e+000 9.892187e-001
<GCONST> 9.776567e+001
<STATE> 4
<MEAN> 25
 -1.353814e+001 -1.140056e+001 1.365880e+001 -9.514704e+000 2.189439e+000 4.101320e+000 7.220205e-001 -9.444231e+000 5.572838e+000 8.279268e-001 4.898766e+000 1.096826e+000 4.121077e+000 2.181245e+000 -2.572139e+000 1.591802e+000 -8.475370e-001 -9.461823e-001 -1.504844e+000 7.526710e-001 -1.540427e+000 -4.062206e-001 -2.041604e+000 -2.482336e-003 -7.247558e-001
<VARIANCE> 25
 5.520524e+001 1.059787e+002 6.950594e+001 7.993142e+001 9.081996e+001 8.798607e+001 8.726228e+001 6.595927e+001 5.853239e+001 3.945824e+001 4.931987e+001 3.012493e+001 7.549056e+000 8.281292e+000 6.202254e+000 5.289494e+000 5.257549e+000 6.698880e+000 6.942982e+000 6.400387e+000 6.198213e+000 4.114390e+000 5.231467e+000 3.322300e+000 3.013192e+000
<GCONST> 1.181152e+002
<TRANSP> 5
 0.000000e+000 1.000000e+000 0.000000e+000 0.000000e+000 0.000000e+000
 0.000000e+000 8.223060e-001 1.776940e-001 0.000000e+000 0.000000e+000
 0.000000e+000 0.000000e+000 8.660064e-001 1.339936e-001 0.000000e+000
 0.000000e+000 0.000000e+000 0.000000e+000 7.471442e-001 2.528558e-001
 0.000000e+000 0.000000e+000 0.000000e+000 0.000000e+000 0.000000e+000
<ENDHMM>
~h "t"
<BEGINHMM>
<NUMSTATES> 5
<STATE> 2
<MEAN> 25
 -4.246517e+000 2.316163e+000 -2.515185e+000 1.459174e+000 -2.230852e+000 4.377667e+000 1.251314e+000 -5.807762e-001 1.086146e+000 2.523878e+000 2.575629e+000 2.345720e+000 -1.510688e+000 -4.161601e-001 5.440942e-002 3.515404e-001 3.738607e-001 9.741124e-002 -3.985879e-001 9.404662e-002 1.625659e-001 2.014977e-001 9.315523e-002 -2.592208e-001 -1.001843e+000
<VARIANCE> 25
 6.819837e+001 2.377067e+001 1.642812e+001 1.914190e+001 5.078219e+001 2.764707e+001 3.033695e+001 2.652839e+001 2.920602e+001 1.900343e+001 2.818466e+001 1.373878e+001 4.713380e+000 5.454444e+000 2.121628e+000 3.017708e+000 3.857470e+000 3.884885e+000 3.019817e+000 3.802118e+000 2.734288e+000 2.043140e+000 4.117182e+000 1.570581e+000 6.310656e+000
<GCONST> 1.009849e+002
<STATE> 3
<MEAN> 25
 -6.983709e+000 -3.762149e+000 -1.440505e+000 5.890562e-001 -1.271703e+000 5.249720e+000 -1.594263e+000 -2.328888e+000 2.378838e+000 3.312140e+000 1.033206e+000 1.969397e+000 2.257318e+000 -3.900372e+000 1.313932e+000 -1.028882e+000 -1.047987e+000 -1.118491e+000 -1.111384e+000 -2.216994e+000 2.290450e-001 -1.201632e+000 -2.505338e-001 -2.772443e-001 5.012594e+000
<VARIANCE> 25
 3.173409e+001 1.001619e+002 2.379995e+001 2.550740e+001 5.149340e+001 4.278543e+001 3.125548e+001 3.946383e+001 2.301360e+001 2.740520e+001 1.717870e+001 1.427995e+001 8.104539e+000 1.384769e+001 3.869182e+000 4.676203e+000 1.341310e+001 1.447915e+001 8.886392e+000 8.519464e+000 4.858776e+000 4.700840e+000 6.261993e+000 3.188657e+000 1.135997e+001
<GCONST> 1.129489e+002
<STATE> 4
<MEAN> 25
 -1.138062e+000 -1.186922e+001 1.850530e+000 -1.053079e+000 -3.098104e+000 -9.651963e-001 -3.626875e+000 -9.368427e+000 2.581832e+000 1.342586e-001 9.279788e-001 2.662655e-001 3.019503e+000 2.909859e-001 1.870550e+000 5.092233e-001 1.182896e+000 -3.313517e+000 -5.196673e-001 -8.690824e-001 -1.256164e+000 -1.606337e+000 -1.577786e+000 -1.716030e+000 4.019202e+000
<VARIANCE> 25
 5.545407e+001 1.081320e+002 5.962378e+001 4.444689e+001 1.005290e+002 1.283174e+002 1.050684e+002 8.683678e+001 6.187445e+001 4.544837e+001 5.349104e+001 4.028893e+001 6.305930e+000 7.921668e+000 8.746307e+000 8.015455e+000 9.601799e+000 1.306630e+001 1.034213e+001 9.476086e+000 6.531633e+000 4.785229e+000 6.760200e+000 4.921145e+000 8.986344e+000
<GCONST> 1.234496e+002
<TRANSP> 5
 0.000000e+000 1.000000e+000 0.000000e+000 0.000000e+000 0.000000e+000
 0.000000e+000 7.790700e-001 2.209300e-001 0.000000e+000 0.000000e+000
 0.000000e+000 0.000000e+000 3.932900e-001 6.067100e-001 0.000000e+000
 0.000000e+000 0.000000e+000 0.000000e+000 4.553591e-001 5.446409e-001
 0.000000e+000 0.000000e+000 0.000000e+000 0.000000e+000 0.000000e+000
<ENDHMM>
~h "y"
<BEGINHMM>
<NUMSTATES> 5
<STATE> 2
<MEAN> 25
 1.304203e+001 -8.909343e+000 -6.087792e+000 -2.189388e+000 3.291668e+000 -5.607031e+000 8.802341e+000 -5.931836e+000 2.376657e+000 8.096173e+000 -4.561221e-001 -2.418178e+000 8.622338e-001 -5.197112e-001 1.354060e+000 8.291789e-001 -3.059150e-001 -1.486999e+000 -1.558043e+000 -1.337635e+000 2.420878e-002 1.555657e+000 5.308967e-001 2.469007e-001 1.115507e+000
<VARIANCE> 25
 6.199494e+001 2.649718e+001 3.796396e+001 6.086649e+001 4.027745e+001 1.195910e+002 8.263477e+001 5.654323e+001 4.209336e+001 7.748537e+001 2.241812e+001 2.007851e+001 8.707029e+000 1.879670e+000 7.563521e+000 1.759804e+000 1.883172e+000 2.665089e+000 3.467137e+000 2.656115e+000 1.723858e+000 3.021253e+000 1.925025e+000 8.474265e-001 5.337945e+000
<GCONST> 1.052568e+002
<STATE> 3
<MEAN> 25
 1.013887e+001 -4.322269e+000 8.840701e+000 5.383398e+000 1.179237e+001 -2.781122e+001 -2.408026e+000 -3.481104e+000 -8.035893e+000 9.599258e+000 -3.038269e+000 -3.792937e+000 -1.837670e-002 2.360616e-001 2.395964e-001 4.622443e-001 4.740949e-002 -1.953455e-001 -3.711608e-001 5.176395e-002 -1.982376e-001 -1.573371e-001 1.554292e-001 1.448018e-001 -1.656468e-001
<VARIANCE> 25
 1.446448e+001 1.278527e+001 1.223089e+002 1.557724e+002 5.912886e+001 1.121741e+002 3.707144e+001 5.240221e+001 1.073911e+002 5.613975e+001 3.716232e+001 2.056542e+001 8.036715e-001 7.390906e-001 6.841325e+000 6.710246e+000 6.662363e-001 3.778787e+000 3.084930e+000 4.400328e+000 2.042678e+000 4.611236e+000 5.908990e+000 1.893923e+000 6.242105e-001
<GCONST> 1.037605e+002
<STATE> 4
<MEAN> 25
 1.428173e+001 -7.671721e+000 3.561433e+000 2.139971e+000 3.839140e+000 -6.331058e+000 -9.336778e+000 -6.865183e+000 1.958068e+000 -8.196477e-001 9.741266e+000 -1.045437e+000 2.088968e-001 -1.553568e-001 -1.299497e+000 -1.213852e+000 -5.809566e-002 1.037933e+000 9.709608e-001 8.416299e-001 1.383482e-001 -2.249846e-001 6.746477e-003 2.400838e-001 -7.120831e-002
<VARIANCE> 25
 6.644118e+000 4.652432e+001 1.103242e+002 2.160500e+002 8.518386e+001 7.696670e+001 6.815833e+001 3.459062e+001 1.506951e+001 9.975492e+001 2.641223e+001 6.784813e+001 7.568476e-001 2.186998e+000 4.021486e+000 7.065779e+000 2.196162e+000 2.238118e+000 3.813998e+000 2.757342e+000 1.296396e+000 5.708081e+000 4.001302e+000 2.766128e+000 7.604203e-001
<GCONST> 1.050475e+002
<TRANSP> 5
 0.000000e+000 1.000000e+000 0.000000e+000 0.000000e+000 0.000000e+000
 0.000000e+000 8.062764e-001 1.937236e-001 0.000000e+000 0.000000e+000
 0.000000e+000 0.000000e+000 9.330090e-001 6.699100e-002 0.000000e+000
 0.000000e+000 0.000000e+000 0.000000e+000 8.918047e-001 1.081953e-001
 0.000000e+000 0.000000e+000 0.000000e+000 0.000000e+000 0.000000e+000
<ENDHMM>
~h "aa"
<BEGINHMM>
<NUMSTATES> 5
<STATE> 2
<MEAN> 25
 7.710517e+000 -2.431982e+000 -5.543956e+000 -3.902246e+000 -1.889501e+000 -3.608064e+000 3.449396e+000 1.402479e+000 -1.117979e+000 -2.405113e+000 -1.198269e+000 -2.417766e-001 1.957299e+000 -8.041605e-001 -1.033874e+000 -7.165437e-001 -6.349970e-001 -1.334789e+000 1.038588e+000 5.783406e-002 -1.390060e-001 -1.272054e-001 -2.893642e-002 1.758259e-001 2.051052e+000
<VARIANCE> 25
 9.879875e+001 7.174084e+001 6.600529e+001 6.296946e+001 6.838578e+001 1.027062e+002 6.071686e+001 6.188751e+001 6.034663e+001 6.115504e+001 5.470461e+001 4.932209e+001 6.050098e+000 7.605075e+000 6.131441e+000 5.406838e+000 6.478059e+000 7.437411e+000 6.516980e+000 5.643917e+000 5.362263e+000 6.089297e+000 5.294283e+000 4.842386e+000 4.696133e+000
<GCONST> 1.194345e+002
<STATE> 3
<MEAN> 25
 1.063608e+001 -5.341080e+000 -6.784552e+000 -5.521436e+000 -1.353739e+000 -1.045078e+001 6.210115e+000 -1.509528e+000 -2.552749e+000 7.658038e-001 1.498119e+000 -1.247139e+000 -3.992344e-001 3.673534e-001 1.670014e-001 2.593395e-001 -3.659539e-002 9.992346e-001 -2.481574e-001 -3.807548e-002 3.430896e-001 1.426703e-001 -3.743763e-001 2.009664e-001 -8.331124e-001
<VARIANCE> 25
 3.561510e+001 3.823967e+001 3.079435e+001 4.001457e+001 7.610290e+001 1.072821e+002 8.333405e+001 8.052663e+001 7.222997e+001 6.284354e+001 5.387328e+001 4.677650e+001 1.819904e+000 3.028798e+000 2.336891e+000 3.034534e+000 3.533691e+000 5.269250e+000 3.744557e+000 3.900753e+000 3.906459e+000 3.346554e+000 3.354658e+000 2.646924e+000 2.590573e+000
<GCONST> 1.093294e+002
<STATE> 4
<MEAN> 25
 8.849591e+000 -4.082930e+000 -4.349954e+000 -6.783792e+000 -4.099507e+000 -1.360660e+000 7.453474e-001 -3.943845e-001 2.203438e+000 -1.394515e-001 -3.265700e+000 3.867244e+000 -5.116511e-001 4.130976e-001 2.886018e-001 4.590085e-001 1.760285e-001 5.540193e-001 -5.586498e-003 1.070910e-001 -1.029150e-002 1.026912e-001 1.988049e-001 -3.406979e-002 -7.738212e-001
<VARIANCE> 25
 5.648834e+001 3.571003e+001 2.024673e+001 4.329285e+001 4.600800e+001 6.092247e+001 5.498058e+001 4.086545e+001 5.044451e+001 3.477731e+001 5.721367e+001 4.247295e+001 1.064998e+000 1.394419e+000 1.046499e+000 1.715102e+000 1.617275e+000 1.794480e+000 1.862375e+000 1.774743e+000 2.091461e+000 1.580109e+000 1.936145e+000 1.581823e+000 1.022340e+000
<GCONST> 9.683162e+001
<TRANSP> 5
 0.000000e+000 1.000000e+000 0.000000e+000 0.000000e+000 0.000000e+000
 0.000000e+000 6.326880e-001 3.673120e-001 0.000000e+000 0.000000e+000
 0.000000e+000 0.000000e+000 7.953843e-001 2.046158e-001 0.000000e+000
 0.000000e+000 0.000000e+000 0.000000e+000 7.785618e-001 2.214382e-001
 0.000000e+000 0.000000e+000 0.000000e+000 0.000000e+000 0.000000e+000
<ENDHMM>
~h "ah"
<BEGINHMM>
<NUMSTATES> 5
<STATE> 2
<MEAN> 25
 1.239898e+000 6.302124e-001 2.153490e+000 1.783877e+000 -1.559160e+000 4.293317e+000 7.700735e-002 -2.977289e+000 8.700286e-002 -1.201023e+000 1.035138e+000 2.129390e+000 3.625007e+000 -8.985495e-001 -1.890960e+000 3.453197e-001 -5.093314e-001 -2.643564e+000 5.594687e-001 7.149093e-001 -2.326663e+000 -7.602608e-001 -1.382225e-001 3.544316e-002 2.485249e+000
<VARIANCE> 25
 9.250752e+001 9.493976e+001 1.061010e+002 7.891017e+001 6.784562e+001 8.240470e+001 4.452182e+001 7.695518e+001 4.799353e+001 2.708761e+001 4.781300e+001 2.516010e+001 9.089254e+000 2.121808e+001 9.000963e+000 5.161542e+000 9.572995e+000 1.339494e+001 6.887218e+000 7.958610e+000 9.841973e+000 6.126621e+000 7.979473e+000 3.883753e+000 8.638126e+000
<GCONST> 1.227384e+002
<STATE> 3
<MEAN> 25
 1.200392e+001 -5.646674e+000 -3.087435e+000 4.618152e-002 -3.095116e+000 -7.538756e+000 2.927284e+000 -2.162431e+000 -8.437816e+000 -3.071323e+000 1.643842e+000 9.132708e-001 3.307530e+000 -5.784545e-001 -1.557231e+000 -5.054778e-001 6.397246e-001 -3.643545e+000 9.580077e-001 4.663331e-001 -2.823314e+000 -2.266039e-001 -4.044344e-001 -6.181769e-001 2.957699e+000
<VARIANCE> 25
 3.358398e+001 1.041430e+002 9.479448e+001 7.522365e+001 1.021197e+002 7.026501e+001 5.776317e+001 1.064220e+002 5.613148e+001 8.076107e+001 4.291681e+001 3.479306e+001 5.183544e+000 1.549191e+001 6.609628e+000 7.456866e+000 8.283313e+000 1.124080e+001 6.690950e+000 9.678644e+000 1.013738e+001 6.989519e+000 5.598794e+000 4.622075e+000 9.013811e+000
<GCONST> 1.230097e+002
<STATE> 4
<MEAN> 25
 1.338342e+001 3.967221e+000 -2.460421e+000 -2.977787e+000 8.070024e+000 -8.007619e+000 5.609237e+000 1.496944e+000 -8.854744e+000 1.277771e+000 -3.856546e+000 2.083473e+000 -1.400250e-001 1.132931e+000 1.035117e-001 4.629630e-001 4.523630e-001 1.053931e+000 -4.256510e-001 3.676166e-001 3.690921e-001 6.154313e-002 -3.867300e-001 5.290283e-002 -1.011275e+000
<VARIANCE> 25
 1.885194e+001 1.232496e+002 4.447139e+001 4.951547e+001 1.491675e+002 1.074048e+002 8.478795e+001 1.491346e+002 5.885860e+001 7.219617e+001 1.011990e+002 4.577966e+001 1.637753e+000 6.942080e+000 2.734384e+000 4.931917e+000 6.472486e+000 9.107224e+000 5.532513e+000 7.116368e+000 5.664477e+000 4.057066e+000 7.352839e+000 3.475290e+000 3.728749e+000
<GCONST> 1.177908e+002
<TRANSP> 5
 0.000000e+000 1.000000e+000 0.000000e+000 0.000000e+000 0.000000e+000
 0.000000e+000 3.860083e-001 6.139917e-001 0.000000e+000 0.000000e+000
 0.000000e+000 0.000000e+000 3.712307e-001 6.287693e-001 0.000000e+000
 0.000000e+000 0.000000e+000 0.000000e+000 8.165429e-001 1.834571e-001
 0.000000e+000 0.000000e+000 0.000000e+000 0.000000e+000 0.000000e+000
<ENDHMM>
~h "ao"
<BEGINHMM>
<NUMSTATES> 5
<STATE> 2
<MEAN> 25
 6.015739e+000 8.415807e-001 5.983037e+000 -5.671721e+000 -3.531912e+000 -5.835667e+000 2.748591e+000 -1.001742e+000 -2.304393e+000 -6.683004e+000 -2.531152e+000 4.506830e-001 4.779634e+000 2.400621e+000 -1.917477e+000 -7.333682e-001 -1.824838e+000 -2.727480e+000 -4.772207e-001 1.447159e+000 -3.028446e-001 -1.178462e+000 -1.659854e+000 -3.600391e-001 1.587382e+000
<VARIANCE> 25
 6.940942e+001 6.186453e+001 4.175078e+001 6.378107e+001 8.634752e+001 7.112397e+001 4.420977e+001 7.077743e+001 6.782363e+001 5.749355e+001 2.481372e+001 4.060972e+001 5.034749e+000 7.443079e+000 4.668902e+000 3.190285e+000 5.301445e+000 6.312209e+000 1.009786e+001 7.940482e+000 5.312204e+000 7.491899e+000 6.700212e+000 3.963078e+000 1.556273e+000
<GCONST> 1.157791e+002
<STATE> 3
<MEAN> 25
 1.226209e+001 -3.213312e+000 3.786233e+000 -7.691591e+000 -1.122797e+001 -1.321918e+001 4.149354e+000 4.392563e-001 -1.894779e+000 -5.385398e+000 -4.007739e+000 1.841312e-001 1.310274e+000 1.437806e-001 -7.744531e-001 6.382185e-001 -2.256670e+000 -5.868449e-001 -5.846164e-001 1.271496e+000 1.124482e+000 4.323771e-001 -5.488760e-001 -1.114185e+000 -8.839846e-002
<VARIANCE> 25
 1.287568e+001 2.158297e+001 2.255367e+001 1.755572e+001 1.051368e+002 3.447759e+001 6.206267e+001 7.324820e+001 5.568514e+001 4.246142e+001 4.304381e+001 3.297418e+001 1.139127e+000 1.232951e+000 2.518567e+000 1.684973e+000 3.708089e+000 1.859194e+000 4.674322e+000 2.442241e+000 1.197463e+000 4.567949e+000 4.224150e+000 1.731632e+000 6.052825e-001
<GCONST> 9.853713e+001
<STATE> 4
<MEAN> 25
 1.398632e+001 -9.479596e-002 3.843646e+000 -6.288329e+000 -1.553966e+001 -1.258823e+001 -7.303616e-001 4.989180e+000 1.546089e+000 -4.303341e+000 -5.068763e+000 -3.658457e+000 8.911344e-002 1.759482e-001 -7.052244e-002 -5.956927e-002 -6.575254e-002 2.178766e-001 -7.046144e-002 2.251663e-002 -7.809224e-002 2.421606e-001 -7.608385e-002 -6.016473e-002 -1.318188e-001
<VARIANCE> 25
 6.094674e+000 2.552623e+001 1.581165e+001 3.212480e+001 1.129575e+002 3.161154e+001 7.835433e+001 6.410268e+001 7.708532e+001 4.118753e+001 7.232718e+001 4.331947e+001 1.220779e-001 7.607991e-001 7.354569e-001 8.193766e-001 2.329408e+000 1.356283e+000 1.575154e+000 2.231943e+000 1.490745e+000 1.382177e+000 1.110278e+000 1.214851e+000 2.329484e-001
<GCONST> 8.912939e+001
<TRANSP> 5
 0.000000e+000 1.000000e+000 0.000000e+000 0.000000e+000 0.000000e+000
 0.000000e+000 5.996471e-001 4.003529e-001 0.000000e+000 0.000000e+000
 0.000000e+000 0.000000e+000 6.247402e-001 3.752597e-001 0.000000e+000
 0.000000e+000 0.000000e+000 0.000000e+000 8.840849e-001 1.159151e-001
 0.000000e+000 0.000000e+000 0.000000e+000 0.000000e+000 0.000000e+000
<ENDHMM>
~h "aw"
<BEGINHMM>
<NUMSTATES> 5
<STATE> 2
<MEAN> 25
 1.323214e+001 -2.503110e+000 -2.241480e+000 -1.056351e+001 -6.343330e-001 -1.275578e+001 -9.377337e+000 2.148984e+000 2.114817e+000 1.324865e+000 -1.122661e+001 -5.079273e+000 -2.031421e-002 3.669004e-001 2.334459e-001 4.234952e-001 -3.391442e-001 -2.278152e-001 -5.024677e-001 -3.325580e-002 3.233034e-001 -4.901474e-002 2.442151e-001 -5.579497e-001 -2.896079e-001
<VARIANCE> 25
 1.311829e+000 4.148686e+001 8.452291e+000 1.391100e+001 7.657885e+000 1.479611e+001 3.623461e+001 4.499758e+000 2.342967e+001 5.441998e+000 1.234576e+001 2.060741e+001 4.800120e-002 2.222367e+000 4.032643e-001 6.988770e-001 3.905688e-001 4.623114e-001 9.036976e-001 7.047459e-001 1.443732e+000 9.496298e-001 1.593562e+000 4.180261e-001 7.839049e-001
<GCONST> 6.892069e+001
<STATE> 3
<MEAN> 25
 1.306735e+001 2.495436e+000 -3.866551e+000 -3.081916e+000 -7.845380e+000 -5.369134e+000 8.156775e+000 3.245225e+000 -3.482996e+000 -5.252283e+000 -7.602888e+000 -4.465672e+000 -7.194770e-001 5.363807e-001 1.970323e-001 4.145913e-002 -2.790593e-001 1.255609e-001 5.180853e-002 -1.244626e-001 -4.610220e-001 -1.070262e-001 7.185870e-001 3.105949e-001 -8.140858e-001
<VARIANCE> 25
 4.488209e+001 1.839845e+001 8.926099e+000 8.868870e+000 6.922742e+001 2.503843e+001 1.760171e+002 2.499240e+001 3.135036e+001 2.802305e+001 3.483825e+001 1.609006e+001 1.469693e+000 2.036047e+000 1.981011e-001 1.332685e+000 1.894291e+000 2.052800e+000 2.835275e+000 1.870587e+000 3.083062e+000 2.888846e+000 2.345206e+000 1.715834e+000 1.905283e+000
<GCONST> 9.300330e+001
<STATE> 4
<MEAN> 25
 4.529493e+000 1.366572e+001 1.226027e+000 -2.434059e+000 -5.889727e+000 -3.164438e+000 6.503585e-002 1.814045e+000 2.678847e+000 1.481190e+000 1.590076e+000 -4.094090e+000 -6.017365e-001 1.159433e-002 -2.666379e-003 1.246974e-001 1.928165e-001 6.476434e-001 4.707188e-001 -2.015637e-001 -1.099762e-001 3.207683e-002 1.880268e-001 4.413047e-001 -5.265731e-001
<VARIANCE> 25
 8.921198e+001 7.025486e+001 2.597403e+001 4.627860e+001 6.586881e+000 1.127312e+002 1.652261e+002 1.762488e+001 2.463245e+001 1.562175e+001 1.169133e+001 3.018208e+001 6.808146e-001 1.372994e+000 1.151415e+000 1.241115e+000 1.193877e+000 1.949908e+000 3.952588e+000 1.655918e+000 1.154829e+000 1.369749e+000 1.058620e+000 1.148506e+000 3.114186e-001
<GCONST> 9.068802e+001
<TRANSP> 5
 0.000000e+000 1.000000e+000 0.000000e+000 0.000000e+000 0.000000e+000
 0.000000e+000 9.338336e-001 6.616639e-002 0.000000e+000 0.000000e+000
 0.000000e+000 0.000000e+000 8.918528e-001 1.081473e-001 0.000000e+000
 0.000000e+000 0.000000e+000 0.000000e+000 9.295315e-001 7.046853e-002
 0.000000e+000 0.000000e+000 0.000000e+000 0.000000e+000 0.000000e+000
<ENDHMM>
~h "ch"
<BEGINHMM>
<NUMSTATES> 5
<STATE> 2
<MEAN> 25
 -5.440927e+000 -1.219943e+000 -4.602975e+000 4.055212e+000 -2.618427e+000 5.752321e+000 -1.301780e+000 -2.848765e+000 3.285262e+000 2.193612e+000 -3.045242e-001 1.347126e+000 -3.290150e-001 -1.097213e+000 2.304652e-003 -2.942999e-001 -4.313797e-001 8.127744e-002 -3.478074e-002 -1.441974e-001 2.661611e-001 -1.405623e-001 -1.291273e-001 2.268433e-001 2.463896e-001
<VARIANCE> 25
 8.937176e+001 1.881384e+001 8.507880e+000 1.151454e+001 1.844816e+001 2.603798e+001 8.329207e+000 6.962075e+001 9.047750e+000 3.378777e+001 5.779123e+000 5.021965e+000 1.735345e+000 1.098561e+000 3.940994e+000 1.503420e+000 1.003991e+000 1.156845e+000 2.307315e+000 2.497107e+000 1.906146e+000 1.626067e+000 1.638100e+000 4.961153e-001 7.076072e+000
<GCONST> 8.679280e+001
<STATE> 3
<MEAN> 25
 -3.752124e+000 3.016433e-003 6.382806e-001 4.464630e+000 1.741472e+000 7.749503e+000 -7.536526e-001 -4.940248e+000 3.369199e+000 6.320190e+000 3.510194e-001 2.411271e-002 -1.029358e+000 -2.144962e+000 2.020705e+000 -1.440785e+000 -3.468487e-002 4.956707e-002 -7.348154e-001 1.706531e+000 -5.825047e-001 -1.334711e+000 6.108444e-001 6.307234e-002 1.058447e+000
<VARIANCE> 25
 1.010141e+002 5.529219e+001 2.481963e+001 1.832573e+001 5.497031e+001 3.095954e+001 7.960680e+000 1.225633e+002 1.968862e+001 4.682851e+001 1.789212e+001 7.872604e+000 9.875957e+000 2.634636e+001 5.998648e+000 7.334212e+000 1.211308e+001 9.561984e+000 2.932031e+000 1.488874e+001 4.405250e+000 3.143214e+000 6.372867e+000 7.627907e-001 2.740347e+001
<GCONST> 1.121855e+002
<STATE> 4
<MEAN> 25
 -5.288515e+000 -2.362050e+001 1.466482e+001 -5.005078e+000 -1.252497e+000 -2.726503e+000 -6.429496e+000 -1.922265e+000 5.755541e+000 -8.593750e-001 2.467505e+000 2.286636e+000 1.675214e+000 -2.479826e-001 8.771237e-001 -5.711999e-002 8.461767e-001 -1.552592e+000 -4.366993e-001 -5.033906e-001 -5.029287e-001 8.918513e-001 -3.471807e-001 -2.238451e-001 2.055648e+000
<VARIANCE> 25
 5.072154e+001 4.925546e+001 5.548287e+001 8.725413e+001 1.115638e+002 1.208416e+002 6.901176e+001 8.782371e+001 8.960817e+001 6.171377e+001 4.368836e+001 1.332884e+001 6.664562e+000 2.404272e+001 1.330602e+001 1.225197e+001 1.013287e+001 1.287757e+001 8.551108e+000 8.466523e+000 1.946096e+001 5.801477e+000 5.349690e+000 2.382006e+000 1.405444e+001
<GCONST> 1.246973e+002
<TRANSP> 5
 0.000000e+000 1.000000e+000 0.000000e+000 0.000000e+000 0.000000e+000
 0.000000e+000 6.235250e-001 3.764750e-001 0.000000e+000 0.000000e+000
 0.000000e+000 0.000000e+000 7.158370e-001 2.841630e-001 0.000000e+000
 0.000000e+000 0.000000e+000 0.000000e+000 8.675060e-001 1.324940e-001
 0.000000e+000 0.000000e+000 0.000000e+000 0.000000e+000 0.000000e+000
<ENDHMM>
~h "eh"
<BEGINHMM>
<NUMSTATES> 5
<STATE> 2
<MEAN> 25
 1.145803e+001 -7.361219e+000 -4.012173e+000 2.258719e+000 9.202674e+000 -1.444834e+001 -1.196524e+001 -1.122931e+001 -8.146117e+000 5.937891e+000 2.064201e+000 -1.045813e-001 -2.617359e-001 -2.653978e-001 5.542606e-001 6.602005e-001 7.688227e-002 -4.362465e-001 -3.596267e-001 -4.081352e-001 1.285703e-001 6.041942e-001 -1.011895e-001 -3.794003e-001 -4.647862e-002
<VARIANCE> 25
 8.276473e+000 1.397977e+001 3.071236e+001 3.100461e+001 3.511703e+001 1.590287e+002 3.405283e+001 2.353045e+001 3.864087e+001 5.191529e+001 5.505334e+001 5.884717e+001 1.122453e-001 7.091860e-001 6.327314e-001 6.295191e-001 1.121953e+000 1.573870e+000 1.026293e+000 1.262181e+000 1.098630e+000 1.567523e+000 1.178694e+000 1.231108e+000 3.061973e-001
<GCONST> 8.566645e+001
<STATE> 3
<MEAN> 25
 6.961825e+000 -1.197628e+000 -2.021653e-001 8.328792e+000 5.852943e+000 -1.174837e+001 -1.357356e+001 -9.855212e+000 -3.097204e+000 9.315818e+000 -7.351688e-001 -6.854545e+000 -1.367339e+000 1.275454e+000 -2.670910e-002 -1.915397e-001 -6.512704e-001 1.901708e+000 1.566896e-001 7.417088e-001 9.860905e-001 -5.095715e-001 -3.861004e-001 1.776082e-001 -2.077329e+000
<VARIANCE> 25
 3.025991e+001 3.295588e+001 5.154568e+001 8.326862e+001 4.179811e+001 1.705231e+002 7.684988e+001 3.209465e+001 5.320541e+001 4.944930e+001 5.472301e+001 6.486188e+001 2.670545e+000 2.881515e+000 2.425165e+000 4.954378e+000 3.148695e+000 3.870276e+000 4.880106e+000 2.450687e+000 2.679125e+000 3.878644e+000 3.473201e+000 4.372883e+000 1.323909e+000
<GCONST> 1.087991e+002
<STATE> 4
<MEAN> 25
 -3.139583e+000 2.503964e+000 -1.211907e+000 4.741430e+000 3.945840e+000 4.141776e+000 -5.528676e+000 -2.911616e+000 1.818884e+000 4.804372e+000 1.861929e+000 4.238847e-001 -1.122381e+000 -4.601214e-002 -6.695998e-002 -1.659933e-001 -2.105784e-001 1.206372e+000 2.126848e+000 1.279204e+000 1.650208e-001 -3.105885e-001 5.291464e-001 7.422104e-001 -8.987538e-001
<VARIANCE> 25
 3.357312e+001 7.823909e+000 6.627112e+000 2.552622e+001 2.474182e+001 4.627221e+001 8.048881e+001 2.174335e+001 1.594500e+001 2.250547e+001 3.557635e+001 1.513409e+001 4.243649e-001 8.159744e-001 8.569095e-001 1.003065e+000 9.389215e-001 1.839190e+000 1.859380e+000 9.606041e-001 1.244748e+000 1.484370e+000 1.530685e+000 1.766421e+000 2.770354e-001
<GCONST> 8.357015e+001
<TRANSP> 5
 0.000000e+000 1.000000e+000 0.000000e+000 0.000000e+000 0.000000e+000
 0.000000e+000 9.101721e-001 8.982787e-002 0.000000e+000 0.000000e+000
 0.000000e+000 0.000000e+000 8.654172e-001 1.345827e-001 0.000000e+000
 0.000000e+000 0.000000e+000 0.000000e+000 7.973536e-001 2.026463e-001
 0.000000e+000 0.000000e+000 0.000000e+000 0.000000e+000 0.000000e+000
<ENDHMM>
~h "hh"
<BEGINHMM>
<NUMSTATES> 5
<STATE> 2
<MEAN> 25
 5.161233e+000 -1.530339e-001 -9.478635e+000 -7.280383e+000 -5.395951e+000 5.055601e+000 4.242232e+000 8.525590e-001 -3.028052e-001 -2.119179e-001 -2.950555e+000 -6.513202e-001 -1.674897e+000 1.724362e-001 -6.023321e-001 -5.602309e-001 3.790657e-001 4.055593e-001 -1.752490e-001 2.567443e-001 6.691771e-001 3.099418e-001 1.626409e-001 8.496192e-001 -1.477842e+000
<VARIANCE> 25
 2.238870e+001 6.321595e+001 6.783649e+001 4.439101e+001 1.094124e+002 5.386470e+001 4.025429e+001 6.327974e+001 4.654366e+001 4.895751e+001 2.827489e+001 3.957370e+001 2.037535e+000 4.481783e+000 4.558713e+000 3.304533e+000 3.993684e+000 3.818907e+000 4.697528e+000 3.328006e+000 3.048338e+000 3.036458e+000 3.221471e+000 2.262879e+000 1.385976e+000
<GCONST> 1.074244e+002
<STATE> 3
<MEAN> 25
 -5.105848e+000 2.576841e+000 -5.392041e+000 -3.942473e+000 -4.138312e+000 4.109571e+000 2.323665e+000 4.378406e+000 2.968914e+000 1.540072e+000 -1.428237e+000 3.723346e-002 -1.632226e+000 -5.538199e-001 6.342881e-001 1.431099e+000 1.143939e+000 1.889837e-001 -4.735788e-001 -5.373560e-001 1.206993e-002 5.712789e-001 5.529851e-001 3.457938e-001 -9.995366e-001
<VARIANCE> 25
 3.057021e+001 7.537426e+000 2.750605e+001 4.831121e+001 5.964227e+001 2.206957e+001 3.498722e+001 2.144872e+001 2.533136e+001 1.878898e+001 1.491638e+001 2.037085e+001 1.128078e+000 5.763761e-001 1.474920e+000 2.094416e+000 2.513326e+000 2.372350e+000 2.368376e+000 1.843596e+000 1.389466e+000 1.064908e+000 1.613674e+000 1.338879e+000 5.457429e-001
<GCONST> 8.877735e+001
<STATE> 4
<MEAN> 25
 -1.117828e+001 1.776085e-001 -3.854310e+000 1.541795e+000 1.013535e+000 5.063654e+000 -1.992626e+000 5.385985e-001 2.628305e+000 3.000911e+000 -1.917672e-001 1.723938e+000 -6.640416e-002 -6.070138e-002 -3.050872e-002 1.357760e-003 5.783119e-002 6.369638e-002 -1.656114e-002 -5.796838e-002 -3.114399e-002 4.465155e-002 7.938093e-002 8.913717e-002 -3.492055e-002
<VARIANCE> 25
 1.789449e+001 4.891381e+000 7.548877e+000 1.481791e+001 3.315714e+001 1.901775e+001 8.688272e+000 9.826857e+000 1.136447e+001 1.562576e+001 1.100826e+001 7.412279e+000 1.560553e-001 1.960713e-001 3.677344e-001 4.835427e-001 6.399641e-001 6.440042e-001 6.970049e-001 9.336424e-001 8.604655e-001 8.850511e-001 7.929894e-001 6.555617e-001 5.644205e-002
<GCONST> 6.528006e+001
<TRANSP> 5
 0.000000e+000 1.000000e+000 0.000000e+000 0.000000e+000 0.000000e+000
 0.000000e+000 7.339926e-001 2.660074e-001 0.000000e+000 0.000000e+000
 0.000000e+000 0.000000e+000 7.638077e-001 2.361923e-001 0.000000e+000
 0.000000e+000 0.000000e+000 0.000000e+000 9.285616e-001 7.143840e-002
 0.000000e+000 0.000000e+000 0.000000e+000 0.000000e+000 0.000000e+000
<ENDHMM>
~h "ih"
<BEGINHMM>
<NUMSTATES> 5
<STATE> 2
<MEAN> 25
 4.346226e+000 -2.857771e+000 1.522344e+001 1.743818e+001 5.673367e+000 -1.250004e+001 -1.052295e+001 -1.527526e+000 2.016662e+000 -4.496732e+000 -4.411009e+000 -5.040603e+000 1.105279e-002 5.571535e-001 4.694032e-001 6.891124e-001 7.402868e-001 -8.582827e-001 -3.868586e-001 8.953691e-001 -3.053265e-001 -1.077983e-001 -4.902983e-001 -3.034457e-001 -2.730282e-001
<VARIANCE> 25
 3.592167e+001 6.277662e+001 1.015502e+002 8.501392e+001 9.383487e+001 1.631490e+002 7.049117e+001 9.596231e+001 7.614336e+001 7.138591e+001 4.649054e+001 5.646589e+001 4.023659e+000 9.434436e+000 1.158538e+001 1.050469e+001 8.037111e+000 1.826747e+001 7.301483e+000 9.022904e+000 6.616885e+000 6.769942e+000 4.922516e+000 5.110359e+000 4.979071e+000
<GCONST> 1.239081e+002
<STATE> 3
<MEAN> 25
 3.282635e+000 -3.439034e+000 1.366845e+001 1.260898e+001 1.539863e+001 -1.356090e+001 -1.753170e+001 3.188282e+000 -5.077888e+000 -3.160397e+000 -3.199904e+000 -8.712061e+000 9.406409e-002 2.879763e-001 -6.324173e-001 -4.276457e-001 -4.223505e-001 4.839531e-001 1.579203e-001 -2.769606e-001 -1.482713e-001 1.660168e-001 1.825065e-001 3.960333e-001 -3.707947e-001
<VARIANCE> 25
 1.534859e+001 3.005022e+001 7.718578e+001 3.804856e+001 1.080907e+002 1.280468e+002 6.256705e+001 6.977203e+001 5.231036e+001 4.367222e+001 4.361191e+001 3.429053e+001 8.219482e-001 1.488913e+000 3.073718e+000 2.620754e+000 2.292575e+000 3.638068e+000 4.228378e+000 5.072513e+000 2.337508e+000 2.293444e+000 2.047921e+000 2.330500e+000 1.234185e+000
<GCONST> 1.039544e+002
<STATE> 4
<MEAN> 25
 -2.146877e+000 1.974164e+000 2.769804e+000 6.614902e+000 6.460660e+000 1.651685e-001 -5.403127e+000 -2.124274e+000 -1.569604e+000 4.718053e-001 -7.121128e-001 -1.571011e+000 -7.694933e-001 -9.339326e-002 -1.399126e+000 -1.368698e+000 -1.221620e+000 1.259311e+000 1.962147e+000 8.337622e-002 3.488734e-001 4.572999e-001 5.010880e-001 7.485664e-001 -8.975346e-001
<VARIANCE> 25
 6.775743e+001 5.240702e+001 4.109126e+001 3.946489e+001 4.268654e+001 7.644879e+001 4.094603e+001 3.694186e+001 4.872167e+001 4.208963e+001 4.309889e+001 2.442816e+001 2.267862e+000 2.744017e+000 2.551614e+000 2.528400e+000 3.269629e+000 4.050063e+000 4.505755e+000 3.123996e+000 3.355604e+000 2.426143e+000 2.687442e+000 2.512571e+000 1.632081e+000
<GCONST> 1.049275e+002
<TRANSP> 5
 0.000000e+000 1.000000e+000 0.000000e+000 0.000000e+000 0.000000e+000
 0.000000e+000 8.121186e-001 1.878814e-001 0.000000e+000 0.000000e+000
 0.000000e+000 0.000000e+000 8.532721e-001 1.467280e-001 0.000000e+000
 0.000000e+000 0.000000e+000 0.000000e+000 7.654055e-001 2.345945e-001
 0.000000e+000 0.000000e+000 0.000000e+000 0.000000e+000 0.000000e+000
<ENDHMM>
~h "jh"
<BEGINHMM>
<NUMSTATES> 5
<STATE> 2
<MEAN> 25
 -1.347864e+000 1.799389e-001 4.002650e+000 5.386979e+000 4.259512e+000 6.787969e-001 -4.513170e+000 1.475768e+000 3.937684e-001 -9.741051e-001 1.641752e+000 -3.908570e-001 -5.172494e-001 -1.995656e+000 1.284309e+000 -5.841525e-001 -7.766225e-001 -1.401125e-001 -1.517389e-001 -6.517981e-001 1.063081e+000 1.676653e-001 1.582454e-001 4.536539e-001 1.273760e+000
<VARIANCE> 25
 7.520808e+001 1.744490e+002 5.446339e+001 4.204878e+001 5.184762e+001 4.974952e+001 6.765549e+001 2.484746e+001 3.978673e+001 4.270213e+001 2.846999e+001 1.924649e+001 4.991502e+000 2.012107e+001 4.828212e+000 3.754613e+000 7.080641e+000 6.268005e+000 8.034470e+000 2.858471e+000 3.527506e+000 5.982565e+000 2.866733e+000 1.831966e+000 1.004219e+001
<GCONST> 1.136402e+002
<STATE> 3
<MEAN> 25
 6.029493e-001 -1.057166e+001 1.285302e+001 4.686621e+000 4.583448e+000 -4.725469e+000 -8.651407e+000 -1.177375e+001 9.645157e-001 -1.661593e+000 1.373407e+000 -1.716412e+000 1.807738e+000 1.536880e+000 -1.311466e+000 6.043525e-001 9.444773e-001 -6.798152e-001 1.579108e-001 -8.391587e-001 -1.892153e+000 -1.705518e-001 2.025077e-001 -7.850890e-001 3.376835e-001
<VARIANCE> 25
 6.709428e+001 9.415587e+001 4.477784e+001 6.264257e+001 9.264649e+001 1.487050e+002 6.775606e+001 5.768859e+001 5.151116e+001 4.669647e+001 3.624239e+001 7.251328e+001 5.197592e+000 7.012340e+000 6.717740e+000 4.685652e+000 4.794658e+000 1.237659e+001 9.823724e+000 7.965187e+000 4.140826e+000 4.225150e+000 3.926831e+000 4.203825e+000 1.728679e+000
<GCONST> 1.177998e+002
<STATE> 4
<MEAN> 25
 8.816686e+000 3.292708e+000 3.807515e+000 1.934309e+000 3.566709e+000 -4.050935e+000 -6.122138e+000 2.022074e+000 -3.745281e+000 -5.414910e+000 -3.692505e+000 -8.378776e+000 2.109782e-001 1.104157e+000 -4.641090e-001 -4.716389e-001 -1.234998e+000 -5.232547e-001 8.323542e-001 1.222856e+000 1.939319e-001 1.353923e-001 -3.909859e-001 -1.035775e+000 -5.677380e-001
<VARIANCE> 25
 9.276747e+000 3.940610e+001 1.517913e+001 1.920475e+001 3.504718e+001 4.528461e+001 3.144795e+001 8.972574e+001 5.374126e+001 4.358834e+001 3.471838e+001 2.368791e+001 2.797305e-001 1.095877e+000 1.030919e+000 1.740457e+000 1.370876e+000 2.516064e+000 3.045601e+000 2.029862e+000 2.125110e+000 1.689143e+000 2.517972e+000 2.351033e+000 2.863494e-001
<GCONST> 9.157724e+001
<TRANSP> 5
 0.000000e+000 1.000000e+000 0.000000e+000 0.000000e+000 0.000000e+000
 0.000000e+000 8.924376e-001 1.075624e-001 0.000000e+000 0.000000e+000
 0.000000e+000 0.000000e+000 8.577622e-001 1.422379e-001 0.000000e+000
 0.000000e+000 0.000000e+000 0.000000e+000 8.042668e-001 1.957332e-001
 0.000000e+000 0.000000e+000 0.000000e+000 0.000000e+000 0.000000e+000
<ENDHMM>
~h "ng"
<BEGINHMM>
<NUMSTATES> 5
<STATE> 2
<MEAN> 25
 1.405456e+001 9.965470e-001 -7.496844e+000 -4.376456e+000 -1.408908e+000 -4.526307e+000 7.752872e+000 9.035588e+000 -1.449683e+000 -6.970155e+000 -1.148539e+000 3.706137e+000 -4.104542e-001 2.133214e+000 1.243355e+000 4.987621e-001 -3.663234e-001 9.966859e-001 3.317103e-001 2.483377e-001 -5.531262e-001 -1.258593e-001 -3.663234e-001 -7.722107e-001 -1.385000e+000
<VARIANCE> 25
 1.391023e+001 6.985378e+001 5.432652e+001 3.163864e+001 6.381820e+001 5.872141e+001 6.649728e+001 6.187522e+001 7.558314e+001 4.723455e+001 5.276456e+001 3.024822e+001 4.239516e-001 1.824832e+000 2.936447e+000 2.936493e+000 3.038848e+000 4.514900e+000 4.376875e+000 5.282693e+000 3.694975e+000 4.546910e+000 3.158789e+000 3.239028e+000 5.012302e-001
<GCONST> 1.044957e+002
<STATE> 3
<MEAN> 25
 8.878496e+000 1.147137e+001 4.612185e+000 -5.573967e-001 -4.078817e+000 -1.234595e-001 4.389934e-001 1.771708e+000 -3.859118e+000 -3.836686e+000 -4.925280e+000 -4.185863e+000 -7.286744e-001 3.534757e-001 5.572304e-001 9.056637e-001 5.322063e-001 -2.714984e-003 -1.011460e+000 -4.706537e-001 4.849736e-001 3.807633e-001 -7.826740e-002 -3.146355e-001 -7.843200e-001
<VARIANCE> 25
 9.459809e+000 3.625303e+001 2.325782e+001 4.252001e+001 2.906288e+001 3.787645e+001 6.824395e+001 4.936606e+001 6.459302e+001 2.973502e+001 4.230175e+001 1.782741e+001 7.026578e-001 1.105513e+000 1.317251e+000 2.230711e+000 1.727439e+000 2.135438e+000 2.764989e+000 1.845268e+000 2.236870e+000 1.915321e+000 2.303169e+000 1.753752e+000 3.337055e-001
<GCONST> 9.350703e+001
<STATE> 4
<MEAN> 25
 -5.710159e-001 6.281380e+000 8.905151e-001 4.975393e+000 2.173354e-001 2.861873e+000 7.225472e-001 3.252202e+000 3.622042e+000 1.004265e+000 -2.165602e+000 -2.143994e+000 -1.025111e+000 -6.482247e-001 -4.761378e-001 -1.464898e-001 1.259703e-001 4.693635e-001 3.999461e-001 9.701697e-002 1.240927e-001 4.092779e-001 4.580766e-001 2.773607e-001 -6.232152e-001
<VARIANCE> 25
 4.460941e+001 2.764823e+001 2.772821e+001 2.611439e+001 3.575195e+001 4.985495e+001 4.941751e+001 4.238392e+001 3.412215e+001 1.966829e+001 2.749286e+001 2.741497e+001 1.035250e+000 1.697420e+000 1.670482e+000 1.432705e+000 1.418738e+000 1.522380e+000 1.707233e+000 1.548337e+000 1.327871e+000 1.238272e+000 1.593471e+000 1.120419e+000 4.280747e-001
<GCONST> 9.132312e+001
<TRANSP> 5
 0.000000e+000 1.000000e+000 0.000000e+000 0.000000e+000 0.000000e+000
 0.000000e+000 8.110635e-001 1.889366e-001 0.000000e+000 0.000000e+000
 0.000000e+000 0.000000e+000 8.603190e-001 1.396810e-001 0.000000e+000
 0.000000e+000 0.000000e+000 0.000000e+000 8.748141e-001 1.251859e-001
 0.000000e+000 0.000000e+000 0.000000e+000 0.000000e+000 0.000000e+000
<ENDHMM>
~h "ny"
<BEGINHMM>
<NUMSTATES> 5
<STATE> 2
<MEAN> 25
 1.174152e+001 1.811954e+000 8.048460e-001 -1.983876e+000 8.708544e+000 -1.222394e+001 -1.181208e+001 6.524386e+000 -4.292284e+000 -5.283898e+000 -2.898384e+000 -6.846700e+000 9.453522e-002 -3.942390e-001 -8.132493e-001 -9.645823e-001 1.818956e+000 9.168320e-001 -1.576691e-001 1.051273e+000 -1.076914e+000 -5.780272e-001 5.238947e-001 -2.944357e-001 2.241208e-001
<VARIANCE> 25
 5.474559e+000 1.420178e+002 2.185808e+000 1.591692e+001 7.060622e+001 8.529543e+001 4.572989e+001 5.252029e+001 3.716578e+001 1.250998e+002 3.291792e+001 9.915945e+001 1.040965e-001 1.244744e+000 3.706520e-001 2.863710e+000 1.596642e+000 1.827683e+000 1.343893e+000 4.874626e-001 1.238538e+000 6.140507e-001 6.480106e-001 9.288095e-001 4.597620e-001
<GCONST> 8.628040e+001
<STATE> 3
<MEAN> 25
 9.433481e+000 -2.872704e-001 -7.347657e-001 4.577297e+000 1.305648e+001 -5.734210e+000 -1.322270e+001 3.806366e+000 -1.237366e+000 -3.739915e+000 -4.472827e+000 -9.127317e+000 -4.474274e-002 -4.165345e-001 -9.046582e-002 1.715359e-001 2.807342e-001 6.548899e-001 1.518302e-001 -8.884553e-001 2.576297e-002 9.310287e-001 -1.077233e-001 6.159682e-001 8.353218e-002
<VARIANCE> 25
 6.702375e+000 8.139778e+001 2.084383e+001 2.323971e+001 4.246129e+001 3.440418e+001 1.033961e+002 4.364823e+001 1.518815e+001 4.860903e+001 2.763978e+001 5.318144e+001 4.802802e-001 5.533104e+000 3.296973e+000 3.313189e+000 5.113471e+000 4.461737e+000 1.070057e+001 7.946492e+000 1.685082e+000 1.787958e+000 2.320333e+000 4.558786e+000 2.773490e+000
<GCONST> 1.034509e+002
<STATE> 4
<MEAN> 25
 1.031912e+001 -6.553214e-001 -1.538476e+000 3.937376e-001 1.227029e+001 -6.656763e+000 -1.325094e+001 3.832967e+000 -4.204718e+000 -3.742972e+000 -2.623478e+000 -4.136349e+000 1.101281e-001 -2.865618e-002 4.310054e-002 -4.478822e-001 -8.076537e-001 -1.883940e-001 1.549866e-001 3.413257e-001 1.650488e-001 -1.390021e-001 -5.899868e-002 1.490926e-001 1.106352e-001
<VARIANCE> 25
 4.762300e+000 8.814140e+001 4.874876e+000 2.768442e+001 1.361483e+002 5.844454e+001 1.090315e+002 6.281986e+001 1.241756e+001 4.182513e+001 1.724559e+001 5.316249e+001 3.540973e-001 2.803355e+000 9.224584e-001 1.225860e+000 1.159302e+001 4.623126e+000 1.147522e+001 5.454113e+000 2.512170e+000 2.942289e+000 2.501225e+000 1.918559e+000 8.752133e-001
<GCONST> 9.944781e+001
<TRANSP> 5
 0.000000e+000 1.000000e+000 0.000000e+000 0.000000e+000 0.000000e+000
 0.000000e+000 6.361971e-001 3.638029e-001 0.000000e+000 0.000000e+000
 0.000000e+000 0.000000e+000 8.267745e-001 1.732254e-001 0.000000e+000
 0.000000e+000 0.000000e+000 0.000000e+000 8.713934e-001 1.286065e-001
 0.000000e+000 0.000000e+000 0.000000e+000 0.000000e+000 0.000000e+000
<ENDHMM>
~h "sp"
<BEGINHMM>
<NUMSTATES> 3
<STATE> 2
~s "silst"
<TRANSP> 3
 0.000000e+000 6.097556e-001 3.902445e-001
 0.000000e+000 9.580844e-001 4.191557e-002
 0.000000e+000 0.000000e+000 0.000000e+000
<ENDHMM>
~h "uw"
<BEGINHMM>
<NUMSTATES> 5
<STATE> 2
<MEAN> 25
 1.152199e+001 7.437865e+000 4.426715e+000 -2.015872e+000 -3.570209e+000 -9.890619e+000 -3.181565e+000 1.185820e+000 -4.787618e+000 -5.589156e+000 -2.095344e+000 -7.332530e+000 1.359943e+000 1.793643e+000 1.702726e+000 -2.236208e-001 -1.561648e+000 -2.768235e+000 2.770046e-001 2.252000e+000 -1.763978e+000 -5.436019e-001 1.796564e-001 -1.673487e+000 5.002317e-001
<VARIANCE> 25
 2.861127e+001 5.859743e+001 6.398735e+001 4.038051e+001 1.747103e+002 1.291124e+002 1.018946e+002 7.997177e+001 9.686100e+001 6.872282e+001 7.259184e+001 5.100861e+001 4.604193e+000 1.048736e+001 6.419868e+000 6.763019e+000 9.485471e+000 1.029023e+001 1.130827e+001 9.552649e+000 1.063549e+001 6.166221e+000 7.550930e+000 6.593713e+000 3.265659e+000
<GCONST> 1.234639e+002
<STATE> 3
<MEAN> 25
 1.214871e+001 7.890815e+000 9.276844e+000 -3.809217e+000 -1.242877e+001 -1.445060e+001 6.899628e-001 5.279222e+000 -8.245133e+000 -5.136791e+000 5.833140e-002 -7.895154e+000 -1.769279e-001 1.312167e-001 -3.113628e-001 -9.478294e-003 1.090546e-001 7.222036e-001 -2.571739e-001 5.321242e-002 6.773217e-001 1.309963e-001 -3.057986e-001 4.980916e-001 -4.662773e-001
<VARIANCE> 25
 1.301181e+001 6.627139e+001 3.704199e+001 4.457769e+001 1.461257e+002 9.161796e+001 7.808868e+001 9.794187e+001 8.213129e+001 6.473359e+001 6.278776e+001 8.433044e+001 8.253651e-001 2.666717e+000 2.552147e+000 2.451826e+000 5.118186e+000 5.018139e+000 4.093252e+000 4.417302e+000 4.428565e+000 3.485042e+000 3.889155e+000 3.207558e+000 1.344357e+000
<GCONST> 1.100328e+002
<STATE> 4
<MEAN> 25
 4.339502e+000 9.007898e+000 4.290440e+000 -2.431077e-001 -3.996822e+000 -6.131202e+000 -6.778768e+000 1.725938e+000 9.293167e-001 -1.720662e+000 -2.694518e+000 -3.281287e+000 -8.814601e-001 -8.854289e-001 -6.765573e-001 1.338841e-001 6.575063e-001 9.140733e-001 2.156708e-001 -1.409671e-001 3.000730e-002 -2.000898e-002 -1.248089e-001 3.267483e-001 -4.984220e-001
<VARIANCE> 25
 6.430389e+001 3.623664e+001 2.988338e+001 3.447193e+001 5.266709e+001 8.336743e+001 6.183578e+001 4.053914e+001 3.985074e+001 4.839155e+001 4.432256e+001 3.455952e+001 1.957922e+000 1.827250e+000 1.311127e+000 1.575212e+000 2.090186e+000 2.334669e+000 2.506218e+000 2.112379e+000 1.820168e+000 1.786015e+000 2.326966e+000 1.680011e+000 1.041974e+000
<GCONST> 9.958579e+001
<TRANSP> 5
 0.000000e+000 1.000000e+000 0.000000e+000 0.000000e+000 0.000000e+000
 0.000000e+000 5.698870e-001 4.301130e-001 0.000000e+000 0.000000e+000
 0.000000e+000 0.000000e+000 8.491888e-001 1.508112e-001 0.000000e+000
 0.000000e+000 0.000000e+000 0.000000e+000 8.540691e-001 1.459309e-001
 0.000000e+000 0.000000e+000 0.000000e+000 0.000000e+000 0.000000e+000
<ENDHMM>
~h "sil"
<BEGINHMM>
<NUMSTATES> 5
<STATE> 2
<MEAN> 25
 -1.295360e+001 1.489559e+000 -4.639719e+000 3.469821e+000 -1.482455e+000 7.699778e+000 7.724065e-001 2.343676e+000 1.798026e+000 1.804122e+000 3.036358e+000 1.506559e+000 -9.094504e-002 1.706802e-002 -6.850340e-003 7.026540e-003 -5.833205e-002 -1.539588e-001 -1.382022e-001 -1.026294e-001 -3.950243e-002 3.918523e-002 -1.070436e-002 -4.324671e-002 -1.092104e-001
<VARIANCE> 25
 4.979068e+001 1.319322e+001 2.361651e+001 3.533106e+001 3.735151e+001 3.366238e+001 4.380414e+001 1.578610e+001 2.398109e+001 1.583704e+001 2.133086e+001 8.554669e+000 3.444833e-001 4.122467e-001 5.971835e-001 5.459783e-001 6.300617e-001 1.102391e+000 1.274552e+000 9.193797e-001 1.365857e+000 9.451055e-001 7.123049e-001 7.257268e-001 2.970777e-001
<GCONST> 7.908629e+001
<STATE> 3
~s "silst"
<STATE> 4
<MEAN> 25
 -1.290716e+001 6.004737e-001 -3.290279e+000 2.066274e+000 1.054039e+000 5.828884e+000 8.660663e-001 1.754533e+000 2.872113e+000 2.920912e+000 2.688339e+000 2.217518e+000 9.309225e-001 -6.798314e-002 3.899398e-001 2.903064e-001 9.907958e-002 1.428578e-001 2.612468e-001 -2.399558e-001 2.006142e-001 -2.849247e-001 -2.077426e-001 1.340921e-001 1.002001e+000
<VARIANCE> 25
 4.297720e+001 2.215899e+001 1.397211e+001 3.172223e+001 3.602512e+001 3.218730e+001 3.755734e+001 2.083534e+001 3.161880e+001 2.472642e+001 2.619295e+001 1.050650e+001 3.521825e+000 1.935592e+000 1.765632e+000 2.249436e+000 1.771503e+000 2.504354e+000 3.565344e+000 2.207154e+000 2.328349e+000 2.019632e+000 1.446646e+000 1.522477e+000 2.799459e+000
<GCONST> 9.511583e+001
<TRANSP> 5
 0.000000e+000 1.000000e+000 0.000000e+000 0.000000e+000 0.000000e+000
 0.000000e+000 7.478264e-001 1.808168e-001 7.135682e-002 0.000000e+000
 0.000000e+000 0.000000e+000 9.573914e-001 4.260854e-002 0.000000e+000
 0.000000e+000 1.903730e-001 0.000000e+000 5.162460e-001 2.933811e-001
 0.000000e+000 0.000000e+000 0.000000e+000 0.000000e+000 0.000000e+000
<ENDHMM>
