~o
<STREAMINFO> 1 25
<VECSIZE> 25<NULLD><MFCC_D_N_Z_0><DIAGC>
~s "silst"
<MEAN> 25
 -1.009859e+001 4.871640e-001 -3.062565e+000 2.706822e+000 -1.662447e-002 7.267663e+000 7.842250e-001 1.418928e+000 2.082712e+000 2.554037e+000 1.468682e+000 2.365538e+000 -3.684391e-002 -1.212826e-002 -1.954407e-002 1.406649e-002 -1.739693e-002 1.284035e-002 1.235523e-004 8.391776e-003 -9.949764e-003 1.336760e-002 1.012872e-002 2.236084e-002 -4.583832e-002
<VARIANCE> 25
 1.524581e+001 5.345290e+000 6.075123e+000 1.129866e+001 2.964572e+001 2.212886e+001 2.510282e+001 1.423942e+001 1.718074e+001 1.380425e+001 2.275324e+001 7.555707e+000 8.808337e-002 1.524110e-001 2.384336e-001 3.457432e-001 4.539020e-001 5.563278e-001 6.506471e-001 6.827673e-001 7.388684e-001 7.298495e-001 7.060592e-001 6.397281e-001 3.678726e-002
<GCONST> 6.384835e+001
~h "b"
<BEGINHMM>
<NUMSTATES> 5
<STATE> 2
<MEAN> 25
 -2.143981e+000 4.220554e+000 -8.406852e-001 2.176182e+000 7.185202e-001 3.040504e+000 2.171576e+000 1.325512e+000 -1.304972e+000 1.540881e+000 1.822699e+000 5.183945e-001 6.013266e-001 8.487531e-001 5.301372e-001 2.365257e-001 3.250776e-002 3.351380e-001 -8.318796e-002 1.847298e-001 -2.027703e-001 -2.673880e-001 2.999254e-001 -9.739035e-002 7.542683e-002
<VARIANCE> 25
 1.301564e+002 4.631628e+001 2.044530e+001 2.314299e+001 3.989162e+001 4.536508e+001 3.244350e+001 2.453750e+001 3.333081e+001 2.416328e+001 4.428251e+001 2.020772e+001 5.462264e+000 2.784421e+000 3.239490e+000 2.218102e+000 3.725390e+000 2.758314e+000 3.062681e+000 2.089626e+000 2.350261e+000 2.317478e+000 2.630796e+000 1.341062e+000 4.357980e+000
<GCONST> 1.017870e+002
<STATE> 3
<MEAN> 25
 7.729113e+000 1.226672e+001 3.907075e+000 4.324781e+000 2.223556e+000 2.967516e+000 -1.654070e+000 1.847087e+000 -1.632946e-001 -2.170311e+000 -2.159561e+000 -2.100996e+000 2.527980e+000 5.315022e-001 1.172708e-001 -5.818384e-001 1.679046e-001 -1.188050e+000 -1.567431e-001 -2.149928e-001 -3.384894e-001 -5.954700e-001 -2.195374e-001 -4.369487e-001 2.335764e+000
<VARIANCE> 25
 6.506438e+001 6.537820e+001 3.674371e+001 3.560616e+001 6.648450e+001 4.015939e+001 4.079261e+001 3.305097e+001 4.120127e+001 3.874307e+001 4.077574e+001 2.798201e+001 7.229796e+000 1.025534e+001 6.975417e+000 4.752221e+000 6.030291e+000 6.552286e+000 4.937232e+000 3.549885e+000 6.744959e+000 5.555153e+000 5.573126e+000 2.911980e+000 5.908554e+000
<GCONST> 1.135245e+002
<STATE> 4
<MEAN> 25
 1.269659e+001 1.682735e+000 9.035649e-001 -4.015948e+000 3.972486e+000 -8.510415e+000 -6.881440e-002 1.649211e+000 -7.985844e+000 1.313539e+000 3.042299e+000 -1.473511e+000 -6.234699e-003 -6.810172e-001 -2.788422e-001 7.578328e-002 2.614859e-001 -2.322764e-001 -1.212710e-001 -3.706124e-001 -7.277281e-002 2.971539e-001 3.239370e-001 -7.143723e-002 4.207503e-001
<VARIANCE> 25
 2.764766e+001 1.191787e+002 3.901186e+001 6.664051e+001 6.615558e+001 1.103083e+002 3.261777e+001 6.771217e+001 9.746680e+001 5.839224e+001 6.113948e+001 4.249747e+001 1.913701e+000 8.544641e+000 3.094922e+000 5.595614e+000 7.455138e+000 1.038038e+001 4.430354e+000 4.497114e+000 7.906012e+000 4.269757e+000 4.947515e+000 2.863304e+000 6.324086e+000
<GCONST> 1.160162e+002
<TRANSP> 5
 0.000000e+000 1.000000e+000 0.000000e+000 0.000000e+000 0.000000e+000
 0.000000e+000 5.249961e-001 4.750039e-001 0.000000e+000 0.000000e+000
 0.000000e+000 0.000000e+000 6.935025e-001 3.064975e-001 0.000000e+000
 0.000000e+000 0.000000e+000 0.000000e+000 7.533931e-001 2.466069e-001
 0.000000e+000 0.000000e+000 0.000000e+000 0.000000e+000 0.000000e+000
<ENDHMM>
~h "d"
<BEGINHMM>
<NUMSTATES> 5
<STATE> 2
<MEAN> 25
 -9.329231e+000 -2.881446e-001 -3.246756e+000 3.537551e+000 -1.934255e+000 6.095190e+000 3.145691e-002 -1.183528e-001 1.430447e+000 1.277850e+000 6.027682e-001 1.265525e+000 2.422005e-002 3.075272e-002 4.011608e-002 5.103139e-003 -3.005848e-004 1.182721e-001 -2.185961e-002 -1.510236e-001 -6.200460e-002 2.995290e-004 5.838548e-002 -3.084765e-002 6.900870e-002
<VARIANCE> 25
 3.089906e+001 1.805660e+001 1.717195e+001 1.728868e+001 2.531816e+001 1.951898e+001 3.063752e+001 1.312900e+001 1.371417e+001 1.247098e+001 1.801569e+001 7.663041e+000 5.061880e-001 6.598571e-001 8.684790e-001 1.006414e+000 8.979437e-001 1.149381e+000 1.384102e+000 1.187002e+000 1.160503e+000 1.046165e+000 1.035873e+000 8.266495e-001 2.965765e-001
<GCONST> 7.835420e+001
<STATE> 3
<MEAN> 25
 -3.408079e+000 2.660772e+000 9.567368e-002 4.310822e+000 2.214633e+000 7.208225e+000 -2.570513e+000 -9.910096e-001 6.243646e-001 -2.346827e-001 3.429080e-001 6.171837e-001 3.395499e+000 1.473376e+000 2.064283e+000 6.401737e-001 1.330284e+000 -3.207297e-002 -1.565305e+000 -7.653710e-001 -2.642020e-001 -9.047666e-001 -1.889395e-001 -9.264924e-002 2.687499e+000
<VARIANCE> 25
 6.709209e+001 6.850977e+001 6.410764e+001 6.666086e+001 3.476335e+001 3.153287e+001 2.986513e+001 2.160580e+001 2.729170e+001 2.541863e+001 3.399615e+001 8.241223e+000 5.023018e+000 1.224094e+001 7.573002e+000 6.610398e+000 6.166048e+000 3.109448e+000 5.730378e+000 3.127040e+000 4.395209e+000 3.316171e+000 4.151974e+000 1.841324e+000 3.137987e+000
<GCONST> 1.081153e+002
<STATE> 4
<MEAN> 25
 1.004334e+001 4.339761e+000 4.225494e+000 4.955494e+000 3.556401e+000 3.667351e+000 -4.481914e+000 -7.071809e+000 6.885337e-001 2.775356e+000 5.656506e+000 9.407990e-001 6.944824e-001 -6.965453e-001 -9.806587e-002 -1.800388e-001 2.993530e-001 -4.522259e-001 -6.993245e-002 -1.763817e-001 6.750938e-002 6.534401e-002 2.124583e-001 -1.765021e-001 1.172180e+000
<VARIANCE> 25
 3.344433e+001 2.123067e+002 8.296795e+001 5.245420e+001 8.390850e+001 7.452402e+001 4.106899e+001 6.515309e+001 3.680987e+001 4.999473e+001 4.403460e+001 2.557980e+001 3.459639e+000 1.919092e+001 7.262515e+000 3.639012e+000 1.067610e+001 9.271588e+000 4.004722e+000 6.210899e+000 5.712927e+000 7.083762e+000 4.220973e+000 3.542591e+000 7.543360e+000
<GCONST> 1.180754e+002
<TRANSP> 5
 0.000000e+000 1.000000e+000 0.000000e+000 0.000000e+000 0.000000e+000
 0.000000e+000 7.676404e-001 2.323597e-001 0.000000e+000 0.000000e+000
 0.000000e+000 0.000000e+000 6.591781e-001 3.408220e-001 0.000000e+000
 0.000000e+000 0.000000e+000 0.000000e+000 8.276511e-001 1.723489e-001
 0.000000e+000 0.000000e+000 0.000000e+000 0.000000e+000 0.000000e+000
<ENDHMM>
~h "g"
<BEGINHMM>
<NUMSTATES> 5
<STATE> 2
<MEAN> 25
 5.654422e+000 -8.182522e-001 6.049531e+000 4.107555e+000 3.709792e+000 -1.779137e+000 -3.647107e+000 -7.206944e+000 -1.176793e-001 2.547006e+000 2.533732e+000 -2.096026e+000 -1.740218e-001 -4.789765e-001 1.018835e+000 3.487286e-001 3.345522e-001 -5.803730e-001 -5.212441e-001 -1.471466e-001 2.625460e-001 -3.271369e-001 -1.142292e-001 -2.580629e-001 6.413592e-001
<VARIANCE> 25
 6.583504e+001 1.805017e+002 9.886349e+001 8.667801e+001 9.037386e+001 1.445826e+002 5.125495e+001 8.453687e+001 6.153966e+001 6.173871e+001 3.275300e+001 3.242158e+001 3.287334e+000 2.186998e+001 5.809642e+000 7.668593e+000 9.956413e+000 1.303183e+001 5.637662e+000 7.293230e+000 5.537735e+000 4.803364e+000 3.761689e+000 3.623034e+000 9.162155e+000
<GCONST> 1.222100e+002
<STATE> 3
<MEAN> 25
 1.090490e+000 -3.990056e+000 1.284513e+001 8.618334e+000 1.087405e+001 -8.300334e+000 -1.036163e+001 -3.598613e+000 -1.426072e+000 1.248213e+000 1.864638e+000 -5.231993e+000 6.030732e-001 5.290729e-001 2.814973e-001 6.889137e-001 7.776919e-001 3.339262e-001 -1.389817e+000 8.803712e-001 -3.805682e-001 -1.258174e-001 1.680520e-001 -1.942957e-001 -2.911235e-001
<VARIANCE> 25
 3.817516e+001 4.122469e+001 9.898187e+001 7.654372e+001 1.040565e+002 7.794796e+001 7.610796e+001 4.066098e+001 4.374657e+001 3.474752e+001 3.423310e+001 2.327789e+001 9.866932e-001 1.454374e+000 3.223312e+000 4.099392e+000 2.903181e+000 4.446878e+000 4.616814e+000 2.148256e+000 2.918695e+000 1.436958e+000 1.464906e+000 1.872019e+000 1.024008e+000
<GCONST> 1.035476e+002
<STATE> 4
<MEAN> 25
 3.012828e+000 -3.435499e+000 9.024747e+000 1.013491e+001 1.776964e+001 -2.478339e+000 -1.848391e+001 7.629427e-001 -2.275218e+000 5.916030e-001 3.439762e+000 -6.504984e+000 -6.754243e-003 1.245222e-001 -3.430796e-001 -1.128168e-001 -2.908083e-001 1.785873e-001 6.286374e-002 -2.576549e-003 -1.316894e-001 -2.062756e-001 3.008732e-002 1.883383e-002 -2.570935e-001
<VARIANCE> 25
 3.112065e+001 5.140937e+001 6.582180e+001 4.829792e+001 1.538141e+002 4.167968e+001 1.029093e+002 3.470211e+001 2.700621e+001 3.623068e+001 2.556280e+001 3.279264e+001 2.380308e-001 4.555443e-001 8.126800e-001 9.014149e-001 7.239093e-001 6.861436e-001 1.758262e+000 8.416286e-001 7.193801e-001 7.622735e-001 6.984600e-001 8.690266e-001 2.313628e-001
<GCONST> 8.654816e+001
<TRANSP> 5
 0.000000e+000 1.000000e+000 0.000000e+000 0.000000e+000 0.000000e+000
 0.000000e+000 8.750934e-001 1.249066e-001 0.000000e+000 0.000000e+000
 0.000000e+000 0.000000e+000 7.417592e-001 2.582408e-001 0.000000e+000
 0.000000e+000 0.000000e+000 0.000000e+000 7.333028e-001 2.666971e-001
 0.000000e+000 0.000000e+000 0.000000e+000 0.000000e+000 0.000000e+000
<ENDHMM>
~h "k"
<BEGINHMM>
<NUMSTATES> 5
<STATE> 2
<MEAN> 25
 -5.383199e+000 -1.627105e+000 -9.010777e-001 -2.414075e+000 -2.563761e+000 4.228521e+000 1.955073e+000 1.395767e+000 2.002206e+000 6.043872e-001 7.377402e-001 1.957883e+000 8.766928e-001 -1.940737e+000 2.311773e-001 -2.011111e+000 -1.724378e+000 -8.775856e-001 6.427759e-001 -1.109798e+000 5.951830e-002 -2.543960e-001 1.324231e+000 4.622407e-001 2.719335e+000
<VARIANCE> 25
 6.377777e+001 1.185732e+002 3.422757e+001 4.145591e+001 9.771688e+001 5.463818e+001 5.076408e+001 6.189758e+001 2.878153e+001 4.725881e+001 2.977570e+001 2.493729e+001 1.211595e+001 1.465818e+001 7.523277e+000 7.810390e+000 2.336519e+001 1.574055e+001 8.278884e+000 9.878491e+000 4.279484e+000 8.144077e+000 6.698606e+000 5.553707e+000 1.755142e+001
<GCONST> 1.221936e+002
<STATE> 3
<MEAN> 25
 6.595672e-001 -5.478462e+000 1.508387e+000 -1.164410e+001 -1.247389e+001 -7.174829e+000 4.969505e+000 -3.790378e+000 8.984161e-001 -2.347491e+000 8.691943e+000 3.431651e+000 2.412519e+000 1.742092e+000 5.607646e-001 -6.337218e-001 -7.546369e-001 -4.259776e+000 4.382764e-001 -4.191934e-001 -8.772298e-001 -5.098468e-001 1.218097e-001 -9.494601e-001 2.500520e+000
<VARIANCE> 25
 5.517004e+001 1.477023e+002 1.362730e+002 7.008075e+001 2.358336e+002 1.873751e+002 8.419135e+001 1.456339e+002 4.335122e+001 6.783777e+001 6.492454e+001 6.731788e+001 4.735602e+000 9.248882e+000 8.859239e+000 1.443999e+001 1.628811e+001 1.548440e+001 7.872120e+000 9.433165e+000 3.775794e+000 4.824450e+000 7.743903e+000 5.230616e+000 8.728558e+000
<GCONST> 1.278356e+002
<STATE> 4
<MEAN> 25
 6.974960e+000 1.150568e+000 4.537822e-001 -5.977333e+000 -2.653085e+000 -1.317821e+001 3.817270e+000 -1.148368e+000 -2.597375e+000 1.497808e+000 2.542881e+000 -1.025273e+000 1.231876e+000 6.628695e-001 5.002376e-002 1.255983e+000 8.013319e-001 -2.439738e-001 -5.991930e-001 3.975267e-001 -1.689742e-001 2.014235e-001 -1.173701e+000 -5.624532e-001 -1.184219e-002
<VARIANCE> 25
 6.829436e+001 1.135005e+002 8.444949e+001 9.622163e+001 2.541516e+002 1.171802e+002 6.247419e+001 1.391770e+002 6.843018e+001 7.069717e+001 6.212831e+001 5.196529e+001 5.379453e+000 5.353177e+000 5.445984e+000 5.356425e+000 4.228765e+000 1.195107e+001 7.435284e+000 7.526425e+000 4.569686e+000 3.764612e+000 4.919777e+000 4.778471e+000 3.328998e+000
<GCONST> 1.217275e+002
<TRANSP> 5
 0.000000e+000 1.000000e+000 0.000000e+000 0.000000e+000 0.000000e+000
 0.000000e+000 7.336879e-001 2.663122e-001 0.000000e+000 0.000000e+000
 0.000000e+000 0.000000e+000 6.026171e-001 3.973829e-001 0.000000e+000
 0.000000e+000 0.000000e+000 0.000000e+000 6.502807e-001 3.497194e-001
 0.000000e+000 0.000000e+000 0.000000e+000 0.000000e+000 0.000000e+000
<ENDHMM>
~h "l"
<BEGINHMM>
<NUMSTATES> 5
<STATE> 2
<MEAN> 25
 9.610814e+000 1.056059e-001 -3.734896e+000 -1.687685e+000 -3.682834e+000 -2.557457e+000 2.870559e+000 1.843627e+000 -2.061620e+000 -6.252905e+000 -2.108938e+000 2.708989e-002 1.026361e+000 -4.685022e-001 -7.583345e-001 -4.379045e-001 -1.377150e-001 -1.121955e+000 5.035613e-001 1.782328e-001 -6.632822e-001 -5.503284e-001 2.805340e-001 9.295600e-002 1.232341e+000
<VARIANCE> 25
 8.664807e+001 9.055243e+001 8.607993e+001 6.112172e+001 9.384496e+001 1.096412e+002 1.025889e+002 7.810380e+001 1.063616e+002 5.829196e+001 6.477438e+001 4.692873e+001 7.304965e+000 9.293733e+000 7.769622e+000 5.804851e+000 9.397323e+000 1.140741e+001 1.166684e+001 7.989325e+000 1.130471e+001 7.199830e+000 6.364427e+000 4.161102e+000 6.057687e+000
<GCONST> 1.251758e+002
<STATE> 3
<MEAN> 25
 1.278537e+001 -2.401734e+000 -5.728933e-001 -3.309716e+000 -9.425981e+000 -9.802664e+000 5.373383e+000 4.063986e+000 -7.398596e+000 -8.061534e+000 6.183456e-002 -7.483956e-001 -2.599463e-001 1.391911e-001 -7.614558e-002 -3.292283e-001 8.049062e-002 1.060396e-001 2.906077e-001 1.237287e-001 4.285022e-003 2.838452e-001 1.761602e-001 3.674715e-001 -1.999933e-001
<VARIANCE> 25
 3.093490e+001 3.150746e+001 5.916893e+001 4.802805e+001 1.274788e+002 7.367976e+001 1.091069e+002 7.675700e+001 1.078151e+002 6.250580e+001 8.217725e+001 7.329746e+001 9.251854e-001 1.974734e+000 2.616002e+000 3.118223e+000 4.306454e+000 3.766608e+000 4.614725e+000 4.047321e+000 3.976958e+000 3.876081e+000 3.196272e+000 2.800670e+000 1.090183e+000
<GCONST> 1.099097e+002
<STATE> 4
<MEAN> 25
 1.100541e+001 -3.829344e+000 -4.915487e+000 -6.121145e+000 -1.882572e+000 -1.170345e+001 5.908159e+000 9.590666e-001 -5.224476e+000 -1.159326e+000 1.827209e+000 2.313285e-001 -1.758521e-001 -6.942633e-002 -2.393725e-002 -1.059335e-002 1.158070e-001 -2.800311e-003 -2.824122e-002 2.844129e-002 1.763824e-001 2.431996e-001 5.539506e-002 -9.879621e-003 -1.302991e-001
<VARIANCE> 25
 4.389505e+001 3.155989e+001 3.461978e+001 5.374733e+001 6.885722e+001 9.034536e+001 9.691829e+001 7.674908e+001 6.380963e+001 5.984020e+001 6.094236e+001 3.800605e+001 6.267301e-001 7.639312e-001 1.023973e+000 1.715260e+000 2.259240e+000 1.788078e+000 2.353481e+000 2.128222e+000 2.128461e+000 2.053116e+000 1.818733e+000 1.744584e+000 5.144408e-001
<GCONST> 9.915350e+001
<TRANSP> 5
 0.000000e+000 1.000000e+000 0.000000e+000 0.000000e+000 0.000000e+000
 0.000000e+000 6.626503e-001 3.373497e-001 0.000000e+000 0.000000e+000
 0.000000e+000 0.000000e+000 7.982787e-001 2.017213e-001 0.000000e+000
 0.000000e+000 0.000000e+000 0.000000e+000 8.853236e-001 1.146765e-001
 0.000000e+000 0.000000e+000 0.000000e+000 0.000000e+000 0.000000e+000
<ENDHMM>
~h "m"
<BEGINHMM>
<NUMSTATES> 5
<STATE> 2
<MEAN> 25
 6.620424e+000 9.469000e+000 2.265635e+000 4.466898e+000 2.042220e+000 2.493450e+000 1.698975e+000 1.490305e+000 -2.961235e+000 -4.946086e+000 -8.613835e+000 -7.518539e+000 -7.853274e-001 2.494894e-001 5.679091e-001 7.864327e-001 2.803988e-001 5.140717e-001 -1.241502e-001 -2.211596e-001 2.365810e-001 3.144265e-001 7.039639e-002 -3.349268e-001 -7.683589e-001
<VARIANCE> 25
 2.362121e+001 3.374343e+001 3.576584e+001 4.437494e+001 3.638141e+001 3.024873e+001 3.221816e+001 3.232207e+001 5.759499e+001 3.199661e+001 3.081849e+001 4.382602e+001 5.794749e-001 1.023785e+000 1.251256e+000 1.757635e+000 1.503917e+000 1.576638e+000 2.121482e+000 1.317578e+000 2.021556e+000 1.775308e+000 2.279617e+000 2.367486e+000 3.683319e-001
<GCONST> 9.279890e+001
<STATE> 3
<MEAN> 25
 -2.983828e+000 6.579685e+000 2.394189e+000 5.193879e+000 2.605728e+000 5.437963e+000 7.147055e-001 5.584332e-001 -4.039369e-001 -3.111000e-001 -2.522587e+000 -2.503212e+000 -1.571472e+000 -1.471977e+000 -1.181554e+000 -7.497602e-001 -2.407543e-001 2.850418e-001 1.155625e-001 4.828947e-002 5.071080e-001 8.876112e-001 6.536451e-001 8.055351e-001 -8.231050e-001
<VARIANCE> 25
 5.129644e+001 4.054000e+001 3.441648e+001 4.703471e+001 3.510431e+001 3.053530e+001 3.828378e+001 2.677323e+001 3.482318e+001 2.638162e+001 2.698172e+001 2.824314e+001 2.303056e+000 2.579225e+000 2.638314e+000 2.524464e+000 2.203188e+000 2.102989e+000 2.425444e+000 2.391829e+000 3.047472e+000 2.308676e+000 2.814361e+000 1.824155e+000 1.099785e+000
<GCONST> 9.899604e+001
<STATE> 4
<MEAN> 25
 -7.804891e+000 8.787960e-001 -2.413736e+000 2.667161e+000 1.872729e+000 9.187393e+000 -8.686579e-001 1.903126e+000 3.461312e+000 2.682338e+000 -6.588836e-001 2.054435e+000 -5.994762e-002 -4.379674e-002 -5.441761e-002 -4.540607e-003 -3.085012e-002 3.060585e-002 -3.038292e-003 4.107027e-002 3.087361e-002 5.820646e-002 4.188478e-002 8.726958e-002 -7.798788e-002
<VARIANCE> 25
 1.773615e+001 7.794699e+000 7.346429e+000 1.129713e+001 2.112472e+001 2.279694e+001 9.891470e+000 1.504239e+001 1.190059e+001 1.477137e+001 1.016886e+001 1.170154e+001 1.207640e-001 1.889842e-001 2.949855e-001 3.837922e-001 4.883574e-001 6.322346e-001 6.424496e-001 7.350847e-001 7.659485e-001 8.005228e-001 7.753165e-001 7.565789e-001 4.931493e-002
<GCONST> 6.450666e+001
<TRANSP> 5
 0.000000e+000 1.000000e+000 0.000000e+000 0.000000e+000 0.000000e+000
 0.000000e+000 8.289340e-001 1.710660e-001 0.000000e+000 0.000000e+000
 0.000000e+000 0.000000e+000 7.132905e-001 2.867095e-001 0.000000e+000
 0.000000e+000 0.000000e+000 0.000000e+000 9.392328e-001 6.076717e-002
 0.000000e+000 0.000000e+000 0.000000e+000 0.000000e+000 0.000000e+000
<ENDHMM>
~h "n"
<BEGINHMM>
<NUMSTATES> 5
<STATE> 2
<MEAN> 25
 9.960380e+000 1.021684e+001 1.676883e+000 2.170937e+000 7.380188e+000 8.653895e-001 -4.136924e-001 -4.162519e+000 -9.219017e+000 -1.578966e+000 -5.278471e+000 1.879600e+000 -7.075158e-001 1.284616e+000 1.071610e+000 8.624715e-001 -1.745946e-001 9.511436e-001 -5.920665e-001 -2.108711e-001 8.674902e-002 -6.199965e-001 -4.030170e-001 -2.437826e-001 -1.281278e+000
<VARIANCE> 25
 1.699859e+001 6.504062e+001 3.886639e+001 5.024806e+001 5.820613e+001 5.870055e+001 5.701593e+001 6.164448e+001 5.546688e+001 7.510815e+001 9.901237e+001 4.890372e+001 6.646847e-001 3.478745e+000 1.998716e+000 4.635276e+000 3.762802e+000 5.613412e+000 3.293170e+000 3.657090e+000 4.306397e+000 4.958574e+000 5.001851e+000 4.038386e+000 9.022846e-001
<GCONST> 1.082205e+002
<STATE> 3
<MEAN> 25
 6.006674e-001 9.190838e+000 4.243649e+000 7.579210e+000 2.749698e+000 5.864582e+000 -3.295955e+000 -3.503400e+000 -1.945134e+000 -2.341794e+000 -3.317916e+000 -2.268101e+000 -1.498763e+000 -1.262405e+000 -9.081780e-001 -2.853670e-001 -1.943712e-001 3.956814e-001 2.791902e-001 4.248981e-001 7.198153e-001 5.065915e-001 3.926615e-001 1.825342e-001 -8.624733e-001
<VARIANCE> 25
 3.956002e+001 3.858285e+001 3.936805e+001 4.670855e+001 2.276487e+001 2.575856e+001 3.423269e+001 2.501791e+001 2.329988e+001 2.167247e+001 2.346274e+001 1.803067e+001 1.378272e+000 2.316788e+000 2.436815e+000 2.178131e+000 1.473803e+000 1.705194e+000 1.734534e+000 1.655318e+000 1.434101e+000 1.890809e+000 2.195755e+000 1.400279e+000 4.426435e-001
<GCONST> 9.230535e+001
<STATE> 4
<MEAN> 25
 -9.533064e+000 -4.848585e-001 -3.154728e+000 2.739431e+000 -1.663482e-001 7.067678e+000 -1.505221e+000 -1.008685e-001 2.566652e+000 1.354277e+000 -5.990357e-001 1.093807e+000 -1.457633e-001 -1.607529e-001 -1.136949e-001 -1.200592e-001 -1.273732e-001 -1.492977e-002 8.096007e-002 1.604220e-001 1.487728e-001 1.316385e-001 8.908991e-002 9.313556e-002 -9.905072e-002
<VARIANCE> 25
 2.268884e+001 1.192762e+001 1.116070e+001 1.215955e+001 3.645253e+001 1.606044e+001 1.139896e+001 1.586990e+001 1.157061e+001 1.596024e+001 1.068189e+001 8.667018e+000 2.360196e-001 4.421805e-001 5.014353e-001 5.344164e-001 7.302698e-001 7.793219e-001 9.739989e-001 1.042594e+000 8.834943e-001 1.071814e+000 1.060220e+000 7.921461e-001 9.329450e-002
<GCONST> 7.104904e+001
<TRANSP> 5
 0.000000e+000 1.000000e+000 0.000000e+000 0.000000e+000 0.000000e+000
 0.000000e+000 8.886118e-001 1.113881e-001 0.000000e+000 0.000000e+000
 0.000000e+000 0.000000e+000 8.532286e-001 1.467714e-001 0.000000e+000
 0.000000e+000 0.000000e+000 0.000000e+000 8.883407e-001 1.116593e-001
 0.000000e+000 0.000000e+000 0.000000e+000 0.000000e+000 0.000000e+000
<ENDHMM>
~h "p"
<BEGINHMM>
<NUMSTATES> 5
<STATE> 2
<MEAN> 25
 -8.969381e+000 1.588969e+000 -2.905643e+000 1.388554e+000 -1.074244e+000 4.995057e+000 3.453584e-001 1.098427e+000 2.064799e+000 2.967926e+000 1.357292e+000 1.886939e+000 -4.747662e-003 -4.340242e-001 -3.585257e-001 -1.244043e-001 -2.261337e-002 -1.550397e-001 -1.585040e-001 -2.194604e-001 1.113059e-001 7.649217e-002 8.575818e-002 2.197532e-003 1.735869e-001
<VARIANCE> 25
 2.696043e+001 1.054784e+001 8.795375e+000 1.943067e+001 3.948417e+001 1.882112e+001 2.777459e+001 1.621204e+001 1.641439e+001 1.503883e+001 1.955907e+001 8.546095e+000 3.925074e+000 1.797005e+000 1.060360e+000 1.402026e+000 2.288383e+000 1.699511e+000 2.045829e+000 1.819579e+000 1.489608e+000 1.328694e+000 1.382691e+000 1.033993e+000 2.288437e+000
<GCONST> 8.697742e+001
<STATE> 3
<MEAN> 25
 -5.924747e+000 1.253389e+000 -3.537573e+000 8.474499e-001 6.029385e-002 4.715968e+000 -9.828737e-001 4.411493e-001 1.683160e+000 2.754513e+000 1.089696e+000 2.108205e+000 4.583644e+000 -8.568285e-002 -3.331825e-001 -1.633064e+000 -1.561839e+000 -3.326699e+000 -6.137643e-001 -9.156255e-001 3.752556e-001 -1.674351e+000 -6.179913e-001 -5.917699e-001 4.795700e+000
<VARIANCE> 25
 3.263967e+001 1.261603e+001 1.056101e+001 2.172882e+001 2.527961e+001 3.304933e+001 1.859816e+001 2.092826e+001 1.845511e+001 1.325767e+001 1.319920e+001 1.096666e+001 5.734309e+000 6.393260e+000 4.211918e+000 3.595274e+000 7.956623e+000 9.541750e+000 6.285978e+000 7.978251e+000 4.737496e+000 3.621947e+000 5.983247e+000 3.673015e+000 3.090466e+000
<GCONST> 1.021951e+002
<STATE> 4
<MEAN> 25
 7.758328e+000 -5.317106e-001 -5.874986e+000 -4.170361e+000 -4.739348e+000 -6.588264e+000 1.425444e+000 -2.146074e+000 2.056915e+000 -3.664268e+000 -5.389863e-001 -3.855904e-001 4.412529e+000 -5.033324e-001 -4.498016e-001 -1.459605e+000 -1.605441e+000 -4.121895e+000 1.220213e+000 -1.084250e-001 -3.986275e-001 -1.240027e+000 -2.595502e-001 -1.342881e+000 4.994214e+000
<VARIANCE> 25
 6.906262e+001 8.789287e+001 5.057972e+001 4.518800e+001 9.314672e+001 1.032731e+002 8.604066e+001 9.793147e+001 5.076878e+001 4.767577e+001 6.021233e+001 4.458932e+001 8.060454e+000 9.120944e+000 6.200357e+000 6.172851e+000 1.249206e+001 1.310612e+001 1.017086e+001 9.763363e+000 6.723991e+000 5.909520e+000 6.914046e+000 5.571009e+000 9.107502e+000
<GCONST> 1.234713e+002
<TRANSP> 5
 0.000000e+000 1.000000e+000 0.000000e+000 0.000000e+000 0.000000e+000
 0.000000e+000 6.794231e-001 3.205769e-001 0.000000e+000 0.000000e+000
 0.000000e+000 0.000000e+000 4.512446e-001 5.487554e-001 0.000000e+000
 0.000000e+000 0.000000e+000 0.000000e+000 5.534340e-001 4.465660e-001
 0.000000e+000 0.000000e+000 0.000000e+000 0.000000e+000 0.000000e+000
<ENDHMM>
~h "r"
<BEGINHMM>
<NUMSTATES> 5
<STATE> 2
<MEAN> 25
 1.379746e+001 -6.229121e+000 -5.864254e+000 -5.017193e+000 -6.518176e+000 -1.585401e+000 -1.288930e-001 -4.082611e+000 4.457556e+000 -9.880474e-001 -2.842976e+000 5.571885e+000 -3.555439e-002 -6.923231e-002 -2.127471e-001 -1.919043e-001 5.935683e-001 4.096650e-001 -7.127460e-001 -1.104125e-001 -8.462455e-002 -2.611336e-001 5.025929e-001 3.073425e-001 -5.554710e-002
<VARIANCE> 25
 1.119667e+001 4.616722e+001 3.246000e+001 3.706015e+001 5.064988e+001 6.431213e+001 5.631176e+001 3.887585e+001 4.929824e+001 4.639416e+001 1.156570e+002 3.814236e+001 6.443121e-001 3.197598e+000 2.253778e+000 1.878891e+000 3.593605e+000 4.587989e+000 3.427340e+000 2.726228e+000 2.510360e+000 2.874870e+000 3.599696e+000 3.363010e+000 6.784903e-001
<GCONST> 1.024800e+002
<STATE> 3
<MEAN> 25
 1.551269e+001 4.027657e-001 -9.982916e+000 -6.553430e+000 6.051778e+000 -3.603439e+000 -5.467448e+000 -3.199004e-001 3.277831e-001 -5.231503e+000 2.452110e-001 4.107897e+000 -1.737806e-001 1.815874e+000 -4.382444e-002 4.638287e-001 1.144647e+000 4.726235e-001 3.404121e-001 1.163394e-001 -1.008899e+000 -1.965495e-001 -6.359987e-001 -7.272124e-001 -1.080768e+000
<VARIANCE> 25
 2.856007e+001 5.113505e+001 5.025890e+001 4.851973e+001 9.188501e+001 7.207870e+001 8.190963e+001 5.123609e+001 5.395837e+001 5.573882e+001 9.660870e+001 5.045578e+001 3.016458e+000 5.719240e+000 8.405129e+000 3.800046e+000 4.821479e+000 1.219820e+001 6.950837e+000 5.024016e+000 7.066562e+000 6.211444e+000 6.775660e+000 4.214522e+000 1.897920e+000
<GCONST> 1.163872e+002
<STATE> 4
<MEAN> 25
 1.047793e+001 5.503674e+000 -5.492442e+000 -4.912863e+000 3.155913e+000 1.922545e+000 -1.192120e+000 -2.906135e+000 -7.527046e+000 -5.060062e+000 -2.755347e+000 5.862074e-001 -3.348039e-001 4.548101e-001 6.531359e-001 7.856389e-001 1.138236e-001 -1.291866e-001 -1.830830e-001 1.397847e-001 -1.980903e-001 1.759295e-001 -1.355035e-001 -7.209875e-001 -4.968503e-001
<VARIANCE> 25
 2.374756e+001 6.088921e+001 4.426882e+001 4.400516e+001 5.289285e+001 7.349380e+001 5.375033e+001 3.107345e+001 4.340870e+001 6.253743e+001 6.876654e+001 4.158132e+001 1.661148e+000 1.185279e+000 2.733887e+000 3.073994e+000 2.277581e+000 3.723226e+000 3.480778e+000 2.172197e+000 3.630533e+000 3.109777e+000 2.451315e+000 2.784553e+000 1.089431e+000
<GCONST> 1.037462e+002
<TRANSP> 5
 0.000000e+000 1.000000e+000 0.000000e+000 0.000000e+000 0.000000e+000
 0.000000e+000 8.825162e-001 1.174838e-001 0.000000e+000 0.000000e+000
 0.000000e+000 0.000000e+000 7.767787e-001 2.232213e-001 0.000000e+000
 0.000000e+000 0.000000e+000 0.000000e+000 7.661155e-001 2.338846e-001
 0.000000e+000 0.000000e+000 0.000000e+000 0.000000e+000 0.000000e+000
<ENDHMM>
~h "s"
<BEGINHMM>
<NUMSTATES> 5
<STATE> 2
<MEAN> 25
 -7.818859e+000 -8.025709e+000 1.023480e+001 -4.099553e+000 2.046673e-001 6.742545e+000 1.217156e+000 -4.220980e+000 3.991303e+000 2.773875e+000 2.837930e+000 1.296949e+000 -3.006522e+000 -2.050587e+000 3.951490e+000 -2.005129e+000 4.983753e-001 2.447030e-001 1.201257e+000 -1.128428e+000 1.038627e+000 -2.824842e-001 1.559585e+000 -1.563465e-001 1.899162e+000
<VARIANCE> 25
 8.711657e+001 8.912148e+001 1.468975e+002 7.185159e+001 6.392468e+001 7.692485e+001 8.601244e+001 5.591638e+001 5.393643e+001 4.382830e+001 4.203710e+001 3.836184e+001 5.775701e+000 5.605083e+000 9.615216e+000 6.649967e+000 6.801493e+000 7.655126e+000 9.413509e+000 4.301484e+000 6.550730e+000 5.259840e+000 5.271398e+000 4.085099e+000 4.173007e+000
<GCONST> 1.196280e+002
<STATE> 3
<MEAN> 25
 -2.151852e+001 -1.262988e+001 1.898717e+001 -1.278440e+001 4.901787e+000 3.512247e+000 5.805704e+000 -9.056241e+000 9.017902e+000 -6.678565e-002 1.008565e+001 -1.885094e+000 -2.799952e-001 -1.605384e-001 -3.799174e-001 -1.273993e-001 1.616450e-001 -1.351114e-001 -1.326293e-001 -3.621271e-001 1.836135e-002 -3.542540e-002 1.680158e-001 6.555380e-002 5.203645e-002
<VARIANCE> 25
 1.912731e+001 1.118987e+002 5.259994e+001 6.308997e+001 7.387630e+001 7.149215e+001 9.117506e+001 3.765285e+001 3.270284e+001 2.634303e+001 2.461804e+001 2.636168e+001 2.768617e+000 1.825259e+000 1.977839e+000 1.714485e+000 1.681790e+000 1.852712e+000 2.144426e+000 2.237413e+000 2.432257e+000 2.014764e+000 1.898633e+000 1.671220e+000 9.911391e-001
<GCONST> 9.995114e+001
<STATE> 4
<MEAN> 25
 -1.206085e+001 -9.372157e+000 1.249374e+001 -1.013140e+001 2.887375e+000 2.559066e+000 1.638589e+000 -9.425840e+000 5.230485e+000 5.067638e-001 4.354640e+000 9.234015e-001 4.309480e+000 2.106896e+000 -2.641085e+000 1.560759e+000 -9.662246e-001 -1.060586e+000 -1.506933e+000 9.966264e-001 -1.517289e+000 -4.468178e-001 -2.101291e+000 2.854109e-002 -6.355705e-001
<VARIANCE> 25
 8.305784e+001 7.118165e+001 7.153318e+001 7.977975e+001 7.364223e+001 7.470344e+001 7.430774e+001 6.523255e+001 5.931831e+001 4.141018e+001 5.045418e+001 2.966026e+001 7.316731e+000 7.775802e+000 6.515118e+000 5.284676e+000 5.127675e+000 7.057950e+000 6.935715e+000 6.490272e+000 6.156267e+000 4.209098e+000 5.513679e+000 3.610887e+000 3.568647e+000
<GCONST> 1.179914e+002
<TRANSP> 5
 0.000000e+000 1.000000e+000 0.000000e+000 0.000000e+000 0.000000e+000
 0.000000e+000 8.137192e-001 1.862808e-001 0.000000e+000 0.000000e+000
 0.000000e+000 0.000000e+000 8.745369e-001 1.254631e-001 0.000000e+000
 0.000000e+000 0.000000e+000 0.000000e+000 7.315193e-001 2.684807e-001
 0.000000e+000 0.000000e+000 0.000000e+000 0.000000e+000 0.000000e+000
<ENDHMM>
~h "t"
<BEGINHMM>
<NUMSTATES> 5
<STATE> 2
<MEAN> 25
 -5.214917e+000 2.203397e+000 -2.043634e+000 1.714128e+000 -1.713446e-001 3.962587e+000 1.470469e+000 -4.586932e-001 6.127763e-001 3.117781e+000 2.110661e+000 1.704075e+000 -9.303098e-001 -7.905505e-001 2.604139e-001 -7.854556e-002 3.690624e-001 -8.005286e-002 -6.032475e-001 -3.487706e-001 9.188798e-002 2.067221e-001 -1.673767e-001 -2.269023e-001 -1.441055e-001
<VARIANCE> 25
 7.856281e+001 2.945084e+001 1.592656e+001 1.938409e+001 5.073400e+001 2.818700e+001 2.932412e+001 2.834316e+001 2.642972e+001 1.868631e+001 2.809057e+001 1.324805e+001 6.787269e+000 7.346115e+000 2.533283e+000 3.401476e+000 5.112028e+000 4.790363e+000 3.685328e+000 4.668656e+000 2.731233e+000 2.404896e+000 4.153969e+000 1.753289e+000 9.357440e+000
<GCONST> 1.037462e+002
<STATE> 3
<MEAN> 25
 -3.453109e+000 -3.221421e+000 -6.947083e-001 4.940564e-001 -1.363740e+000 4.336369e+000 -1.186126e+000 -3.351401e+000 1.507352e+000 3.023619e+000 7.708099e-001 1.615558e+000 2.122070e+000 -2.902095e+000 1.171282e+000 -9.161739e-001 -8.403884e-001 -1.001689e+000 -1.009471e+000 -1.649952e+000 3.041659e-001 -1.105441e+000 -4.828597e-001 -2.352700e-001 4.221294e+000
<VARIANCE> 25
 6.327195e+001 1.160605e+002 3.093959e+001 3.460624e+001 6.304707e+001 4.889517e+001 4.721746e+001 5.106081e+001 3.457012e+001 4.281474e+001 2.728632e+001 1.608154e+001 1.191976e+001 1.751400e+001 5.209168e+000 5.179712e+000 1.345913e+001 1.436273e+001 8.929633e+000 1.025436e+001 5.742133e+000 5.907794e+000 7.066448e+000 3.065991e+000 1.740695e+001
<GCONST> 1.189043e+002
<STATE> 4
<MEAN> 25
 1.731801e+000 -8.757127e+000 -1.095984e-001 -1.722420e+000 -2.188484e+000 -2.141926e+000 1.015362e-001 -6.105658e+000 1.022855e+000 1.768852e+000 8.967730e-001 5.875529e-001 1.894671e+000 1.871299e-001 9.906447e-001 2.692889e-001 7.249119e-001 -2.444778e+000 -1.990636e-001 -5.067707e-001 -8.667070e-001 -1.043754e+000 -7.863018e-001 -1.191774e+000 2.633519e+000
<VARIANCE> 25
 8.958306e+001 1.281653e+002 6.315398e+001 4.726719e+001 1.021985e+002 1.487662e+002 1.343636e+002 9.409090e+001 7.314221e+001 6.563966e+001 5.658521e+001 3.279437e+001 9.702526e+000 9.314785e+000 9.031202e+000 6.952035e+000 8.644237e+000 1.721426e+001 1.122258e+001 8.595063e+000 6.852684e+000 6.138645e+000 7.567510e+000 5.133049e+000 1.346939e+001
<GCONST> 1.265882e+002
<TRANSP> 5
 0.000000e+000 1.000000e+000 0.000000e+000 0.000000e+000 0.000000e+000
 0.000000e+000 6.575282e-001 3.424718e-001 0.000000e+000 0.000000e+000
 0.000000e+000 0.000000e+000 4.753295e-001 5.246705e-001 0.000000e+000
 0.000000e+000 0.000000e+000 0.000000e+000 5.549349e-001 4.450651e-001
 0.000000e+000 0.000000e+000 0.000000e+000 0.000000e+000 0.000000e+000
<ENDHMM>
~h "y"
<BEGINHMM>
<NUMSTATES> 5
<STATE> 2
<MEAN> 25
 1.087472e+001 -8.499959e+000 -9.104223e+000 -3.489517e+000 3.667418e+000 -8.670877e+000 1.168304e+001 -3.696603e+000 1.181411e+000 6.805317e+000 -6.370573e-001 -1.884916e+000 1.561585e+000 -4.202299e-001 7.363272e-001 1.946908e-001 7.625037e-001 -2.173274e+000 2.474763e-001 -1.147162e+000 -8.046792e-002 1.620951e+000 7.365732e-002 -3.896563e-001 2.149014e+000
<VARIANCE> 25
 6.393262e+001 2.188645e+001 5.800830e+001 4.805392e+001 5.248039e+001 1.248796e+002 1.147089e+002 5.326524e+001 4.289227e+001 7.296157e+001 2.359413e+001 3.280079e+001 8.446436e+000 2.197560e+000 8.291648e+000 3.789078e+000 3.532387e+000 4.880132e+000 1.055914e+001 4.216040e+000 2.366921e+000 3.198452e+000 3.414510e+000 3.886689e+000 7.464931e+000
<GCONST> 1.129606e+002
<STATE> 3
<MEAN> 25
 9.464342e+000 -3.862897e+000 1.139864e+001 8.996592e+000 1.069796e+001 -2.617484e+001 -3.784413e+000 -4.546649e+000 -6.270263e+000 7.659506e+000 -3.843327e+000 -4.356943e+000 5.865009e-003 2.134629e-001 2.293864e-001 3.355494e-001 3.872879e-002 -5.691902e-002 -5.213578e-001 8.202051e-002 -1.094655e-001 -3.041840e-001 4.885790e-001 1.967954e-001 -1.136256e-001
<VARIANCE> 25
 1.327245e+001 1.475408e+001 9.549363e+001 1.146628e+002 7.650313e+001 1.478425e+002 3.128246e+001 6.315151e+001 1.227559e+002 4.076633e+001 3.867241e+001 2.039412e+001 1.009067e+000 8.185366e-001 8.878961e+000 7.457839e+000 5.758344e-001 3.647557e+000 3.261523e+000 4.980134e+000 2.195375e+000 5.079875e+000 6.791787e+000 2.185113e+000 7.004775e-001
<GCONST> 1.049202e+002
<STATE> 4
<MEAN> 25
 1.418198e+001 -8.376200e+000 3.180899e+000 1.989417e+000 3.400032e+000 -5.736551e+000 -8.772963e+000 -6.913947e+000 1.932472e+000 -6.852384e-001 9.526728e+000 -1.472445e+000 1.348643e-001 -5.643358e-002 -1.242626e+000 -1.261366e+000 -2.903411e-002 9.024517e-001 1.001816e+000 8.924173e-001 1.433392e-001 -1.951396e-001 -1.800883e-001 2.152722e-001 -1.265326e-001
<VARIANCE> 25
 6.082708e+000 5.654072e+001 1.102576e+002 2.014451e+002 8.916802e+001 8.349123e+001 7.821375e+001 2.882528e+001 1.391130e+001 9.734251e+001 2.748322e+001 6.230990e+001 7.068825e-001 2.373117e+000 3.488970e+000 6.240714e+000 2.073836e+000 2.868639e+000 3.894418e+000 2.521775e+000 1.417449e+000 6.269531e+000 3.289102e+000 2.742577e+000 8.058931e-001
<GCONST> 1.049223e+002
<TRANSP> 5
 0.000000e+000 1.000000e+000 0.000000e+000 0.000000e+000 0.000000e+000
 0.000000e+000 8.774439e-001 1.225562e-001 0.000000e+000 0.000000e+000
 0.000000e+000 0.000000e+000 9.228958e-001 7.710414e-002 0.000000e+000
 0.000000e+000 0.000000e+000 0.000000e+000 8.913245e-001 1.086755e-001
 0.000000e+000 0.000000e+000 0.000000e+000 0.000000e+000 0.000000e+000
<ENDHMM>
~h "aa"
<BEGINHMM>
<NUMSTATES> 5
<STATE> 2
<MEAN> 25
 8.470185e+000 -3.640976e+000 -5.777044e+000 -4.897274e+000 -1.770068e+000 -5.188372e+000 3.463455e+000 1.357483e-001 -1.051304e+000 -1.267964e+000 -3.117858e-001 -4.224553e-002 1.412194e+000 -8.894103e-001 -9.390076e-001 -5.952821e-001 -6.034357e-001 -6.714672e-001 8.484257e-001 -9.919227e-002 1.487057e-001 1.093229e-001 -2.385577e-001 3.558089e-001 1.495231e+000
<VARIANCE> 25
 8.837991e+001 5.880596e+001 5.020904e+001 5.913709e+001 6.804916e+001 1.052222e+002 6.213749e+001 6.362865e+001 6.151001e+001 5.780482e+001 6.669144e+001 5.408850e+001 4.856398e+000 5.423364e+000 4.432194e+000 4.746097e+000 5.214808e+000 5.889520e+000 4.895180e+000 4.433108e+000 4.651473e+000 4.980173e+000 4.264438e+000 4.078632e+000 4.532325e+000
<GCONST> 1.163538e+002
<STATE> 3
<MEAN> 25
 1.043671e+001 -5.169314e+000 -6.916958e+000 -6.037932e+000 -2.812088e+000 -7.414482e+000 5.453914e+000 -1.711318e+000 -2.188218e-001 7.365010e-001 -5.526320e-001 7.386788e-001 -6.031479e-001 5.492345e-001 2.465836e-001 4.087248e-001 1.619714e-001 9.019400e-001 -3.605356e-001 -2.928196e-002 1.502481e-001 1.531819e-001 -2.556567e-001 3.465630e-002 -1.028726e+000
<VARIANCE> 25
 4.260930e+001 4.499153e+001 3.301271e+001 3.964886e+001 7.524983e+001 1.122275e+002 7.196095e+001 7.147787e+001 7.338043e+001 5.473760e+001 6.595084e+001 5.698605e+001 2.330320e+000 3.279052e+000 2.358729e+000 3.196027e+000 3.374381e+000 4.976642e+000 3.225862e+000 3.858795e+000 3.689226e+000 3.100842e+000 3.597972e+000 2.603005e+000 2.838317e+000
<GCONST> 1.099127e+002
<STATE> 4
<MEAN> 25
 6.578567e+000 -3.519115e+000 -4.395438e+000 -5.133090e+000 -3.100953e+000 -1.517895e+000 1.142195e+000 -3.354699e-001 9.379989e-001 4.504692e-001 -1.662969e+000 2.447087e+000 -5.052976e-001 3.827514e-001 2.952291e-001 4.841196e-001 2.361535e-001 5.191898e-001 -5.224178e-002 1.180716e-001 -7.112046e-002 4.566012e-002 2.066821e-001 -4.479395e-002 -7.660115e-001
<VARIANCE> 25
 7.892599e+001 3.305158e+001 2.101513e+001 4.459700e+001 4.307137e+001 7.964180e+001 5.397696e+001 3.880616e+001 4.687663e+001 3.019893e+001 4.726366e+001 3.498688e+001 1.236205e+000 1.426490e+000 1.082130e+000 1.620614e+000 1.598175e+000 2.008965e+000 1.837045e+000 1.714245e+000 2.031054e+000 1.610222e+000 2.039964e+000 1.461243e+000 1.029034e+000
<GCONST> 9.685837e+001
<TRANSP> 5
 0.000000e+000 1.000000e+000 0.000000e+000 0.000000e+000 0.000000e+000
 0.000000e+000 6.286964e-001 3.713036e-001 0.000000e+000 0.000000e+000
 0.000000e+000 0.000000e+000 7.601300e-001 2.398700e-001 0.000000e+000
 0.000000e+000 0.000000e+000 0.000000e+000 7.649189e-001 2.350811e-001
 0.000000e+000 0.000000e+000 0.000000e+000 0.000000e+000 0.000000e+000
<ENDHMM>
~h "ah"
<BEGINHMM>
<NUMSTATES> 5
<STATE> 2
<MEAN> 25
 1.517435e+000 -4.520149e-001 1.198663e+000 1.423082e+000 -2.568461e+000 3.510365e+000 9.880173e-001 -1.467417e+000 2.035251e-001 3.433105e-003 1.487264e+000 2.119797e+000 3.242395e+000 -3.737960e-001 -1.328315e+000 8.012889e-002 -4.160464e-001 -2.028584e+000 5.968198e-001 3.173723e-001 -1.651251e+000 -5.197136e-001 -1.494026e-001 1.479324e-001 2.209443e+000
<VARIANCE> 25
 1.038811e+002 1.439481e+002 1.186254e+002 7.665953e+001 8.237050e+001 9.208739e+001 4.499837e+001 8.028705e+001 4.069021e+001 2.763401e+001 4.309077e+001 2.616682e+001 1.070562e+001 2.121971e+001 9.762311e+000 5.829307e+000 1.104407e+001 1.711441e+001 6.710163e+000 7.710112e+000 1.226703e+001 5.792431e+000 6.929155e+000 3.644661e+000 1.190267e+001
<GCONST> 1.244783e+002
<STATE> 3
<MEAN> 25
 8.983974e+000 -2.805043e+000 -6.804699e-002 -7.393101e-001 -9.712344e-001 -4.212523e+000 2.346543e+000 -3.405550e+000 -5.468416e+000 -2.287591e+000 1.279926e+000 1.077193e+000 3.223500e+000 1.118082e-001 -1.146108e+000 -1.369009e-001 9.026464e-001 -2.768316e+000 4.863293e-001 1.355612e-001 -2.349557e+000 -8.272092e-001 -5.630164e-001 -4.927733e-001 2.539619e+000
<VARIANCE> 25
 4.863589e+001 1.157472e+002 1.044532e+002 7.773276e+001 9.326794e+001 1.020673e+002 6.141296e+001 1.143717e+002 5.855410e+001 6.015389e+001 4.509252e+001 3.383609e+001 9.005600e+000 1.767799e+001 8.342399e+000 6.330201e+000 8.032633e+000 1.509045e+001 7.203321e+000 9.749960e+000 1.250606e+001 6.930347e+000 6.632072e+000 5.001364e+000 9.386175e+000
<GCONST> 1.253892e+002
<STATE> 4
<MEAN> 25
 1.261779e+001 4.254817e+000 -1.737452e+000 -3.010762e+000 7.498912e+000 -7.328753e+000 5.263769e+000 8.672956e-001 -8.299864e+000 3.429137e-001 -3.100718e+000 2.313048e+000 1.723447e-001 9.674171e-001 -3.245688e-001 6.361030e-001 4.463148e-001 7.215835e-001 -3.690111e-001 5.284917e-001 6.472874e-002 -4.801320e-002 -4.547199e-001 1.942299e-002 -8.928332e-001
<VARIANCE> 25
 2.910894e+001 1.155520e+002 5.187392e+001 5.565916e+001 1.407972e+002 1.225855e+002 9.561663e+001 1.470844e+002 6.161364e+001 8.047694e+001 9.540736e+001 4.234301e+001 3.359775e+000 8.507661e+000 3.583460e+000 4.913588e+000 6.003257e+000 1.072356e+001 6.057447e+000 7.540271e+000 7.050538e+000 4.796259e+000 7.608329e+000 3.662974e+000 4.673082e+000
<GCONST> 1.207538e+002
<TRANSP> 5
 0.000000e+000 1.000000e+000 0.000000e+000 0.000000e+000 0.000000e+000
 0.000000e+000 3.947431e-001 6.052569e-001 0.000000e+000 0.000000e+000
 0.000000e+000 0.000000e+000 2.099027e-001 7.900974e-001 0.000000e+000
 0.000000e+000 0.000000e+000 0.000000e+000 7.876017e-001 2.123983e-001
 0.000000e+000 0.000000e+000 0.000000e+000 0.000000e+000 0.000000e+000
<ENDHMM>
~h "ao"
<BEGINHMM>
<NUMSTATES> 5
<STATE> 2
<MEAN> 25
 5.195471e+000 -3.011567e+000 7.101826e+000 -7.503117e+000 -4.398535e+000 -6.977591e+000 2.988274e+000 -1.629541e+000 -3.534829e+000 -8.299326e+000 -1.270799e+000 2.161999e+000 4.912407e+000 2.889472e+000 -2.192231e+000 -1.789301e-001 -1.750497e+000 -2.549102e+000 -1.717656e-001 1.601545e+000 -3.135051e-001 -1.399270e+000 -2.224839e+000 -3.932215e-001 1.210019e+000
<VARIANCE> 25
 7.522715e+001 6.139759e+001 3.680640e+001 4.230759e+001 9.790308e+001 8.197133e+001 4.241246e+001 6.893215e+001 6.280653e+001 4.364912e+001 2.843327e+001 3.200048e+001 4.281934e+000 9.578912e+000 3.122994e+000 3.267356e+000 4.989245e+000 8.108846e+000 1.136172e+001 4.305533e+000 4.247983e+000 7.734990e+000 6.719408e+000 3.827360e+000 1.366548e+000
<GCONST> 1.141147e+002
<STATE> 3
<MEAN> 25
 1.104499e+001 -2.693161e+000 2.977959e+000 -7.223964e+000 -8.737047e+000 -1.083107e+001 2.912253e+000 -2.991517e-001 -2.674271e-001 -6.700027e+000 -4.293962e+000 1.472858e+000 1.742178e+000 1.417758e-001 -1.351460e+000 3.728757e-001 -1.805332e+000 -8.954604e-001 -3.231349e-001 8.540698e-001 1.263340e+000 8.723465e-001 -1.225799e+000 -9.612259e-001 2.385194e-001
<VARIANCE> 25
 3.233739e+001 1.340372e+001 1.730844e+001 2.209717e+001 9.704751e+001 4.561729e+001 6.931487e+001 5.787436e+001 6.600782e+001 4.332027e+001 4.324862e+001 3.604296e+001 1.780730e+000 2.039142e+000 2.077866e+000 2.013566e+000 4.291744e+000 1.997133e+000 5.664720e+000 3.021872e+000 1.328639e+000 4.505709e+000 4.948895e+000 2.032456e+000 8.179012e-001
<GCONST> 1.015741e+002
<STATE> 4
<MEAN> 25
 1.359516e+001 -1.137240e+000 4.000096e+000 -5.790131e+000 -1.552378e+001 -1.280826e+001 -2.310722e-001 4.172255e+000 1.406738e+000 -3.884850e+000 -6.128486e+000 -3.709257e+000 1.633352e-001 1.664726e-001 -7.237387e-002 3.925879e-002 -3.002747e-001 1.563075e-001 -1.925913e-001 2.216927e-001 3.354880e-003 2.040443e-001 -9.715648e-002 -1.571433e-001 -1.615217e-001
<VARIANCE> 25
 1.025643e+001 1.772504e+001 1.432468e+001 2.816756e+001 1.172631e+002 3.436895e+001 7.997381e+001 6.695860e+001 7.835807e+001 3.925977e+001 6.067146e+001 4.214076e+001 1.812176e-001 6.674020e-001 7.680703e-001 8.706406e-001 2.956352e+000 1.287091e+000 1.573301e+000 2.067691e+000 1.464770e+000 1.381714e+000 1.147263e+000 1.379978e+000 2.278636e-001
<GCONST> 8.960188e+001
<TRANSP> 5
 0.000000e+000 1.000000e+000 0.000000e+000 0.000000e+000 0.000000e+000
 0.000000e+000 5.051394e-001 4.948607e-001 0.000000e+000 0.000000e+000
 0.000000e+000 0.000000e+000 4.483780e-001 5.516220e-001 0.000000e+000
 0.000000e+000 0.000000e+000 0.000000e+000 8.893124e-001 1.106876e-001
 0.000000e+000 0.000000e+000 0.000000e+000 0.000000e+000 0.000000e+000
<ENDHMM>
~h "aw"
<BEGINHMM>
<NUMSTATES> 5
<STATE> 2
<MEAN> 25
 1.322271e+001 -2.216506e+000 -2.146491e+000 -1.040635e+001 -6.411927e-001 -1.279261e+001 -9.433793e+000 2.163485e+000 2.108085e+000 1.344900e+000 -1.115461e+001 -5.114144e+000 -1.176185e-002 3.482571e-001 2.507602e-001 3.890937e-001 -3.454610e-001 -2.402543e-001 -5.021269e-001 -4.126519e-002 2.800180e-001 -4.597520e-002 2.355132e-001 -5.692859e-001 -2.570001e-001
<VARIANCE> 25
 1.311829e+000 4.387823e+001 8.888831e+000 1.483044e+001 8.238081e+000 1.448272e+001 3.726996e+001 4.433115e+000 2.365550e+001 5.442389e+000 1.261962e+001 2.105078e+001 5.635212e-002 2.245934e+000 4.081281e-001 7.827308e-001 3.933206e-001 4.998285e-001 9.118529e-001 7.015598e-001 1.478591e+000 9.865757e-001 1.606719e+000 4.223059e-001 8.906248e-001
<GCONST> 6.980267e+001
<STATE> 3
<MEAN> 25
 1.294022e+001 2.220737e+000 -3.859327e+000 -2.925448e+000 -7.711974e+000 -5.152367e+000 8.108235e+000 3.004595e+000 -3.472762e+000 -5.341186e+000 -8.024176e+000 -4.400745e+000 -7.387094e-001 4.438362e-001 1.903837e-001 1.282032e-001 -3.695906e-001 7.352013e-002 1.647252e-001 -7.591120e-002 -4.965386e-001 -1.661257e-001 7.624317e-001 3.375260e-001 -8.034301e-001
<VARIANCE> 25
 4.610716e+001 1.604573e+001 9.519819e+000 8.451648e+000 7.007264e+001 2.441210e+001 1.788314e+002 2.370068e+001 3.260721e+001 2.961765e+001 2.847323e+001 1.659151e+001 1.511670e+000 1.635775e+000 2.007307e-001 1.145808e+000 1.653033e+000 2.077932e+000 2.296911e+000 1.821706e+000 2.941064e+000 2.804628e+000 2.304723e+000 1.734149e+000 1.940478e+000
<GCONST> 9.202782e+001
<STATE> 4
<MEAN> 25
 1.205648e+000 1.157948e+001 1.522877e+000 3.530876e-001 -4.293615e+000 5.967326e-001 3.626068e+000 1.518973e+000 2.185962e+000 1.870986e+000 2.993565e+000 -2.148844e+000 -4.527849e-001 5.292505e-002 1.495363e-002 8.839031e-002 2.261723e-001 4.747527e-001 1.736728e-001 -2.615785e-001 -8.015914e-002 3.843135e-002 8.738723e-002 3.387505e-001 -3.982996e-001
<VARIANCE> 25
 9.836348e+001 6.264752e+001 2.154411e+001 5.727976e+001 1.566512e+001 1.210037e+002 1.467736e+002 1.602349e+001 1.922006e+001 1.314561e+001 1.390296e+001 3.260434e+001 7.479932e-001 1.485014e+000 1.120348e+000 1.201992e+000 1.286264e+000 1.809008e+000 3.549619e+000 1.364710e+000 9.895991e-001 1.267458e+000 9.994971e-001 1.013174e+000 3.309683e-001
<GCONST> 9.070836e+001
<TRANSP> 5
 0.000000e+000 1.000000e+000 0.000000e+000 0.000000e+000 0.000000e+000
 0.000000e+000 9.358284e-001 6.417163e-002 0.000000e+000 0.000000e+000
 0.000000e+000 0.000000e+000 8.878910e-001 1.121090e-001 0.000000e+000
 0.000000e+000 0.000000e+000 0.000000e+000 9.475201e-001 5.247995e-002
 0.000000e+000 0.000000e+000 0.000000e+000 0.000000e+000 0.000000e+000
<ENDHMM>
~h "ch"
<BEGINHMM>
<NUMSTATES> 5
<STATE> 2
<MEAN> 25
 -5.076933e+000 -6.785793e-001 -4.062141e+000 4.267887e+000 -2.461360e+000 5.603836e+000 -1.104983e+000 -2.728050e+000 2.766210e+000 2.392590e+000 1.903341e-002 1.280869e+000 -4.627842e-001 -1.076808e+000 -1.496854e-001 -4.259034e-001 -3.250214e-001 1.200743e-001 -1.067456e-001 -1.327971e-001 4.938465e-001 -5.595268e-002 -3.379179e-001 2.174655e-001 1.617201e-001
<VARIANCE> 25
 9.476517e+001 2.399462e+001 1.904308e+001 1.236961e+001 1.948629e+001 2.626972e+001 1.338505e+001 6.505414e+001 1.076037e+001 3.472525e+001 8.488212e+000 6.348521e+000 2.392142e+000 1.209921e+000 4.243751e+000 1.833859e+000 1.115353e+000 1.406450e+000 2.926374e+000 2.636437e+000 2.188090e+000 1.858401e+000 2.025639e+000 5.657839e-001 7.922715e+000
<GCONST> 9.127270e+001
<STATE> 3
<MEAN> 25
 -2.755552e+000 3.116371e-001 9.720883e-001 4.593482e+000 2.428738e+000 7.610150e+000 -7.581345e-001 -6.019240e+000 3.685225e+000 7.335436e+000 9.437540e-002 -2.370497e-001 -1.320119e+000 -1.311360e+000 1.590275e+000 -1.183971e+000 2.617287e-001 2.254333e-001 -6.958784e-001 1.532905e+000 -4.723898e-001 -1.373027e+000 4.053018e-001 1.198699e-001 3.015151e-001
<VARIANCE> 25
 1.185268e+002 5.780893e+001 2.583413e+001 1.475429e+001 5.322926e+001 3.425192e+001 7.905441e+000 1.382647e+002 2.065070e+001 4.514775e+001 1.226360e+001 7.939357e+000 9.837190e+000 2.327051e+001 4.907079e+000 4.503948e+000 1.142211e+001 8.591791e+000 2.758591e+000 1.466680e+001 3.059698e+000 2.760818e+000 4.441174e+000 8.405252e-001 2.462934e+001
<GCONST> 1.101143e+002
<STATE> 4
<MEAN> 25
 -4.915680e+000 -2.224178e+001 1.325293e+001 -4.165423e+000 -1.515623e+000 -2.151131e+000 -5.973702e+000 -2.173658e+000 5.442724e+000 -7.392054e-001 2.585544e+000 2.208189e+000 1.682417e+000 -5.920215e-001 9.708562e-001 -2.277502e-001 6.606016e-001 -1.581376e+000 -2.825499e-001 -4.822445e-001 -5.483428e-001 7.994529e-001 -1.828581e-001 -1.929912e-001 2.299047e+000
<VARIANCE> 25
 5.707254e+001 7.062076e+001 6.862077e+001 9.235508e+001 1.072280e+002 1.181856e+002 6.795181e+001 8.682268e+001 8.568571e+001 5.862955e+001 4.218244e+001 1.283188e+001 6.393105e+000 2.593662e+001 1.411663e+001 1.302744e+001 1.042507e+001 1.284382e+001 8.133488e+000 9.057302e+000 1.869460e+001 5.873672e+000 6.120502e+000 2.040053e+000 1.438903e+001
<GCONST> 1.253603e+002
<TRANSP> 5
 0.000000e+000 1.000000e+000 0.000000e+000 0.000000e+000 0.000000e+000
 0.000000e+000 6.574634e-001 3.425365e-001 0.000000e+000 0.000000e+000
 0.000000e+000 0.000000e+000 6.867880e-001 3.132120e-001 0.000000e+000
 0.000000e+000 0.000000e+000 0.000000e+000 8.765457e-001 1.234543e-001
 0.000000e+000 0.000000e+000 0.000000e+000 0.000000e+000 0.000000e+000
<ENDHMM>
~h "eh"
<BEGINHMM>
<NUMSTATES> 5
<STATE> 2
<MEAN> 25
 1.251274e+001 -7.023436e+000 -5.980107e+000 7.899719e-001 9.251137e+000 -1.174053e+001 -1.176672e+001 -1.052742e+001 -8.530197e+000 3.707947e+000 2.547350e+000 1.730874e+000 -2.491606e-001 -5.817794e-001 4.802196e-001 8.057721e-001 1.249343e-002 -7.449002e-001 -3.496916e-001 -6.748124e-001 1.128677e-001 9.186915e-001 -2.827273e-002 -4.214442e-001 1.372663e-001
<VARIANCE> 25
 6.141977e+000 1.774971e+001 2.529916e+001 2.800676e+001 4.717887e+001 1.204569e+002 3.515270e+001 2.632319e+001 4.280412e+001 3.998065e+001 6.544655e+001 4.424812e+001 1.415246e-001 9.085960e-001 1.077492e+000 7.567636e-001 2.351760e+000 2.062756e+000 1.809658e+000 1.326245e+000 1.404674e+000 1.680602e+000 1.488099e+000 1.557450e+000 3.768821e-001
<GCONST> 8.901630e+001
<STATE> 3
<MEAN> 25
 6.784177e+000 -1.982782e+000 3.279695e-002 7.448966e+000 6.371322e+000 -1.301147e+001 -1.279712e+001 -9.842756e+000 -3.343418e+000 9.778291e+000 -5.765883e-002 -6.468177e+000 -1.156118e+000 9.382578e-001 1.720885e-001 -2.545417e-002 -4.001602e-001 1.480077e+000 3.079236e-001 7.257173e-001 7.060534e-001 -3.947406e-001 -2.740412e-001 6.696537e-002 -1.634471e+000
<VARIANCE> 25
 2.828627e+001 3.275072e+001 3.867025e+001 6.593024e+001 3.887155e+001 2.095508e+002 7.054055e+001 2.965516e+001 4.695120e+001 4.644441e+001 5.017503e+001 5.629122e+001 2.059352e+000 2.385000e+000 1.959283e+000 3.716487e+000 2.441636e+000 3.496233e+000 4.269416e+000 2.061848e+000 2.299544e+000 3.144034e+000 2.962247e+000 3.640762e+000 1.412987e+000
<GCONST> 1.055048e+002
<STATE> 4
<MEAN> 25
 -3.986655e+000 2.292662e+000 -1.049835e+000 3.541097e+000 3.507646e+000 5.266577e+000 -3.688123e+000 -8.718443e-001 2.584244e+000 4.006546e+000 1.720254e+000 1.872687e+000 -7.352421e-001 -2.549874e-002 -9.696640e-003 -1.453430e-001 -8.345198e-002 9.706655e-001 1.521948e+000 8.955722e-001 6.397599e-002 -2.373038e-001 2.736026e-001 4.001043e-001 -5.735422e-001
<VARIANCE> 25
 2.102322e+001 7.559922e+000 5.277694e+000 2.195714e+001 1.626718e+001 3.247585e+001 5.043429e+001 1.977639e+001 1.419046e+001 1.941467e+001 2.923876e+001 1.696260e+001 4.399565e-001 4.708720e-001 6.284008e-001 7.217634e-001 9.046471e-001 1.693581e+000 2.085727e+000 1.157921e+000 1.119302e+000 1.330724e+000 9.638928e-001 1.483803e+000 2.231592e-001
<GCONST> 7.896780e+001
<TRANSP> 5
 0.000000e+000 1.000000e+000 0.000000e+000 0.000000e+000 0.000000e+000
 0.000000e+000 8.966610e-001 1.033390e-001 0.000000e+000 0.000000e+000
 0.000000e+000 0.000000e+000 9.097933e-001 9.020671e-002 0.000000e+000
 0.000000e+000 0.000000e+000 0.000000e+000 7.839537e-001 2.160463e-001
 0.000000e+000 0.000000e+000 0.000000e+000 0.000000e+000 0.000000e+000
<ENDHMM>
~h "hh"
<BEGINHMM>
<NUMSTATES> 5
<STATE> 2
<MEAN> 25
 5.190750e+000 2.322259e+000 -8.810880e+000 -7.997237e+000 -4.932724e+000 6.474368e+000 3.449325e+000 1.922586e+000 7.701262e-001 -1.014194e+000 -3.937393e+000 -9.466924e-001 -1.680586e+000 -2.779839e-001 -6.139477e-001 -2.615023e-001 3.078632e-001 4.255755e-001 1.227064e-002 2.200573e-001 4.583380e-001 3.969712e-001 2.792894e-001 8.265731e-001 -1.367723e+000
<VARIANCE> 25
 2.537670e+001 3.698495e+001 6.142902e+001 4.230079e+001 1.053616e+002 5.223936e+001 4.434566e+001 4.734006e+001 5.233073e+001 3.122781e+001 2.307355e+001 3.932572e+001 2.000898e+000 3.522737e+000 4.334198e+000 2.893377e+000 3.761740e+000 3.725891e+000 5.092415e+000 3.597275e+000 2.543449e+000 2.614109e+000 2.607128e+000 2.141020e+000 1.170409e+000
<GCONST> 1.049273e+002
<STATE> 3
<MEAN> 25
 -4.264263e+000 2.934192e+000 -5.062593e+000 -4.401528e+000 -4.429698e+000 3.393581e+000 1.586967e+000 3.914503e+000 2.425264e+000 1.224319e+000 -1.667188e+000 9.329160e-002 -1.707834e+000 -5.771222e-001 6.151314e-001 1.434342e+000 1.165839e+000 2.700628e-001 -3.471545e-001 -4.472031e-001 4.642829e-002 5.794648e-001 5.542144e-001 3.668275e-001 -1.048492e+000
<VARIANCE> 25
 3.497832e+001 8.109325e+000 2.943409e+001 4.836890e+001 5.371050e+001 2.115428e+001 3.855783e+001 2.393911e+001 2.642662e+001 2.072968e+001 1.300043e+001 2.123491e+001 1.163482e+000 5.385289e-001 1.451018e+000 2.182158e+000 2.552377e+000 2.667728e+000 2.562152e+000 1.806385e+000 1.396320e+000 1.114549e+000 1.751426e+000 1.418380e+000 6.122735e-001
<GCONST> 8.964254e+001
<STATE> 4
<MEAN> 25
 -9.265269e+000 2.741584e-001 -3.594083e+000 2.245669e+000 6.453584e-001 7.035980e+000 -1.599364e+000 1.325208e+000 3.141631e+000 2.173460e+000 -3.032878e-001 2.198605e+000 -8.482920e-002 -3.992127e-002 -1.892603e-002 4.389226e-002 6.263148e-002 7.823768e-002 -2.100428e-002 -4.500937e-002 -2.072526e-002 5.900401e-002 7.514016e-002 7.538292e-002 -7.192841e-002
<VARIANCE> 25
 1.889435e+001 4.591322e+000 7.786613e+000 1.371959e+001 2.740421e+001 2.399158e+001 9.221025e+000 1.239104e+001 1.091353e+001 1.446648e+001 1.113100e+001 8.194798e+000 1.670760e-001 1.869472e-001 3.416894e-001 4.694853e-001 6.458977e-001 6.118187e-001 6.739644e-001 8.692421e-001 8.457090e-001 8.633863e-001 8.200038e-001 6.820212e-001 6.471224e-002
<GCONST> 6.549035e+001
<TRANSP> 5
 0.000000e+000 1.000000e+000 0.000000e+000 0.000000e+000 0.000000e+000
 0.000000e+000 6.622513e-001 3.377488e-001 0.000000e+000 0.000000e+000
 0.000000e+000 0.000000e+000 7.506573e-001 2.493426e-001 0.000000e+000
 0.000000e+000 0.000000e+000 0.000000e+000 9.387700e-001 6.122994e-002
 0.000000e+000 0.000000e+000 0.000000e+000 0.000000e+000 0.000000e+000
<ENDHMM>
~h "ih"
<BEGINHMM>
<NUMSTATES> 5
<STATE> 2
<MEAN> 25
 4.058033e+000 -2.724118e+000 1.559391e+001 1.655089e+001 6.355973e+000 -1.201568e+001 -1.014870e+001 -1.365204e+000 1.779284e+000 -4.177275e+000 -4.141921e+000 -5.033451e+000 3.736438e-002 2.850316e-001 6.621326e-001 7.889386e-001 7.897257e-001 -1.155507e+000 -5.456014e-001 9.797499e-001 -3.203963e-001 -1.943403e-001 -4.545293e-001 -3.782960e-001 -3.253426e-002
<VARIANCE> 25
 3.592556e+001 6.694135e+001 1.073556e+002 8.509632e+001 9.579325e+001 1.657511e+002 7.190394e+001 1.027753e+002 7.580362e+001 6.823858e+001 4.833761e+001 5.375792e+001 4.104245e+000 9.752492e+000 1.053442e+001 9.635925e+000 7.806657e+000 1.698336e+001 7.610902e+000 8.601646e+000 6.522497e+000 6.316904e+000 5.144103e+000 5.092299e+000 5.149245e+000
<GCONST> 1.238479e+002
<STATE> 3
<MEAN> 25
 3.165222e+000 -2.880314e+000 1.356633e+001 1.256467e+001 1.466945e+001 -1.290431e+001 -1.723005e+001 2.754122e+000 -4.919798e+000 -3.083560e+000 -2.821131e+000 -8.180296e+000 4.868073e-002 3.730949e-001 -8.225130e-001 -5.745409e-001 -5.104233e-001 6.989895e-001 3.839254e-001 -4.494942e-001 -2.091859e-001 2.059581e-001 2.341815e-001 4.289484e-001 -4.822498e-001
<VARIANCE> 25
 1.664729e+001 3.357697e+001 7.233899e+001 3.855503e+001 1.097915e+002 1.199400e+002 6.146816e+001 6.683739e+001 5.528235e+001 3.977887e+001 4.153697e+001 3.618206e+001 9.913758e-001 1.732391e+000 3.114255e+000 2.928657e+000 2.736793e+000 4.064754e+000 4.894077e+000 4.691713e+000 2.645962e+000 2.258812e+000 2.231567e+000 2.397899e+000 1.500271e+000
<GCONST> 1.051889e+002
<STATE> 4
<MEAN> 25
 -3.759252e-001 7.737526e-001 1.701310e+000 4.598233e+000 6.346179e+000 -1.546423e+000 -5.013699e+000 -2.662736e+000 -2.599955e+000 1.414444e+000 -1.494173e-001 -1.088237e+000 -6.030932e-001 -2.371186e-001 -1.352516e+000 -1.394343e+000 -1.092319e+000 1.089707e+000 1.796178e+000 2.588373e-001 3.714936e-001 4.042350e-001 4.243594e-001 7.396053e-001 -6.585897e-001
<VARIANCE> 25
 8.481548e+001 6.069802e+001 3.595941e+001 4.289018e+001 4.391642e+001 1.128474e+002 3.911258e+001 3.909721e+001 5.318173e+001 4.778920e+001 5.347710e+001 2.721757e+001 2.151042e+000 2.213490e+000 2.262840e+000 2.304483e+000 2.946212e+000 3.604068e+000 3.946377e+000 2.900053e+000 3.277034e+000 2.641823e+000 2.822563e+000 2.507652e+000 1.417795e+000
<GCONST> 1.052754e+002
<TRANSP> 5
 0.000000e+000 1.000000e+000 0.000000e+000 0.000000e+000 0.000000e+000
 0.000000e+000 8.404251e-001 1.595749e-001 0.000000e+000 0.000000e+000
 0.000000e+000 0.000000e+000 8.636476e-001 1.363525e-001 0.000000e+000
 0.000000e+000 0.000000e+000 0.000000e+000 7.581957e-001 2.418043e-001
 0.000000e+000 0.000000e+000 0.000000e+000 0.000000e+000 0.000000e+000
<ENDHMM>
~h "jh"
<BEGINHMM>
<NUMSTATES> 5
<STATE> 2
<MEAN> 25
 -1.150293e+000 3.799571e-001 3.671650e+000 5.467566e+000 4.411617e+000 5.260207e-001 -4.724304e+000 1.506054e+000 1.491214e-001 -9.879748e-001 1.456925e+000 -3.050629e-001 -5.823449e-001 -1.959970e+000 1.184377e+000 -5.946009e-001 -7.948044e-001 -1.553175e-001 -1.933334e-001 -6.357991e-001 1.080160e+000 2.334599e-001 1.492644e-001 4.765387e-001 1.158049e+000
<VARIANCE> 25
 7.353428e+001 1.652285e+002 4.917725e+001 4.141636e+001 4.912619e+001 4.915295e+001 7.064624e+001 2.457415e+001 3.922424e+001 4.036320e+001 2.923563e+001 1.715653e+001 4.440817e+000 1.987269e+001 4.815233e+000 3.778435e+000 7.149314e+000 6.126277e+000 8.042569e+000 2.875647e+000 3.419342e+000 5.929838e+000 3.107101e+000 1.682921e+000 9.996285e+000
<GCONST> 1.130726e+002
<STATE> 3
<MEAN> 25
 1.920146e-001 -1.062806e+001 1.281318e+001 4.305773e+000 4.619096e+000 -4.228913e+000 -8.682805e+000 -1.133387e+001 1.202141e+000 -1.967836e+000 1.263196e+000 -1.413802e+000 1.778586e+000 1.490125e+000 -1.131633e+000 6.100309e-001 8.768858e-001 -6.014430e-001 1.486207e-001 -8.849227e-001 -1.888324e+000 -2.630192e-001 1.828008e-001 -7.932151e-001 3.891125e-001
<VARIANCE> 25
 6.897730e+001 1.005010e+002 4.569844e+001 6.097485e+001 9.754277e+001 1.465387e+002 6.850948e+001 6.190078e+001 5.240405e+001 4.722791e+001 3.638467e+001 7.062662e+001 5.558107e+000 7.469221e+000 6.892318e+000 4.443241e+000 5.206560e+000 1.197380e+001 9.899388e+000 8.291425e+000 4.051605e+000 4.249028e+000 3.880702e+000 4.346647e+000 2.083357e+000
<GCONST> 1.184024e+002
<STATE> 4
<MEAN> 25
 8.493769e+000 3.435630e+000 3.856739e+000 2.078447e+000 2.713450e+000 -3.920784e+000 -5.324196e+000 1.641270e+000 -3.777897e+000 -5.264071e+000 -3.935555e+000 -8.511530e+000 1.086395e-001 9.551151e-001 -4.959574e-001 -4.388138e-001 -1.135834e+000 -4.231344e-001 8.451842e-001 1.078200e+000 3.020828e-001 1.747321e-001 -3.228489e-001 -8.551419e-001 -5.675587e-001
<VARIANCE> 25
 1.111999e+001 4.514673e+001 1.542425e+001 1.874010e+001 3.634341e+001 4.105405e+001 3.728821e+001 9.582855e+001 5.657408e+001 3.995632e+001 3.161665e+001 2.470506e+001 3.748990e-001 1.392924e+000 1.089429e+000 1.666488e+000 1.405932e+000 2.551862e+000 2.959876e+000 2.435761e+000 2.131182e+000 1.478496e+000 2.523464e+000 2.660033e+000 3.086587e-001
<GCONST> 9.278113e+001
<TRANSP> 5
 0.000000e+000 1.000000e+000 0.000000e+000 0.000000e+000 0.000000e+000
 0.000000e+000 8.916547e-001 1.083453e-001 0.000000e+000 0.000000e+000
 0.000000e+000 0.000000e+000 8.587221e-001 1.412779e-001 0.000000e+000
 0.000000e+000 0.000000e+000 0.000000e+000 8.131964e-001 1.868036e-001
 0.000000e+000 0.000000e+000 0.000000e+000 0.000000e+000 0.000000e+000
<ENDHMM>
~h "ng"
<BEGINHMM>
<NUMSTATES> 5
<STATE> 2
<MEAN> 25
 1.344190e+001 -4.715196e-001 -6.821273e+000 -5.048081e+000 -2.078427e+000 -5.423505e+000 8.035423e+000 7.951593e+000 -2.631470e+000 -6.650746e+000 -8.596015e-001 3.679859e+000 -3.014212e-001 1.851923e+000 1.124266e+000 4.712761e-001 -5.879026e-001 1.099471e+000 3.293730e-001 3.688106e-001 -4.439707e-001 -2.590795e-001 -2.981376e-001 -5.302765e-001 -1.299246e+000
<VARIANCE> 25
 1.456597e+001 7.540157e+001 5.092416e+001 3.450027e+001 5.744664e+001 6.231575e+001 6.268446e+001 6.564387e+001 8.001191e+001 4.746683e+001 4.763873e+001 3.790519e+001 4.191422e-001 2.046144e+000 2.336186e+000 2.243335e+000 2.336686e+000 3.670859e+000 3.722836e+000 4.641038e+000 3.520866e+000 4.061024e+000 2.704523e+000 3.046353e+000 5.065494e-001
<GCONST> 1.032565e+002
<STATE> 3
<MEAN> 25
 8.297016e+000 1.088527e+001 4.235353e+000 -9.773617e-002 -3.907141e+000 -2.912374e-001 6.938202e-001 2.448872e+000 -2.913700e+000 -3.588749e+000 -4.678056e+000 -3.858798e+000 -8.889427e-001 3.533825e-001 4.177722e-001 8.905476e-001 6.449986e-001 -3.028415e-002 -9.985338e-001 -4.193637e-001 5.319481e-001 5.012271e-001 -1.742156e-001 -3.825033e-001 -9.429891e-001
<VARIANCE> 25
 1.718451e+001 4.126068e+001 2.891685e+001 4.409750e+001 3.689202e+001 3.519001e+001 5.954659e+001 4.452974e+001 6.502652e+001 2.457076e+001 3.686366e+001 1.888656e+001 1.029235e+000 1.737885e+000 1.988980e+000 2.770909e+000 1.958501e+000 2.387979e+000 2.888858e+000 2.053769e+000 2.196317e+000 1.862350e+000 2.319878e+000 1.984493e+000 4.134743e-001
<GCONST> 9.629916e+001
<STATE> 4
<MEAN> 25
 -3.823914e-001 5.912543e+000 4.292782e-001 3.545028e+000 9.639593e-002 2.330683e+000 -8.251578e-002 2.949545e+000 3.476982e+000 1.446559e+000 -2.271439e+000 -1.902548e+000 -7.572504e-001 -3.752436e-001 -2.633096e-001 2.076128e-003 1.943309e-001 4.325720e-001 3.450537e-001 1.179983e-001 1.439143e-001 3.173348e-001 3.982954e-001 2.002816e-001 -4.901434e-001
<VARIANCE> 25
 5.116651e+001 2.451164e+001 2.157184e+001 2.545144e+001 3.532695e+001 4.801729e+001 5.154656e+001 4.333913e+001 3.548785e+001 1.986081e+001 2.831137e+001 2.704467e+001 6.779219e-001 1.223368e+000 1.157284e+000 1.000494e+000 1.218164e+000 1.380885e+000 1.673320e+000 1.450159e+000 1.287369e+000 1.186737e+000 1.405675e+000 1.077238e+000 3.381877e-001
<GCONST> 8.885634e+001
<TRANSP> 5
 0.000000e+000 1.000000e+000 0.000000e+000 0.000000e+000 0.000000e+000
 0.000000e+000 8.388863e-001 1.611137e-001 0.000000e+000 0.000000e+000
 0.000000e+000 0.000000e+000 8.586944e-001 1.413056e-001 0.000000e+000
 0.000000e+000 0.000000e+000 0.000000e+000 8.769634e-001 1.230366e-001
 0.000000e+000 0.000000e+000 0.000000e+000 0.000000e+000 0.000000e+000
<ENDHMM>
~h "ny"
<BEGINHMM>
<NUMSTATES> 5
<STATE> 2
<MEAN> 25
 1.115281e+001 4.804641e-001 1.141339e+000 -3.295071e+000 7.341523e+000 -1.300389e+001 -1.290779e+001 5.156475e+000 -5.083624e+000 -9.204168e+000 -1.958295e+000 -3.725813e+000 3.113325e-001 -4.645465e-001 -8.822837e-001 -6.506327e-001 1.950624e+000 4.982026e-001 -6.477625e-001 1.117999e+000 -9.786952e-001 -5.197414e-001 4.013937e-001 -2.330135e-001 3.176686e-001
<VARIANCE> 25
 5.049425e+000 1.006029e+002 7.635432e-001 2.321028e+001 5.785472e+001 6.110604e+001 1.657705e+001 5.635965e+001 3.107620e+001 5.599033e+001 3.730460e+001 1.187767e+002 1.100419e+000 1.236436e+000 1.064805e+000 2.976342e+000 1.155208e+000 2.095949e+000 2.415289e+000 5.677120e-001 1.426032e+000 7.347479e-001 7.166173e-001 1.194845e+000 5.997568e-001
<GCONST> 8.796210e+001
<STATE> 3
<MEAN> 25
 9.485317e+000 -9.820340e-001 -4.127836e-001 3.634030e+000 1.328864e+001 -5.955525e+000 -1.398401e+001 2.622176e+000 -2.022543e+000 -3.713203e+000 -4.274254e+000 -7.267684e+000 -2.428480e-002 -4.700874e-001 -1.015355e-001 2.947987e-002 2.368253e-001 5.901009e-001 2.756702e-001 -8.436711e-001 6.621856e-002 8.017710e-001 -8.487719e-002 6.920210e-001 1.552155e-001
<VARIANCE> 25
 6.754129e+000 8.840733e+001 2.081321e+001 3.663378e+001 4.060398e+001 3.208212e+001 8.246073e+001 4.631228e+001 1.575567e+001 3.995824e+001 2.144678e+001 8.731425e+001 4.733929e-001 5.172695e+000 3.178436e+000 3.647635e+000 5.359935e+000 4.404348e+000 1.063280e+001 7.555054e+000 1.605055e+000 2.508280e+000 2.255964e+000 4.649225e+000 2.613761e+000
<GCONST> 1.039732e+002
<STATE> 4
<MEAN> 25
 1.045240e+001 3.211635e-001 -1.364949e+000 4.257291e-001 1.175068e+001 -6.725464e+000 -1.330892e+001 3.951262e+000 -4.254908e+000 -4.462925e+000 -2.677262e+000 -4.468827e+000 8.184455e-002 1.058872e-001 3.635542e-002 -3.143722e-001 -5.608284e-001 -4.265393e-001 -9.882792e-002 3.347189e-001 2.123976e-001 4.345991e-002 -5.695380e-002 -7.999656e-002 4.153521e-002
<VARIANCE> 25
 5.578957e+000 7.318131e+001 5.335521e+000 3.093572e+001 1.388602e+002 7.076231e+001 1.022223e+002 5.411132e+001 1.470288e+001 3.064994e+001 1.677956e+001 4.901628e+001 2.942823e-001 2.802406e+000 7.366150e-001 1.169416e+000 1.169422e+001 4.399973e+000 1.103450e+001 5.088316e+000 2.238446e+000 2.997818e+000 2.596039e+000 1.536530e+000 8.769411e-001
<GCONST> 9.848175e+001
<TRANSP> 5
 0.000000e+000 1.000000e+000 0.000000e+000 0.000000e+000 0.000000e+000
 0.000000e+000 6.297317e-001 3.702683e-001 0.000000e+000 0.000000e+000
 0.000000e+000 0.000000e+000 8.354568e-001 1.645431e-001 0.000000e+000
 0.000000e+000 0.000000e+000 0.000000e+000 8.687091e-001 1.312909e-001
 0.000000e+000 0.000000e+000 0.000000e+000 0.000000e+000 0.000000e+000
<ENDHMM>
~h "sp"
<BEGINHMM>
<NUMSTATES> 3
<STATE> 2
~s "silst"
<TRANSP> 3
 0.000000e+000 6.136532e-001 3.863467e-001
 0.000000e+000 9.529340e-001 4.706593e-002
 0.000000e+000 0.000000e+000 0.000000e+000
<ENDHMM>
~h "uw"
<BEGINHMM>
<NUMSTATES> 5
<STATE> 2
<MEAN> 25
 1.135084e+001 7.356358e+000 4.601373e+000 -2.288435e+000 -3.938519e+000 -9.455288e+000 -2.122980e+000 1.040941e+000 -5.279212e+000 -5.448667e+000 -1.476182e+000 -7.314670e+000 1.265301e+000 1.530163e+000 1.560913e+000 -2.265860e-001 -1.205108e+000 -2.449319e+000 2.223113e-001 2.078253e+000 -1.735412e+000 -5.293033e-001 1.157366e-001 -1.552320e+000 5.443030e-001
<VARIANCE> 25
 3.139327e+001 6.284913e+001 6.556867e+001 5.219518e+001 1.742559e+002 1.383926e+002 1.104362e+002 8.747393e+001 9.889374e+001 6.876501e+001 7.430801e+001 5.334862e+001 4.785230e+000 1.037359e+001 6.752472e+000 8.064487e+000 1.066232e+001 1.113090e+001 1.169966e+001 1.016499e+001 1.093488e+001 6.257863e+000 7.707070e+000 6.850283e+000 3.686326e+000
<GCONST> 1.250025e+002
<STATE> 3
<MEAN> 25
 1.195488e+001 9.381362e+000 9.044420e+000 -3.565341e+000 -1.171578e+001 -1.459469e+001 4.740984e-001 4.953178e+000 -8.337586e+000 -3.971545e+000 7.071787e-001 -9.027713e+000 -2.810719e-001 1.194169e-001 -2.766537e-001 -4.089672e-002 1.924399e-001 7.299130e-001 -4.600135e-001 1.913348e-001 8.374411e-001 1.215406e-001 -4.425507e-001 5.648778e-001 -5.602843e-001
<VARIANCE> 25
 1.596411e+001 5.897246e+001 3.914159e+001 4.275459e+001 1.501363e+002 9.108201e+001 8.162642e+001 9.442345e+001 8.714398e+001 6.031316e+001 5.929213e+001 8.412940e+001 1.459579e+000 2.786636e+000 2.732329e+000 2.588451e+000 5.800934e+000 5.401392e+000 4.440084e+000 4.576850e+000 4.538915e+000 3.419730e+000 4.133611e+000 3.377340e+000 1.572755e+000
<GCONST> 1.114191e+002
<STATE> 4
<MEAN> 25
 5.705309e+000 7.749283e+000 4.617674e+000 -1.320308e+000 -4.357024e+000 -8.025392e+000 -6.482139e+000 3.019382e+000 -4.883949e-001 -2.729378e+000 -2.662112e+000 -3.335490e+000 -6.268736e-001 -7.758648e-001 -6.497807e-001 1.130528e-001 4.620531e-001 8.292612e-001 2.426372e-001 -1.752985e-001 1.033046e-002 -9.156493e-003 -7.203447e-002 2.829918e-001 -3.579257e-001
<VARIANCE> 25
 6.525040e+001 4.840140e+001 3.201117e+001 4.102460e+001 6.063769e+001 9.237556e+001 5.939369e+001 4.815705e+001 5.315058e+001 6.249566e+001 4.992743e+001 3.415203e+001 1.523000e+000 1.799430e+000 1.308643e+000 1.548223e+000 2.072422e+000 2.306275e+000 2.395768e+000 2.089469e+000 1.952536e+000 2.005471e+000 2.318817e+000 1.731227e+000 8.664257e-001
<GCONST> 1.008247e+002
<TRANSP> 5
 0.000000e+000 1.000000e+000 0.000000e+000 0.000000e+000 0.000000e+000
 0.000000e+000 5.968348e-001 4.031652e-001 0.000000e+000 0.000000e+000
 0.000000e+000 0.000000e+000 8.173959e-001 1.826041e-001 0.000000e+000
 0.000000e+000 0.000000e+000 0.000000e+000 8.717752e-001 1.282248e-001
 0.000000e+000 0.000000e+000 0.000000e+000 0.000000e+000 0.000000e+000
<ENDHMM>
~h "sil"
<BEGINHMM>
<NUMSTATES> 5
<STATE> 2
<MEAN> 25
 -1.252513e+001 1.670851e+000 -4.877720e+000 3.882691e+000 -8.978022e-001 8.525799e+000 -3.067496e-001 2.393623e+000 2.513623e+000 1.658522e+000 2.291597e+000 1.166772e+000 -1.855574e-002 -6.876879e-003 2.477721e-002 -1.954109e-003 -5.362593e-002 -1.207077e-001 -1.334811e-001 -6.516489e-002 8.837062e-003 4.734848e-002 8.451442e-004 -9.026957e-003 -3.773550e-002
<VARIANCE> 25
 5.521357e+001 1.493788e+001 2.297695e+001 3.647831e+001 3.936536e+001 3.414589e+001 3.509677e+001 1.611836e+001 2.176516e+001 1.477217e+001 1.489692e+001 7.960762e+000 5.753476e-001 5.690935e-001 6.708195e-001 6.430446e-001 7.965266e-001 1.144173e+000 1.452459e+000 1.114479e+000 1.359082e+000 1.001567e+000 7.214575e-001 7.782148e-001 4.973405e-001
<GCONST> 8.094778e+001
<STATE> 3
~s "silst"
<STATE> 4
<MEAN> 25
 -1.239371e+001 1.013756e+000 -3.313787e+000 1.937305e+000 1.022214e+000 5.754195e+000 4.837418e-001 1.245996e+000 2.372892e+000 2.351894e+000 2.520703e+000 1.535934e+000 1.212087e+000 4.031431e-002 3.961044e-001 2.908101e-001 1.005755e-001 4.942901e-002 3.056080e-001 -3.264695e-001 1.399237e-001 -3.087867e-001 -2.643799e-001 4.942679e-002 1.236347e+000
<VARIANCE> 25
 7.112302e+001 3.024748e+001 1.927950e+001 3.712523e+001 3.707626e+001 3.826609e+001 4.409044e+001 2.791752e+001 3.624561e+001 2.729370e+001 2.870001e+001 1.659748e+001 4.354595e+000 2.688650e+000 2.511751e+000 2.547810e+000 1.886191e+000 3.253974e+000 4.069577e+000 2.946497e+000 2.729616e+000 2.328702e+000 1.879358e+000 1.873229e+000 3.346085e+000
<GCONST> 1.005612e+002
<TRANSP> 5
 0.000000e+000 1.000000e+000 0.000000e+000 0.000000e+000 0.000000e+000
 0.000000e+000 7.741126e-001 1.515760e-001 7.431134e-002 0.000000e+000
 0.000000e+000 0.000000e+000 9.678769e-001 3.212307e-002 0.000000e+000
 0.000000e+000 1.669069e-001 0.000000e+000 4.325395e-001 4.005536e-001
 0.000000e+000 0.000000e+000 0.000000e+000 0.000000e+000 0.000000e+000
<ENDHMM>
