~o
<STREAMINFO> 1 25
<VECSIZE> 25<NULLD><MFCC_D_N_Z_0><DIAGC>
~h "b"
<BEGINHMM>
<NUMSTATES> 5
<STATE> 2
<MEAN> 25
 -1.778476e+00 2.527328e+00 -4.955398e-01 1.924773e+00 2.637011e+00 1.446511e+00 -1.763086e-01 5.812434e-01 -1.170276e+00 5.284414e-01 1.065057e+00 -1.242168e-01 6.126122e-02 -3.860259e-02 1.597149e-01 -1.580416e-01 -1.527988e-02 -3.810040e-01 -1.421061e-01 -6.817867e-02 2.872436e-02 1.535752e-02 3.635837e-01 -4.937686e-02 3.384537e-01
<VARIANCE> 25
 1.643053e+02 5.670930e+01 4.749873e+01 5.778227e+01 4.061023e+01 7.453351e+01 3.181762e+01 3.084042e+01 5.747749e+01 3.832389e+01 4.411279e+01 2.646853e+01 4.875387e+00 3.066699e+00 3.105895e+00 3.090807e+00 2.897407e+00 3.999163e+00 2.623479e+00 2.383544e+00 3.852912e+00 2.569030e+00 2.823262e+00 1.947550e+00 4.488970e+00
<GCONST> 1.074162e+02
<STATE> 3
<MEAN> 25
 -2.504290e-01 2.261189e+00 1.096264e-01 1.173544e+00 2.487018e+00 5.598477e-02 -1.114742e-01 2.544952e-01 -1.133923e+00 5.047339e-02 1.693821e+00 -3.310692e-01 3.409222e-01 3.464717e-02 6.366302e-02 -3.003614e-01 4.723332e-03 -3.596547e-01 -6.665578e-02 -6.505585e-02 3.411923e-02 -3.126288e-02 7.545044e-02 -1.094330e-01 5.335364e-01
<VARIANCE> 25
 1.717883e+02 7.289694e+01 5.131863e+01 6.419276e+01 4.845415e+01 8.012180e+01 3.164295e+01 2.806374e+01 6.443947e+01 3.987473e+01 4.399368e+01 2.777793e+01 5.145721e+00 2.972813e+00 2.788930e+00 2.786240e+00 3.583656e+00 4.338145e+00 2.642146e+00 2.320856e+00 4.193463e+00 2.884604e+00 2.934909e+00 2.064068e+00 4.781228e+00
<GCONST> 1.086894e+02
<STATE> 4
<MEAN> 25
 1.178812e+00 -5.818039e-01 2.225718e+00 -3.513063e+00 2.931868e+00 -4.500008e+00 2.175679e+00 -2.154873e+00 -1.229347e+00 1.458238e+00 3.277596e+00 -2.601237e+00 1.132815e-01 -7.742364e-04 7.514994e-02 -1.311464e-01 1.897843e-01 -5.257662e-02 -7.812238e-02 -1.271359e-01 1.202139e-01 1.790718e-01 -1.134585e-01 -1.039578e-01 2.486980e-01
<VARIANCE> 25
 2.242928e+02 8.134901e+01 8.862764e+01 7.032124e+01 4.931121e+01 1.193884e+02 5.328585e+01 5.066475e+01 1.019404e+02 4.629651e+01 5.129105e+01 3.322269e+01 5.285903e+00 2.825110e+00 3.526229e+00 3.229850e+00 3.756074e+00 4.919724e+00 2.836047e+00 3.001340e+00 6.702110e+00 3.418372e+00 3.289951e+00 2.050867e+00 3.056205e+00
<GCONST> 1.133300e+02
<TRANSP> 5
 0.000000e+00 1.000000e+00 0.000000e+00 0.000000e+00 0.000000e+00
 0.000000e+00 5.494506e-01 4.505494e-01 0.000000e+00 0.000000e+00
 0.000000e+00 0.000000e+00 5.307162e-01 4.692837e-01 0.000000e+00
 0.000000e+00 0.000000e+00 0.000000e+00 7.724996e-01 2.275005e-01
 0.000000e+00 0.000000e+00 0.000000e+00 0.000000e+00 0.000000e+00
<ENDHMM>
~h "d"
<BEGINHMM>
<NUMSTATES> 5
<STATE> 2
<MEAN> 25
 -5.086018e+00 2.806053e+00 -5.089438e-01 3.740113e+00 1.289964e+00 3.990016e+00 9.612697e-01 8.447163e-02 2.352923e-01 1.783231e+00 9.668127e-01 3.277302e-01 -3.528085e-02 1.137506e-01 1.698952e-01 -8.093055e-02 1.132441e-01 1.016068e-01 -1.391619e-01 -4.635924e-02 4.765315e-03 1.044950e-01 2.927040e-01 1.228489e-01 1.188882e-03
<VARIANCE> 25
 9.106855e+01 4.901021e+01 3.696692e+01 3.249786e+01 4.019352e+01 4.687516e+01 3.575914e+01 2.555795e+01 2.698834e+01 2.891227e+01 3.207468e+01 1.406564e+01 2.337917e+00 3.502479e+00 2.290349e+00 1.726707e+00 2.437762e+00 1.963746e+00 2.237963e+00 1.958612e+00 2.170430e+00 2.096625e+00 2.316974e+00 1.185260e+00 1.949283e+00
<GCONST> 9.828651e+01
<STATE> 3
<MEAN> 25
 -9.960617e-01 3.884764e+00 1.221091e+00 3.243891e+00 2.461487e+00 3.591033e+00 -1.007437e+00 -1.193139e+00 1.261630e-01 1.287634e+00 2.590728e+00 8.177094e-01 6.119774e-01 3.290827e-01 5.756397e-01 1.777449e-02 1.242766e-01 -1.523639e-02 -3.667077e-01 -3.493604e-02 1.590305e-01 -1.526694e-01 6.013689e-02 1.269844e-02 5.272040e-01
<VARIANCE> 25
 1.036397e+02 9.604823e+01 5.345087e+01 3.394292e+01 5.813956e+01 5.901826e+01 3.503989e+01 3.656535e+01 3.526401e+01 3.264211e+01 3.810846e+01 1.588229e+01 4.438217e+00 9.874285e+00 3.936712e+00 2.467943e+00 4.840750e+00 4.177010e+00 3.375769e+00 3.454570e+00 3.463365e+00 3.598072e+00 3.264922e+00 1.547320e+00 4.676643e+00
<GCONST> 1.086084e+02
<STATE> 4
<MEAN> 25
 5.453649e+00 4.084334e+00 3.708559e+00 4.005133e+00 2.230031e+00 9.868595e-01 -2.511310e+00 -3.485888e+00 -6.733386e-01 1.374229e+00 3.889291e+00 1.896699e-01 4.507432e-01 -2.688417e-01 1.828091e-01 9.754388e-03 -2.449062e-01 -3.633474e-01 -2.472279e-01 -8.747903e-02 9.258384e-02 1.670559e-02 -4.209321e-02 -2.157077e-01 5.441763e-01
<VARIANCE> 25
 9.304550e+01 1.513029e+02 5.616411e+01 4.388339e+01 7.263261e+01 7.930146e+01 3.303423e+01 6.238315e+01 5.652218e+01 4.952351e+01 4.480285e+01 2.104876e+01 2.750848e+00 1.325924e+01 3.893828e+00 2.697285e+00 6.247171e+00 5.872365e+00 3.674579e+00 4.065803e+00 3.837831e+00 5.309028e+00 3.230671e+00 2.156331e+00 4.825726e+00
<GCONST> 1.131689e+02
<TRANSP> 5
 0.000000e+00 1.000000e+00 0.000000e+00 0.000000e+00 0.000000e+00
 0.000000e+00 7.242938e-01 2.757062e-01 0.000000e+00 0.000000e+00
 0.000000e+00 0.000000e+00 6.476346e-01 3.523654e-01 0.000000e+00
 0.000000e+00 0.000000e+00 0.000000e+00 7.765654e-01 2.234346e-01
 0.000000e+00 0.000000e+00 0.000000e+00 0.000000e+00 0.000000e+00
<ENDHMM>
~h "g"
<BEGINHMM>
<NUMSTATES> 5
<STATE> 2
<MEAN> 25
 3.775053e+00 -2.235297e+00 7.453639e+00 6.444857e+00 6.413904e+00 1.112531e-01 -6.603919e+00 -6.305857e+00 1.173827e-01 2.066048e+00 1.594771e+00 -1.759597e+00 -1.077255e-01 -1.716449e-01 5.397005e-01 3.312727e-01 6.171330e-01 -1.592389e-01 -5.424654e-01 2.076890e-01 7.882275e-02 -1.618079e-01 -1.485430e-01 -1.615203e-01 1.655513e-01
<VARIANCE> 25
 7.104244e+01 1.653024e+02 1.100382e+02 9.842400e+01 1.256085e+02 7.753281e+01 7.788087e+01 8.454245e+01 4.552319e+01 5.307792e+01 3.269613e+01 3.596418e+01 2.725516e+00 1.991813e+01 5.675370e+00 6.963011e+00 8.873220e+00 7.293426e+00 5.939698e+00 5.405111e+00 3.532826e+00 3.577127e+00 2.472075e+00 2.758836e+00 7.257667e+00
<GCONST> 1.191928e+02
<STATE> 3
<MEAN> 25
 1.574950e+00 -3.635607e+00 8.410534e+00 9.311033e+00 1.383730e+01 -1.434919e+00 -1.238527e+01 -1.626734e+00 -1.458489e+00 1.361137e+00 1.458235e+00 -4.658273e+00 -2.864018e-01 2.957871e-01 -1.076612e-01 3.757321e-01 1.524287e-01 1.113928e-01 -2.160736e-01 3.514733e-01 2.096128e-02 -5.916876e-02 2.932139e-02 -1.027422e-01 -5.655693e-01
<VARIANCE> 25
 4.674538e+01 6.387296e+01 8.792866e+01 8.063879e+01 1.549583e+02 5.708433e+01 1.145287e+02 4.785510e+01 3.248781e+01 3.943680e+01 2.713273e+01 3.684133e+01 2.417155e+00 4.851891e+00 3.551408e+00 4.079965e+00 4.404497e+00 3.949329e+00 5.380054e+00 2.311728e+00 1.740225e+00 1.876967e+00 1.634882e+00 1.542770e+00 2.888338e+00
<GCONST> 1.082564e+02
<STATE> 4
<MEAN> 25
 -4.580441e+00 -1.164836e+00 3.173427e+00 6.450288e+00 9.667437e+00 1.296174e+00 -7.444301e+00 6.119468e-01 -5.190050e-01 2.513407e+00 1.594011e+00 -2.309493e+00 -3.469970e-01 2.170748e-02 -3.396274e-01 -2.131693e-01 -4.677050e-01 7.676062e-02 4.299318e-01 2.106566e-02 4.394422e-02 1.197554e-01 6.265290e-02 1.679997e-01 -4.148684e-01
<VARIANCE> 25
 7.467490e+01 2.864493e+01 6.344095e+01 5.858468e+01 1.115808e+02 5.863531e+01 1.266630e+02 2.188751e+01 2.389066e+01 2.931656e+01 2.572880e+01 3.792546e+01 9.365231e-01 1.301654e+00 1.331930e+00 1.663173e+00 2.210356e+00 1.540047e+00 3.237165e+00 1.210818e+00 1.174420e+00 1.107151e+00 1.066767e+00 1.102987e+00 1.190121e+00
<GCONST> 9.616767e+01
<TRANSP> 5
 0.000000e+00 1.000000e+00 0.000000e+00 0.000000e+00 0.000000e+00
 0.000000e+00 8.527969e-01 1.472031e-01 0.000000e+00 0.000000e+00
 0.000000e+00 0.000000e+00 7.464890e-01 2.535110e-01 0.000000e+00
 0.000000e+00 0.000000e+00 0.000000e+00 8.535547e-01 1.464452e-01
 0.000000e+00 0.000000e+00 0.000000e+00 0.000000e+00 0.000000e+00
<ENDHMM>
~h "k"
<BEGINHMM>
<NUMSTATES> 5
<STATE> 2
<MEAN> 25
 6.989905e-01 -1.206337e+00 6.869659e-01 -2.599530e+00 -4.386935e+00 -1.176163e+00 2.210341e+00 9.732410e-01 1.888034e-01 5.607662e-02 1.105505e+00 1.228720e+00 7.517433e-01 -5.217735e-01 1.321944e-01 -5.145025e-01 -1.006812e+00 -6.399667e-01 2.385654e-01 -3.325210e-01 -1.260507e-01 -2.060188e-01 3.516490e-01 -6.704220e-02 1.093217e+00
<VARIANCE> 25
 1.138869e+02 1.236033e+02 8.119700e+01 5.889394e+01 1.918984e+02 1.293460e+02 6.787148e+01 7.800400e+01 3.839502e+01 6.262165e+01 5.741000e+01 4.245064e+01 1.105385e+01 1.438781e+01 7.781591e+00 6.751591e+00 1.866543e+01 1.550548e+01 6.349628e+00 7.701072e+00 4.517563e+00 6.615438e+00 6.442819e+00 5.339334e+00 1.410756e+01
<GCONST> 1.264197e+02
<STATE> 3
<MEAN> 25
 3.934400e+00 -1.474004e+00 9.827464e-01 -3.920696e+00 -7.586257e+00 -4.648318e+00 2.940036e+00 -6.724744e-01 -6.226622e-01 -3.805447e-01 2.369781e+00 8.566611e-01 9.843846e-01 2.256535e-01 5.730793e-02 -1.583418e-01 -2.135407e-01 -1.092932e+00 1.021237e-01 -6.095879e-02 -4.002160e-01 -3.380025e-01 -1.138266e-01 -2.985846e-01 9.704767e-01
<VARIANCE> 25
 9.883299e+01 1.214152e+02 8.902236e+01 6.303308e+01 2.329325e+02 1.353624e+02 5.812206e+01 8.380624e+01 4.580484e+01 5.806288e+01 6.763623e+01 4.821112e+01 7.681715e+00 1.156492e+01 6.205685e+00 7.540169e+00 1.374232e+01 1.431888e+01 6.046551e+00 7.161718e+00 4.742411e+00 5.622935e+00 7.077882e+00 5.601288e+00 1.009757e+01
<GCONST> 1.254560e+02
<STATE> 4
<MEAN> 25
 7.052372e+00 3.852794e-01 9.990018e-01 -3.597834e+00 -6.940046e+00 -8.031884e+00 2.413411e+00 -1.463410e+00 -2.251463e+00 -1.275348e+00 1.037348e+00 -1.960876e-01 5.550097e-01 3.187898e-01 5.274164e-02 1.992524e-01 5.947375e-01 -3.631987e-01 -4.075195e-01 8.708367e-02 -2.135387e-01 -1.777386e-01 -5.272729e-01 -3.318928e-01 3.171068e-01
<VARIANCE> 25
 8.217747e+01 9.048801e+01 7.757581e+01 6.236205e+01 2.131659e+02 1.242541e+02 6.547477e+01 8.252387e+01 5.177197e+01 5.978726e+01 6.260540e+01 4.766536e+01 4.652327e+00 4.982346e+00 4.285393e+00 6.380237e+00 5.525078e+00 1.001734e+01 4.911789e+00 5.760467e+00 4.657140e+00 4.806224e+00 5.071481e+00 4.349585e+00 4.143756e+00
<GCONST> 1.195947e+02
<TRANSP> 5
 0.000000e+00 1.000000e+00 0.000000e+00 0.000000e+00 0.000000e+00
 0.000000e+00 8.168272e-01 1.831729e-01 0.000000e+00 0.000000e+00
 0.000000e+00 0.000000e+00 7.030888e-01 2.969112e-01 0.000000e+00
 0.000000e+00 0.000000e+00 0.000000e+00 5.896285e-01 4.103715e-01
 0.000000e+00 0.000000e+00 0.000000e+00 0.000000e+00 0.000000e+00
<ENDHMM>
~h "l"
<BEGINHMM>
<NUMSTATES> 5
<STATE> 2
<MEAN> 25
 1.080467e+01 -1.307959e+00 -1.796919e+00 -2.793633e+00 -4.741302e+00 -5.873095e+00 2.922480e+00 2.025746e+00 -3.842996e+00 -6.465660e+00 -2.222439e+00 -2.696367e-01 4.066133e-01 -1.249493e-01 -3.524471e-01 -8.368210e-02 -1.730862e-01 -3.215763e-01 3.091904e-01 2.450914e-01 -2.624494e-01 -3.339966e-01 -5.320312e-02 1.981893e-01 3.454689e-01
<VARIANCE> 25
 6.182799e+01 5.982890e+01 8.162022e+01 5.749895e+01 1.387062e+02 1.024672e+02 1.113892e+02 7.844846e+01 1.041154e+02 6.894717e+01 7.813193e+01 6.953818e+01 2.836903e+00 4.369167e+00 3.943358e+00 4.232932e+00 5.754013e+00 6.432593e+00 6.556316e+00 5.107798e+00 5.213997e+00 4.454952e+00 4.094725e+00 3.184896e+00 3.378997e+00
<GCONST> 1.181188e+02
<STATE> 3
<MEAN> 25
 1.106227e+01 -1.103897e+00 -2.342233e+00 -2.618274e+00 -4.204082e+00 -5.353333e+00 2.577719e+00 2.166219e+00 -3.146396e+00 -6.111648e+00 -2.567870e+00 7.628666e-01 -7.864248e-02 5.645958e-02 -1.105758e-01 -1.787109e-02 1.227406e-01 1.483402e-01 -3.469784e-02 1.345673e-02 1.300765e-01 1.272935e-01 2.244236e-02 1.651224e-01 -1.195384e-01
<VARIANCE> 25
 6.160622e+01 5.857250e+01 7.205328e+01 5.884619e+01 1.353047e+02 9.753542e+01 1.124238e+02 7.735299e+01 1.003078e+02 6.799948e+01 8.252708e+01 7.158006e+01 1.681481e+00 3.060220e+00 3.148207e+00 3.371419e+00 4.619349e+00 4.582508e+00 5.276990e+00 4.138182e+00 4.491022e+00 3.832130e+00 3.402629e+00 3.044399e+00 1.898594e+00
<GCONST> 1.145213e+02
<STATE> 4
<MEAN> 25
 9.104082e+00 -1.055513e+00 -2.793499e+00 -2.722651e+00 -2.799205e+00 -4.649529e+00 1.904952e+00 2.263293e+00 -2.086546e+00 -4.439585e+00 -2.141476e+00 1.452693e+00 -2.794881e-01 7.366262e-02 3.393351e-02 8.793713e-02 1.722920e-01 2.222663e-01 -1.082681e-01 -6.699692e-02 2.395383e-01 2.890828e-01 4.960749e-02 1.731510e-02 -2.888378e-01
<VARIANCE> 25
 9.168369e+01 5.357769e+01 6.530975e+01 5.817604e+01 1.066648e+02 1.005985e+02 1.066484e+02 7.383170e+01 8.105147e+01 6.226371e+01 7.046989e+01 5.673352e+01 1.200897e+00 2.092646e+00 2.135103e+00 2.383036e+00 2.939368e+00 3.456114e+00 3.867518e+00 3.168920e+00 3.294560e+00 2.942214e+00 2.867534e+00 2.563799e+00 1.231125e+00
<GCONST> 1.096082e+02
<TRANSP> 5
 0.000000e+00 1.000000e+00 0.000000e+00 0.000000e+00 0.000000e+00
 0.000000e+00 7.003190e-01 2.996810e-01 0.000000e+00 0.000000e+00
 0.000000e+00 0.000000e+00 6.590492e-01 3.409508e-01 0.000000e+00
 0.000000e+00 0.000000e+00 0.000000e+00 7.676322e-01 2.323678e-01
 0.000000e+00 0.000000e+00 0.000000e+00 0.000000e+00 0.000000e+00
<ENDHMM>
~h "m"
<BEGINHMM>
<NUMSTATES> 5
<STATE> 2
<MEAN> 25
 2.337608e+00 4.169257e+00 -1.457931e+00 1.678877e+00 1.682844e+00 2.523260e+00 5.978233e-01 1.749468e+00 -5.516858e-02 -1.664399e+00 -4.924973e+00 -2.733168e+00 -4.048102e-01 3.096316e-02 5.603895e-03 1.796713e-01 9.740282e-03 2.619416e-01 8.009891e-02 5.826586e-02 2.440127e-01 2.305080e-01 -1.076183e-01 -6.552823e-02 -4.248591e-01
<VARIANCE> 25
 9.350359e+01 4.827988e+01 2.976000e+01 5.623409e+01 4.749246e+01 5.005947e+01 3.546875e+01 3.198540e+01 5.054085e+01 4.455046e+01 3.942064e+01 6.311132e+01 1.165993e+00 1.848701e+00 1.760948e+00 2.458519e+00 1.951933e+00 1.893594e+00 1.766762e+00 1.526582e+00 1.904078e+00 1.883468e+00 2.255426e+00 2.759436e+00 9.654125e-01
<GCONST> 9.973415e+01
<STATE> 3
<MEAN> 25
 -7.560623e-02 3.883236e+00 -1.172112e+00 1.560646e+00 1.403131e+00 3.452848e+00 9.276404e-01 1.968260e+00 7.143081e-01 -1.953162e-01 -4.213253e+00 -1.986423e+00 -4.391136e-01 -1.418017e-01 -5.462051e-02 -4.234225e-02 -8.398649e-02 2.015357e-01 2.326375e-02 -3.631759e-02 1.585860e-01 2.804473e-01 1.576741e-01 1.593485e-01 -3.281111e-01
<VARIANCE> 25
 9.898956e+01 4.744602e+01 2.671207e+01 5.381335e+01 4.673804e+01 4.657508e+01 3.515633e+01 2.644241e+01 4.092144e+01 3.709655e+01 3.827654e+01 5.659995e+01 1.365858e+00 1.907145e+00 1.626394e+00 2.093872e+00 1.793126e+00 2.003278e+00 1.729313e+00 1.512642e+00 1.816572e+00 1.813557e+00 1.986583e+00 2.392633e+00 1.212647e+00
<GCONST> 9.856555e+01
<STATE> 4
<MEAN> 25
 -5.079995e+00 2.148243e+00 -1.996215e+00 1.037929e+00 1.339415e+00 5.403952e+00 8.668104e-01 1.750901e+00 1.331736e+00 2.129024e+00 -1.555093e+00 5.863041e-01 -2.271133e-01 -1.388440e-01 -6.416700e-02 -2.799284e-02 -6.209408e-02 4.373945e-02 -9.327632e-03 -5.368869e-02 -2.160319e-02 1.005797e-01 1.765688e-01 1.517725e-01 -1.523208e-01
<VARIANCE> 25
 7.481821e+01 2.717249e+01 1.643673e+01 3.471499e+01 3.293426e+01 4.363914e+01 3.518567e+01 2.103602e+01 2.460091e+01 2.624309e+01 2.807443e+01 3.384700e+01 1.014224e+00 1.039843e+00 9.108527e-01 1.131322e+00 1.094548e+00 1.347038e+00 1.295190e+00 1.207241e+00 1.341731e+00 1.298625e+00 1.440572e+00 1.500481e+00 7.797207e-01
<GCONST> 8.911085e+01
<TRANSP> 5
 0.000000e+00 1.000000e+00 0.000000e+00 0.000000e+00 0.000000e+00
 0.000000e+00 7.566384e-01 2.433616e-01 0.000000e+00 0.000000e+00
 0.000000e+00 0.000000e+00 7.207854e-01 2.792146e-01 0.000000e+00
 0.000000e+00 0.000000e+00 0.000000e+00 8.828682e-01 1.171319e-01
 0.000000e+00 0.000000e+00 0.000000e+00 0.000000e+00 0.000000e+00
<ENDHMM>
~h "n"
<BEGINHMM>
<NUMSTATES> 5
<STATE> 2
<MEAN> 25
 2.131631e+00 6.447317e+00 8.426287e-01 2.967087e+00 4.544878e+00 2.484367e+00 4.355490e-01 -1.231730e+00 -3.678397e+00 -1.049288e+00 -1.929881e+00 1.038719e+00 -7.133329e-01 2.436168e-01 2.329951e-01 3.674805e-01 -2.586379e-02 4.234295e-01 -5.046244e-02 1.421728e-01 2.133508e-01 -1.431301e-02 -1.803478e-01 -1.312520e-01 -8.025078e-01
<VARIANCE> 25
 1.031829e+02 6.953398e+01 3.809283e+01 5.045147e+01 4.594918e+01 6.083698e+01 3.791216e+01 3.651068e+01 5.010219e+01 5.360205e+01 4.999886e+01 3.734750e+01 1.586422e+00 3.516045e+00 2.359530e+00 3.647832e+00 2.189459e+00 3.513588e+00 2.348121e+00 2.399591e+00 2.754524e+00 3.775996e+00 2.856999e+00 2.647737e+00 1.468228e+00
<GCONST> 1.053729e+02
<STATE> 3
<MEAN> 25
 -1.549670e+00 5.184458e+00 8.138933e-01 3.463489e+00 3.052974e+00 3.614716e+00 3.622910e-01 -3.018926e-01 -1.717068e+00 -2.155268e-01 -1.772503e+00 3.989136e-01 -6.512404e-01 -2.847752e-01 -6.942756e-02 3.816951e-02 -1.975335e-01 1.951740e-01 -2.214154e-02 6.707882e-02 3.327940e-01 2.188205e-01 6.359573e-02 -8.346996e-02 -4.840212e-01
<VARIANCE> 25
 1.029669e+02 6.427058e+01 3.642450e+01 5.034980e+01 4.167307e+01 5.648714e+01 3.712333e+01 2.948156e+01 4.323182e+01 4.248007e+01 3.473799e+01 2.955571e+01 1.560059e+00 2.535453e+00 2.111588e+00 2.943935e+00 1.908646e+00 2.642754e+00 2.060063e+00 2.123369e+00 2.327757e+00 2.521310e+00 2.206349e+00 2.195952e+00 1.221334e+00
<GCONST> 1.013141e+02
<STATE> 4
<MEAN> 25
 -6.368399e+00 2.008134e+00 -1.293265e+00 2.551073e+00 1.117026e+00 4.775066e+00 -1.558282e-01 2.664698e-01 5.704665e-01 1.428927e+00 -9.089251e-01 8.767352e-01 -3.256310e-01 -2.900263e-01 -9.990043e-02 -1.487359e-01 -1.520268e-01 3.296389e-02 -9.612073e-03 9.855849e-03 1.314433e-01 1.377393e-01 9.624963e-02 2.052411e-02 -1.440475e-01
<VARIANCE> 25
 7.472617e+01 3.788415e+01 2.657506e+01 3.753797e+01 3.841382e+01 4.589178e+01 3.341227e+01 2.335700e+01 3.014505e+01 2.749680e+01 2.218409e+01 1.854914e+01 1.147856e+00 1.684419e+00 1.520566e+00 1.636143e+00 1.539200e+00 1.711852e+00 1.665033e+00 1.619997e+00 1.766130e+00 1.624441e+00 1.613435e+00 1.324875e+00 8.599889e-01
<GCONST> 9.286967e+01
<TRANSP> 5
 0.000000e+00 1.000000e+00 0.000000e+00 0.000000e+00 0.000000e+00
 0.000000e+00 7.506204e-01 2.493795e-01 0.000000e+00 0.000000e+00
 0.000000e+00 0.000000e+00 7.185980e-01 2.814020e-01 0.000000e+00
 0.000000e+00 0.000000e+00 0.000000e+00 8.341788e-01 1.658212e-01
 0.000000e+00 0.000000e+00 0.000000e+00 0.000000e+00 0.000000e+00
<ENDHMM>
~h "p"
<BEGINHMM>
<NUMSTATES> 5
<STATE> 2
<MEAN> 25
 -6.013911e+00 2.352506e+00 -2.352525e+00 -1.340401e-01 1.090917e+00 2.702819e+00 4.818369e-01 9.105769e-01 3.302425e-01 3.119245e+00 7.332618e-01 1.331340e+00 2.593934e-01 -2.011209e-01 -1.810065e-01 -1.591292e-01 -3.303056e-01 -1.076378e-01 -2.519580e-01 -1.420096e-01 2.553718e-01 -1.024915e-01 -9.578802e-02 2.980795e-02 2.310499e-01
<VARIANCE> 25
 9.621854e+01 2.849383e+01 1.951697e+01 2.580750e+01 5.287553e+01 4.135899e+01 3.423502e+01 2.578694e+01 2.848272e+01 2.686009e+01 3.401481e+01 1.870170e+01 7.870142e+00 3.748008e+00 2.045768e+00 2.672834e+00 4.001215e+00 3.987375e+00 3.365685e+00 2.906123e+00 2.509047e+00 2.236556e+00 3.134244e+00 1.840990e+00 6.334750e+00
<GCONST> 1.031109e+02
<STATE> 3
<MEAN> 25
 -3.018195e+00 1.222851e+00 -2.638704e+00 -6.977316e-01 -8.839903e-01 1.830482e+00 -1.712130e-01 5.323644e-02 1.002098e+00 2.054955e+00 2.366215e-01 1.230190e+00 1.480754e+00 -4.378930e-01 -4.223224e-03 -4.241189e-01 -6.701239e-01 -7.172493e-01 -2.918912e-01 -2.636220e-01 3.998267e-01 -4.546355e-01 -2.007367e-01 -1.595788e-01 1.581894e+00
<VARIANCE> 25
 1.112148e+02 4.647034e+01 2.785247e+01 3.149351e+01 5.949131e+01 5.651932e+01 3.886441e+01 3.438226e+01 3.304885e+01 2.907120e+01 3.903098e+01 2.151293e+01 1.150149e+01 5.366793e+00 2.903620e+00 3.363437e+00 6.138213e+00 6.530726e+00 4.528217e+00 4.384043e+00 3.266240e+00 3.342963e+00 4.504741e+00 2.579551e+00 9.869880e+00
<GCONST> 1.104064e+02
<STATE> 4
<MEAN> 25
 2.089865e+00 -1.293914e-01 -2.455811e+00 -1.897913e+00 -2.647917e+00 -8.396218e-01 -8.525567e-01 -1.100129e+00 1.955256e+00 5.970300e-01 -2.694493e-01 7.323111e-01 1.767843e+00 -1.777222e-01 2.185870e-01 -3.411288e-01 -6.319467e-01 -1.259744e+00 3.745073e-02 -2.838115e-01 9.048399e-02 -4.225045e-01 -8.016856e-02 -4.063021e-01 1.903092e+00
<VARIANCE> 25
 1.230948e+02 7.871305e+01 4.991391e+01 4.292088e+01 7.605154e+01 9.627424e+01 5.070484e+01 6.163255e+01 4.462649e+01 3.789149e+01 4.960449e+01 3.174299e+01 1.080666e+01 6.442320e+00 4.237484e+00 3.851264e+00 7.259206e+00 8.764845e+00 5.493969e+00 4.982286e+00 4.116403e+00 3.553542e+00 5.133949e+00 3.414092e+00 8.731909e+00
<GCONST> 1.167477e+02
<TRANSP> 5
 0.000000e+00 1.000000e+00 0.000000e+00 0.000000e+00 0.000000e+00
 0.000000e+00 6.544514e-01 3.455486e-01 0.000000e+00 0.000000e+00
 0.000000e+00 0.000000e+00 5.734567e-01 4.265433e-01 0.000000e+00
 0.000000e+00 0.000000e+00 0.000000e+00 5.962777e-01 4.037224e-01
 0.000000e+00 0.000000e+00 0.000000e+00 0.000000e+00 0.000000e+00
<ENDHMM>
~h "r"
<BEGINHMM>
<NUMSTATES> 5
<STATE> 2
<MEAN> 25
 1.307892e+01 -4.447015e+00 -6.087656e+00 -4.077368e+00 -3.697142e+00 -2.709462e+00 -6.106598e-01 -2.929977e+00 1.745344e+00 -2.565631e+00 -2.075437e-01 3.594276e+00 4.275948e-03 3.208511e-01 -2.921527e-01 -8.126530e-02 5.252855e-01 9.129733e-02 -3.215959e-01 1.106564e-02 -2.537032e-01 -1.541820e-01 2.671519e-01 -1.893008e-02 -2.107487e-01
<VARIANCE> 25
 3.633138e+01 7.126737e+01 5.861957e+01 3.576138e+01 6.265226e+01 8.040769e+01 6.742401e+01 4.769699e+01 5.250652e+01 5.110067e+01 1.057839e+02 4.915361e+01 1.428190e+00 5.100421e+00 3.928092e+00 2.044973e+00 3.803320e+00 5.835454e+00 3.965235e+00 3.138982e+00 3.082322e+00 3.839000e+00 4.158867e+00 3.477090e+00 9.527997e-01
<GCONST> 1.092902e+02
<STATE> 3
<MEAN> 25
 1.177653e+01 -1.045975e+00 -6.285348e+00 -4.283866e+00 -5.001508e-01 -2.158204e+00 -1.677436e+00 -2.685641e+00 -8.826054e-01 -3.587471e+00 -8.339241e-01 1.672363e+00 -2.855296e-01 6.476849e-01 1.207638e-01 2.150556e-01 6.372565e-01 2.282525e-01 -3.148222e-02 1.823087e-02 -5.325044e-01 -1.572086e-01 -3.897991e-02 -3.470922e-01 -5.117929e-01
<VARIANCE> 25
 4.636982e+01 8.112944e+01 6.323742e+01 4.129401e+01 5.680471e+01 7.741759e+01 5.418525e+01 4.789777e+01 6.161423e+01 5.762630e+01 1.002678e+02 5.534034e+01 1.536523e+00 4.985819e+00 5.234867e+00 2.467795e+00 3.255810e+00 6.023028e+00 3.630480e+00 2.890808e+00 3.716226e+00 4.431993e+00 4.623019e+00 3.300487e+00 1.173126e+00
<GCONST> 1.107018e+02
<STATE> 4
<MEAN> 25
 8.575383e+00 1.446788e+00 -4.632178e+00 -3.521082e+00 1.442568e+00 -8.738493e-01 -1.802950e+00 -2.435308e+00 -3.164699e+00 -3.634764e+00 -1.918712e+00 3.424707e-01 -4.573894e-01 2.230513e-01 2.904272e-01 4.476475e-01 4.747134e-01 2.174515e-01 -1.009120e-01 3.653044e-02 -2.681468e-01 1.500137e-01 -3.417234e-02 -2.554218e-01 -4.915978e-01
<VARIANCE> 25
 6.049155e+01 7.150234e+01 5.489907e+01 5.008992e+01 5.231249e+01 8.448548e+01 5.140245e+01 4.668345e+01 5.940284e+01 5.584108e+01 6.791387e+01 5.338983e+01 1.404390e+00 2.560763e+00 3.163877e+00 2.305563e+00 2.545655e+00 3.949590e+00 2.934568e+00 2.330495e+00 2.958347e+00 3.607249e+00 3.178098e+00 2.733376e+00 1.144656e+00
<GCONST> 1.068802e+02
<TRANSP> 5
 0.000000e+00 1.000000e+00 0.000000e+00 0.000000e+00 0.000000e+00
 0.000000e+00 7.967114e-01 2.032886e-01 0.000000e+00 0.000000e+00
 0.000000e+00 0.000000e+00 7.264375e-01 2.735625e-01 0.000000e+00
 0.000000e+00 0.000000e+00 0.000000e+00 7.237805e-01 2.762194e-01
 0.000000e+00 0.000000e+00 0.000000e+00 0.000000e+00 0.000000e+00
<ENDHMM>
~h "s"
<BEGINHMM>
<NUMSTATES> 5
<STATE> 2
<MEAN> 25
 -8.550241e+00 -1.015085e+01 9.734188e+00 -4.912046e+00 -7.169402e-01 5.171144e+00 9.708346e-01 -4.265015e+00 4.226758e+00 6.914730e-01 4.568661e+00 6.674299e-01 -1.676108e+00 -1.125379e+00 1.539927e+00 -5.748986e-01 1.017933e-01 1.792247e-01 4.749427e-01 -3.923301e-01 1.973723e-01 -5.810523e-02 8.536567e-01 -1.045531e-01 3.378558e-01
<VARIANCE> 25
 1.309556e+02 1.490060e+02 1.554705e+02 8.157748e+01 8.412226e+01 1.061918e+02 9.981395e+01 5.215601e+01 4.860932e+01 3.040465e+01 5.072801e+01 3.680126e+01 6.250029e+00 5.376010e+00 9.536594e+00 3.776336e+00 3.964105e+00 4.621312e+00 5.883883e+00 2.956234e+00 3.425399e+00 2.333269e+00 3.833822e+00 2.806228e+00 2.154891e+00
<GCONST> 1.158437e+02
<STATE> 3
<MEAN> 25
 -1.259376e+01 -1.207118e+01 1.149745e+01 -6.276956e+00 1.879414e-01 3.601921e+00 3.258927e+00 -5.427475e+00 4.195637e+00 4.396748e-01 6.458353e+00 2.791416e-01 -5.891573e-02 -2.492779e-01 -9.753108e-02 -1.818941e-01 4.803172e-02 -4.158178e-01 7.541014e-02 -2.146595e-01 -6.840007e-02 -8.659748e-02 1.544337e-01 2.536102e-03 2.632618e-01
<VARIANCE> 25
 1.201703e+02 1.369533e+02 1.411514e+02 8.105524e+01 8.659805e+01 1.141918e+02 1.053106e+02 5.962094e+01 4.515499e+01 2.945886e+01 5.089182e+01 3.294756e+01 8.909781e+00 6.260358e+00 7.461547e+00 2.961658e+00 3.275588e+00 3.904798e+00 4.540839e+00 3.412101e+00 3.104999e+00 2.213583e+00 4.114216e+00 2.167330e+00 1.973138e+00
<GCONST> 1.147635e+02
<STATE> 4
<MEAN> 25
 -9.004626e+00 -8.382523e+00 6.334945e+00 -5.453114e+00 7.499996e-01 6.733221e-01 2.350003e+00 -4.836282e+00 2.883372e+00 3.415197e-01 4.348064e+00 3.074469e-01 1.295421e+00 4.128950e-01 -7.403262e-01 2.603938e-01 -2.609193e-03 -3.932888e-01 -4.596671e-01 1.957145e-01 -2.449033e-01 -6.486303e-02 -6.159661e-01 7.760802e-02 1.908538e-01
<VARIANCE> 25
 1.628092e+02 8.578338e+01 1.382213e+02 8.898760e+01 7.921175e+01 9.961540e+01 8.081226e+01 7.273778e+01 4.847431e+01 3.419820e+01 5.721696e+01 3.062236e+01 7.867219e+00 4.734161e+00 6.660223e+00 3.648883e+00 3.402285e+00 3.928886e+00 4.132555e+00 4.380688e+00 3.459150e+00 2.518684e+00 4.433683e+00 2.173664e+00 2.206249e+00
<GCONST> 1.149616e+02
<TRANSP> 5
 0.000000e+00 1.000000e+00 0.000000e+00 0.000000e+00 0.000000e+00
 0.000000e+00 7.461691e-01 2.538308e-01 0.000000e+00 0.000000e+00
 0.000000e+00 0.000000e+00 7.098431e-01 2.901569e-01 0.000000e+00
 0.000000e+00 0.000000e+00 0.000000e+00 7.326829e-01 2.673172e-01
 0.000000e+00 0.000000e+00 0.000000e+00 0.000000e+00 0.000000e+00
<ENDHMM>
~h "t"
<BEGINHMM>
<NUMSTATES> 5
<STATE> 2
<MEAN> 25
 -2.367770e+00 7.392474e-01 -1.180524e+00 1.498536e+00 6.308678e-02 1.631225e+00 1.339619e+00 -7.218866e-01 -3.232225e-01 1.050362e+00 6.134421e-01 6.842865e-01 5.906873e-01 -1.305093e-01 3.966447e-01 1.975181e-01 8.868058e-02 -8.531775e-02 -3.082723e-01 -4.715304e-01 -3.172786e-02 -1.889758e-01 -8.382797e-02 -6.772643e-02 7.138605e-01
<VARIANCE> 25
 1.298290e+02 6.047273e+01 4.558355e+01 3.455796e+01 5.521858e+01 5.607662e+01 4.302608e+01 4.396926e+01 3.680910e+01 4.071320e+01 4.796368e+01 2.647808e+01 8.666370e+00 9.272943e+00 4.984059e+00 3.988545e+00 5.877501e+00 5.339054e+00 4.174638e+00 6.108466e+00 3.466266e+00 4.180017e+00 4.475776e+00 2.702275e+00 1.021858e+01
<GCONST> 1.138714e+02
<STATE> 3
<MEAN> 25
 5.439289e-01 -1.547425e+00 -5.367110e-01 1.018076e+00 -4.206993e-01 1.145546e+00 6.043659e-01 -2.669771e+00 -9.311134e-02 9.685658e-01 6.393229e-01 7.845724e-01 1.120899e+00 -8.623527e-01 3.214044e-01 -3.184741e-01 -1.170263e-01 -3.908843e-01 -3.722807e-01 -5.942836e-01 -8.748785e-02 -2.874594e-01 -3.028342e-01 -6.641491e-02 1.606335e+00
<VARIANCE> 25
 1.322245e+02 1.216531e+02 6.014220e+01 3.869352e+01 7.218668e+01 7.071048e+01 5.821846e+01 6.346815e+01 3.951971e+01 4.581229e+01 5.048088e+01 2.861629e+01 1.119491e+01 1.470418e+01 6.267020e+00 4.361440e+00 9.290272e+00 8.082931e+00 6.472016e+00 8.506729e+00 4.605121e+00 5.549914e+00 5.925846e+00 3.217625e+00 1.439462e+01
<GCONST> 1.205090e+02
<STATE> 4
<MEAN> 25
 2.260923e+00 -3.238007e+00 -2.018541e-02 -2.801403e-01 -6.224917e-01 -4.679763e-01 1.402044e-02 -3.833792e+00 -2.687441e-01 9.228612e-01 3.160154e-01 2.459734e-01 8.178417e-01 -1.979426e-01 4.783855e-01 -1.384338e-01 5.611098e-02 -4.777007e-01 -3.704031e-01 -1.072297e-02 -2.049377e-01 -3.931744e-01 -3.525899e-01 -3.241913e-01 9.595287e-01
<VARIANCE> 25
 1.283475e+02 1.337191e+02 7.161228e+01 4.519989e+01 8.990764e+01 1.096676e+02 7.979334e+01 8.341641e+01 5.427157e+01 5.778426e+01 5.205954e+01 3.807267e+01 9.393810e+00 1.366985e+01 6.257988e+00 5.072419e+00 8.723163e+00 1.113548e+01 7.202865e+00 8.770659e+00 5.197568e+00 5.669179e+00 6.059034e+00 3.977980e+00 1.250308e+01
<GCONST> 1.235484e+02
<TRANSP> 5
 0.000000e+00 1.000000e+00 0.000000e+00 0.000000e+00 0.000000e+00
 0.000000e+00 5.876692e-01 4.123308e-01 0.000000e+00 0.000000e+00
 0.000000e+00 0.000000e+00 6.466497e-01 3.533503e-01 0.000000e+00
 0.000000e+00 0.000000e+00 0.000000e+00 7.620065e-01 2.379935e-01
 0.000000e+00 0.000000e+00 0.000000e+00 0.000000e+00 0.000000e+00
<ENDHMM>
~h "y"
<BEGINHMM>
<NUMSTATES> 5
<STATE> 2
<MEAN> 25
 1.041040e+01 -5.834995e+00 -1.595574e+00 1.737029e+00 4.957111e+00 -1.076638e+01 3.671572e+00 -6.603173e+00 2.988161e+00 5.732127e+00 -1.261991e+00 -1.373041e+00 6.786683e-01 4.284338e-02 1.110905e+00 7.438905e-01 3.534955e-01 -9.952977e-01 -2.576694e-02 -6.796784e-01 7.120900e-02 5.591064e-01 -3.888313e-02 -2.711154e-01 9.689816e-01
<VARIANCE> 25
 5.729711e+01 2.837939e+01 1.446697e+02 1.051797e+02 6.291751e+01 1.766507e+02 5.505117e+01 5.388915e+01 5.182708e+01 3.763129e+01 3.577956e+01 2.114067e+01 5.936029e+00 1.464700e+00 7.093859e+00 5.758432e+00 2.439641e+00 5.499825e+00 5.438552e+00 4.789767e+00 2.050992e+00 4.927749e+00 4.887625e+00 2.123338e+00 7.263958e+00
<GCONST> 1.128515e+02
<STATE> 3
<MEAN> 25
 1.114129e+01 -4.557929e+00 7.179372e+00 1.123162e+01 2.406465e+00 -1.040719e+01 -2.613452e+00 -7.900555e+00 3.592942e+00 4.907001e+00 7.861266e-01 -1.910520e+00 -3.176704e-02 5.517848e-01 5.137684e-01 6.463550e-01 2.883996e-02 4.135917e-02 -3.391670e-01 6.506820e-02 -1.146586e-01 -1.276649e-01 3.333512e-01 -1.440652e-01 -3.213441e-01
<VARIANCE> 25
 3.442679e+01 4.607203e+01 1.528382e+02 1.690484e+02 6.830652e+01 1.291632e+02 6.409293e+01 5.054182e+01 5.256364e+01 4.768579e+01 4.616036e+01 2.482082e+01 1.310358e+00 1.919524e+00 9.479427e+00 8.262124e+00 1.236324e+00 5.120032e+00 4.345595e+00 4.237956e+00 2.425042e+00 5.108366e+00 5.355153e+00 1.991330e+00 1.705999e+00
<GCONST> 1.109737e+02
<STATE> 4
<MEAN> 25
 1.227752e+01 6.263462e-01 5.751240e+00 9.104931e+00 4.641795e+00 -6.049667e+00 -4.482737e+00 -4.905840e+00 1.994450e+00 1.638412e-01 2.525982e+00 -1.398132e+00 -1.007369e-01 6.238054e-01 6.872555e-03 2.367576e-02 -1.747304e-01 9.647556e-01 -9.285691e-02 3.033057e-01 3.397238e-02 -4.193449e-01 9.784205e-02 1.962717e-02 -5.602683e-01
<VARIANCE> 25
 2.331829e+01 9.808438e+01 1.303361e+02 1.582165e+02 5.323769e+01 1.257579e+02 1.069876e+02 3.457736e+01 3.225050e+01 9.040602e+01 6.043669e+01 2.752115e+01 1.211986e+00 3.349055e+00 6.867311e+00 9.720860e+00 2.099094e+00 5.674840e+00 4.361569e+00 2.865673e+00 3.457509e+00 5.004486e+00 5.539345e+00 2.239148e+00 2.106097e+00
<GCONST> 1.127544e+02
<TRANSP> 5
 0.000000e+00 1.000000e+00 0.000000e+00 0.000000e+00 0.000000e+00
 0.000000e+00 8.279249e-01 1.720751e-01 0.000000e+00 0.000000e+00
 0.000000e+00 0.000000e+00 8.115652e-01 1.884348e-01 0.000000e+00
 0.000000e+00 0.000000e+00 0.000000e+00 8.821338e-01 1.178662e-01
 0.000000e+00 0.000000e+00 0.000000e+00 0.000000e+00 0.000000e+00
<ENDHMM>
~h "aa"
<BEGINHMM>
<NUMSTATES> 5
<STATE> 2
<MEAN> 25
 6.393102e+00 -2.996130e+00 -4.190140e+00 -3.915883e+00 -1.766510e+00 -1.718390e+00 1.099857e+00 -3.197460e-01 6.678065e-01 -1.358614e-01 -1.265767e+00 2.342402e+00 2.676652e-01 -8.514166e-02 -2.897471e-01 -1.333966e-01 -6.712957e-02 1.146417e-01 2.773766e-01 7.612444e-02 9.183774e-02 5.892103e-02 -5.448237e-02 1.263429e-01 1.727995e-01
<VARIANCE> 25
 1.201579e+02 5.985037e+01 4.772896e+01 5.858191e+01 6.871665e+01 8.734196e+01 5.702510e+01 5.902521e+01 5.265364e+01 4.601970e+01 6.151050e+01 4.129890e+01 3.892910e+00 3.504216e+00 3.025358e+00 3.011466e+00 3.177108e+00 3.473661e+00 3.057055e+00 3.104388e+00 2.820140e+00 3.138005e+00 2.859177e+00 2.315859e+00 3.354222e+00
<GCONST> 1.099726e+02
<STATE> 3
<MEAN> 25
 6.543448e+00 -2.673280e+00 -4.405667e+00 -3.753024e+00 -1.727197e+00 -1.153769e+00 1.591035e+00 -2.483095e-02 6.565892e-01 -1.844709e-01 -1.341817e+00 2.477942e+00 -7.370031e-02 1.516355e-01 1.495446e-02 1.751406e-01 5.232191e-02 1.780291e-01 1.409091e-01 5.451693e-02 -2.792404e-02 8.852226e-03 2.823543e-02 -1.811312e-02 -1.834012e-01
<VARIANCE> 25
 1.125868e+02 5.985556e+01 4.884044e+01 5.880162e+01 6.428307e+01 8.344167e+01 5.741839e+01 5.759704e+01 5.193216e+01 4.572685e+01 5.928400e+01 4.150018e+01 3.772041e+00 3.570184e+00 2.829645e+00 2.943967e+00 2.840477e+00 3.300024e+00 2.859192e+00 2.960032e+00 2.679570e+00 2.962975e+00 2.901947e+00 2.218141e+00 3.350355e+00
<GCONST> 1.092340e+02
<STATE> 4
<MEAN> 25
 3.766180e+00 -1.569623e+00 -3.688040e+00 -2.653560e+00 -1.430588e+00 -1.275791e-01 1.661433e+00 3.141797e-01 1.944078e-01 2.626792e-01 -7.020629e-01 2.327960e+00 -3.320842e-01 2.887351e-01 1.985059e-01 3.311555e-01 9.139933e-02 2.078584e-01 3.824027e-02 -7.463219e-03 -9.428378e-02 -2.620012e-03 1.145855e-01 -8.980900e-02 -4.406540e-01
<VARIANCE> 25
 1.311219e+02 5.045580e+01 3.910611e+01 5.354524e+01 5.477782e+01 7.719677e+01 5.896749e+01 5.202917e+01 4.619896e+01 3.997333e+01 5.094480e+01 3.371473e+01 2.265442e+00 2.739411e+00 2.178181e+00 2.422143e+00 2.345884e+00 3.060545e+00 2.501685e+00 2.498609e+00 2.310034e+00 2.340688e+00 2.570160e+00 1.997626e+00 2.236955e+00
<GCONST> 1.051606e+02
<TRANSP> 5
 0.000000e+00 1.000000e+00 0.000000e+00 0.000000e+00 0.000000e+00
 0.000000e+00 5.683551e-01 4.316449e-01 0.000000e+00 0.000000e+00
 0.000000e+00 0.000000e+00 5.683384e-01 4.316616e-01 0.000000e+00
 0.000000e+00 0.000000e+00 0.000000e+00 7.134956e-01 2.865044e-01
 0.000000e+00 0.000000e+00 0.000000e+00 0.000000e+00 0.000000e+00
<ENDHMM>
~h "ah"
<BEGINHMM>
<NUMSTATES> 5
<STATE> 2
<MEAN> 25
 -5.079195e+00 -2.691390e+00 4.701816e+00 -2.704896e+00 4.691340e-01 2.395838e+00 1.061324e+00 -2.838715e+00 1.750327e+00 9.642813e-01 2.223326e+00 4.670175e-01 2.197424e-01 -3.840353e-01 1.141072e+00 -6.998393e-01 7.674196e-02 1.013601e-01 1.084128e-01 -5.537114e-01 3.205074e-02 -3.506382e-01 1.082733e-01 -5.832473e-02 1.328242e+00
<VARIANCE> 25
 1.547092e+02 1.039119e+02 1.494750e+02 9.994984e+01 8.619717e+01 7.879224e+01 5.985118e+01 5.912111e+01 7.373353e+01 4.548194e+01 5.712079e+01 2.696666e+01 9.296635e+00 7.341731e+00 1.299984e+01 8.423229e+00 6.423535e+00 7.532620e+00 5.211518e+00 5.037500e+00 7.393303e+00 4.830841e+00 5.057920e+00 2.662317e+00 7.550639e+00
<GCONST> 1.219598e+02
<STATE> 3
<MEAN> 25
 -6.372940e+00 -4.459607e+00 9.441131e+00 -5.724190e+00 1.472867e+00 2.931851e+00 1.675513e+00 -5.268343e+00 2.810261e+00 -2.143560e-01 3.243508e+00 6.692968e-03 6.875402e-01 -2.263514e-02 3.773809e-01 -3.646491e-01 2.931210e-01 -2.582113e-01 -2.444153e-02 -3.205082e-01 -2.596876e-01 -5.391313e-01 5.446374e-02 -1.419739e-01 1.126668e+00
<VARIANCE> 25
 1.913117e+02 1.242485e+02 1.921354e+02 1.402357e+02 9.009074e+01 9.013242e+01 7.007516e+01 7.582162e+01 1.023882e+02 4.745967e+01 5.909072e+01 2.711101e+01 1.020003e+01 8.347342e+00 1.206623e+01 7.577426e+00 5.900797e+00 7.733087e+00 6.420971e+00 6.133209e+00 8.284788e+00 4.872305e+00 5.880486e+00 2.767221e+00 7.670561e+00
<GCONST> 1.246510e+02
<STATE> 4
<MEAN> 25
 -2.872338e+00 -2.188521e+00 9.019423e+00 -6.611338e+00 2.462860e+00 1.690757e+00 1.091039e+00 -5.821455e+00 1.389507e+00 -1.126649e+00 2.659636e+00 -1.031815e-02 1.348436e+00 6.359540e-01 -9.484367e-01 5.673401e-01 -5.282610e-02 -2.941263e-01 -3.209118e-01 4.668729e-01 -6.568041e-01 -2.945297e-01 -4.455011e-01 1.155775e-01 -1.939431e-01
<VARIANCE> 25
 2.283375e+02 1.202917e+02 1.520628e+02 1.487160e+02 8.085524e+01 1.218612e+02 7.211539e+01 9.242043e+01 1.270685e+02 4.578085e+01 5.726902e+01 3.085410e+01 8.707273e+00 8.350432e+00 6.832667e+00 5.967440e+00 4.938720e+00 9.342467e+00 6.062423e+00 6.437310e+00 9.542106e+00 4.748086e+00 5.647074e+00 3.061107e+00 6.542168e+00
<GCONST> 1.243718e+02
<TRANSP> 5
 0.000000e+00 1.000000e+00 0.000000e+00 0.000000e+00 0.000000e+00
 0.000000e+00 5.053741e-01 4.946258e-01 0.000000e+00 0.000000e+00
 0.000000e+00 0.000000e+00 5.977835e-01 4.022165e-01 0.000000e+00
 0.000000e+00 0.000000e+00 0.000000e+00 7.756255e-01 2.243744e-01
 0.000000e+00 0.000000e+00 0.000000e+00 0.000000e+00 0.000000e+00
<ENDHMM>
~h "ao"
<BEGINHMM>
<NUMSTATES> 5
<STATE> 2
<MEAN> 25
 -4.311895e-01 -5.637829e+00 3.014638e+00 -4.375332e+00 -4.880739e+00 -3.299453e+00 1.031093e+00 -2.182716e-01 1.357388e+00 -2.031356e+00 -9.742469e-02 1.510199e+00 1.257642e+00 8.042890e-01 -7.163739e-01 1.812566e-01 -4.041674e-01 -6.362125e-01 -2.359882e-01 3.654204e-01 2.807786e-01 6.771501e-02 -7.648152e-01 -2.143637e-01 1.559659e-01
<VARIANCE> 25
 1.670144e+02 1.173756e+02 7.626866e+01 4.654832e+01 1.315333e+02 1.231021e+02 6.475699e+01 6.454573e+01 5.095755e+01 5.606097e+01 6.094474e+01 1.923601e+01 5.096963e+00 6.182556e+00 2.751887e+00 1.670020e+00 2.779345e+00 3.010504e+00 4.392066e+00 2.378972e+00 2.129458e+00 3.457987e+00 3.869074e+00 1.419200e+00 1.082560e+00
<GCONST> 1.102849e+02
<STATE> 3
<MEAN> 25
 2.794792e+00 -3.768682e+00 2.198335e+00 -3.858160e+00 -6.911004e+00 -4.932472e+00 1.029235e+00 3.660516e-01 2.069547e+00 -2.390713e+00 -1.808799e+00 9.391323e-01 1.140874e+00 1.039755e+00 -5.367543e-01 2.591835e-01 -4.432738e-01 -5.259329e-01 -1.470194e-01 2.902988e-01 2.150092e-01 1.979818e-01 -7.113912e-01 -3.964605e-01 2.955255e-02
<VARIANCE> 25
 1.582766e+02 7.833591e+01 5.768578e+01 4.489630e+01 1.521705e+02 1.094171e+02 7.190787e+01 6.263159e+01 5.553722e+01 5.388614e+01 6.176979e+01 2.356532e+01 4.846389e+00 6.461070e+00 2.425189e+00 1.157342e+00 2.580798e+00 2.799101e+00 4.061652e+00 2.201700e+00 2.084892e+00 3.012845e+00 3.313476e+00 1.245312e+00 1.050214e+00
<GCONST> 1.085998e+02
<STATE> 4
<MEAN> 25
 6.599638e+00 -1.732236e+00 1.353670e+00 -3.878824e+00 -1.099464e+01 -8.283144e+00 2.139146e+00 8.027663e-01 1.870522e+00 -8.383063e-01 -3.728792e+00 -1.002457e+00 5.219418e-01 5.186371e-01 -3.710003e-01 5.007000e-02 1.887836e-01 -1.378362e-01 -1.407107e-01 5.676015e-02 -1.318445e-01 1.062020e-01 -1.825025e-01 -2.612942e-01 2.931264e-02
<VARIANCE> 25
 1.293376e+02 3.077678e+01 2.964649e+01 4.589456e+01 1.795399e+02 1.037742e+02 8.202828e+01 5.653958e+01 7.165665e+01 4.855832e+01 5.685986e+01 2.823886e+01 3.287138e+00 3.655514e+00 2.286936e+00 1.086168e+00 2.879558e+00 2.521813e+00 2.856382e+00 2.393921e+00 2.141138e+00 2.677511e+00 2.774958e+00 1.469737e+00 9.459196e-01
<GCONST> 1.056600e+02
<TRANSP> 5
 0.000000e+00 1.000000e+00 0.000000e+00 0.000000e+00 0.000000e+00
 0.000000e+00 4.679031e-01 5.320970e-01 0.000000e+00 0.000000e+00
 0.000000e+00 0.000000e+00 4.741718e-01 5.258282e-01 0.000000e+00
 0.000000e+00 0.000000e+00 0.000000e+00 6.610177e-01 3.389823e-01
 0.000000e+00 0.000000e+00 0.000000e+00 0.000000e+00 0.000000e+00
<ENDHMM>
~h "aw"
<BEGINHMM>
<NUMSTATES> 5
<STATE> 2
<MEAN> 25
 9.612849e+00 -2.362335e-01 -3.083073e+00 -5.667228e+00 -1.469285e+00 -6.324842e+00 -2.689318e+00 1.801511e+00 2.198104e-01 2.970964e-01 -8.330196e+00 -3.984048e+00 -3.641934e-01 -2.204956e-01 1.578684e-01 1.586152e-01 -4.098571e-01 -2.398168e-02 -1.817609e-02 -1.272786e-01 1.056416e-02 1.368650e-01 1.702002e-01 -2.884196e-01 -2.343694e-01
<VARIANCE> 25
 7.494877e+01 3.055436e+01 1.039501e+01 5.139027e+01 2.782699e+01 5.713489e+01 1.256344e+02 7.842693e+00 1.965829e+01 1.743053e+01 3.934640e+01 2.645550e+01 9.141803e-01 1.706079e+00 4.581839e-01 1.124764e+00 8.299634e-01 1.136001e+00 1.365145e+00 7.588816e-01 1.466471e+00 1.614766e+00 1.686983e+00 1.197048e+00 1.210346e+00
<GCONST> 8.852679e+01
<STATE> 3
<MEAN> 25
 5.256989e+00 1.716087e+00 -2.938507e+00 -2.037067e+00 -4.176028e+00 -2.797788e+00 2.751824e+00 1.026346e+00 -1.052362e+00 -1.678730e+00 -4.899380e+00 -3.534283e+00 -5.507736e-01 1.192024e-01 4.996132e-02 7.384821e-02 -1.933626e-01 2.734981e-01 2.615411e-01 -6.377828e-02 -8.285477e-02 -9.410918e-03 3.932567e-01 1.596366e-01 -5.400748e-01
<VARIANCE> 25
 1.309465e+02 2.178214e+01 8.129235e+00 3.066298e+01 3.821303e+01 6.139206e+01 1.451325e+02 1.603853e+01 2.846863e+01 3.008187e+01 5.627583e+01 2.756274e+01 1.046608e+00 1.200092e+00 3.566480e-01 9.210218e-01 1.178326e+00 1.464673e+00 1.662421e+00 1.163479e+00 2.199888e+00 1.995900e+00 1.639023e+00 1.531308e+00 1.252312e+00
<GCONST> 9.197869e+01
<STATE> 4
<MEAN> 25
 -1.244625e+00 5.136326e+00 -9.967931e-01 -1.629516e+00 -2.489253e+00 -1.091838e+00 1.881485e+00 9.554249e-01 7.924848e-01 2.267225e+00 -2.597735e-01 -8.746775e-01 -2.244889e-01 1.807055e-02 4.291808e-02 5.793891e-02 1.119216e-01 1.073032e-01 -1.280103e-02 2.227619e-02 2.485819e-02 1.011864e-01 1.380447e-01 6.239900e-02 -1.834982e-01
<VARIANCE> 25
 1.406938e+02 6.286436e+01 1.592288e+01 4.458435e+01 3.319754e+01 9.059254e+01 1.049285e+02 1.474839e+01 1.959465e+01 1.947939e+01 5.073915e+01 2.440602e+01 1.822844e+00 1.639290e+00 8.857745e-01 1.427822e+00 1.527874e+00 1.939864e+00 2.097790e+00 1.426995e+00 1.392413e+00 1.216619e+00 1.678927e+00 8.815528e-01 1.382156e+00
<GCONST> 9.477435e+01
<TRANSP> 5
 0.000000e+00 1.000000e+00 0.000000e+00 0.000000e+00 0.000000e+00
 0.000000e+00 8.877360e-01 1.122640e-01 0.000000e+00 0.000000e+00
 0.000000e+00 0.000000e+00 8.550482e-01 1.449518e-01 0.000000e+00
 0.000000e+00 0.000000e+00 0.000000e+00 9.827812e-01 1.721872e-02
 0.000000e+00 0.000000e+00 0.000000e+00 0.000000e+00 0.000000e+00
<ENDHMM>
~h "ch"
<BEGINHMM>
<NUMSTATES> 5
<STATE> 2
<MEAN> 25
 -1.615520e+00 8.389968e-01 -2.195976e+00 3.087889e+00 -1.852656e+00 4.994220e+00 6.895969e-01 -2.825930e+00 2.756234e+00 3.883573e+00 8.128375e-01 1.121599e+00 6.324363e-01 -2.694514e-01 1.016615e-01 -1.514015e-01 -4.269779e-01 1.964672e-02 -7.307289e-01 -7.988523e-01 4.250641e-01 2.673047e-01 -3.571787e-01 8.208393e-02 6.656085e-01
<VARIANCE> 25
 1.265461e+02 4.066514e+01 2.449299e+01 2.017484e+01 5.052047e+01 2.975179e+01 2.338239e+01 8.939751e+01 3.848508e+01 3.217561e+01 1.555161e+01 1.346152e+01 1.204087e+01 7.840638e+00 4.369958e+00 3.139474e+00 5.549458e+00 2.975383e+00 2.367101e+00 4.041624e+00 3.698823e+00 6.045362e+00 2.984333e+00 1.651201e+00 9.030312e+00
<GCONST> 1.072531e+02
<STATE> 3
<MEAN> 25
 1.172954e+00 1.703439e-01 -2.378927e+00 2.643335e+00 -1.214322e+00 5.392488e+00 -4.592602e-01 -4.398337e+00 2.642651e+00 3.786113e+00 -5.035907e-02 5.366453e-01 1.625425e+00 -4.396838e-01 1.127538e-01 -9.379508e-01 1.725897e-01 -1.760121e-01 -3.104579e-01 -7.227163e-01 -1.105604e-02 -5.339909e-01 8.727237e-02 2.372887e-02 2.067856e+00
<VARIANCE> 25
 1.332006e+02 7.916449e+01 3.951010e+01 3.071833e+01 4.267168e+01 4.476589e+01 2.407924e+01 8.651264e+01 3.654217e+01 4.262353e+01 1.598045e+01 1.363003e+01 1.545174e+01 1.159266e+01 5.682568e+00 4.669845e+00 5.926172e+00 5.595488e+00 3.243831e+00 5.486030e+00 4.183670e+00 3.823465e+00 2.982853e+00 1.863942e+00 1.409121e+01
<GCONST> 1.122233e+02
<STATE> 4
<MEAN> 25
 5.591866e+00 -7.326460e+00 2.058107e+00 1.044492e+00 -1.362100e+00 4.440906e+00 -2.920934e+00 -6.271156e+00 3.985246e+00 2.808480e+00 2.186951e+00 7.646441e-01 1.166509e+00 -6.970502e-01 1.185669e-01 -3.377091e-02 3.816037e-01 -1.445952e+00 1.035424e-01 -2.263628e-01 -8.985278e-02 -3.684106e-01 4.431258e-01 1.326191e-01 1.737959e+00
<VARIANCE> 25
 1.163961e+02 2.185171e+02 9.276322e+01 8.706798e+01 9.798181e+01 9.117864e+01 4.818706e+01 7.326438e+01 4.146534e+01 6.532085e+01 2.157531e+01 2.029168e+01 1.077050e+01 2.462270e+01 8.281947e+00 1.291386e+01 1.080852e+01 1.341953e+01 6.497116e+00 7.700599e+00 5.290834e+00 4.728986e+00 3.246876e+00 2.010766e+00 1.780028e+01
<GCONST> 1.234579e+02
<TRANSP> 5
 0.000000e+00 1.000000e+00 0.000000e+00 0.000000e+00 0.000000e+00
 0.000000e+00 4.761402e-01 5.238598e-01 0.000000e+00 0.000000e+00
 0.000000e+00 0.000000e+00 5.468378e-01 4.531622e-01 0.000000e+00
 0.000000e+00 0.000000e+00 0.000000e+00 8.812680e-01 1.187320e-01
 0.000000e+00 0.000000e+00 0.000000e+00 0.000000e+00 0.000000e+00
<ENDHMM>
~h "eh"
<BEGINHMM>
<NUMSTATES> 5
<STATE> 2
<MEAN> 25
 1.118067e+01 -6.364992e+00 -5.964695e+00 -9.708807e-02 9.000159e+00 -7.285731e+00 -1.075231e+01 -1.007004e+01 -7.990103e+00 2.858717e+00 1.431325e+00 1.350060e+00 -2.322260e-01 -2.972223e-01 3.270146e-01 6.403865e-01 1.271980e-01 -5.279585e-01 -4.908258e-01 -6.081123e-01 7.895643e-03 7.292518e-01 -2.138880e-02 -3.186893e-01 -8.003458e-02
<VARIANCE> 25
 3.613161e+01 3.561106e+01 2.882518e+01 4.289276e+01 7.321492e+01 9.157376e+01 7.191928e+01 4.929459e+01 6.383367e+01 4.529324e+01 7.693011e+01 4.841398e+01 8.883201e-01 1.984885e+00 1.527368e+00 1.385040e+00 2.526617e+00 3.088280e+00 2.961395e+00 1.888143e+00 1.684974e+00 2.289359e+00 1.812218e+00 1.804816e+00 1.198393e+00
<GCONST> 1.012109e+02
<STATE> 3
<MEAN> 25
 8.712191e+00 -5.217434e+00 -4.578146e+00 1.704660e+00 7.868997e+00 -6.829696e+00 -1.091603e+01 -1.038399e+01 -6.907315e+00 4.824745e+00 1.351721e+00 3.711638e-01 -6.271477e-01 4.504002e-01 3.149815e-01 2.336420e-01 -8.150922e-02 3.062911e-01 -6.260481e-02 1.674284e-01 3.346255e-01 1.879829e-01 -1.952194e-01 -3.249085e-02 -8.137392e-01
<VARIANCE> 25
 5.581938e+01 3.816684e+01 2.861110e+01 4.035638e+01 5.764807e+01 1.145340e+02 8.065254e+01 4.332385e+01 6.137764e+01 4.829250e+01 5.081276e+01 5.123569e+01 1.698029e+00 2.458758e+00 1.578154e+00 1.658708e+00 1.783973e+00 2.908192e+00 2.987840e+00 1.885439e+00 1.481141e+00 2.470433e+00 1.939916e+00 1.675764e+00 1.868334e+00
<GCONST> 1.023432e+02
<STATE> 4
<MEAN> 25
 -1.609951e+00 1.761969e-01 -2.070125e+00 3.926352e+00 4.239909e+00 9.312817e-01 -5.424606e+00 -3.200261e+00 -3.853975e-01 4.377904e+00 -5.373538e-03 6.078658e-01 -4.312951e-01 2.288855e-01 4.774714e-02 3.582536e-02 -2.065307e-01 5.344006e-01 4.385609e-01 3.748283e-01 2.050725e-01 -1.172120e-01 4.417087e-02 9.506610e-02 -5.529580e-01
<VARIANCE> 25
 6.571146e+01 2.211458e+01 1.654721e+01 3.097238e+01 3.885056e+01 1.681266e+02 8.144247e+01 4.528686e+01 3.925039e+01 4.096822e+01 3.071304e+01 3.078818e+01 6.653957e-01 1.102417e+00 8.218968e-01 9.486127e-01 1.120213e+00 1.863723e+00 2.302351e+00 1.253149e+00 1.262705e+00 1.432387e+00 1.375554e+00 1.403350e+00 7.428036e-01
<GCONST> 9.288959e+01
<TRANSP> 5
 0.000000e+00 1.000000e+00 0.000000e+00 0.000000e+00 0.000000e+00
 0.000000e+00 7.515230e-01 2.484770e-01 0.000000e+00 0.000000e+00
 0.000000e+00 0.000000e+00 7.076342e-01 2.923658e-01 0.000000e+00
 0.000000e+00 0.000000e+00 0.000000e+00 9.407139e-01 5.928603e-02
 0.000000e+00 0.000000e+00 0.000000e+00 0.000000e+00 0.000000e+00
<ENDHMM>
~h "hh"
<BEGINHMM>
<NUMSTATES> 5
<STATE> 2
<MEAN> 25
 3.325542e+00 2.529387e+00 -5.357708e+00 -4.046815e+00 -1.626761e+00 3.200599e+00 6.852248e-01 2.402922e+00 1.160095e+00 -9.969909e-01 -3.815235e+00 -1.595057e+00 -9.028676e-01 -3.384754e-01 -1.787544e-01 1.964915e-03 2.905338e-01 3.065924e-01 -2.377762e-01 -1.706345e-01 2.368500e-01 2.914667e-01 4.213702e-02 4.451021e-01 -6.267552e-01
<VARIANCE> 25
 6.794451e+01 4.544936e+01 5.390148e+01 6.446069e+01 6.938430e+01 4.187569e+01 5.003651e+01 3.955444e+01 4.140337e+01 3.181663e+01 2.912871e+01 4.776369e+01 1.620152e+00 2.735040e+00 2.736202e+00 3.217083e+00 2.584585e+00 2.702506e+00 3.325060e+00 2.756108e+00 2.210243e+00 1.636865e+00 1.840399e+00 2.073366e+00 1.168230e+00
<GCONST> 1.027249e+02
<STATE> 3
<MEAN> 25
 -4.053787e-01 1.769246e+00 -4.653471e+00 -3.529065e+00 -1.002539e+00 3.439561e+00 3.867402e-01 2.360523e+00 1.492876e+00 1.150030e-02 -3.161012e+00 -1.558160e-01 -8.617280e-01 -2.055082e-01 1.768521e-01 2.420904e-01 2.779966e-01 8.158224e-02 -1.016282e-01 -9.538841e-02 8.425949e-03 2.856074e-01 1.953495e-01 3.765878e-01 -5.555283e-01
<VARIANCE> 25
 8.387492e+01 3.351553e+01 4.240181e+01 6.618563e+01 5.533253e+01 2.987835e+01 4.330610e+01 3.152419e+01 3.342127e+01 3.062944e+01 2.469188e+01 4.559633e+01 1.538113e+00 1.728512e+00 1.759923e+00 3.559570e+00 2.136945e+00 2.359238e+00 2.706047e+00 2.013742e+00 1.722165e+00 1.413300e+00 1.568537e+00 1.921019e+00 1.131356e+00
<GCONST> 9.865675e+01
<STATE> 4
<MEAN> 25
 -8.176483e+00 1.957915e-01 -4.214415e+00 6.500551e-01 -3.412246e-01 5.147510e+00 -1.116041e+00 9.275036e-01 2.105463e+00 1.988358e+00 -3.975168e-01 1.430268e+00 -1.849900e-01 -1.142775e-01 1.619614e-02 1.398847e-01 7.596934e-02 2.723571e-02 -2.309501e-02 -3.387424e-02 -1.993838e-02 9.499057e-02 1.190747e-01 1.229664e-01 -1.131695e-01
<VARIANCE> 25
 4.499301e+01 1.247604e+01 1.585590e+01 3.534910e+01 3.529367e+01 2.404709e+01 2.120411e+01 1.637599e+01 1.714517e+01 2.015350e+01 1.753883e+01 1.645986e+01 6.493834e-01 6.656334e-01 9.101377e-01 1.379858e+00 9.510159e-01 9.545496e-01 1.226096e+00 1.032060e+00 1.093899e+00 1.049382e+00 1.132474e+00 1.042029e+00 4.069928e-01
<GCONST> 8.164252e+01
<TRANSP> 5
 0.000000e+00 1.000000e+00 0.000000e+00 0.000000e+00 0.000000e+00
 0.000000e+00 6.629454e-01 3.370545e-01 0.000000e+00 0.000000e+00
 0.000000e+00 0.000000e+00 6.719278e-01 3.280723e-01 0.000000e+00
 0.000000e+00 0.000000e+00 0.000000e+00 9.224008e-01 7.759926e-02
 0.000000e+00 0.000000e+00 0.000000e+00 0.000000e+00 0.000000e+00
<ENDHMM>
~h "ih"
<BEGINHMM>
<NUMSTATES> 5
<STATE> 2
<MEAN> 25
 3.935898e+00 -3.502972e+00 1.143259e+01 1.437955e+01 1.003182e+01 -8.050149e+00 -1.262992e+01 -4.923621e-01 -4.262748e-01 -2.757759e+00 -2.417998e+00 -5.570185e+00 1.569446e-01 2.155822e-01 2.593945e-01 6.563184e-01 5.742509e-01 -7.774063e-01 -6.210278e-01 6.252103e-01 -2.407866e-01 -1.291523e-01 -2.922029e-01 -2.674707e-01 -1.346426e-02
<VARIANCE> 25
 4.753422e+01 7.857791e+01 1.029910e+02 1.044397e+02 1.448526e+02 1.400349e+02 9.584447e+01 8.683689e+01 7.219250e+01 5.958036e+01 4.711555e+01 4.590873e+01 3.361560e+00 7.479645e+00 6.012632e+00 8.419503e+00 6.004827e+00 1.100714e+01 7.451959e+00 6.024007e+00 4.050751e+00 3.950676e+00 3.933803e+00 3.422556e+00 3.143671e+00
<GCONST> 1.201085e+02
<STATE> 3
<MEAN> 25
 2.901638e+00 -1.832142e+00 8.209050e+00 1.098772e+01 1.200136e+01 -6.434011e+00 -1.293562e+01 -2.603038e-01 -2.705908e+00 -1.538137e+00 -1.325816e+00 -5.182160e+00 -2.598175e-01 4.166658e-01 -7.861237e-01 -1.008105e+00 -3.580773e-01 6.204304e-01 7.402752e-01 -2.271675e-01 -2.239943e-01 3.527148e-01 2.352442e-01 4.350058e-01 -5.163646e-01
<VARIANCE> 25
 5.346850e+01 6.055442e+01 7.854547e+01 9.640981e+01 1.352919e+02 1.205109e+02 1.146046e+02 6.259371e+01 7.103391e+01 5.012545e+01 4.560899e+01 4.773119e+01 1.966265e+00 4.226856e+00 4.548481e+00 4.873950e+00 4.543971e+00 5.419394e+00 6.905585e+00 4.351756e+00 3.439797e+00 3.186619e+00 2.995879e+00 3.051226e+00 2.496776e+00
<GCONST> 1.147477e+02
<STATE> 4
<MEAN> 25
 5.479959e-01 -4.470139e-01 3.622658e+00 4.950947e+00 7.316330e+00 -3.968895e+00 -6.690274e+00 -1.489658e+00 -3.110401e+00 1.115444e+00 -1.450253e-01 -2.379540e+00 -2.422910e-01 1.212624e-03 -9.389157e-01 -1.082864e+00 -8.836675e-01 6.398203e-01 1.183525e+00 -5.651437e-02 1.747744e-01 2.935042e-01 2.350106e-01 6.613017e-01 -3.771315e-01
<VARIANCE> 25
 1.002143e+02 5.411411e+01 6.460532e+01 7.612438e+01 7.363681e+01 1.354980e+02 9.000364e+01 5.145495e+01 5.697052e+01 4.637779e+01 4.446243e+01 4.727899e+01 1.776001e+00 2.864158e+00 3.082522e+00 3.459289e+00 3.252701e+00 3.820641e+00 4.455899e+00 3.468722e+00 3.169867e+00 2.925967e+00 2.656027e+00 2.922137e+00 1.561081e+00
<GCONST> 1.101979e+02
<TRANSP> 5
 0.000000e+00 1.000000e+00 0.000000e+00 0.000000e+00 0.000000e+00
 0.000000e+00 8.372560e-01 1.627440e-01 0.000000e+00 0.000000e+00
 0.000000e+00 0.000000e+00 7.211300e-01 2.788700e-01 0.000000e+00
 0.000000e+00 0.000000e+00 0.000000e+00 7.276233e-01 2.723767e-01
 0.000000e+00 0.000000e+00 0.000000e+00 0.000000e+00 0.000000e+00
<ENDHMM>
~h "jh"
<BEGINHMM>
<NUMSTATES> 5
<STATE> 2
<MEAN> 25
 3.104691e-01 -1.720460e+00 3.771767e+00 3.841151e+00 4.803284e+00 1.421711e-01 -4.295238e+00 8.715893e-01 -8.335049e-01 -3.534472e+00 9.477806e-01 -4.629679e-01 -2.727383e-01 -8.717145e-01 3.961020e-01 -4.723727e-02 -1.173200e-01 3.183064e-01 -8.929819e-02 -6.163975e-01 3.512415e-01 2.486937e-01 2.041024e-01 3.732679e-01 3.635285e-01
<VARIANCE> 25
 7.936122e+01 1.920829e+02 4.777625e+01 5.045931e+01 6.040358e+01 5.151939e+01 5.883389e+01 4.558728e+01 4.835167e+01 5.341569e+01 3.587030e+01 3.000379e+01 4.451759e+00 1.902909e+01 4.216684e+00 4.227078e+00 6.593977e+00 6.084106e+00 7.443583e+00 3.621969e+00 3.919039e+00 4.885323e+00 2.827913e+00 2.187577e+00 7.612255e+00
<GCONST> 1.152520e+02
<STATE> 3
<MEAN> 25
 5.489569e-01 -6.151136e+00 4.902174e+00 1.407606e+00 4.274783e+00 1.601278e-01 -4.933398e+00 -3.056125e+00 -9.742614e-01 -3.519973e+00 -3.396206e-01 8.795846e-02 5.711645e-01 2.423506e-01 -1.509455e-01 5.909687e-02 -6.736455e-02 -2.974599e-01 8.420770e-02 -1.395697e-01 -2.132524e-01 -3.820455e-02 -1.438321e-01 -3.930947e-01 3.110787e-01
<VARIANCE> 25
 8.419904e+01 1.532025e+02 4.737554e+01 4.349760e+01 6.941560e+01 5.564291e+01 5.125871e+01 7.054346e+01 5.122857e+01 2.846570e+01 3.527637e+01 4.671724e+01 4.345741e+00 1.539194e+01 4.680778e+00 3.729925e+00 5.554045e+00 7.448782e+00 6.355866e+00 5.668076e+00 4.152065e+00 2.338552e+00 2.848101e+00 4.195920e+00 4.819978e+00
<GCONST> 1.148835e+02
<STATE> 4
<MEAN> 25
 4.634946e+00 2.324502e+00 2.584774e+00 1.452677e+00 1.127131e+00 -1.968846e+00 -3.184769e+00 1.525822e+00 -2.721480e+00 -3.927928e+00 -2.947093e+00 -5.932898e+00 -1.489795e-01 4.906042e-01 -3.566302e-01 -8.221868e-02 -4.393247e-01 2.197450e-02 4.558353e-01 3.496067e-01 2.885725e-01 2.453637e-01 6.967432e-02 -2.004363e-01 -4.999881e-01
<VARIANCE> 25
 6.437618e+01 6.466550e+01 2.356709e+01 2.435937e+01 3.488205e+01 3.982675e+01 4.126488e+01 8.450535e+01 5.775661e+01 3.388429e+01 2.995708e+01 4.391022e+01 1.384885e+00 2.719681e+00 1.560201e+00 1.792220e+00 2.177482e+00 3.149124e+00 3.276078e+00 2.824104e+00 2.603239e+00 1.567679e+00 1.717147e+00 2.372576e+00 1.118432e+00
<GCONST> 1.002156e+02
<TRANSP> 5
 0.000000e+00 1.000000e+00 0.000000e+00 0.000000e+00 0.000000e+00
 0.000000e+00 8.665428e-01 1.334573e-01 0.000000e+00 0.000000e+00
 0.000000e+00 0.000000e+00 7.618229e-01 2.381770e-01 0.000000e+00
 0.000000e+00 0.000000e+00 0.000000e+00 8.071264e-01 1.928736e-01
 0.000000e+00 0.000000e+00 0.000000e+00 0.000000e+00 0.000000e+00
<ENDHMM>
~h "ng"
<BEGINHMM>
<NUMSTATES> 5
<STATE> 2
<MEAN> 25
 9.999972e+00 3.526909e+00 -2.907485e+00 -2.432044e+00 -2.478440e+00 -2.606270e+00 4.838341e+00 4.693349e+00 9.994004e-02 -3.928987e+00 -1.663861e+00 1.391010e+00 -4.801785e-01 8.800238e-01 5.998984e-01 4.868475e-01 -8.683029e-02 3.517193e-01 1.292636e-02 1.286190e-01 1.372408e-03 5.289542e-02 -1.468792e-01 -3.684410e-01 -8.370333e-01
<VARIANCE> 25
 4.816623e+01 1.039713e+02 5.768333e+01 5.541876e+01 4.183757e+01 6.145648e+01 8.467308e+01 5.969902e+01 7.236961e+01 5.080143e+01 5.108038e+01 5.117051e+01 7.851565e-01 2.244021e+00 2.286322e+00 2.822346e+00 2.063473e+00 2.209878e+00 3.323635e+00 2.696980e+00 2.709519e+00 2.965464e+00 2.137840e+00 2.469209e+00 6.920144e-01
<GCONST> 1.045149e+02
<STATE> 3
<MEAN> 25
 7.729906e+00 5.348742e+00 -1.166681e+00 -5.486460e-01 -2.311852e+00 -1.545890e+00 3.850925e+00 4.592164e+00 7.078071e-01 -3.026969e+00 -2.685628e+00 2.073189e-01 -6.963403e-01 5.581499e-01 3.888169e-01 5.634358e-01 1.905433e-01 3.003302e-01 -2.419209e-01 1.298137e-02 1.220694e-01 1.945353e-01 -1.838814e-01 -3.837644e-01 -8.874214e-01
<VARIANCE> 25
 6.048564e+01 8.979140e+01 5.620335e+01 5.432795e+01 4.668355e+01 6.070361e+01 7.151591e+01 4.929918e+01 6.888536e+01 4.191796e+01 5.116022e+01 4.974759e+01 9.649096e-01 2.076469e+00 2.023745e+00 2.697597e+00 2.004626e+00 1.993248e+00 2.954936e+00 2.363289e+00 2.408775e+00 2.488291e+00 2.046174e+00 2.271248e+00 5.873932e-01
<GCONST> 1.030141e+02
<STATE> 4
<MEAN> 25
 2.402551e+00 4.991689e+00 -1.401831e+00 1.223875e+00 -1.823909e+00 3.833200e-01 2.003044e+00 3.736197e+00 2.923519e+00 -1.146013e-01 -4.046120e+00 -7.119002e-01 -5.798211e-01 3.919523e-03 7.694064e-02 1.600381e-01 1.316669e-01 2.793871e-01 -2.092150e-02 -8.759864e-02 5.592591e-02 2.425231e-01 9.822328e-02 -7.502825e-02 -4.947886e-01
<VARIANCE> 25
 9.272440e+01 4.973086e+01 3.865425e+01 4.454868e+01 4.562353e+01 5.185836e+01 4.647273e+01 4.258240e+01 4.984900e+01 3.517627e+01 4.322950e+01 3.732290e+01 9.040585e-01 1.387916e+00 1.326721e+00 1.836607e+00 1.338577e+00 1.488489e+00 1.810403e+00 1.451712e+00 1.691730e+00 1.477024e+00 1.662590e+00 1.557905e+00 6.402836e-01
<GCONST> 9.624406e+01
<TRANSP> 5
 0.000000e+00 1.000000e+00 0.000000e+00 0.000000e+00 0.000000e+00
 0.000000e+00 6.514888e-01 3.485112e-01 0.000000e+00 0.000000e+00
 0.000000e+00 0.000000e+00 6.730456e-01 3.269545e-01 0.000000e+00
 0.000000e+00 0.000000e+00 0.000000e+00 8.942971e-01 1.057029e-01
 0.000000e+00 0.000000e+00 0.000000e+00 0.000000e+00 0.000000e+00
<ENDHMM>
~h "ny"
<BEGINHMM>
<NUMSTATES> 5
<STATE> 2
<MEAN> 25
 5.540052e+00 -1.485121e+00 -4.843873e-01 1.489535e-01 4.243624e+00 -6.952264e+00 -1.053925e+01 3.783864e+00 -2.282546e+00 -9.605812e+00 -2.570722e+00 -2.820206e+00 4.625629e-01 -1.483353e-01 -7.821279e-01 2.600057e-01 1.066450e+00 4.647408e-01 -5.137166e-01 5.740465e-01 -2.796355e-01 -7.347866e-02 1.444122e-01 -2.682395e-03 3.746601e-02
<VARIANCE> 25
 6.646385e+01 5.190770e+01 1.117101e+01 3.396288e+01 5.215782e+01 1.034026e+02 3.837360e+01 4.632344e+01 4.607362e+01 3.699653e+01 1.767219e+01 8.460367e+01 1.804730e+00 1.926734e+00 1.356753e+00 2.590647e+00 2.499849e+00 2.328075e+00 3.729184e+00 2.667231e+00 1.742331e+00 1.422564e+00 1.566881e+00 1.882220e+00 1.162806e+00
<GCONST> 9.956039e+01
<STATE> 3
<MEAN> 25
 7.007949e+00 -8.234477e-01 -1.229390e+00 3.208066e+00 9.864816e+00 -4.720974e+00 -1.245155e+01 3.074202e+00 -1.759717e+00 -5.552141e+00 -3.436600e+00 -5.307983e+00 8.826703e-03 -1.975707e-01 -1.929885e-01 1.115450e-01 3.842523e-01 5.558108e-01 1.160191e-01 -1.958434e-01 1.548476e-01 3.706881e-01 -9.522937e-02 2.380770e-01 -9.779449e-03
<VARIANCE> 25
 4.090405e+01 6.438019e+01 1.389396e+01 2.850814e+01 8.694491e+01 6.346872e+01 8.863960e+01 4.594183e+01 2.683856e+01 3.530546e+01 1.660948e+01 7.928659e+01 3.557775e-01 4.167402e+00 1.914724e+00 2.803569e+00 6.222496e+00 4.148597e+00 9.054844e+00 6.222253e+00 1.839789e+00 2.405222e+00 2.117116e+00 3.403809e+00 1.966689e+00
<GCONST> 1.042646e+02
<STATE> 4
<MEAN> 25
 8.352962e+00 1.072356e+00 -1.989646e+00 3.451855e+00 8.692667e+00 -5.125385e+00 -1.134457e+01 4.091753e+00 6.064871e-01 -3.592848e+00 -5.413435e+00 -7.365636e+00 -1.545724e-01 -2.020966e-02 2.220052e-02 -4.113086e-02 -1.585581e-01 3.316014e-01 3.578199e-01 -7.671025e-02 3.163826e-01 2.085810e-01 -1.413832e-01 1.994251e-01 -1.052828e-01
<VARIANCE> 25
 2.140219e+01 6.221118e+01 1.057639e+01 3.380111e+01 1.031641e+02 5.958690e+01 9.736347e+01 4.222207e+01 4.355679e+01 2.114452e+01 2.836311e+01 6.652623e+01 4.696147e-01 2.691363e+00 1.484976e+00 2.013442e+00 7.718818e+00 3.976895e+00 8.574253e+00 5.064249e+00 1.919091e+00 2.156044e+00 2.701818e+00 2.322506e+00 1.204112e+00
<GCONST> 1.024004e+02
<TRANSP> 5
 0.000000e+00 1.000000e+00 0.000000e+00 0.000000e+00 0.000000e+00
 0.000000e+00 5.932432e-01 4.067568e-01 0.000000e+00 0.000000e+00
 0.000000e+00 0.000000e+00 7.730663e-01 2.269337e-01 0.000000e+00
 0.000000e+00 0.000000e+00 0.000000e+00 9.245717e-01 7.542825e-02
 0.000000e+00 0.000000e+00 0.000000e+00 0.000000e+00 0.000000e+00
<ENDHMM>
~h "uw"
<BEGINHMM>
<NUMSTATES> 5
<STATE> 2
<MEAN> 25
 8.909154e+00 7.023567e+00 5.017215e+00 -1.232699e+00 -6.813319e+00 -9.268755e+00 -1.645859e+00 5.268998e-01 -3.260423e+00 -2.940023e+00 -5.275145e-01 -6.451157e+00 5.593071e-01 7.108945e-01 2.857299e-01 -4.236177e-03 -3.109152e-01 -7.852672e-01 -1.406465e-01 4.808576e-01 -1.711756e-01 -7.891901e-02 -2.114998e-01 -6.273232e-01 1.795185e-01
<VARIANCE> 25
 5.338412e+01 9.104250e+01 5.480542e+01 3.952605e+01 1.693468e+02 1.389841e+02 9.411089e+01 6.396708e+01 8.501935e+01 5.943835e+01 6.556478e+01 7.413196e+01 4.694396e+00 7.978699e+00 4.418566e+00 4.500232e+00 8.724566e+00 1.156076e+01 6.971487e+00 5.167457e+00 6.318428e+00 3.977066e+00 5.046454e+00 5.058608e+00 3.984014e+00
<GCONST> 1.205595e+02
<STATE> 3
<MEAN> 25
 8.502494e+00 7.923534e+00 4.952458e+00 -1.307454e+00 -6.595561e+00 -9.108703e+00 -1.969897e+00 2.012883e+00 -2.989781e+00 -2.672738e+00 -1.169576e+00 -6.584784e+00 -3.074972e-01 -7.934175e-02 -1.829426e-01 3.396954e-02 2.968902e-01 4.405527e-01 -1.622303e-01 2.975449e-01 2.197491e-01 9.246802e-03 -2.597309e-01 1.825942e-01 -3.823669e-01
<VARIANCE> 25
 5.600629e+01 7.720860e+01 4.689890e+01 3.851501e+01 1.515392e+02 1.129844e+02 9.205935e+01 6.537726e+01 8.118936e+01 5.830170e+01 5.887130e+01 7.333764e+01 3.068488e+00 4.608050e+00 3.225567e+00 3.276165e+00 6.480273e+00 6.693748e+00 5.197181e+00 3.699826e+00 4.927089e+00 3.248943e+00 4.041745e+00 3.899987e+00 2.301727e+00
<GCONST> 1.151990e+02
<STATE> 4
<MEAN> 25
 6.586379e+00 6.129746e+00 3.900161e+00 -1.035478e+00 -4.806467e+00 -7.017868e+00 -2.540843e+00 3.201249e+00 -2.559485e+00 -2.972166e+00 -2.201557e+00 -5.059890e+00 -5.509666e-01 -4.481525e-01 -5.353412e-01 1.012064e-02 4.165439e-01 9.282721e-01 1.281364e-01 -1.172892e-01 3.026279e-01 5.936776e-02 -1.427985e-01 4.925995e-01 -4.556855e-01
<VARIANCE> 25
 8.203384e+01 6.455947e+01 4.776891e+01 4.329358e+01 1.183431e+02 1.068138e+02 8.117019e+01 6.720260e+01 7.632690e+01 5.984089e+01 5.603691e+01 5.706543e+01 1.890849e+00 2.774912e+00 2.284957e+00 2.482112e+00 3.754781e+00 4.298427e+00 3.737412e+00 3.266923e+00 3.655317e+00 2.725126e+00 2.922884e+00 2.724118e+00 1.543079e+00
<GCONST> 1.101857e+02
<TRANSP> 5
 0.000000e+00 1.000000e+00 0.000000e+00 0.000000e+00 0.000000e+00
 0.000000e+00 6.867642e-01 3.132358e-01 0.000000e+00 0.000000e+00
 0.000000e+00 0.000000e+00 6.716791e-01 3.283209e-01 0.000000e+00
 0.000000e+00 0.000000e+00 0.000000e+00 7.763259e-01 2.236741e-01
 0.000000e+00 0.000000e+00 0.000000e+00 0.000000e+00 0.000000e+00
<ENDHMM>
~h "sil"
<BEGINHMM>
<NUMSTATES> 5
<STATE> 2
<MEAN> 25
 -1.265349e+01 1.211364e+00 -4.520929e+00 3.039786e+00 -8.723774e-01 7.475852e+00 1.495135e-01 2.414814e+00 1.649279e+00 1.783246e+00 2.443071e+00 1.087801e+00 -1.270574e-01 -4.404201e-02 -5.504452e-02 -1.604005e-02 -5.932897e-02 -7.390697e-02 -1.076605e-01 -5.535074e-02 5.401751e-02 1.206476e-01 8.703163e-02 5.025939e-02 -1.063216e-01
<VARIANCE> 25
 5.624846e+01 1.161664e+01 1.961341e+01 3.312506e+01 4.065960e+01 2.989021e+01 3.564905e+01 1.649910e+01 2.159472e+01 1.345575e+01 2.007421e+01 7.660530e+00 4.347428e-01 4.299640e-01 5.785793e-01 5.832876e-01 7.838529e-01 1.036012e+00 1.120931e+00 8.160239e-01 1.060644e+00 8.688762e-01 7.432693e-01 7.387781e-01 2.132023e-01
<GCONST> 7.780554e+01
<STATE> 3
<MEAN> 25
 -1.103081e+01 8.284855e-01 -2.972420e+00 2.733425e+00 -4.603382e-01 6.788655e+00 2.133304e+00 1.803442e+00 1.310202e+00 2.842176e+00 2.855793e+00 2.491340e+00 1.836362e-02 -5.923571e-03 1.158286e-02 2.799242e-02 -6.537094e-03 1.708928e-02 3.813446e-03 -1.127668e-02 8.582182e-03 7.992812e-03 -6.009893e-03 1.547773e-02 8.428201e-03
<VARIANCE> 25
 1.693485e+01 5.572180e+00 6.046032e+00 1.245279e+01 2.993330e+01 2.666010e+01 2.976089e+01 1.537398e+01 2.115382e+01 1.416040e+01 2.902246e+01 7.437450e+00 3.288018e-01 1.686948e-01 2.972583e-01 4.372654e-01 4.616063e-01 6.242246e-01 7.109222e-01 6.963193e-01 7.548885e-01 7.460549e-01 7.202232e-01 6.596664e-01 1.961629e-01
<GCONST> 6.887339e+01
<STATE> 4
<MEAN> 25
 4.067631e-01 2.181834e-01 -1.848912e-02 -4.467998e-01 3.837168e-02 -8.434048e-01 2.666558e-01 -1.267445e-01 -2.496169e-01 2.441788e-02 -1.376183e-01 -2.449114e-01 7.333711e-03 -2.854191e-03 5.405974e-03 -5.269160e-03 3.916882e-03 -1.673482e-03 -3.738251e-03 -3.579870e-03 -2.832626e-03 -6.494075e-03 -8.515507e-03 4.405230e-03 8.149192e-03
<VARIANCE> 25
 1.090840e+02 5.615611e+01 7.833467e+01 6.505086e+01 6.646807e+01 1.655946e+02 6.999521e+01 5.996159e+01 6.933644e+01 4.402316e+01 4.573696e+01 3.556022e+01 2.471823e+00 2.710127e+00 2.873345e+00 2.550563e+00 2.777187e+00 5.209518e+00 3.328762e+00 3.322802e+00 3.434501e+00 2.613143e+00 2.805955e+00 2.114282e+00 2.826030e+00
<GCONST> 1.102524e+02
<TRANSP> 5
 0.000000e+00 1.000000e+00 0.000000e+00 0.000000e+00 0.000000e+00
 0.000000e+00 8.530626e-01 1.469374e-01 0.000000e+00 0.000000e+00
 0.000000e+00 0.000000e+00 9.741529e-01 2.584706e-02 0.000000e+00
 0.000000e+00 0.000000e+00 0.000000e+00 9.917303e-01 8.269707e-03
 0.000000e+00 0.000000e+00 0.000000e+00 0.000000e+00 0.000000e+00
<ENDHMM>
