\data\
ngram 1=23

\1-grams:
-0.7737	</s>
-99.9900	<s>
-0.7649	ALARM
-2.4639	BATALKAN
-1.8618	DELAPAN
-1.8618	DUA
-1.9868	DUABELAS
-1.8618	EMPAT
-1.8618	ENAM
-1.8618	LIMA
-1.4225	MALAM
-2.4639	MATIKAN
-1.3847	PAGI
-0.7827	PASANG
-0.7827	PUKUL
-1.8618	SATU
-1.8618	SEBELAS
-1.8618	SEMBILAN
-1.8618	SEPULUH
-1.3847	SIANG
-1.3847	SORE
-1.8618	TIGA
-1.8618	TUJUH

\end\
