~o
<STREAMINFO> 1 25
<VECSIZE> 25<NULLD><MFCC_D_N_Z_0><DIAGC>
~s "silst"
<MEAN> 25
 -1.003114e+001 4.137467e-001 -3.132649e+000 2.702861e+000 -3.968585e-002 7.320895e+000 5.431401e-001 1.354765e+000 2.161717e+000 2.468813e+000 1.240286e+000 2.297518e+000 -3.606924e-002 -9.804177e-003 -1.738625e-002 1.463598e-002 -1.363922e-002 1.594184e-002 3.306998e-003 1.554872e-002 -5.325987e-003 1.761003e-002 1.199910e-002 2.330651e-002 -4.622715e-002
<VARIANCE> 25
 1.517324e+001 5.630849e+000 6.203163e+000 1.133020e+001 2.977042e+001 2.183551e+001 2.394685e+001 1.431552e+001 1.652410e+001 1.386698e+001 2.191913e+001 7.596694e+000 8.088111e-002 1.513300e-001 2.351307e-001 3.403516e-001 4.579728e-001 5.491203e-001 6.375577e-001 6.770114e-001 7.276392e-001 7.243459e-001 7.060248e-001 6.369160e-001 3.137700e-002
<GCONST> 6.346053e+001
~h "b"
<BEGINHMM>
<NUMSTATES> 5
<STATE> 2
<MEAN> 25
 -1.857311e+000 4.664881e+000 -9.179665e-001 2.119871e+000 4.851770e-001 3.622010e+000 2.680227e+000 1.425397e+000 -1.037093e+000 1.432353e+000 2.292860e+000 1.023690e+000 8.580317e-001 7.319517e-001 3.912676e-001 1.419644e-001 3.955415e-001 2.436110e-001 -4.027512e-001 1.520317e-001 -2.275108e-001 -3.147644e-001 5.804780e-002 -1.553207e-001 3.714972e-001
<VARIANCE> 25
 1.274577e+002 5.340645e+001 2.245076e+001 2.553418e+001 3.841078e+001 4.575411e+001 3.169819e+001 2.647390e+001 2.967426e+001 2.419271e+001 4.493388e+001 1.819040e+001 5.600051e+000 2.958825e+000 3.143739e+000 2.371874e+000 4.639817e+000 2.375104e+000 3.600532e+000 2.125427e+000 2.437177e+000 2.201766e+000 2.926378e+000 1.301592e+000 4.723094e+000
<GCONST> 1.024318e+002
<STATE> 3
<MEAN> 25
 8.831957e+000 1.345455e+001 4.418669e+000 4.889701e+000 2.579118e+000 3.230265e+000 -2.282421e+000 1.357263e+000 6.540946e-001 -1.985411e+000 -2.668495e+000 -2.663840e+000 2.116547e+000 3.822562e-001 9.468449e-002 -2.493411e-001 1.997236e-001 -1.058873e+000 -9.249064e-002 -3.034420e-001 -3.003645e-001 -4.088635e-001 -1.328195e-001 -4.346808e-001 1.993384e+000
<VARIANCE> 25
 4.904718e+001 5.728815e+001 3.950981e+001 3.436160e+001 6.569466e+001 4.012037e+001 4.235436e+001 3.594930e+001 4.344894e+001 3.685936e+001 3.620352e+001 2.855069e+001 7.362021e+000 1.062201e+001 6.888989e+000 4.734893e+000 6.197143e+000 7.049447e+000 5.185124e+000 4.062741e+000 7.231091e+000 5.754558e+000 5.803589e+000 2.962787e+000 6.031609e+000
<GCONST> 1.136647e+002
<STATE> 4
<MEAN> 25
 1.394186e+001 3.860942e-001 1.528683e+000 -4.203368e+000 6.800496e+000 -8.489334e+000 -9.369786e-001 2.651182e+000 -9.551765e+000 2.287391e+000 3.901340e+000 -2.727519e-001 -3.453723e-003 -9.420476e-001 -2.964431e-001 9.805044e-002 1.577162e-001 -3.460860e-001 -1.826235e-001 -3.561147e-001 -4.448372e-002 1.964207e-001 4.012985e-001 -2.196646e-001 5.304615e-001
<VARIANCE> 25
 1.620841e+001 1.018478e+002 3.172729e+001 6.507166e+001 6.768210e+001 1.240099e+002 3.301450e+001 5.073605e+001 7.818012e+001 5.903591e+001 5.883735e+001 4.579544e+001 1.744473e+000 9.633495e+000 3.512881e+000 5.974580e+000 6.898617e+000 1.325226e+001 4.433928e+000 4.806953e+000 7.675361e+000 4.229248e+000 4.815605e+000 3.325222e+000 6.505218e+000
<GCONST> 1.153500e+002
<TRANSP> 5
 0.000000e+000 1.000000e+000 0.000000e+000 0.000000e+000 0.000000e+000
 0.000000e+000 5.765557e-001 4.234442e-001 0.000000e+000 0.000000e+000
 0.000000e+000 0.000000e+000 7.230079e-001 2.769921e-001 0.000000e+000
 0.000000e+000 0.000000e+000 0.000000e+000 7.166383e-001 2.833617e-001
 0.000000e+000 0.000000e+000 0.000000e+000 0.000000e+000 0.000000e+000
<ENDHMM>
~h "d"
<BEGINHMM>
<NUMSTATES> 5
<STATE> 2
<MEAN> 25
 -9.104313e+000 8.490409e-002 -2.706115e+000 3.814206e+000 -1.934504e+000 6.267803e+000 1.144733e+000 -2.635071e-001 1.044902e+000 1.395864e+000 1.338054e+000 1.212766e+000 2.400088e-002 1.894557e-002 2.241435e-002 -4.154387e-002 -4.989876e-003 1.898658e-001 -4.892810e-002 -2.366125e-001 -7.807356e-002 4.713403e-002 1.075204e-001 -1.999635e-002 7.910959e-002
<VARIANCE> 25
 3.515074e+001 1.933907e+001 1.826108e+001 1.730581e+001 2.233480e+001 1.988074e+001 3.541798e+001 1.391772e+001 1.701661e+001 1.150677e+001 2.149596e+001 7.655447e+000 5.602194e-001 7.334659e-001 9.733705e-001 1.115007e+000 9.456888e-001 1.237897e+000 1.608524e+000 1.309022e+000 1.236582e+000 1.148341e+000 1.153548e+000 8.578324e-001 3.256065e-001
<GCONST> 8.021394e+001
<STATE> 3
<MEAN> 25
 -3.389738e+000 2.588047e+000 1.186161e-001 4.467615e+000 2.101661e+000 7.237725e+000 -2.671901e+000 -1.091285e+000 6.224621e-001 -2.247551e-001 3.446371e-001 5.786423e-001 3.458284e+000 1.495036e+000 2.177215e+000 7.383534e-001 1.405216e+000 -3.948924e-002 -1.631896e+000 -7.783478e-001 -3.224559e-001 -9.256359e-001 -1.734713e-001 -7.682803e-002 2.743519e+000
<VARIANCE> 25
 6.621461e+001 6.797604e+001 6.314035e+001 6.759199e+001 3.374689e+001 3.175907e+001 2.962694e+001 2.240026e+001 2.831355e+001 2.629354e+001 3.493723e+001 8.184946e+000 4.932803e+000 1.209589e+001 7.690750e+000 7.052070e+000 6.787772e+000 3.103685e+000 5.755467e+000 3.199641e+000 4.643494e+000 3.296013e+000 4.222528e+000 1.850566e+000 3.147325e+000
<GCONST> 1.084348e+002
<STATE> 4
<MEAN> 25
 1.035991e+001 4.073246e+000 3.537927e+000 4.745120e+000 3.541123e+000 3.771975e+000 -4.354423e+000 -7.117151e+000 7.096069e-001 3.075525e+000 5.862811e+000 1.083145e+000 5.926982e-001 -6.875327e-001 -1.352100e-001 -2.849578e-001 4.301817e-001 -4.311020e-001 -6.328885e-002 -5.322294e-002 5.513569e-002 -2.907652e-002 1.641978e-001 -1.693094e-001 1.114442e+000
<VARIANCE> 25
 3.306422e+001 2.133556e+002 8.704443e+001 5.677227e+001 8.759647e+001 7.207982e+001 4.305993e+001 6.559384e+001 3.669999e+001 5.326255e+001 4.340514e+001 2.503504e+001 3.662555e+000 1.911051e+001 7.057549e+000 3.561044e+000 1.067636e+001 9.076876e+000 3.930061e+000 6.208263e+000 5.846644e+000 7.178965e+000 4.382233e+000 3.672174e+000 7.941206e+000
<GCONST> 1.184075e+002
<TRANSP> 5
 0.000000e+000 1.000000e+000 0.000000e+000 0.000000e+000 0.000000e+000
 0.000000e+000 7.427614e-001 2.572387e-001 0.000000e+000 0.000000e+000
 0.000000e+000 0.000000e+000 6.548696e-001 3.451305e-001 0.000000e+000
 0.000000e+000 0.000000e+000 0.000000e+000 8.310497e-001 1.689503e-001
 0.000000e+000 0.000000e+000 0.000000e+000 0.000000e+000 0.000000e+000
<ENDHMM>
~h "g"
<BEGINHMM>
<NUMSTATES> 5
<STATE> 2
<MEAN> 25
 4.448900e+000 1.236722e-002 7.090611e+000 4.413195e+000 3.998978e+000 1.302638e-001 -2.981062e+000 -7.143067e+000 7.591498e-001 1.386638e+000 2.496514e+000 -1.777873e+000 -2.262188e-001 -9.455425e-001 1.167423e+000 2.339630e-002 3.579170e-001 -9.123445e-001 -3.994887e-001 -3.460401e-001 1.137496e-001 -4.821772e-001 1.294414e-002 -3.008698e-001 1.180767e+000
<VARIANCE> 25
 6.390095e+001 1.874588e+002 9.410161e+001 9.729316e+001 8.492544e+001 1.157721e+002 6.085227e+001 8.217147e+001 5.902049e+001 5.346812e+001 3.156511e+001 3.146147e+001 3.307505e+000 2.272098e+001 6.205801e+000 9.836460e+000 9.848979e+000 1.342464e+001 7.115204e+000 7.742373e+000 5.776074e+000 4.588562e+000 4.304914e+000 3.561751e+000 9.810311e+000
<GCONST> 1.227436e+002
<STATE> 3
<MEAN> 25
 5.760493e-001 -4.891868e+000 1.512409e+001 6.973592e+000 9.737328e+000 -1.038573e+001 -8.573277e+000 -3.327040e+000 -1.796041e+000 6.163343e-001 2.665637e+000 -4.936636e+000 7.799051e-001 5.785152e-001 4.175199e-001 8.102412e-001 8.312283e-001 -1.269002e-001 -1.451556e+000 1.001120e+000 -6.563765e-001 9.125908e-002 1.066651e-001 -2.653675e-001 -1.654430e-001
<VARIANCE> 25
 4.515752e+001 3.139758e+001 1.133604e+002 8.453596e+001 9.205598e+001 7.263206e+001 6.965183e+001 5.577871e+001 5.499520e+001 3.642272e+001 4.699344e+001 2.352319e+001 8.879060e-001 1.373512e+000 4.516271e+000 4.577507e+000 3.068491e+000 4.735613e+000 5.121619e+000 2.237012e+000 3.272096e+000 1.828015e+000 2.419129e+000 2.448393e+000 8.021709e-001
<GCONST> 1.057440e+002
<STATE> 4
<MEAN> 25
 3.619258e+000 -4.010259e+000 1.205256e+001 1.045665e+001 1.765096e+001 -5.035996e+000 -1.879061e+001 1.274059e+000 -3.518585e+000 -2.232200e-001 3.412431e+000 -6.935400e+000 1.145836e-001 9.727043e-002 -4.057390e-001 -8.853955e-002 -7.570143e-002 1.433062e-001 -2.136248e-001 1.440517e-001 -1.015436e-001 -2.133763e-001 -1.151221e-002 -1.227920e-001 -1.941967e-001
<VARIANCE> 25
 1.925573e+001 4.447460e+001 7.264215e+001 5.490458e+001 1.443750e+002 5.775192e+001 7.750143e+001 3.866703e+001 3.516793e+001 3.850195e+001 2.821383e+001 2.908736e+001 1.680119e-001 4.108489e-001 5.882763e-001 7.058092e-001 6.562813e-001 6.617920e-001 1.718818e+000 8.967374e-001 7.035809e-001 8.358056e-001 7.802159e-001 7.093645e-001 2.163986e-001
<GCONST> 8.533893e+001
<TRANSP> 5
 0.000000e+000 1.000000e+000 0.000000e+000 0.000000e+000 0.000000e+000
 0.000000e+000 8.698944e-001 1.301056e-001 0.000000e+000 0.000000e+000
 0.000000e+000 0.000000e+000 7.576451e-001 2.423549e-001 0.000000e+000
 0.000000e+000 0.000000e+000 0.000000e+000 7.829825e-001 2.170175e-001
 0.000000e+000 0.000000e+000 0.000000e+000 0.000000e+000 0.000000e+000
<ENDHMM>
~h "k"
<BEGINHMM>
<NUMSTATES> 5
<STATE> 2
<MEAN> 25
 -6.188095e+000 -7.851897e-001 -8.412462e-001 -1.753161e+000 -1.783241e+000 4.631411e+000 1.874949e+000 2.005888e+000 1.945469e+000 7.597854e-001 2.189222e-001 1.890379e+000 9.026693e-001 -2.021596e+000 2.663192e-001 -2.167668e+000 -1.804378e+000 -9.135752e-001 6.059827e-001 -1.200207e+000 2.499823e-003 -2.080227e-001 1.360829e+000 4.001074e-001 2.792126e+000
<VARIANCE> 25
 5.694069e+001 1.029451e+002 2.409617e+001 3.660767e+001 8.132436e+001 4.170364e+001 4.501697e+001 4.521613e+001 2.525803e+001 4.181834e+001 2.565686e+001 2.287475e+001 1.156286e+001 1.518733e+001 6.526921e+000 7.691169e+000 2.277187e+001 1.579001e+001 8.047801e+000 8.890800e+000 4.203394e+000 8.116570e+000 6.382015e+000 5.759999e+000 1.669891e+001
<GCONST> 1.196794e+002
<STATE> 3
<MEAN> 25
 -3.129785e-002 -6.719662e+000 1.392738e+000 -1.216096e+001 -1.334361e+001 -5.640615e+000 5.009957e+000 -4.426421e+000 9.576105e-001 -1.946478e+000 9.210513e+000 3.657891e+000 2.303985e+000 1.165770e+000 7.153376e-001 -1.182619e+000 -1.278275e+000 -4.138031e+000 6.688535e-001 -5.970675e-001 -7.261136e-001 -7.448879e-001 6.281059e-001 -7.287625e-001 3.106431e+000
<VARIANCE> 25
 4.685847e+001 1.622928e+002 1.389015e+002 6.223047e+001 2.288422e+002 2.099115e+002 9.154041e+001 1.513963e+002 4.305999e+001 6.965907e+001 6.126935e+001 6.823547e+001 4.706475e+000 1.044739e+001 9.645214e+000 1.385281e+001 1.872062e+001 1.556875e+001 7.574796e+000 1.039690e+001 3.414179e+000 4.832668e+000 7.928346e+000 4.895440e+000 9.104566e+000
<GCONST> 1.281113e+002
<STATE> 4
<MEAN> 25
 3.472710e+000 1.385491e+000 1.673130e+000 -8.468594e+000 -8.102824e+000 -1.321996e+001 3.366734e+000 -3.506715e+000 -1.081077e+000 -3.367673e-001 4.707895e+000 -1.011317e+000 1.815840e+000 1.140353e+000 3.043503e-001 1.816287e+000 1.335597e+000 -5.509341e-001 -9.015054e-001 6.388977e-001 -1.851790e-001 1.111310e-001 -1.623088e+000 -7.131273e-001 1.474839e-002
<VARIANCE> 25
 6.745219e+001 1.153542e+002 6.915130e+001 1.003699e+002 1.626935e+002 1.176525e+002 5.376062e+001 1.171431e+002 4.660947e+001 6.341585e+001 5.649218e+001 5.601673e+001 6.449831e+000 5.643138e+000 5.298654e+000 5.341217e+000 4.619901e+000 1.341482e+001 6.895325e+000 7.826717e+000 4.801900e+000 3.767040e+000 4.521426e+000 5.913159e+000 3.275890e+000
<GCONST> 1.208307e+002
<TRANSP> 5
 0.000000e+000 1.000000e+000 0.000000e+000 0.000000e+000 0.000000e+000
 0.000000e+000 7.061359e-001 2.938641e-001 0.000000e+000 0.000000e+000
 0.000000e+000 0.000000e+000 5.834519e-001 4.165480e-001 0.000000e+000
 0.000000e+000 0.000000e+000 0.000000e+000 5.738460e-001 4.261540e-001
 0.000000e+000 0.000000e+000 0.000000e+000 0.000000e+000 0.000000e+000
<ENDHMM>
~h "l"
<BEGINHMM>
<NUMSTATES> 5
<STATE> 2
<MEAN> 25
 9.028620e+000 8.441362e-001 -3.280041e+000 -2.022624e+000 -3.881979e+000 -2.079972e+000 2.351849e+000 1.174698e+000 -1.252751e+000 -5.903627e+000 -2.399480e+000 -1.438609e-001 7.388220e-001 -2.252631e-001 -7.907626e-001 -2.438714e-001 1.455515e-001 -7.074838e-001 2.121539e-001 1.049286e-001 -5.519984e-001 -3.652903e-001 1.784621e-001 1.231005e-001 7.093385e-001
<VARIANCE> 25
 1.007785e+002 7.715571e+001 7.875214e+001 5.704760e+001 9.120121e+001 1.046390e+002 1.104927e+002 8.023484e+001 1.066705e+002 5.912038e+001 6.999674e+001 4.501379e+001 7.484090e+000 7.808083e+000 7.270108e+000 5.069303e+000 8.949583e+000 1.007862e+001 1.200817e+001 8.303729e+000 1.113440e+001 7.286302e+000 6.406089e+000 3.897133e+000 5.653509e+000
<GCONST> 1.244991e+002
<STATE> 3
<MEAN> 25
 1.233774e+001 -2.224453e+000 -3.110639e-001 -3.365694e+000 -9.956150e+000 -1.025601e+001 5.269827e+000 4.117909e+000 -7.773430e+000 -7.885157e+000 -2.828365e-001 -8.971636e-001 -2.583311e-001 1.113723e-001 -1.249070e-001 -3.021542e-001 1.224473e-001 -3.132687e-002 2.869669e-001 1.950587e-001 -2.577924e-002 2.544641e-001 2.045469e-001 3.355523e-001 -1.931835e-001
<VARIANCE> 25
 3.396014e+001 3.026740e+001 5.409507e+001 4.734007e+001 1.134473e+002 7.470923e+001 1.077894e+002 7.270441e+001 1.009332e+002 6.231582e+001 7.732626e+001 6.846291e+001 8.954914e-001 1.751863e+000 2.334961e+000 2.786967e+000 3.872667e+000 3.368661e+000 4.199418e+000 3.642001e+000 3.694616e+000 3.595951e+000 2.853925e+000 2.705360e+000 9.983966e-001
<GCONST> 1.083110e+002
<STATE> 4
<MEAN> 25
 1.121021e+001 -4.245195e+000 -5.352026e+000 -6.152601e+000 -1.170612e+000 -1.252525e+001 5.776477e+000 6.933925e-001 -5.600883e+000 -9.347708e-001 2.358543e+000 1.734848e-001 -1.454410e-001 -1.087767e-001 -4.322241e-002 -2.307224e-002 1.419565e-001 -5.294863e-002 1.346352e-002 2.937364e-002 1.602788e-001 2.176427e-001 7.139461e-002 -1.706350e-003 -7.614309e-002
<VARIANCE> 25
 4.087057e+001 2.833815e+001 3.420554e+001 5.247032e+001 6.248993e+001 8.300674e+001 9.009416e+001 7.853783e+001 6.393249e+001 5.937127e+001 5.876256e+001 3.841684e+001 5.513451e-001 6.965076e-001 9.308400e-001 1.668867e+000 2.224010e+000 1.693261e+000 2.206438e+000 2.020742e+000 2.044310e+000 1.972998e+000 1.750158e+000 1.730691e+000 4.500183e-001
<GCONST> 9.788477e+001
<TRANSP> 5
 0.000000e+000 1.000000e+000 0.000000e+000 0.000000e+000 0.000000e+000
 0.000000e+000 6.435278e-001 3.564722e-001 0.000000e+000 0.000000e+000
 0.000000e+000 0.000000e+000 7.902691e-001 2.097309e-001 0.000000e+000
 0.000000e+000 0.000000e+000 0.000000e+000 8.710723e-001 1.289277e-001
 0.000000e+000 0.000000e+000 0.000000e+000 0.000000e+000 0.000000e+000
<ENDHMM>
~h "m"
<BEGINHMM>
<NUMSTATES> 5
<STATE> 2
<MEAN> 25
 6.715117e+000 9.489256e+000 2.036929e+000 4.264092e+000 1.994709e+000 2.641267e+000 1.701979e+000 1.356019e+000 -3.021032e+000 -5.184816e+000 -8.938568e+000 -7.858063e+000 -7.859502e-001 2.606729e-001 6.353492e-001 7.845481e-001 2.638460e-001 4.523164e-001 -1.420567e-001 -2.512419e-001 1.629060e-001 3.352566e-001 1.278685e-001 -3.032480e-001 -7.452748e-001
<VARIANCE> 25
 2.223441e+001 3.144113e+001 3.156358e+001 4.225289e+001 3.287882e+001 2.882122e+001 3.128957e+001 3.085108e+001 5.879143e+001 3.366184e+001 2.843861e+001 4.138501e+001 5.278056e-001 9.003759e-001 1.176054e+000 1.570121e+000 1.361863e+000 1.477016e+000 2.091367e+000 1.212185e+000 1.967295e+000 1.721264e+000 2.250254e+000 2.163133e+000 3.176639e-001
<GCONST> 9.123381e+001
<STATE> 3
<MEAN> 25
 -3.508518e+000 6.678797e+000 2.621440e+000 5.560012e+000 3.089848e+000 5.539330e+000 9.301175e-001 5.056036e-001 -7.866487e-001 -1.734813e-001 -2.138727e+000 -2.370054e+000 -1.514779e+000 -1.355043e+000 -1.083730e+000 -6.593269e-001 -2.093977e-001 2.395829e-001 9.874734e-002 9.831443e-002 5.026891e-001 8.736221e-001 6.271256e-001 6.761780e-001 -8.141078e-001
<VARIANCE> 25
 4.975815e+001 3.835238e+001 3.108004e+001 4.329284e+001 3.235975e+001 3.039487e+001 3.946529e+001 2.634125e+001 3.600853e+001 2.769927e+001 2.659998e+001 2.461500e+001 2.156427e+000 2.542239e+000 2.493340e+000 2.321133e+000 2.140276e+000 2.066738e+000 2.392267e+000 2.268954e+000 3.086507e+000 2.464114e+000 2.742582e+000 1.679437e+000 9.400148e-001
<GCONST> 9.806266e+001
<STATE> 4
<MEAN> 25
 -7.187437e+000 1.325093e+000 -1.943893e+000 2.656474e+000 2.716698e+000 9.729338e+000 -5.941210e-001 2.483504e+000 3.625662e+000 3.058872e+000 -5.721806e-001 2.290298e+000 -4.917123e-002 -3.134435e-002 -5.285659e-002 2.247734e-003 -3.258638e-002 3.474586e-002 -1.395228e-002 4.689590e-002 2.349048e-002 4.710855e-002 3.447663e-002 8.121130e-002 -7.871979e-002
<VARIANCE> 25
 1.693482e+001 7.087571e+000 6.146209e+000 1.037697e+001 1.558844e+001 2.333082e+001 9.150946e+000 1.394189e+001 1.180534e+001 1.413009e+001 1.060996e+001 1.249488e+001 1.040884e-001 1.691150e-001 2.743768e-001 3.760876e-001 4.719375e-001 6.192032e-001 6.372119e-001 7.202489e-001 7.526522e-001 7.914612e-001 7.513456e-001 7.683641e-001 4.389115e-002
<GCONST> 6.312573e+001
<TRANSP> 5
 0.000000e+000 1.000000e+000 0.000000e+000 0.000000e+000 0.000000e+000
 0.000000e+000 8.236346e-001 1.763654e-001 0.000000e+000 0.000000e+000
 0.000000e+000 0.000000e+000 7.405933e-001 2.594067e-001 0.000000e+000
 0.000000e+000 0.000000e+000 0.000000e+000 9.287136e-001 7.128645e-002
 0.000000e+000 0.000000e+000 0.000000e+000 0.000000e+000 0.000000e+000
<ENDHMM>
~h "n"
<BEGINHMM>
<NUMSTATES> 5
<STATE> 2
<MEAN> 25
 1.041967e+001 9.966614e+000 1.338805e+000 1.989674e+000 7.694728e+000 5.579550e-001 -6.777377e-002 -3.858467e+000 -8.932220e+000 -1.402229e+000 -5.318038e+000 2.060340e+000 -6.886186e-001 1.438300e+000 1.106967e+000 9.299912e-001 -1.241093e-001 9.656095e-001 -6.326954e-001 -2.588715e-001 -4.508768e-002 -6.657633e-001 -4.205539e-001 -2.596102e-001 -1.338848e+000
<VARIANCE> 25
 1.545578e+001 6.939175e+001 4.200843e+001 5.185871e+001 5.912870e+001 6.438785e+001 5.693690e+001 6.315081e+001 6.024114e+001 7.830187e+001 9.995786e+001 4.823661e+001 6.093203e-001 3.627294e+000 2.039640e+000 4.997329e+000 3.958915e+000 5.668024e+000 3.464898e+000 3.740714e+000 4.616592e+000 5.058570e+000 5.228592e+000 4.157160e+000 1.017397e+000
<GCONST> 1.090175e+002
<STATE> 3
<MEAN> 25
 6.555222e-001 8.955096e+000 4.134292e+000 7.164998e+000 2.775355e+000 5.773335e+000 -3.522256e+000 -3.649788e+000 -2.128215e+000 -2.191341e+000 -3.081040e+000 -1.827819e+000 -1.459538e+000 -1.197632e+000 -8.469035e-001 -2.527993e-001 -1.911148e-001 3.988768e-001 2.600147e-001 4.239152e-001 7.297798e-001 4.986970e-001 3.692037e-001 1.410595e-001 -8.547646e-001
<VARIANCE> 25
 4.005732e+001 4.108621e+001 4.014479e+001 4.744254e+001 2.298274e+001 2.585654e+001 3.410468e+001 2.620761e+001 2.440222e+001 2.342317e+001 2.585735e+001 1.857277e+001 1.310385e+000 2.285694e+000 2.375149e+000 2.119857e+000 1.481714e+000 1.735641e+000 1.694389e+000 1.725057e+000 1.504867e+000 2.080916e+000 2.323994e+000 1.409519e+000 4.348067e-001
<GCONST> 9.283616e+001
<STATE> 4
<MEAN> 25
 -1.038432e+001 -1.033450e+000 -3.807799e+000 2.971250e+000 -1.379255e+000 6.518713e+000 -1.961471e+000 -9.931771e-001 2.754236e+000 9.786368e-001 -5.679224e-001 8.781946e-001 -1.303584e-001 -1.451191e-001 -1.037240e-001 -1.234455e-001 -1.219367e-001 -2.406753e-002 7.900999e-002 1.432468e-001 1.552793e-001 1.220761e-001 8.531791e-002 9.390662e-002 -8.073576e-002
<VARIANCE> 25
 2.053246e+001 1.111446e+001 1.119907e+001 1.279272e+001 3.551628e+001 1.341235e+001 1.035606e+001 1.417121e+001 1.273286e+001 1.515955e+001 9.732347e+000 8.466038e+000 2.337281e-001 4.377446e-001 5.623430e-001 6.271325e-001 7.254624e-001 7.465019e-001 9.256281e-001 1.080577e+000 8.850067e-001 9.550374e-001 9.743838e-001 8.155556e-001 9.778189e-002
<GCONST> 7.051311e+001
<TRANSP> 5
 0.000000e+000 1.000000e+000 0.000000e+000 0.000000e+000 0.000000e+000
 0.000000e+000 8.858790e-001 1.141210e-001 0.000000e+000 0.000000e+000
 0.000000e+000 0.000000e+000 8.655952e-001 1.344047e-001 0.000000e+000
 0.000000e+000 0.000000e+000 0.000000e+000 8.771380e-001 1.228620e-001
 0.000000e+000 0.000000e+000 0.000000e+000 0.000000e+000 0.000000e+000
<ENDHMM>
~h "p"
<BEGINHMM>
<NUMSTATES> 5
<STATE> 2
<MEAN> 25
 -8.711431e+000 1.810411e+000 -2.644018e+000 1.765711e+000 -1.604940e+000 4.908415e+000 7.596821e-001 9.007595e-001 1.887525e+000 2.874557e+000 1.908170e+000 1.977854e+000 -1.559786e-001 -4.739487e-001 -3.790212e-001 -1.502773e-001 1.919631e-002 -1.675220e-001 -1.981038e-001 -2.615573e-001 7.830123e-002 6.632289e-002 8.648376e-002 -1.753637e-002 8.104921e-002
<VARIANCE> 25
 2.585242e+001 1.187177e+001 9.778651e+000 1.927598e+001 3.940460e+001 1.748237e+001 3.244519e+001 1.604495e+001 1.902026e+001 1.467639e+001 2.262495e+001 9.164020e+000 4.029530e+000 1.800592e+000 1.131755e+000 1.493597e+000 2.361446e+000 1.739572e+000 1.949566e+000 1.778817e+000 1.627562e+000 1.319139e+000 1.413675e+000 1.078102e+000 2.243866e+000
<GCONST> 8.782551e+001
<STATE> 3
<MEAN> 25
 -6.283325e+000 1.435524e+000 -3.448276e+000 1.056028e+000 3.111905e-001 4.817415e+000 -9.795785e-001 3.192787e-001 1.548858e+000 2.850067e+000 1.169060e+000 2.018945e+000 4.543517e+000 -2.209206e-002 -2.565593e-001 -1.635431e+000 -1.562411e+000 -3.445714e+000 -6.444740e-001 -9.982655e-001 3.002512e-001 -1.689541e+000 -6.142880e-001 -7.135665e-001 4.819376e+000
<VARIANCE> 25
 2.923288e+001 1.155933e+001 1.086935e+001 2.039256e+001 2.460748e+001 3.247894e+001 1.791840e+001 1.998166e+001 1.762693e+001 1.320427e+001 1.287016e+001 1.068359e+001 5.978163e+000 6.144026e+000 4.462515e+000 3.579668e+000 8.290234e+000 1.006148e+001 6.818529e+000 8.177759e+000 4.972361e+000 3.660499e+000 6.100524e+000 3.766039e+000 2.893305e+000
<GCONST> 1.020264e+002
<STATE> 4
<MEAN> 25
 6.789719e+000 -5.366989e-001 -5.172895e+000 -4.320844e+000 -5.309881e+000 -7.151839e+000 -2.496051e-001 -2.839426e+000 2.428008e+000 -3.985346e+000 6.715906e-002 -8.389373e-001 5.207405e+000 -6.902431e-001 -5.943988e-001 -1.695152e+000 -2.028284e+000 -4.685765e+000 1.354903e+000 -5.293069e-002 -4.230586e-001 -1.539636e+000 -3.354461e-001 -1.473794e+000 5.808068e+000
<VARIANCE> 25
 6.407137e+001 7.655495e+001 6.160880e+001 3.771673e+001 6.967037e+001 1.041142e+002 8.023005e+001 1.000454e+002 4.710112e+001 5.035808e+001 4.401254e+001 4.251191e+001 5.398961e+000 8.856084e+000 6.518510e+000 5.518153e+000 1.092552e+001 1.119555e+001 1.017997e+001 9.903368e+000 6.731845e+000 6.308674e+000 6.673959e+000 5.399931e+000 5.465958e+000
<GCONST> 1.212832e+002
<TRANSP> 5
 0.000000e+000 1.000000e+000 0.000000e+000 0.000000e+000 0.000000e+000
 0.000000e+000 6.948920e-001 3.051080e-001 0.000000e+000 0.000000e+000
 0.000000e+000 0.000000e+000 4.380605e-001 5.619395e-001 0.000000e+000
 0.000000e+000 0.000000e+000 0.000000e+000 4.664864e-001 5.335137e-001
 0.000000e+000 0.000000e+000 0.000000e+000 0.000000e+000 0.000000e+000
<ENDHMM>
~h "r"
<BEGINHMM>
<NUMSTATES> 5
<STATE> 2
<MEAN> 25
 1.374598e+001 -6.247425e+000 -5.294339e+000 -4.643597e+000 -7.437126e+000 -9.987649e-001 4.039211e-001 -4.069162e+000 4.838243e+000 -4.342027e-001 -4.026506e+000 5.793392e+000 -4.002640e-002 -1.016595e-001 -1.442012e-001 -1.535565e-001 5.361850e-001 4.868743e-001 -6.970654e-001 -1.938557e-001 -1.512955e-001 -2.269875e-001 5.465577e-001 2.593423e-001 -4.366118e-002
<VARIANCE> 25
 1.029105e+001 4.731534e+001 2.800029e+001 3.884463e+001 4.744111e+001 5.556582e+001 5.889694e+001 3.436474e+001 4.581879e+001 4.028437e+001 1.077015e+002 3.751993e+001 5.512825e-001 2.710197e+000 1.882079e+000 1.847543e+000 3.378436e+000 3.938432e+000 3.306751e+000 2.251932e+000 2.232199e+000 2.732449e+000 3.379030e+000 2.899654e+000 6.578345e-001
<GCONST> 1.003568e+002
<STATE> 3
<MEAN> 25
 1.579098e+001 -8.527348e-001 -1.027758e+001 -6.553667e+000 5.491781e+000 -3.406603e+000 -6.093554e+000 -3.166867e-001 1.158056e+000 -5.722183e+000 1.556456e+000 4.708001e+000 -6.584510e-002 1.572955e+000 -2.475172e-001 3.837208e-001 1.127731e+000 2.378342e-001 2.757877e-001 1.963216e-001 -8.114410e-001 -8.821658e-002 -6.341374e-001 -6.792791e-001 -8.949136e-001
<VARIANCE> 25
 2.788994e+001 4.927386e+001 5.072599e+001 4.804004e+001 9.230285e+001 7.884367e+001 8.146907e+001 5.395330e+001 5.215828e+001 5.221928e+001 8.793700e+001 4.704323e+001 2.851139e+000 6.636611e+000 8.116899e+000 3.818101e+000 5.373255e+000 1.287939e+001 7.022239e+000 5.349371e+000 6.852283e+000 6.155536e+000 6.511435e+000 4.822498e+000 1.938524e+000
<GCONST> 1.165772e+002
<STATE> 4
<MEAN> 25
 1.047799e+001 5.088689e+000 -5.868069e+000 -5.093273e+000 3.499086e+000 1.863361e+000 -1.286329e+000 -2.807598e+000 -7.301542e+000 -4.431159e+000 -2.719137e+000 9.298935e-001 -3.239479e-001 4.712218e-001 6.700830e-001 7.103433e-001 1.171010e-001 -6.126178e-002 -2.726678e-002 1.649969e-001 -3.526644e-001 9.793323e-002 -1.531181e-001 -7.912579e-001 -4.662369e-001
<VARIANCE> 25
 2.485126e+001 5.785535e+001 3.953480e+001 4.261376e+001 5.862772e+001 7.411581e+001 5.200181e+001 3.203556e+001 4.168394e+001 6.200799e+001 7.388107e+001 3.747549e+001 1.659208e+000 1.335401e+000 2.996711e+000 3.037674e+000 2.502717e+000 3.816898e+000 3.492233e+000 2.171008e+000 3.904144e+000 3.143199e+000 2.582213e+000 2.832875e+000 1.114895e+000
<GCONST> 1.041183e+002
<TRANSP> 5
 0.000000e+000 1.000000e+000 0.000000e+000 0.000000e+000 0.000000e+000
 0.000000e+000 8.773640e-001 1.226361e-001 0.000000e+000 0.000000e+000
 0.000000e+000 0.000000e+000 7.905958e-001 2.094042e-001 0.000000e+000
 0.000000e+000 0.000000e+000 0.000000e+000 7.633396e-001 2.366604e-001
 0.000000e+000 0.000000e+000 0.000000e+000 0.000000e+000 0.000000e+000
<ENDHMM>
~h "s"
<BEGINHMM>
<NUMSTATES> 5
<STATE> 2
<MEAN> 25
 -7.926496e+000 -8.124391e+000 1.027129e+001 -4.113195e+000 1.996895e-001 6.888720e+000 1.194735e+000 -4.180519e+000 4.031184e+000 2.686690e+000 2.903009e+000 1.310946e+000 -2.963961e+000 -2.031663e+000 3.854010e+000 -1.965628e+000 4.763315e-001 2.122782e-001 1.168457e+000 -1.112737e+000 1.017111e+000 -2.751811e-001 1.523304e+000 -1.503551e-001 1.853273e+000
<VARIANCE> 25
 8.461982e+001 9.291838e+001 1.477230e+002 7.215990e+001 6.437703e+001 7.764806e+001 8.721736e+001 5.582228e+001 5.305873e+001 4.309605e+001 4.178766e+001 3.771049e+001 5.811577e+000 5.543062e+000 9.746219e+000 6.602921e+000 6.675089e+000 7.458817e+000 9.257202e+000 4.277938e+000 6.421414e+000 5.181549e+000 5.246337e+000 3.998225e+000 4.153631e+000
<GCONST> 1.194915e+002
<STATE> 3
<MEAN> 25
 -2.175477e+001 -1.209543e+001 1.894840e+001 -1.293042e+001 5.361491e+000 3.118566e+000 6.145220e+000 -9.104658e+000 9.102019e+000 -1.272701e-001 1.013561e+001 -2.049681e+000 -3.066120e-001 -1.867074e-001 -3.325228e-001 -1.306554e-001 1.499942e-001 -1.038051e-001 -1.326800e-001 -3.318378e-001 3.272160e-002 -3.067665e-002 1.828486e-001 6.678534e-002 5.103864e-002
<VARIANCE> 25
 1.710769e+001 1.045672e+002 5.284130e+001 6.312240e+001 6.637473e+001 6.577753e+001 8.477296e+001 3.712772e+001 3.226094e+001 2.641397e+001 2.444962e+001 2.565998e+001 2.503683e+000 1.527676e+000 1.702846e+000 1.625585e+000 1.599816e+000 1.793718e+000 2.064422e+000 2.156794e+000 2.388898e+000 1.996565e+000 1.906976e+000 1.713971e+000 9.883670e-001
<GCONST> 9.881611e+001
<STATE> 4
<MEAN> 25
 -1.292362e+001 -1.047642e+001 1.319929e+001 -9.729357e+000 2.571389e+000 3.439996e+000 1.052323e+000 -9.552901e+000 5.393012e+000 7.312107e-001 4.647548e+000 1.027224e+000 4.283168e+000 2.215193e+000 -2.624246e+000 1.592174e+000 -9.055082e-001 -1.001700e+000 -1.540822e+000 8.526859e-001 -1.578499e+000 -4.407342e-001 -2.100058e+000 -2.734681e-003 -6.854070e-001
<VARIANCE> 25
 6.428077e+001 9.163631e+001 6.841633e+001 8.024155e+001 8.227725e+001 8.202062e+001 8.305383e+001 6.487851e+001 5.878346e+001 4.001943e+001 4.980904e+001 3.008689e+001 7.357630e+000 8.105787e+000 6.336242e+000 5.344082e+000 5.231474e+000 6.947258e+000 6.833546e+000 6.554110e+000 6.262934e+000 4.139499e+000 5.278808e+000 3.490512e+000 3.257159e+000
<GCONST> 1.180786e+002
<TRANSP> 5
 0.000000e+000 1.000000e+000 0.000000e+000 0.000000e+000 0.000000e+000
 0.000000e+000 8.187650e-001 1.812351e-001 0.000000e+000 0.000000e+000
 0.000000e+000 0.000000e+000 8.706234e-001 1.293766e-001 0.000000e+000
 0.000000e+000 0.000000e+000 0.000000e+000 7.397582e-001 2.602418e-001
 0.000000e+000 0.000000e+000 0.000000e+000 0.000000e+000 0.000000e+000
<ENDHMM>
~h "t"
<BEGINHMM>
<NUMSTATES> 5
<STATE> 2
<MEAN> 25
 -4.737487e+000 2.339181e+000 -2.291656e+000 1.513233e+000 -1.682907e+000 4.290812e+000 1.474533e+000 -6.471224e-001 9.468882e-001 2.810058e+000 2.551252e+000 2.211857e+000 -1.334358e+000 -6.173608e-001 9.567698e-002 1.911774e-001 3.543624e-001 -1.844142e-002 -5.378900e-001 -1.131569e-001 1.695303e-001 1.911190e-001 1.618493e-002 -2.574210e-001 -6.836427e-001
<VARIANCE> 25
 6.924061e+001 2.457000e+001 1.440782e+001 1.874973e+001 5.046608e+001 2.755050e+001 3.015012e+001 2.669394e+001 2.851171e+001 1.840509e+001 2.829383e+001 1.411215e+001 5.424387e+000 6.118416e+000 2.094972e+000 3.160383e+000 4.425667e+000 4.295775e+000 3.296545e+000 4.192770e+000 2.734555e+000 2.199426e+000 4.140618e+000 1.695747e+000 7.659278e+000
<GCONST> 1.019083e+002
<STATE> 3
<MEAN> 25
 -5.549078e+000 -4.385104e+000 -1.084991e+000 2.784320e-001 -1.423234e+000 4.872035e+000 -1.789369e+000 -2.872761e+000 2.150577e+000 3.107599e+000 9.537719e-001 1.892798e+000 2.259919e+000 -3.617249e+000 1.363699e+000 -9.184381e-001 -9.758089e-001 -1.055581e+000 -1.133846e+000 -2.103556e+000 2.527481e-001 -1.247977e+000 -3.190791e-001 -2.880628e-001 4.866182e+000
<VARIANCE> 25
 4.475583e+001 1.119628e+002 2.693111e+001 2.818189e+001 5.938219e+001 4.740433e+001 3.981771e+001 4.664211e+001 2.919374e+001 3.390559e+001 1.932406e+001 1.538693e+001 9.618546e+000 1.519797e+001 4.256243e+000 4.895230e+000 1.363512e+001 1.464130e+001 8.880108e+000 9.330314e+000 5.251945e+000 5.277140e+000 6.864577e+000 3.147746e+000 1.357647e+001
<GCONST> 1.158987e+002
<STATE> 4
<MEAN> 25
 -8.181220e-001 -1.149997e+001 1.683318e+000 -1.461408e+000 -3.316074e+000 -9.504771e-001 -3.210237e+000 -9.277731e+000 2.674199e+000 4.672680e-002 1.100328e+000 4.518973e-001 2.900698e+000 4.665247e-001 1.556547e+000 4.643356e-001 1.111783e+000 -3.289802e+000 -2.894515e-001 -6.912431e-001 -1.237083e+000 -1.484440e+000 -1.429260e+000 -1.649606e+000 3.708834e+000
<VARIANCE> 25
 6.213059e+001 1.116088e+002 6.104824e+001 4.272299e+001 9.759154e+001 1.280807e+002 1.027184e+002 8.940666e+001 6.154258e+001 4.712782e+001 5.389752e+001 3.806731e+001 6.822196e+000 8.105279e+000 9.600576e+000 7.575164e+000 9.232339e+000 1.331102e+001 1.050459e+001 9.609922e+000 6.510298e+000 4.976611e+000 6.963867e+000 5.134942e+000 9.821491e+000
<GCONST> 1.238801e+002
<TRANSP> 5
 0.000000e+000 1.000000e+000 0.000000e+000 0.000000e+000 0.000000e+000
 0.000000e+000 7.517520e-001 2.482480e-001 0.000000e+000 0.000000e+000
 0.000000e+000 0.000000e+000 4.039900e-001 5.960100e-001 0.000000e+000
 0.000000e+000 0.000000e+000 0.000000e+000 4.352411e-001 5.647589e-001
 0.000000e+000 0.000000e+000 0.000000e+000 0.000000e+000 0.000000e+000
<ENDHMM>
~h "y"
<BEGINHMM>
<NUMSTATES> 5
<STATE> 2
<MEAN> 25
 1.320385e+001 -8.894344e+000 -6.366081e+000 -2.671748e+000 3.609679e+000 -6.298989e+000 9.227043e+000 -5.492995e+000 2.008155e+000 8.257994e+000 -4.624317e-001 -2.544306e+000 8.931962e-001 -5.391324e-001 1.243687e+000 8.460704e-001 -2.167269e-001 -1.589397e+000 -1.550892e+000 -1.394633e+000 3.362365e-003 1.684590e+000 4.796995e-001 2.292031e-001 1.136667e+000
<VARIANCE> 25
 5.668393e+001 2.616776e+001 3.714699e+001 6.038577e+001 4.116287e+001 1.234003e+002 8.322173e+001 5.361992e+001 4.437888e+001 7.929669e+001 2.188199e+001 2.058492e+001 8.751884e+000 1.925756e+000 7.450864e+000 1.842350e+000 1.980486e+000 2.860385e+000 3.726482e+000 2.637254e+000 1.832884e+000 2.640180e+000 1.994992e+000 9.254789e-001 5.448084e+000
<GCONST> 1.055258e+002
<STATE> 3
<MEAN> 25
 9.990055e+000 -4.216015e+000 9.356011e+000 6.152859e+000 1.156314e+001 -2.743275e+001 -2.767833e+000 -3.846196e+000 -7.499820e+000 9.187266e+000 -3.055779e+000 -3.911454e+000 -5.489173e-003 2.264296e-001 2.163533e-001 3.815426e-001 6.732505e-002 -1.677231e-001 -4.060245e-001 6.780979e-002 -1.792866e-001 -2.000379e-001 2.873231e-001 1.588737e-001 -1.371024e-001
<VARIANCE> 25
 1.421068e+001 1.303634e+001 1.175560e+002 1.503826e+002 6.359254e+001 1.210034e+002 3.492873e+001 5.506869e+001 1.101930e+002 5.323526e+001 3.892890e+001 2.031709e+001 8.629354e-001 7.528861e-001 7.464166e+000 6.920141e+000 6.191057e-001 3.751077e+000 3.020032e+000 4.484959e+000 2.066852e+000 4.729835e+000 6.134413e+000 1.977066e+000 6.291219e-001
<GCONST> 1.040830e+002
<STATE> 4
<MEAN> 25
 1.430550e+001 -7.932625e+000 3.473171e+000 1.962454e+000 3.773705e+000 -6.106924e+000 -9.267632e+000 -6.905279e+000 1.913043e+000 -8.356305e-001 9.791073e+000 -1.178378e+000 1.731693e-001 -1.517696e-001 -1.210878e+000 -1.223366e+000 -5.026292e-002 1.006478e+000 9.107360e-001 8.973747e-001 1.482351e-001 -2.459547e-001 -7.070931e-002 2.181958e-001 -7.625982e-002
<VARIANCE> 25
 6.176779e+000 4.914914e+001 1.089567e+002 2.121832e+002 8.704092e+001 7.873135e+001 6.908366e+001 3.304551e+001 1.433639e+001 9.744965e+001 2.439865e+001 6.618242e+001 7.369953e-001 2.214922e+000 3.920367e+000 6.674264e+000 2.151514e+000 2.359881e+000 3.889220e+000 2.512956e+000 1.318808e+000 5.913550e+000 3.511282e+000 2.738905e+000 7.304470e-001
<GCONST> 1.045680e+002
<TRANSP> 5
 0.000000e+000 1.000000e+000 0.000000e+000 0.000000e+000 0.000000e+000
 0.000000e+000 8.029579e-001 1.970421e-001 0.000000e+000 0.000000e+000
 0.000000e+000 0.000000e+000 9.314412e-001 6.855884e-002 0.000000e+000
 0.000000e+000 0.000000e+000 0.000000e+000 8.912635e-001 1.087365e-001
 0.000000e+000 0.000000e+000 0.000000e+000 0.000000e+000 0.000000e+000
<ENDHMM>
~h "aa"
<BEGINHMM>
<NUMSTATES> 5
<STATE> 2
<MEAN> 25
 8.052574e+000 -2.937965e+000 -5.734088e+000 -4.157308e+000 -1.809956e+000 -4.297691e+000 3.469599e+000 1.122712e+000 -1.088104e+000 -2.051403e+000 -9.068657e-001 -2.030983e-001 1.765021e+000 -8.989775e-001 -1.015012e+000 -7.015929e-001 -6.228520e-001 -1.100949e+000 9.978318e-001 -4.261153e-003 -1.877665e-002 2.725294e-002 -1.071920e-001 2.753207e-001 1.891620e+000
<VARIANCE> 25
 9.535431e+001 6.695462e+001 5.929784e+001 6.215499e+001 6.643208e+001 1.040726e+002 6.236666e+001 6.161887e+001 5.902332e+001 5.941023e+001 6.017632e+001 5.142210e+001 5.566139e+000 6.611817e+000 5.516987e+000 5.268659e+000 6.017456e+000 6.909829e+000 6.079073e+000 5.026470e+000 5.006791e+000 5.666965e+000 4.993624e+000 4.632712e+000 4.599566e+000
<GCONST> 1.183508e+002
<STATE> 3
<MEAN> 25
 1.054877e+001 -5.282841e+000 -6.916692e+000 -5.718111e+000 -1.831046e+000 -9.348766e+000 6.113809e+000 -1.611192e+000 -1.758995e+000 1.003217e+000 8.402878e-001 -5.883663e-001 -5.210742e-001 4.768941e-001 2.140715e-001 3.056286e-001 4.627778e-002 1.027811e+000 -3.289204e-001 -6.308577e-002 2.879586e-001 1.702281e-001 -3.648121e-001 1.518668e-001 -9.692206e-001
<VARIANCE> 25
 3.826736e+001 4.264837e+001 3.178336e+001 3.947861e+001 7.869271e+001 1.112657e+002 8.102862e+001 7.715907e+001 7.283869e+001 6.139012e+001 5.797256e+001 4.880933e+001 2.064908e+000 3.170938e+000 2.392519e+000 3.149731e+000 3.598543e+000 5.199561e+000 3.573968e+000 3.890129e+000 3.952789e+000 3.297804e+000 3.474786e+000 2.673137e+000 2.759312e+000
<GCONST> 1.099222e+002
<STATE> 4
<MEAN> 25
 7.970801e+000 -3.841996e+000 -4.323958e+000 -6.209380e+000 -3.672575e+000 -1.551582e+000 9.557968e-001 -3.077088e-001 1.643521e+000 1.635524e-001 -2.702451e+000 3.347987e+000 -5.090169e-001 4.021567e-001 2.929071e-001 4.832424e-001 2.030253e-001 5.331126e-001 -2.431973e-002 1.027943e-001 -3.316800e-002 7.980134e-002 1.940015e-001 -2.928968e-002 -7.746834e-001
<VARIANCE> 25
 6.544773e+001 3.424431e+001 2.041798e+001 4.397042e+001 4.494112e+001 7.071587e+001 5.426836e+001 3.970790e+001 5.117235e+001 3.209124e+001 5.403125e+001 4.177831e+001 1.113473e+000 1.354929e+000 1.047857e+000 1.656523e+000 1.562217e+000 1.831461e+000 1.805802e+000 1.718039e+000 2.064520e+000 1.579610e+000 1.927174e+000 1.507397e+000 9.771159e-001
<GCONST> 9.669834e+001
<TRANSP> 5
 0.000000e+000 1.000000e+000 0.000000e+000 0.000000e+000 0.000000e+000
 0.000000e+000 6.294357e-001 3.705643e-001 0.000000e+000 0.000000e+000
 0.000000e+000 0.000000e+000 7.822701e-001 2.177298e-001 0.000000e+000
 0.000000e+000 0.000000e+000 0.000000e+000 7.785857e-001 2.214143e-001
 0.000000e+000 0.000000e+000 0.000000e+000 0.000000e+000 0.000000e+000
<ENDHMM>
~h "ah"
<BEGINHMM>
<NUMSTATES> 5
<STATE> 2
<MEAN> 25
 1.267125e+000 -7.307538e-002 1.594358e+000 1.781730e+000 -2.555807e+000 4.055881e+000 6.063572e-001 -2.247059e+000 1.207593e-001 -5.440306e-001 1.608092e+000 2.187561e+000 3.551432e+000 -7.906377e-001 -1.800179e+000 2.051475e-001 -5.138769e-001 -2.515319e+000 6.632928e-001 6.479855e-001 -2.128848e+000 -6.190370e-001 -1.110542e-001 7.803097e-002 2.461590e+000
<VARIANCE> 25
 9.240740e+001 1.190808e+002 1.193362e+002 7.615215e+001 7.381586e+001 8.644395e+001 4.155922e+001 7.777942e+001 4.109613e+001 2.815979e+001 4.146400e+001 2.488807e+001 9.894001e+000 2.166241e+001 8.838902e+000 5.378242e+000 1.002458e+001 1.489601e+001 6.550215e+000 7.694237e+000 1.029008e+001 6.118916e+000 7.627023e+000 3.629956e+000 1.013860e+001
<GCONST> 1.231377e+002
<STATE> 3
<MEAN> 25
 1.125082e+001 -4.630343e+000 -2.130835e+000 -2.627282e-001 -2.661147e+000 -6.455822e+000 2.889930e+000 -2.653960e+000 -7.623393e+000 -3.108365e+000 1.584661e+000 1.043933e+000 3.333269e+000 -3.375069e-001 -1.519960e+000 -4.287408e-001 8.807636e-001 -3.451509e+000 7.348135e-001 3.066225e-001 -2.605237e+000 -5.720491e-001 -6.043569e-001 -6.001397e-001 2.894224e+000
<VARIANCE> 25
 3.508030e+001 1.139326e+002 9.364971e+001 7.214281e+001 9.782303e+001 8.171940e+001 5.873787e+001 1.073458e+002 5.636036e+001 7.545889e+001 4.301099e+001 3.368935e+001 5.931138e+000 1.617390e+001 7.237097e+000 6.957600e+000 7.604025e+000 1.243713e+001 7.241380e+000 1.013107e+001 1.097970e+001 6.946826e+000 5.530336e+000 5.128618e+000 8.925086e+000
<GCONST> 1.236237e+002
<STATE> 4
<MEAN> 25
 1.325754e+001 3.967629e+000 -2.427868e+000 -3.081586e+000 7.989620e+000 -7.983290e+000 5.666336e+000 1.476358e+000 -8.687470e+000 1.128669e+000 -3.816249e+000 2.218117e+000 -9.177464e-002 1.077783e+000 1.645599e-002 5.038784e-001 4.790998e-001 9.516337e-001 -4.093024e-001 3.926376e-001 2.864272e-001 2.680657e-002 -4.313563e-001 3.600888e-002 -9.722516e-001
<VARIANCE> 25
 2.061122e+001 1.228985e+002 4.484505e+001 4.990572e+001 1.503963e+002 1.100386e+002 8.627249e+001 1.507210e+002 5.824582e+001 7.375149e+001 9.936169e+001 4.494062e+001 1.954204e+000 7.401917e+000 3.005839e+000 4.974524e+000 6.375190e+000 9.436368e+000 5.574239e+000 7.230854e+000 5.939716e+000 4.052449e+000 7.342505e+000 3.520055e+000 3.954730e+000
<GCONST> 1.184322e+002
<TRANSP> 5
 0.000000e+000 1.000000e+000 0.000000e+000 0.000000e+000 0.000000e+000
 0.000000e+000 4.063050e-001 5.936950e-001 0.000000e+000 0.000000e+000
 0.000000e+000 0.000000e+000 3.023505e-001 6.976495e-001 0.000000e+000
 0.000000e+000 0.000000e+000 0.000000e+000 8.146298e-001 1.853702e-001
 0.000000e+000 0.000000e+000 0.000000e+000 0.000000e+000 0.000000e+000
<ENDHMM>
~h "ao"
<BEGINHMM>
<NUMSTATES> 5
<STATE> 2
<MEAN> 25
 5.255292e+000 1.156499e-001 6.442916e+000 -5.883898e+000 -3.516272e+000 -5.718639e+000 3.071516e+000 -1.033436e+000 -2.948290e+000 -7.104222e+000 -2.162838e+000 6.524787e-001 4.893306e+000 2.554357e+000 -2.019389e+000 -5.777832e-001 -1.738387e+000 -2.753738e+000 -3.129708e-001 1.438011e+000 -3.471988e-001 -1.306179e+000 -1.760171e+000 -3.621664e-001 1.573927e+000
<VARIANCE> 25
 7.435193e+001 6.951411e+001 4.073774e+001 6.365045e+001 9.002430e+001 7.716791e+001 4.103934e+001 7.420377e+001 6.256011e+001 5.354533e+001 2.533751e+001 3.937289e+001 4.518686e+000 8.575955e+000 4.725184e+000 3.218142e+000 5.405433e+000 6.725504e+000 1.008251e+001 6.501194e+000 5.214144e+000 7.606697e+000 6.438922e+000 3.916427e+000 1.625157e+000
<GCONST> 1.157958e+002
<STATE> 3
<MEAN> 25
 1.209435e+001 -3.070072e+000 3.798044e+000 -7.522091e+000 -1.012055e+001 -1.247341e+001 3.493902e+000 4.816321e-001 -1.162671e+000 -6.040327e+000 -4.099807e+000 9.326827e-001 1.519734e+000 1.664208e-001 -9.889203e-001 5.110515e-001 -2.132321e+000 -6.908623e-001 -5.456902e-001 1.081553e+000 1.181593e+000 5.622350e-001 -7.678965e-001 -1.066862e+000 5.392879e-002
<VARIANCE> 25
 1.445355e+001 1.859448e+001 2.357137e+001 1.992150e+001 9.587500e+001 3.887763e+001 6.412767e+001 7.106138e+001 6.061184e+001 4.032803e+001 4.213627e+001 3.267155e+001 1.453415e+000 1.586591e+000 2.633395e+000 1.918188e+000 4.013476e+000 1.920543e+000 5.060030e+000 3.146268e+000 1.275073e+000 4.910938e+000 4.911311e+000 1.932331e+000 7.559092e-001
<GCONST> 1.004393e+002
<STATE> 4
<MEAN> 25
 1.384973e+001 -7.495423e-001 3.986793e+000 -5.997246e+000 -1.556265e+001 -1.278158e+001 -7.631732e-001 4.670387e+000 1.548327e+000 -4.110820e+000 -5.640074e+000 -3.869183e+000 1.209412e-001 1.784437e-001 -6.731506e-002 1.904641e-003 -1.815416e-001 1.544677e-001 -1.658123e-001 1.381203e-001 -1.428012e-002 2.010245e-001 -9.321276e-002 -1.184278e-001 -1.503636e-001
<VARIANCE> 25
 6.188029e+000 2.000916e+001 1.544063e+001 3.027873e+001 1.170522e+002 3.167031e+001 7.817445e+001 6.762991e+001 7.822437e+001 4.201456e+001 6.643708e+001 4.247891e+001 1.477814e-001 7.110794e-001 7.453447e-001 8.523307e-001 2.580950e+000 1.270765e+000 1.544982e+000 2.170860e+000 1.447559e+000 1.366607e+000 1.109112e+000 1.313382e+000 2.316052e-001
<GCONST> 8.903392e+001
<TRANSP> 5
 0.000000e+000 1.000000e+000 0.000000e+000 0.000000e+000 0.000000e+000
 0.000000e+000 5.793236e-001 4.206764e-001 0.000000e+000 0.000000e+000
 0.000000e+000 0.000000e+000 5.775453e-001 4.224547e-001 0.000000e+000
 0.000000e+000 0.000000e+000 0.000000e+000 8.849171e-001 1.150829e-001
 0.000000e+000 0.000000e+000 0.000000e+000 0.000000e+000 0.000000e+000
<ENDHMM>
~h "aw"
<BEGINHMM>
<NUMSTATES> 5
<STATE> 2
<MEAN> 25
 1.322185e+001 -2.338065e+000 -2.171545e+000 -1.046810e+001 -6.864606e-001 -1.279386e+001 -9.473903e+000 2.137200e+000 2.170691e+000 1.343051e+000 -1.116217e+001 -5.139866e+000 -2.177282e-002 3.768119e-001 2.382316e-001 4.253461e-001 -3.392870e-001 -2.224072e-001 -4.905272e-001 -3.239029e-002 3.066211e-001 -3.594543e-002 2.542513e-001 -5.630533e-001 -2.959040e-001
<VARIANCE> 25
 1.311829e+000 4.348133e+001 8.808583e+000 1.457881e+001 7.851473e+000 1.477070e+001 3.671202e+001 4.471919e+000 2.349066e+001 5.429070e+000 1.259839e+001 2.073342e+001 4.796299e-002 2.212117e+000 4.014479e-001 6.942628e-001 3.867841e-001 4.618051e-001 9.077075e-001 6.975169e-001 1.455309e+000 9.644590e-001 1.590627e+000 4.165979e-001 7.829180e-001
<GCONST> 6.909621e+001
<STATE> 3
<MEAN> 25
 1.300290e+001 2.329987e+000 -3.863462e+000 -2.992573e+000 -7.753767e+000 -5.251606e+000 8.105781e+000 3.097558e+000 -3.463569e+000 -5.284293e+000 -7.868224e+000 -4.452807e+000 -7.268592e-001 4.666288e-001 1.917074e-001 9.935843e-002 -3.317293e-001 9.338181e-002 1.242857e-001 -9.162679e-002 -4.871121e-001 -1.507451e-001 7.368242e-001 3.245493e-001 -7.989166e-001
<VARIANCE> 25
 4.544693e+001 1.701906e+001 9.399615e+000 8.570081e+000 6.962857e+001 2.466785e+001 1.781582e+002 2.411745e+001 3.196378e+001 2.905169e+001 3.088355e+001 1.657539e+001 1.490669e+000 1.810940e+000 1.993042e-001 1.233544e+000 1.745591e+000 2.064559e+000 2.499486e+000 1.833226e+000 2.998887e+000 2.856248e+000 2.321107e+000 1.726063e+000 1.928609e+000
<GCONST> 9.245950e+001
<STATE> 4
<MEAN> 25
 2.719820e+000 1.252559e+001 1.350821e+000 -9.408427e-001 -5.031585e+000 -1.066244e+000 2.129959e+000 1.665007e+000 2.357329e+000 1.638492e+000 2.394246e+000 -2.996698e+000 -5.162036e-001 4.687146e-002 9.855963e-003 9.736149e-002 2.194701e-001 5.559523e-001 2.922474e-001 -2.465475e-001 -9.469967e-002 3.227537e-002 1.290447e-001 3.898980e-001 -4.562358e-001
<VARIANCE> 25
 9.739806e+001 6.744193e+001 2.357416e+001 5.456151e+001 1.228213e+001 1.199656e+002 1.572359e+002 1.713484e+001 2.192125e+001 1.427703e+001 1.334454e+001 3.230883e+001 7.115842e-001 1.468410e+000 1.120652e+000 1.230628e+000 1.266994e+000 1.887826e+000 3.823570e+000 1.494423e+000 1.066668e+000 1.318756e+000 1.031876e+000 1.072460e+000 3.222252e-001
<GCONST> 9.119366e+001
<TRANSP> 5
 0.000000e+000 1.000000e+000 0.000000e+000 0.000000e+000 0.000000e+000
 0.000000e+000 9.345733e-001 6.542671e-002 0.000000e+000 0.000000e+000
 0.000000e+000 0.000000e+000 8.900394e-001 1.099606e-001 0.000000e+000
 0.000000e+000 0.000000e+000 0.000000e+000 9.393547e-001 6.064533e-002
 0.000000e+000 0.000000e+000 0.000000e+000 0.000000e+000 0.000000e+000
<ENDHMM>
~h "ch"
<BEGINHMM>
<NUMSTATES> 5
<STATE> 2
<MEAN> 25
 -5.395000e+000 -1.210503e+000 -4.690409e+000 4.042741e+000 -2.663792e+000 5.763632e+000 -1.267272e+000 -2.876938e+000 3.153348e+000 2.305933e+000 -2.025036e-001 1.280590e+000 -3.008310e-001 -1.110264e+000 -1.941822e-002 -3.056129e-001 -4.172740e-001 8.947190e-002 -3.962187e-003 -1.838362e-001 3.349081e-001 -1.144018e-001 -1.789967e-001 2.351067e-001 3.155214e-001
<VARIANCE> 25
 9.452888e+001 1.910572e+001 9.986211e+000 1.143732e+001 1.858238e+001 2.631786e+001 9.658824e+000 6.873254e+001 9.256907e+000 3.459513e+001 6.019231e+000 5.681580e+000 1.838571e+000 1.078748e+000 3.902581e+000 1.535301e+000 1.004960e+000 1.219380e+000 2.438060e+000 2.593630e+000 1.950827e+000 1.605711e+000 1.659096e+000 5.127345e-001 7.469210e+000
<GCONST> 8.768932e+001
<STATE> 3
<MEAN> 25
 -3.274595e+000 1.541276e-001 7.789431e-001 4.357529e+000 2.128598e+000 7.748504e+000 -8.140454e-001 -5.627005e+000 3.515689e+000 6.916603e+000 4.404129e-002 -1.005154e-001 -1.152249e+000 -1.782097e+000 1.784454e+000 -1.362821e+000 5.837698e-002 2.329444e-001 -7.515354e-001 1.547195e+000 -4.655819e-001 -1.363531e+000 5.064145e-001 8.285711e-002 7.118883e-001
<VARIANCE> 25
 1.094512e+002 5.689209e+001 2.562498e+001 1.722867e+001 5.483671e+001 3.225437e+001 7.443994e+000 1.285682e+002 2.029349e+001 4.504364e+001 1.368620e+001 8.003688e+000 1.003698e+001 2.577912e+001 5.333957e+000 5.497984e+000 1.232564e+001 9.078811e+000 2.865400e+000 1.458368e+001 3.680627e+000 2.839588e+000 5.011794e+000 8.039092e-001 2.646986e+001
<GCONST> 1.110306e+002
<STATE> 4
<MEAN> 25
 -5.183475e+000 -2.292173e+001 1.409707e+001 -4.545769e+000 -1.394600e+000 -2.442051e+000 -6.246231e+000 -1.874225e+000 5.582420e+000 -8.087636e-001 2.553212e+000 2.255210e+000 1.680992e+000 -3.868202e-001 9.602544e-001 -1.012164e-001 7.857368e-001 -1.608159e+000 -3.916786e-001 -4.089388e-001 -5.878533e-001 8.521720e-001 -2.850134e-001 -2.331731e-001 2.153615e+000
<VARIANCE> 25
 5.181924e+001 6.039472e+001 6.179700e+001 9.025365e+001 1.084180e+002 1.193053e+002 6.847430e+001 8.658691e+001 8.735947e+001 6.014745e+001 4.402751e+001 1.292848e+001 6.550022e+000 2.484910e+001 1.373326e+001 1.290309e+001 1.002136e+001 1.271285e+001 8.540697e+000 9.103007e+000 1.923906e+001 5.856215e+000 5.988954e+000 2.311502e+000 1.425683e+001
<GCONST> 1.251683e+002
<TRANSP> 5
 0.000000e+000 1.000000e+000 0.000000e+000 0.000000e+000 0.000000e+000
 0.000000e+000 6.342580e-001 3.657419e-001 0.000000e+000 0.000000e+000
 0.000000e+000 0.000000e+000 7.004111e-001 2.995888e-001 0.000000e+000
 0.000000e+000 0.000000e+000 0.000000e+000 8.726370e-001 1.273630e-001
 0.000000e+000 0.000000e+000 0.000000e+000 0.000000e+000 0.000000e+000
<ENDHMM>
~h "eh"
<BEGINHMM>
<NUMSTATES> 5
<STATE> 2
<MEAN> 25
 1.204400e+001 -7.296359e+000 -5.109075e+000 1.537814e+000 9.106594e+000 -1.316551e+001 -1.172909e+001 -1.096327e+001 -8.279278e+000 4.996409e+000 2.515551e+000 9.816823e-001 -2.614084e-001 -4.355156e-001 5.167251e-001 7.243508e-001 3.233472e-002 -5.674841e-001 -3.919668e-001 -5.505328e-001 1.911567e-001 8.048135e-001 -8.804470e-002 -3.718255e-001 5.568209e-002
<VARIANCE> 25
 6.926235e+000 1.508538e+001 2.825447e+001 2.980772e+001 3.830364e+001 1.433062e+002 3.425354e+001 2.433306e+001 4.191297e+001 4.750212e+001 6.279211e+001 4.677750e+001 1.132766e-001 8.424703e-001 7.460061e-001 6.990944e-001 1.681307e+000 1.798479e+000 1.235421e+000 1.363647e+000 1.154572e+000 1.617242e+000 1.375308e+000 1.356061e+000 3.560586e-001
<GCONST> 8.709255e+001
<STATE> 3
<MEAN> 25
 6.727823e+000 -1.573689e+000 2.436578e-002 7.836244e+000 6.172225e+000 -1.224936e+001 -1.319719e+001 -9.825503e+000 -3.172492e+000 9.533006e+000 -3.483420e-001 -6.992795e+000 -1.236091e+000 1.079590e+000 7.663447e-002 -8.940939e-002 -4.574468e-001 1.644217e+000 2.705055e-001 7.205955e-001 7.714649e-001 -4.836574e-001 -2.965921e-001 7.381281e-002 -1.814799e+000
<VARIANCE> 25
 2.838637e+001 3.255030e+001 4.290786e+001 7.137856e+001 4.059211e+001 1.945843e+002 7.382340e+001 3.029242e+001 4.844149e+001 4.716004e+001 5.002817e+001 5.949526e+001 2.281403e+000 2.596025e+000 2.160438e+000 4.192896e+000 2.762676e+000 3.701799e+000 4.400868e+000 2.245424e+000 2.510634e+000 3.361943e+000 3.238004e+000 3.905212e+000 1.379109e+000
<GCONST> 1.068120e+002
<STATE> 4
<MEAN> 25
 -3.999983e+000 2.572629e+000 -1.164039e+000 4.504924e+000 3.548796e+000 4.506628e+000 -4.135129e+000 -1.954226e+000 1.797541e+000 4.330869e+000 2.046217e+000 8.876728e-001 -1.028146e+000 -8.333911e-002 -2.103466e-002 -1.937265e-001 -1.640565e-001 1.116733e+000 1.995563e+000 1.229797e+000 1.332674e-001 -3.019457e-001 4.061970e-001 6.738872e-001 -7.799888e-001
<VARIANCE> 25
 2.914780e+001 8.215589e+000 6.120525e+000 2.556412e+001 2.129033e+001 3.988920e+001 6.691061e+001 1.949725e+001 1.556678e+001 2.125595e+001 3.445687e+001 1.505841e+001 4.169662e-001 5.876704e-001 7.319142e-001 7.560276e-001 9.507303e-001 1.864572e+000 1.921904e+000 1.018436e+000 1.227213e+000 1.433474e+000 1.198927e+000 1.765576e+000 2.291296e-001
<GCONST> 8.153685e+001
<TRANSP> 5
 0.000000e+000 1.000000e+000 0.000000e+000 0.000000e+000 0.000000e+000
 0.000000e+000 9.038424e-001 9.615754e-002 0.000000e+000 0.000000e+000
 0.000000e+000 0.000000e+000 8.939369e-001 1.060631e-001 0.000000e+000
 0.000000e+000 0.000000e+000 0.000000e+000 7.699602e-001 2.300398e-001
 0.000000e+000 0.000000e+000 0.000000e+000 0.000000e+000 0.000000e+000
<ENDHMM>
~h "hh"
<BEGINHMM>
<NUMSTATES> 5
<STATE> 2
<MEAN> 25
 5.160564e+000 1.165605e+000 -8.602562e+000 -7.692317e+000 -5.634570e+000 5.874836e+000 4.043847e+000 7.835287e-001 2.504341e-002 -9.999166e-001 -3.731221e+000 -1.044144e+000 -1.620275e+000 -1.565937e-001 -6.848599e-001 -3.637098e-001 3.110553e-001 3.788840e-001 -6.375600e-002 2.941642e-001 6.018194e-001 3.699926e-001 1.675544e-001 8.261235e-001 -1.368015e+000
<VARIANCE> 25
 2.314834e+001 4.961184e+001 6.153920e+001 4.220321e+001 1.127365e+002 5.232906e+001 4.341299e+001 6.397993e+001 4.935271e+001 3.821941e+001 2.398553e+001 3.961543e+001 2.012780e+000 3.457847e+000 4.283708e+000 3.078034e+000 3.927813e+000 3.707886e+000 4.958643e+000 3.308129e+000 3.011650e+000 2.825891e+000 3.014292e+000 2.047918e+000 1.177377e+000
<GCONST> 1.059863e+002
<STATE> 3
<MEAN> 25
 -4.876681e+000 2.706063e+000 -5.192778e+000 -3.941884e+000 -4.267993e+000 3.781409e+000 2.023489e+000 4.210457e+000 2.770437e+000 1.431683e+000 -1.490650e+000 4.329984e-002 -1.653094e+000 -5.788339e-001 6.123189e-001 1.431130e+000 1.154817e+000 2.339882e-001 -4.119058e-001 -4.997484e-001 2.007651e-002 5.650057e-001 5.676891e-001 3.641531e-001 -1.011297e+000
<VARIANCE> 25
 3.204949e+001 7.666571e+000 2.825921e+001 4.829800e+001 5.832065e+001 2.162984e+001 3.661533e+001 2.219633e+001 2.613689e+001 1.979693e+001 1.447164e+001 2.060116e+001 1.118902e+000 5.407923e-001 1.401686e+000 2.078445e+000 2.539435e+000 2.424330e+000 2.453697e+000 1.784113e+000 1.397701e+000 1.063058e+000 1.655379e+000 1.365198e+000 5.664657e-001
<GCONST> 8.896063e+001
<STATE> 4
<MEAN> 25
 -9.914217e+000 2.575296e-001 -3.696171e+000 1.999470e+000 8.327466e-001 6.395007e+000 -1.752070e+000 1.091480e+000 2.970902e+000 2.429918e+000 -3.232276e-001 2.061548e+000 -7.193378e-002 -4.093875e-002 -2.370132e-002 2.183091e-002 4.903545e-002 7.001386e-002 -1.868974e-002 -4.064950e-002 -2.105883e-002 4.349454e-002 6.405003e-002 7.376850e-002 -5.812680e-002
<VARIANCE> 25
 1.970365e+001 4.613134e+000 7.430343e+000 1.407043e+001 2.863957e+001 2.283974e+001 8.809531e+000 1.153934e+001 1.081128e+001 1.516563e+001 1.096122e+001 7.949061e+000 1.557951e-001 1.819260e-001 3.450940e-001 4.487855e-001 6.161311e-001 6.194772e-001 6.901932e-001 8.725342e-001 8.372368e-001 8.726950e-001 8.012951e-001 6.645340e-001 6.046649e-002
<GCONST> 6.512971e+001
<TRANSP> 5
 0.000000e+000 1.000000e+000 0.000000e+000 0.000000e+000 0.000000e+000
 0.000000e+000 7.001551e-001 2.998449e-001 0.000000e+000 0.000000e+000
 0.000000e+000 0.000000e+000 7.623683e-001 2.376318e-001 0.000000e+000
 0.000000e+000 0.000000e+000 0.000000e+000 9.374039e-001 6.259613e-002
 0.000000e+000 0.000000e+000 0.000000e+000 0.000000e+000 0.000000e+000
<ENDHMM>
~h "ih"
<BEGINHMM>
<NUMSTATES> 5
<STATE> 2
<MEAN> 25
 4.225447e+000 -2.794400e+000 1.535042e+001 1.722077e+001 5.863584e+000 -1.229203e+001 -1.038648e+001 -1.456384e+000 1.918448e+000 -4.312357e+000 -4.357696e+000 -5.014538e+000 1.525825e-002 4.628137e-001 5.220253e-001 7.444347e-001 7.499096e-001 -9.574817e-001 -4.256606e-001 9.088265e-001 -3.098879e-001 -1.413595e-001 -4.782303e-001 -3.245951e-001 -2.008429e-001
<VARIANCE> 25
 3.568473e+001 6.404428e+001 1.029630e+002 8.444106e+001 9.459353e+001 1.625578e+002 6.889774e+001 9.953460e+001 7.565289e+001 7.028442e+001 4.659010e+001 5.593698e+001 4.051940e+000 9.772196e+000 1.136699e+001 1.025655e+001 8.093023e+000 1.805727e+001 7.378095e+000 8.960145e+000 6.625909e+000 6.681864e+000 5.017346e+000 5.137625e+000 5.081468e+000
<GCONST> 1.239484e+002
<STATE> 3
<MEAN> 25
 3.248956e+000 -3.293280e+000 1.370886e+001 1.273509e+001 1.503070e+001 -1.339591e+001 -1.743039e+001 3.063640e+000 -5.019061e+000 -3.228304e+000 -3.182215e+000 -8.436262e+000 8.485328e-002 2.960457e-001 -6.895672e-001 -4.599360e-001 -4.382553e-001 5.377356e-001 1.952013e-001 -3.254159e-001 -1.636635e-001 1.602568e-001 1.956973e-001 4.041348e-001 -3.957219e-001
<VARIANCE> 25
 1.592892e+001 3.069144e+001 7.568743e+001 3.904077e+001 1.080765e+002 1.242350e+002 6.105548e+001 6.911440e+001 5.366322e+001 4.201772e+001 4.190965e+001 3.554785e+001 8.696960e-001 1.579102e+000 3.043779e+000 2.689210e+000 2.433351e+000 3.799313e+000 4.440894e+000 4.962867e+000 2.460420e+000 2.268496e+000 2.087873e+000 2.354003e+000 1.313101e+000
<GCONST> 1.043307e+002
<STATE> 4
<MEAN> 25
 -1.566193e+000 1.463149e+000 2.265912e+000 5.892689e+000 6.440344e+000 -4.257275e-001 -5.268385e+000 -2.357527e+000 -2.039121e+000 1.013260e+000 -4.542311e-001 -1.436957e+000 -7.100707e-001 -1.707028e-001 -1.402355e+000 -1.414352e+000 -1.206856e+000 1.198183e+000 1.931226e+000 1.580509e-001 3.690032e-001 4.529138e-001 5.008057e-001 7.626704e-001 -7.996779e-001
<VARIANCE> 25
 7.614695e+001 5.721729e+001 3.759218e+001 3.971825e+001 4.056041e+001 9.076436e+001 3.896592e+001 3.718597e+001 5.318474e+001 4.510839e+001 4.960558e+001 2.429289e+001 2.247188e+000 2.502930e+000 2.386050e+000 2.418890e+000 3.123247e+000 3.867267e+000 4.260668e+000 2.995948e+000 3.295957e+000 2.493387e+000 2.706228e+000 2.490649e+000 1.551602e+000
<GCONST> 1.049738e+002
<TRANSP> 5
 0.000000e+000 1.000000e+000 0.000000e+000 0.000000e+000 0.000000e+000
 0.000000e+000 8.223672e-001 1.776328e-001 0.000000e+000 0.000000e+000
 0.000000e+000 0.000000e+000 8.587835e-001 1.412165e-001 0.000000e+000
 0.000000e+000 0.000000e+000 0.000000e+000 7.657119e-001 2.342881e-001
 0.000000e+000 0.000000e+000 0.000000e+000 0.000000e+000 0.000000e+000
<ENDHMM>
~h "jh"
<BEGINHMM>
<NUMSTATES> 5
<STATE> 2
<MEAN> 25
 -1.197536e+000 3.621542e-001 3.909931e+000 5.464220e+000 4.344032e+000 5.867817e-001 -4.724617e+000 1.491336e+000 2.984845e-001 -1.046537e+000 1.501976e+000 -3.500105e-001 -5.268175e-001 -1.942803e+000 1.252089e+000 -5.690845e-001 -7.891764e-001 -1.292263e-001 -1.547180e-001 -6.366250e-001 1.084192e+000 1.848747e-001 1.421798e-001 4.586864e-001 1.213376e+000
<VARIANCE> 25
 7.492347e+001 1.701965e+002 5.258886e+001 4.133060e+001 5.053907e+001 4.909929e+001 6.980583e+001 2.463012e+001 3.931598e+001 3.995527e+001 2.887754e+001 1.798681e+001 4.830180e+000 2.017191e+001 4.803134e+000 3.732304e+000 6.975020e+000 6.204156e+000 7.951355e+000 2.822398e+000 3.532969e+000 5.960604e+000 2.920638e+000 1.756662e+000 1.003145e+001
<GCONST> 1.132950e+002
<STATE> 3
<MEAN> 25
 5.396230e-001 -1.061750e+001 1.286079e+001 4.628434e+000 4.537859e+000 -4.700820e+000 -8.626242e+000 -1.164911e+001 1.021885e+000 -1.632847e+000 1.369680e+000 -1.695555e+000 1.778431e+000 1.491983e+000 -1.266859e+000 5.983453e-001 9.387327e-001 -6.766953e-001 1.708196e-001 -8.612919e-001 -1.879212e+000 -1.761699e-001 2.018608e-001 -7.772785e-001 3.674718e-001
<VARIANCE> 25
 6.725630e+001 9.513496e+001 4.516225e+001 6.272107e+001 9.299613e+001 1.493876e+002 6.784998e+001 5.857050e+001 5.202876e+001 4.722012e+001 3.613572e+001 7.217979e+001 5.376526e+000 7.148042e+000 6.828669e+000 4.655565e+000 4.788201e+000 1.230388e+001 9.850961e+000 7.952439e+000 4.138811e+000 4.212936e+000 3.880401e+000 4.198339e+000 1.835545e+000
<GCONST> 1.179611e+002
<STATE> 4
<MEAN> 25
 8.797510e+000 3.380039e+000 3.834252e+000 2.024058e+000 3.368095e+000 -4.119750e+000 -5.888799e+000 1.977543e+000 -3.741750e+000 -5.301412e+000 -3.730070e+000 -8.488305e+000 1.954345e-001 1.089442e+000 -4.740792e-001 -4.692965e-001 -1.221490e+000 -5.008368e-001 8.610484e-001 1.212732e+000 2.183490e-001 1.406653e-001 -3.741993e-001 -1.007028e+000 -5.711364e-001
<VARIANCE> 25
 9.491364e+000 4.031531e+001 1.512085e+001 1.915068e+001 3.489878e+001 4.496217e+001 3.243023e+001 8.942924e+001 5.532668e+001 4.340356e+001 3.400350e+001 2.374672e+001 2.993506e-001 1.113040e+000 1.030062e+000 1.706192e+000 1.361632e+000 2.548855e+000 3.051447e+000 2.107171e+000 2.067402e+000 1.624018e+000 2.549010e+000 2.419503e+000 2.909327e-001
<GCONST> 9.173690e+001
<TRANSP> 5
 0.000000e+000 1.000000e+000 0.000000e+000 0.000000e+000 0.000000e+000
 0.000000e+000 8.933254e-001 1.066746e-001 0.000000e+000 0.000000e+000
 0.000000e+000 0.000000e+000 8.595041e-001 1.404959e-001 0.000000e+000
 0.000000e+000 0.000000e+000 0.000000e+000 8.077582e-001 1.922419e-001
 0.000000e+000 0.000000e+000 0.000000e+000 0.000000e+000 0.000000e+000
<ENDHMM>
~h "ng"
<BEGINHMM>
<NUMSTATES> 5
<STATE> 2
<MEAN> 25
 1.383283e+001 2.914342e-001 -7.249923e+000 -4.733804e+000 -1.612911e+000 -4.968760e+000 7.833636e+000 8.735654e+000 -2.021085e+000 -6.800338e+000 -1.123136e+000 3.747334e+000 -3.616559e-001 2.023150e+000 1.207402e+000 4.704849e-001 -4.917082e-001 1.107535e+000 3.289316e-001 3.244171e-001 -4.852652e-001 -2.157969e-001 -3.106016e-001 -6.805586e-001 -1.357186e+000
<VARIANCE> 25
 1.415665e+001 7.217088e+001 5.324880e+001 3.208553e+001 6.484447e+001 6.097464e+001 6.487421e+001 6.303672e+001 7.811443e+001 4.840249e+001 5.212352e+001 3.375508e+001 4.269677e-001 1.903137e+000 2.571573e+000 2.554652e+000 2.750546e+000 4.011306e+000 3.968744e+000 5.012293e+000 3.556211e+000 4.296183e+000 2.949218e+000 3.146892e+000 5.087474e-001
<GCONST> 1.039733e+002
<STATE> 3
<MEAN> 25
 8.582846e+000 1.124175e+001 4.690449e+000 -4.451942e-001 -4.005695e+000 -3.404961e-001 4.435885e-001 2.190442e+000 -3.524839e+000 -3.598492e+000 -4.481910e+000 -4.087188e+000 -7.959954e-001 3.681616e-001 5.082697e-001 9.165312e-001 6.085882e-001 -3.044877e-002 -9.945700e-001 -4.536886e-001 5.058833e-001 4.437355e-001 -1.214994e-001 -3.217055e-001 -8.519250e-001
<VARIANCE> 25
 1.232967e+001 3.760983e+001 2.575060e+001 4.339451e+001 3.219352e+001 3.375290e+001 6.368153e+001 4.737802e+001 6.242331e+001 2.645642e+001 3.595882e+001 1.765738e+001 8.611703e-001 1.369575e+000 1.635635e+000 2.507213e+000 1.878236e+000 2.312747e+000 2.887568e+000 2.025481e+000 2.237604e+000 1.859910e+000 2.295639e+000 1.840083e+000 3.860424e-001
<GCONST> 9.469702e+001
<STATE> 4
<MEAN> 25
 -2.545353e-001 6.138104e+000 6.345000e-001 4.514717e+000 2.574959e-003 2.490176e+000 4.981344e-001 3.224990e+000 3.811405e+000 1.195218e+000 -2.148740e+000 -2.008317e+000 -9.052635e-001 -5.074334e-001 -3.787707e-001 -7.725893e-002 1.720082e-001 4.818616e-001 3.896600e-001 1.124040e-001 1.331602e-001 3.638541e-001 4.336597e-001 2.396574e-001 -5.706183e-001
<VARIANCE> 25
 4.694502e+001 2.604461e+001 2.414470e+001 2.387863e+001 3.517180e+001 5.019335e+001 5.294738e+001 4.389566e+001 3.464244e+001 1.998856e+001 2.926151e+001 2.780608e+001 8.639978e-001 1.472965e+000 1.449142e+000 1.238077e+000 1.306419e+000 1.446365e+000 1.700058e+000 1.515867e+000 1.291582e+000 1.211595e+000 1.476801e+000 1.116885e+000 3.795784e-001
<GCONST> 9.026992e+001
<TRANSP> 5
 0.000000e+000 1.000000e+000 0.000000e+000 0.000000e+000 0.000000e+000
 0.000000e+000 8.252427e-001 1.747573e-001 0.000000e+000 0.000000e+000
 0.000000e+000 0.000000e+000 8.599659e-001 1.400342e-001 0.000000e+000
 0.000000e+000 0.000000e+000 0.000000e+000 8.697683e-001 1.302318e-001
 0.000000e+000 0.000000e+000 0.000000e+000 0.000000e+000 0.000000e+000
<ENDHMM>
~h "ny"
<BEGINHMM>
<NUMSTATES> 5
<STATE> 2
<MEAN> 25
 1.158085e+001 1.552647e+000 8.332935e-001 -2.117058e+000 8.393252e+000 -1.209780e+001 -1.207296e+001 6.292596e+000 -4.486939e+000 -6.086105e+000 -2.963004e+000 -6.443917e+000 1.753658e-001 -3.938994e-001 -8.581045e-001 -9.345625e-001 1.823661e+000 8.458675e-001 -2.829824e-001 1.105114e+000 -1.102126e+000 -5.837717e-001 5.099055e-001 -2.492993e-001 2.447187e-001
<VARIANCE> 25
 5.470792e+000 1.377874e+002 2.076999e+000 1.609146e+001 6.813246e+001 8.104134e+001 4.000192e+001 5.371899e+001 3.605369e+001 1.180741e+002 3.020265e+001 1.015744e+002 3.992790e-001 1.243819e+000 5.124529e-001 2.885048e+000 1.550311e+000 1.872850e+000 1.720394e+000 4.759095e-001 1.227720e+000 5.966452e-001 6.403779e-001 9.867179e-001 5.044377e-001
<GCONST> 8.785780e+001
<STATE> 3
<MEAN> 25
 9.428364e+000 -8.631707e-001 -7.670331e-001 4.265902e+000 1.324824e+001 -5.839437e+000 -1.343578e+001 3.423284e+000 -1.428915e+000 -3.511752e+000 -4.323765e+000 -8.498069e+000 -1.729311e-002 -4.526598e-001 -1.246231e-001 6.664518e-002 1.929499e-001 6.880703e-001 2.717836e-001 -8.615876e-001 4.168927e-002 8.144214e-001 -1.040365e-001 7.261539e-001 1.225012e-001
<VARIANCE> 25
 6.523863e+000 8.786270e+001 2.043830e+001 2.536034e+001 4.161576e+001 3.340378e+001 1.009311e+002 4.679903e+001 1.550761e+001 4.775560e+001 2.691250e+001 6.436701e+001 4.927446e-001 5.331452e+000 3.260217e+000 3.506546e+000 5.263260e+000 4.390936e+000 1.085993e+001 7.794315e+000 1.663472e+000 2.102162e+000 2.262929e+000 4.654224e+000 2.699398e+000
<GCONST> 1.038912e+002
<STATE> 4
<MEAN> 25
 1.038178e+001 -3.250155e-001 -1.519883e+000 3.768685e-001 1.186766e+001 -6.602256e+000 -1.306332e+001 4.111915e+000 -3.984715e+000 -4.009613e+000 -2.730142e+000 -4.363141e+000 8.669370e-002 3.333493e-002 6.358527e-002 -3.859041e-001 -7.475043e-001 -2.234274e-001 7.573323e-002 3.294406e-001 1.671946e-001 -6.922884e-002 -8.709586e-002 4.990346e-002 6.833681e-002
<VARIANCE> 25
 4.837492e+000 8.500339e+001 4.883729e+000 2.873566e+001 1.378415e+002 6.018682e+001 1.082622e+002 6.023518e+001 1.345639e+001 4.194366e+001 1.778580e+001 5.149500e+001 3.395517e-001 2.829744e+000 8.735095e-001 1.123979e+000 1.148939e+001 4.514685e+000 1.112589e+001 5.423976e+000 2.502059e+000 2.862593e+000 2.568370e+000 1.667370e+000 8.804150e-001
<GCONST> 9.915866e+001
<TRANSP> 5
 0.000000e+000 1.000000e+000 0.000000e+000 0.000000e+000 0.000000e+000
 0.000000e+000 6.363004e-001 3.636996e-001 0.000000e+000 0.000000e+000
 0.000000e+000 0.000000e+000 8.309448e-001 1.690552e-001 0.000000e+000
 0.000000e+000 0.000000e+000 0.000000e+000 8.722805e-001 1.277195e-001
 0.000000e+000 0.000000e+000 0.000000e+000 0.000000e+000 0.000000e+000
<ENDHMM>
~h "sp"
<BEGINHMM>
<NUMSTATES> 3
<STATE> 2
~s "silst"
<TRANSP> 3
 0.000000e+000 6.054767e-001 3.945233e-001
 0.000000e+000 9.574792e-001 4.252075e-002
 0.000000e+000 0.000000e+000 0.000000e+000
<ENDHMM>
~h "uw"
<BEGINHMM>
<NUMSTATES> 5
<STATE> 2
<MEAN> 25
 1.156065e+001 7.490717e+000 4.416875e+000 -2.158151e+000 -3.639334e+000 -9.789065e+000 -2.874963e+000 1.232756e+000 -4.995863e+000 -5.534254e+000 -1.981475e+000 -7.334632e+000 1.332603e+000 1.743718e+000 1.696521e+000 -2.244240e-001 -1.460603e+000 -2.655906e+000 2.637634e-001 2.231373e+000 -1.774320e+000 -5.685135e-001 1.869955e-001 -1.646007e+000 5.056486e-001
<VARIANCE> 25
 2.898883e+001 5.882989e+001 6.480887e+001 4.246831e+001 1.742756e+002 1.297946e+002 1.045049e+002 8.191293e+001 9.777645e+001 6.947560e+001 7.377100e+001 5.115755e+001 4.748587e+000 1.042115e+001 6.475034e+000 7.023695e+000 1.005891e+001 1.088861e+001 1.138362e+001 9.703732e+000 1.083521e+001 6.208114e+000 7.640716e+000 6.741247e+000 3.379109e+000
<GCONST> 1.239375e+002
<STATE> 3
<MEAN> 25
 1.215603e+001 8.511539e+000 9.233960e+000 -3.789517e+000 -1.208153e+001 -1.441711e+001 6.894211e-001 5.332914e+000 -8.463806e+000 -4.567198e+000 4.484971e-001 -8.524372e+000 -2.056463e-001 1.465546e-001 -3.013472e-001 -3.803897e-003 1.264680e-001 7.335588e-001 -3.154702e-001 6.913169e-002 7.389802e-001 1.629017e-001 -3.424048e-001 5.314087e-001 -5.103993e-001
<VARIANCE> 25
 1.393365e+001 6.361911e+001 3.767982e+001 4.463630e+001 1.455465e+002 9.123915e+001 7.860744e+001 9.644216e+001 8.219331e+001 6.341968e+001 6.089852e+001 8.185068e+001 1.052234e+000 2.684304e+000 2.615119e+000 2.542645e+000 5.378513e+000 5.192121e+000 4.247908e+000 4.572011e+000 4.479825e+000 3.496065e+000 4.006271e+000 3.313851e+000 1.435040e+000
<GCONST> 1.105893e+002
<STATE> 4
<MEAN> 25
 4.762054e+000 8.703423e+000 4.425396e+000 -6.673341e-001 -4.043231e+000 -6.925576e+000 -6.886366e+000 2.154101e+000 6.089745e-001 -2.291866e+000 -2.717865e+000 -3.189988e+000 -7.706287e-001 -8.794018e-001 -6.752554e-001 1.312077e-001 5.766830e-001 8.509169e-001 2.197950e-001 -1.241882e-001 1.397387e-002 -5.222522e-002 -1.144205e-001 3.068486e-001 -4.184602e-001
<VARIANCE> 25
 6.392885e+001 3.788293e+001 3.071306e+001 3.680304e+001 5.328316e+001 9.052979e+001 5.963681e+001 4.268982e+001 4.254979e+001 5.445169e+001 4.619168e+001 3.488091e+001 1.804638e+000 1.742122e+000 1.309527e+000 1.554701e+000 2.063524e+000 2.305134e+000 2.429482e+000 2.085958e+000 1.815907e+000 1.814709e+000 2.340791e+000 1.676345e+000 9.711658e-001
<GCONST> 9.979496e+001
<TRANSP> 5
 0.000000e+000 1.000000e+000 0.000000e+000 0.000000e+000 0.000000e+000
 0.000000e+000 5.719991e-001 4.280009e-001 0.000000e+000 0.000000e+000
 0.000000e+000 0.000000e+000 8.376105e-001 1.623895e-001 0.000000e+000
 0.000000e+000 0.000000e+000 0.000000e+000 8.596696e-001 1.403304e-001
 0.000000e+000 0.000000e+000 0.000000e+000 0.000000e+000 0.000000e+000
<ENDHMM>
~h "sil"
<BEGINHMM>
<NUMSTATES> 5
<STATE> 2
<MEAN> 25
 -1.270712e+001 1.561229e+000 -4.767054e+000 3.645035e+000 -1.319831e+000 8.073936e+000 3.425302e-001 2.383039e+000 2.049990e+000 1.611866e+000 2.728163e+000 1.354451e+000 -7.644360e-002 8.020985e-003 7.176304e-004 5.720215e-003 -5.549806e-002 -1.388007e-001 -1.387864e-001 -8.131690e-002 -1.845286e-002 5.098726e-002 -1.967216e-003 -4.311341e-002 -1.004568e-001
<VARIANCE> 25
 5.167058e+001 1.382767e+001 2.307010e+001 3.533507e+001 3.813133e+001 3.470793e+001 3.983039e+001 1.576313e+001 2.396059e+001 1.483316e+001 1.813566e+001 8.179448e+000 4.117362e-001 4.581756e-001 6.293642e-001 5.901524e-001 6.767913e-001 1.119802e+000 1.346706e+000 9.830816e-001 1.410231e+000 9.823982e-001 7.204960e-001 7.530707e-001 3.622213e-001
<GCONST> 7.976913e+001
<STATE> 3
~s "silst"
<STATE> 4
<MEAN> 25
 -1.284136e+001 5.716571e-001 -3.323176e+000 2.007696e+000 1.174883e+000 5.867764e+000 9.697077e-001 1.673873e+000 2.786079e+000 2.690592e+000 2.690074e+000 2.179758e+000 1.057872e+000 -8.533553e-002 3.857045e-001 2.874422e-001 9.381215e-002 9.513494e-002 2.905042e-001 -3.173951e-001 1.378324e-001 -3.276117e-001 -2.438716e-001 1.039178e-001 1.132160e+000
<VARIANCE> 25
 4.937846e+001 2.497470e+001 1.602259e+001 3.349681e+001 3.569785e+001 3.362038e+001 3.883361e+001 2.233585e+001 3.379335e+001 2.503806e+001 2.656696e+001 1.147661e+001 3.899544e+000 2.320982e+000 2.050255e+000 2.370215e+000 1.821003e+000 2.770791e+000 3.638359e+000 2.442458e+000 2.569957e+000 2.110801e+000 1.585042e+000 1.616632e+000 3.005807e+000
<GCONST> 9.698540e+001
<TRANSP> 5
 0.000000e+000 1.000000e+000 0.000000e+000 0.000000e+000 0.000000e+000
 0.000000e+000 7.570544e-001 1.747977e-001 6.814785e-002 0.000000e+000
 0.000000e+000 0.000000e+000 9.592468e-001 4.075315e-002 0.000000e+000
 0.000000e+000 1.803079e-001 0.000000e+000 5.021467e-001 3.175455e-001
 0.000000e+000 0.000000e+000 0.000000e+000 0.000000e+000 0.000000e+000
<ENDHMM>
