~o
<STREAMINFO> 1 25
<VECSIZE> 25<NULLD><MFCC_D_N_Z_0><DIAGC>
~h "b"
<BEGINHMM>
<NUMSTATES> 5
<STATE> 2
<MEAN> 25
 8.802527e-03 -4.086936e-02 1.087573e+00 -3.454772e-01 6.932276e-01 3.009969e-01 5.861333e-02 -3.931159e-01 -5.038876e-01 2.543541e-01 1.047353e+00 -3.862757e-01 2.107673e-02 -1.609170e-02 3.328776e-02 -7.468580e-03 9.097737e-03 -2.469493e-02 7.012031e-03 -1.446407e-02 -2.337764e-03 2.010863e-02 1.833845e-02 -1.041492e-02 5.182464e-02
<VARIANCE> 25
 1.612579e+02 7.583044e+01 8.464341e+01 7.895097e+01 7.301801e+01 1.074670e+02 6.569814e+01 5.524052e+01 7.348293e+01 4.467641e+01 5.278221e+01 3.913882e+01 3.372160e+00 3.692005e+00 3.522232e+00 3.118279e+00 2.905658e+00 4.213942e+00 3.297111e+00 2.947694e+00 3.745477e+00 2.823898e+00 2.912237e+00 2.171802e+00 2.733574e+00
<GCONST> 1.119661e+02
<STATE> 3
<MEAN> 25
 1.051751e-01 -9.979010e-02 1.201905e+00 -3.998635e-01 7.247933e-01 1.776361e-01 7.035481e-02 -4.655263e-01 -5.211477e-01 3.290639e-01 1.119739e+00 -4.345108e-01 1.756120e-02 -1.515573e-02 2.866227e-02 -1.014166e-02 1.105228e-02 -2.586108e-02 1.577873e-03 -1.619710e-02 -2.473492e-03 1.703709e-02 1.712234e-02 -1.210567e-02 4.990115e-02
<VARIANCE> 25
 1.618492e+02 7.663908e+01 8.555402e+01 7.904076e+01 7.364644e+01 1.081415e+02 6.628541e+01 5.540690e+01 7.358003e+01 4.493744e+01 5.305838e+01 3.926992e+01 3.407683e+00 3.724624e+00 3.544867e+00 3.132734e+00 2.943273e+00 4.273644e+00 3.322675e+00 2.968091e+00 3.766327e+00 2.849999e+00 2.921997e+00 2.190255e+00 2.761465e+00
<GCONST> 1.121432e+02
<STATE> 4
<MEAN> 25
 4.756085e-01 -1.113336e-01 1.342092e+00 -5.762088e-01 6.384378e-01 -1.334065e-01 -4.593353e-02 -6.001210e-01 -5.567589e-01 4.187096e-01 1.184248e+00 -5.474853e-01 1.720782e-02 -1.496328e-02 2.279673e-02 -1.490773e-02 8.602438e-03 -2.388500e-02 -5.324684e-03 -2.127384e-02 8.843409e-04 1.163186e-02 1.164358e-02 -8.105232e-03 5.008524e-02
<VARIANCE> 25
 1.590044e+02 7.622369e+01 8.668667e+01 7.854066e+01 7.332929e+01 1.143280e+02 6.609213e+01 5.641285e+01 7.463350e+01 4.470555e+01 5.205454e+01 3.964159e+01 3.412849e+00 3.733134e+00 3.573542e+00 3.109096e+00 2.980535e+00 4.400485e+00 3.339906e+00 3.024917e+00 3.821813e+00 2.880082e+00 2.924363e+00 2.203956e+00 2.859761e+00
<GCONST> 1.123300e+02
<TRANSP> 5
 0.000000e+00 1.000000e+00 0.000000e+00 0.000000e+00 0.000000e+00
 0.000000e+00 7.618645e-01 2.381355e-01 0.000000e+00 0.000000e+00
 0.000000e+00 0.000000e+00 7.618649e-01 2.381351e-01 0.000000e+00
 0.000000e+00 0.000000e+00 0.000000e+00 8.924193e-01 1.075807e-01
 0.000000e+00 0.000000e+00 0.000000e+00 0.000000e+00 0.000000e+00
<ENDHMM>
~h "d"
<BEGINHMM>
<NUMSTATES> 5
<STATE> 2
<MEAN> 25
 6.268702e-01 9.835117e-01 2.382034e-01 9.645934e-01 8.941307e-01 7.450376e-03 -1.190436e+00 4.827955e-02 -5.520762e-01 2.631396e-01 6.309277e-02 -8.003812e-02 8.438307e-02 7.236693e-03 1.873429e-02 2.773216e-03 7.847464e-03 -1.819820e-02 -1.064791e-02 -1.082874e-02 -2.699021e-02 -2.643614e-02 5.359892e-03 -6.435383e-03 7.895510e-02
<VARIANCE> 25
 1.319010e+02 7.324339e+01 7.778299e+01 7.115065e+01 7.313853e+01 1.137650e+02 6.951720e+01 5.555447e+01 5.695507e+01 4.385131e+01 5.153178e+01 3.262068e+01 2.696296e+00 4.438366e+00 2.998473e+00 2.716028e+00 3.546514e+00 4.201185e+00 3.351849e+00 3.064109e+00 3.067704e+00 2.986327e+00 3.099280e+00 1.987097e+00 3.046156e+00
<GCONST> 1.110339e+02
<STATE> 3
<MEAN> 25
 9.783073e-01 1.015713e+00 3.190023e-01 9.544085e-01 9.369522e-01 -8.712774e-02 -1.231147e+00 1.836191e-02 -6.856514e-01 1.545969e-01 9.055667e-02 -1.040256e-01 8.247601e-02 7.935155e-03 1.840799e-02 -4.404484e-03 8.947036e-03 -2.102362e-02 -8.587649e-03 -9.723885e-03 -2.791722e-02 -2.681699e-02 5.220593e-03 -5.664513e-03 8.331455e-02
<VARIANCE> 25
 1.312425e+02 7.561510e+01 7.758401e+01 7.184440e+01 7.347035e+01 1.135207e+02 6.941525e+01 5.617946e+01 5.817839e+01 4.456754e+01 5.199947e+01 3.345018e+01 2.730294e+00 4.616199e+00 3.064990e+00 2.774255e+00 3.622710e+00 4.249714e+00 3.374530e+00 3.081670e+00 3.136333e+00 3.034492e+00 3.129975e+00 2.023603e+00 3.125772e+00
<GCONST> 1.113837e+02
<STATE> 4
<MEAN> 25
 1.600504e+00 1.005941e+00 4.932430e-01 8.674669e-01 1.066482e+00 -3.653863e-01 -1.305726e+00 1.164806e-01 -1.024736e+00 -3.840359e-02 8.486841e-02 -1.255692e-01 7.406451e-02 3.765995e-03 1.576097e-02 -1.830255e-02 1.378453e-02 -2.790337e-02 1.155576e-03 5.702445e-04 -3.321754e-02 -1.960176e-02 7.015173e-03 1.146535e-03 8.516367e-02
<VARIANCE> 25
 1.249670e+02 7.589558e+01 7.579044e+01 7.293476e+01 7.213339e+01 1.201750e+02 6.875122e+01 5.759918e+01 6.272736e+01 4.585567e+01 5.081411e+01 3.479011e+01 2.634496e+00 4.568668e+00 3.070165e+00 2.846833e+00 3.673665e+00 4.380066e+00 3.335856e+00 3.137461e+00 3.287332e+00 3.037316e+00 3.098645e+00 2.087784e+00 3.160154e+00
<GCONST> 1.116161e+02
<TRANSP> 5
 0.000000e+00 1.000000e+00 0.000000e+00 0.000000e+00 0.000000e+00
 0.000000e+00 7.674230e-01 2.325770e-01 0.000000e+00 0.000000e+00
 0.000000e+00 0.000000e+00 7.674233e-01 2.325767e-01 0.000000e+00
 0.000000e+00 0.000000e+00 0.000000e+00 8.985160e-01 1.014840e-01
 0.000000e+00 0.000000e+00 0.000000e+00 0.000000e+00 0.000000e+00
<ENDHMM>
~h "g"
<BEGINHMM>
<NUMSTATES> 5
<STATE> 2
<MEAN> 25
 -5.350875e-01 -6.780561e-01 2.665458e+00 2.854614e+00 2.810188e+00 -2.092988e-01 -2.402536e+00 -8.290246e-01 -6.927846e-02 8.960456e-01 -7.158236e-03 -7.571546e-01 -6.042738e-02 1.041398e-02 -1.371460e-02 1.188994e-02 4.052427e-02 2.938771e-02 -4.677013e-03 1.769136e-02 -9.690693e-03 6.071618e-03 9.238767e-03 -1.766224e-03 -6.475197e-02
<VARIANCE> 25
 9.947157e+01 6.564755e+01 9.992168e+01 8.204941e+01 9.819940e+01 1.155623e+02 8.996821e+01 5.884284e+01 4.632893e+01 4.154592e+01 4.417842e+01 4.005515e+01 2.985769e+00 4.728271e+00 3.070228e+00 3.416663e+00 3.881354e+00 4.804285e+00 3.929500e+00 3.174438e+00 2.691196e+00 2.551777e+00 2.701118e+00 2.048794e+00 3.704099e+00
<GCONST> 1.120893e+02
<STATE> 3
<MEAN> 25
 -8.146332e-01 -6.294449e-01 2.601943e+00 2.890963e+00 2.950303e+00 -6.153622e-02 -2.400068e+00 -7.308643e-01 -9.645905e-02 9.184915e-01 2.746014e-02 -7.446659e-01 -6.583638e-02 9.975275e-03 -2.172360e-02 1.171748e-03 3.263199e-02 3.535008e-02 2.014676e-03 2.426207e-02 -7.796683e-03 6.300081e-03 1.036427e-02 6.875217e-03 -7.236725e-02
<VARIANCE> 25
 9.920827e+01 6.390692e+01 9.792544e+01 8.084473e+01 9.663882e+01 1.142247e+02 9.001941e+01 5.745383e+01 4.551849e+01 4.087363e+01 4.426747e+01 3.935312e+01 2.917569e+00 4.543830e+00 3.005476e+00 3.313534e+00 3.788437e+00 4.626549e+00 3.883892e+00 3.058285e+00 2.643092e+00 2.481272e+00 2.639322e+00 2.006793e+00 3.592458e+00
<GCONST> 1.115779e+02
<STATE> 4
<MEAN> 25
 -1.234212e+00 -5.153592e-01 2.452165e+00 2.825485e+00 2.949109e+00 2.305528e-01 -2.213800e+00 -3.450393e-01 -1.208866e-01 8.678821e-01 7.687080e-02 -5.948123e-01 -6.438324e-02 8.513818e-03 -3.106516e-02 -1.237537e-02 1.514074e-02 4.443681e-02 1.723661e-02 2.979242e-02 -2.730388e-03 6.178488e-03 1.022521e-02 1.779148e-02 -7.494581e-02
<VARIANCE> 25
 9.385382e+01 5.910070e+01 9.591572e+01 7.556293e+01 8.891651e+01 1.221183e+02 8.629516e+01 5.472272e+01 4.605388e+01 3.971924e+01 4.282452e+01 3.772977e+01 2.671542e+00 4.028717e+00 2.886539e+00 3.011372e+00 3.502701e+00 4.410702e+00 3.680629e+00 2.813758e+00 2.619352e+00 2.327158e+00 2.496542e+00 1.954903e+00 3.325304e+00
<GCONST> 1.103164e+02
<TRANSP> 5
 0.000000e+00 1.000000e+00 0.000000e+00 0.000000e+00 0.000000e+00
 0.000000e+00 7.669145e-01 2.330855e-01 0.000000e+00 0.000000e+00
 0.000000e+00 0.000000e+00 7.669159e-01 2.330842e-01 0.000000e+00
 0.000000e+00 0.000000e+00 0.000000e+00 8.986915e-01 1.013084e-01
 0.000000e+00 0.000000e+00 0.000000e+00 0.000000e+00 0.000000e+00
<ENDHMM>
~h "k"
<BEGINHMM>
<NUMSTATES> 5
<STATE> 2
<MEAN> 25
 7.273616e-01 5.436997e-01 5.433987e-02 -4.814903e-01 -1.504473e+00 -1.656678e+00 4.130663e-02 -1.289509e-01 -2.728936e-01 -2.138004e-01 -7.971433e-02 9.358419e-02 -8.324337e-03 9.540824e-03 8.343047e-03 8.246794e-03 -3.832498e-03 9.956228e-03 -1.455749e-02 -1.261708e-03 -6.891691e-03 3.320187e-03 -8.554695e-03 -9.274401e-03 -2.122479e-02
<VARIANCE> 25
 1.155531e+02 7.612077e+01 6.691596e+01 5.978077e+01 1.108001e+02 1.301128e+02 7.393159e+01 5.787651e+01 5.104312e+01 4.980239e+01 5.044398e+01 4.045060e+01 3.865300e+00 4.634519e+00 3.468325e+00 3.413235e+00 4.812754e+00 6.412330e+00 3.837779e+00 3.686050e+00 3.198926e+00 3.173957e+00 3.295590e+00 2.766009e+00 4.275061e+00
<GCONST> 1.141388e+02
<STATE> 3
<MEAN> 25
 6.897147e-01 5.696491e-01 8.872777e-02 -4.390963e-01 -1.506875e+00 -1.589489e+00 -3.025525e-02 -1.345383e-01 -2.963070e-01 -2.004839e-01 -1.151195e-01 4.876518e-02 -1.012077e-02 7.374647e-03 7.014364e-03 9.801274e-03 1.977938e-03 1.506556e-02 -1.695154e-02 -2.801706e-03 -6.107143e-03 4.386112e-03 -1.035427e-02 -1.265637e-02 -2.200161e-02
<VARIANCE> 25
 1.152534e+02 7.613654e+01 6.666930e+01 5.956938e+01 1.105188e+02 1.297764e+02 7.330622e+01 5.762780e+01 5.121239e+01 4.943633e+01 5.023822e+01 4.051260e+01 3.804941e+00 4.561825e+00 3.436058e+00 3.387634e+00 4.758263e+00 6.272393e+00 3.804748e+00 3.643420e+00 3.197380e+00 3.143576e+00 3.275306e+00 2.741594e+00 4.174540e+00
<GCONST> 1.139535e+02
<STATE> 4
<MEAN> 25
 6.636310e-01 4.982525e-01 1.169861e-01 -3.906542e-01 -1.405029e+00 -1.496179e+00 -1.867913e-01 -2.569998e-01 -3.227112e-01 -1.831771e-01 -1.795475e-01 -3.896539e-02 -1.143617e-02 -2.180911e-03 2.850277e-03 1.222647e-02 1.040250e-02 2.378246e-02 -1.609743e-02 1.085672e-03 -1.592074e-03 3.141129e-03 -1.017809e-02 -1.469372e-02 -1.909484e-02
<VARIANCE> 25
 1.102188e+02 7.318684e+01 6.552326e+01 5.873209e+01 1.057626e+02 1.366817e+02 7.299401e+01 5.835620e+01 5.209932e+01 4.808624e+01 4.888415e+01 4.039077e+01 3.508176e+00 4.173153e+00 3.296628e+00 3.250039e+00 4.452982e+00 6.033891e+00 3.698135e+00 3.589249e+00 3.132932e+00 3.000579e+00 3.180660e+00 2.635683e+00 3.885947e+00
<GCONST> 1.132042e+02
<TRANSP> 5
 0.000000e+00 1.000000e+00 0.000000e+00 0.000000e+00 0.000000e+00
 0.000000e+00 7.672243e-01 2.327757e-01 0.000000e+00 0.000000e+00
 0.000000e+00 0.000000e+00 7.672230e-01 2.327771e-01 0.000000e+00
 0.000000e+00 0.000000e+00 0.000000e+00 8.984500e-01 1.015500e-01
 0.000000e+00 0.000000e+00 0.000000e+00 0.000000e+00 0.000000e+00
<ENDHMM>
~h "l"
<BEGINHMM>
<NUMSTATES> 5
<STATE> 2
<MEAN> 25
 2.273841e+00 -2.896375e-01 -1.217346e-01 -9.975605e-01 -6.305177e-01 -1.083442e+00 6.449395e-01 3.807895e-01 -2.302328e-01 -1.065541e+00 -5.576783e-01 -1.639090e-01 -1.047272e-02 -1.437732e-03 -6.654141e-03 8.007202e-03 2.907351e-02 1.445276e-02 -1.864694e-02 1.397179e-03 1.305455e-02 -2.117060e-03 -1.286312e-02 6.519711e-04 -1.124615e-02
<VARIANCE> 25
 1.357085e+02 7.072562e+01 8.325681e+01 7.141330e+01 9.688836e+01 1.180962e+02 8.228195e+01 6.079799e+01 6.627774e+01 5.030607e+01 5.698222e+01 4.752457e+01 3.253609e+00 3.774487e+00 3.375245e+00 3.138978e+00 3.794794e+00 4.745597e+00 3.909812e+00 3.369128e+00 3.568177e+00 2.973271e+00 3.121507e+00 2.581520e+00 3.010677e+00
<GCONST> 1.135734e+02
<STATE> 3
<MEAN> 25
 2.205054e+00 -2.867073e-01 -1.460225e-01 -9.589310e-01 -4.977716e-01 -1.004065e+00 5.653553e-01 3.786507e-01 -1.689599e-01 -1.064440e+00 -6.075000e-01 -1.554313e-01 -1.986764e-02 2.484332e-03 -8.120675e-03 1.129370e-02 3.027971e-02 2.005929e-02 -2.009259e-02 -1.928157e-04 1.372965e-02 1.724802e-03 -1.056542e-02 2.203618e-03 -2.471137e-02
<VARIANCE> 25
 1.357315e+02 7.007165e+01 8.331094e+01 7.183264e+01 9.636752e+01 1.174862e+02 8.200919e+01 6.026250e+01 6.577007e+01 5.020012e+01 5.663235e+01 4.779099e+01 3.192324e+00 3.723451e+00 3.351233e+00 3.111027e+00 3.753474e+00 4.692372e+00 3.895595e+00 3.352728e+00 3.528119e+00 2.962079e+00 3.089960e+00 2.577732e+00 2.973849e+00
<GCONST> 1.134192e+02
<STATE> 4
<MEAN> 25
 1.874177e+00 -2.754206e-01 -1.491440e-01 -9.145547e-01 -2.527651e-01 -8.285375e-01 5.390712e-01 3.763503e-01 -1.179673e-01 -9.975559e-01 -5.750341e-01 -9.287424e-02 -3.443231e-02 8.798943e-03 -8.521764e-03 1.719974e-02 3.144326e-02 3.184988e-02 -2.089993e-02 -2.124387e-03 1.661368e-02 9.059426e-03 -8.463533e-03 5.948786e-03 -4.575389e-02
<VARIANCE> 25
 1.324693e+02 6.598505e+01 8.224255e+01 7.100285e+01 9.171413e+01 1.235196e+02 7.971049e+01 5.945816e+01 6.541216e+01 4.926885e+01 5.474067e+01 4.663320e+01 3.010616e+00 3.467440e+00 3.227940e+00 2.964562e+00 3.543356e+00 4.628249e+00 3.767863e+00 3.330625e+00 3.432224e+00 2.888662e+00 2.986355e+00 2.501165e+00 2.865450e+00
<GCONST> 1.127054e+02
<TRANSP> 5
 0.000000e+00 1.000000e+00 0.000000e+00 0.000000e+00 0.000000e+00
 0.000000e+00 7.643279e-01 2.356721e-01 0.000000e+00 0.000000e+00
 0.000000e+00 0.000000e+00 7.643299e-01 2.356701e-01 0.000000e+00
 0.000000e+00 0.000000e+00 0.000000e+00 8.951968e-01 1.048032e-01
 0.000000e+00 0.000000e+00 0.000000e+00 0.000000e+00 0.000000e+00
<ENDHMM>
~h "m"
<BEGINHMM>
<NUMSTATES> 5
<STATE> 2
<MEAN> 25
 9.540001e-01 9.225479e-01 -9.372345e-01 1.858507e-01 2.928131e-01 8.995011e-01 8.150426e-01 7.216535e-01 -1.376676e-01 -2.414735e-01 -1.133400e+00 -5.413141e-03 -1.574565e-02 -3.110836e-03 1.499184e-02 -2.270720e-03 -1.534350e-02 4.774831e-03 9.855153e-03 -1.014957e-03 -4.221790e-03 1.064704e-02 1.170294e-02 -2.066266e-03 -9.355932e-03
<VARIANCE> 25
 1.204951e+02 6.602617e+01 6.070966e+01 6.302883e+01 7.911612e+01 1.118156e+02 7.089012e+01 5.371717e+01 5.876286e+01 4.660213e+01 5.331618e+01 4.327778e+01 2.798872e+00 3.429445e+00 2.814238e+00 2.701842e+00 3.166202e+00 4.139197e+00 3.285414e+00 2.985851e+00 2.794473e+00 2.581477e+00 2.919883e+00 2.285207e+00 2.765625e+00
<GCONST> 1.102079e+02
<STATE> 3
<MEAN> 25
 8.935842e-01 8.982915e-01 -8.795964e-01 1.657821e-01 2.130857e-01 9.017190e-01 8.607708e-01 7.239073e-01 -1.566821e-01 -2.004102e-01 -1.080842e+00 -1.126334e-02 -1.529603e-02 -6.573930e-03 1.775076e-02 -3.211757e-03 -1.726507e-02 5.026690e-04 1.085994e-02 1.019527e-03 -2.979678e-03 8.975717e-03 1.551534e-02 -1.956266e-03 -4.825605e-03
<VARIANCE> 25
 1.202146e+02 6.637759e+01 6.051628e+01 6.237115e+01 7.919090e+01 1.117919e+02 7.105078e+01 5.377837e+01 5.849051e+01 4.643127e+01 5.336707e+01 4.313499e+01 2.837468e+00 3.480363e+00 2.840173e+00 2.713730e+00 3.203160e+00 4.208659e+00 3.292242e+00 2.993124e+00 2.805533e+00 2.595740e+00 2.933215e+00 2.290539e+00 2.816932e+00
<GCONST> 1.103001e+02
<STATE> 4
<MEAN> 25
 7.577895e-01 7.940964e-01 -7.706823e-01 1.353992e-01 2.216230e-02 8.446705e-01 1.015766e+00 7.961081e-01 -2.353745e-01 -1.586359e-01 -8.958133e-01 -1.386039e-03 -1.680522e-02 -1.115145e-02 1.593109e-02 -4.737850e-03 -1.946796e-02 -6.203834e-03 6.274514e-03 -2.160566e-04 3.797305e-03 8.392693e-03 1.770991e-02 6.425036e-04 -1.759561e-03
<VARIANCE> 25
 1.143542e+02 6.455760e+01 5.890027e+01 6.025191e+01 7.931377e+01 1.213875e+02 7.252403e+01 5.437847e+01 5.928624e+01 4.572068e+01 5.082824e+01 4.219861e+01 2.747651e+00 3.372242e+00 2.784583e+00 2.646057e+00 3.199272e+00 4.396852e+00 3.268814e+00 3.022528e+00 2.775836e+00 2.572255e+00 2.888422e+00 2.254843e+00 2.836191e+00
<GCONST> 1.100960e+02
<TRANSP> 5
 0.000000e+00 1.000000e+00 0.000000e+00 0.000000e+00 0.000000e+00
 0.000000e+00 7.667302e-01 2.332698e-01 0.000000e+00 0.000000e+00
 0.000000e+00 0.000000e+00 7.667306e-01 2.332694e-01 0.000000e+00
 0.000000e+00 0.000000e+00 0.000000e+00 8.986529e-01 1.013471e-01
 0.000000e+00 0.000000e+00 0.000000e+00 0.000000e+00 0.000000e+00
<ENDHMM>
~h "n"
<BEGINHMM>
<NUMSTATES> 5
<STATE> 2
<MEAN> 25
 1.282931e-01 6.589935e-01 -8.124564e-01 6.271824e-01 8.745019e-01 5.658836e-01 5.620908e-01 -3.807923e-01 -5.444031e-01 -7.633636e-02 -2.078482e-01 6.874721e-01 -1.768869e-02 -1.694357e-02 1.051470e-02 1.044212e-02 -2.226675e-02 6.716883e-03 9.290202e-03 5.454300e-03 1.145887e-02 -2.209280e-03 -4.062579e-03 3.041316e-03 -1.269657e-02
<VARIANCE> 25
 1.245756e+02 7.097289e+01 6.186080e+01 6.401323e+01 7.357543e+01 1.167175e+02 6.738448e+01 5.200500e+01 5.583595e+01 4.510936e+01 4.899274e+01 3.431229e+01 3.042526e+00 3.796472e+00 2.947001e+00 3.046927e+00 3.327805e+00 4.839406e+00 3.185032e+00 3.037256e+00 3.086946e+00 2.952027e+00 2.958306e+00 2.286266e+00 3.217894e+00
<GCONST> 1.107768e+02
<STATE> 3
<MEAN> 25
 7.271465e-02 5.856200e-01 -7.634991e-01 6.613103e-01 7.800068e-01 5.660399e-01 6.018289e-01 -3.514504e-01 -4.974225e-01 -9.337539e-02 -2.278940e-01 6.897561e-01 -1.058880e-02 -1.896230e-02 1.353305e-02 6.636484e-03 -2.167513e-02 -1.730458e-03 8.497659e-03 3.985668e-03 1.223555e-02 -5.470715e-03 -3.572403e-03 6.912892e-04 -3.629243e-04
<VARIANCE> 25
 1.249632e+02 7.170682e+01 6.332216e+01 6.378975e+01 7.457634e+01 1.174711e+02 6.788890e+01 5.233577e+01 5.563355e+01 4.511758e+01 4.884689e+01 3.413968e+01 3.070867e+00 3.825958e+00 2.986557e+00 3.042662e+00 3.344615e+00 4.834083e+00 3.203555e+00 3.066677e+00 3.087818e+00 2.937262e+00 2.975370e+00 2.265206e+00 3.222300e+00
<GCONST> 1.108737e+02
<STATE> 4
<MEAN> 25
 1.619251e-01 4.125748e-01 -6.889110e-01 6.005194e-01 6.323112e-01 3.473036e-01 6.684985e-01 -3.558901e-01 -3.713461e-01 -1.041974e-01 -3.065486e-01 6.790211e-01 3.839647e-04 -1.723499e-02 1.341390e-02 -3.923935e-03 -1.941268e-02 -1.537091e-02 7.698494e-03 4.235719e-03 1.229769e-02 -6.558565e-03 -2.356696e-03 -4.400484e-03 1.592482e-02
<VARIANCE> 25
 1.200424e+02 7.054568e+01 6.612044e+01 6.328893e+01 7.589326e+01 1.293880e+02 6.987939e+01 5.444179e+01 5.551938e+01 4.431266e+01 4.799701e+01 3.394487e+01 2.973179e+00 3.707297e+00 3.006394e+00 2.956824e+00 3.321963e+00 4.955517e+00 3.217240e+00 3.167678e+00 3.042009e+00 2.861490e+00 2.996994e+00 2.212780e+00 3.177819e+00
<GCONST> 1.108894e+02
<TRANSP> 5
 0.000000e+00 1.000000e+00 0.000000e+00 0.000000e+00 0.000000e+00
 0.000000e+00 7.664362e-01 2.335638e-01 0.000000e+00 0.000000e+00
 0.000000e+00 0.000000e+00 7.664359e-01 2.335641e-01 0.000000e+00
 0.000000e+00 0.000000e+00 0.000000e+00 8.978934e-01 1.021066e-01
 0.000000e+00 0.000000e+00 0.000000e+00 0.000000e+00 0.000000e+00
<ENDHMM>
~h "p"
<BEGINHMM>
<NUMSTATES> 5
<STATE> 2
<MEAN> 25
 -5.708769e-01 6.683181e-01 -6.180961e-02 -1.829633e-01 -5.801986e-01 -1.710554e-02 -3.356085e-02 -1.190562e-02 8.711953e-02 4.720952e-01 2.901926e-01 2.691571e-01 2.078224e-02 -1.739737e-02 2.580003e-02 5.092809e-03 -2.559618e-02 -2.876391e-02 -3.922853e-03 -5.941688e-03 9.480990e-03 -1.286987e-02 -6.769869e-04 -1.037517e-02 4.597051e-02
<VARIANCE> 25
 1.318583e+02 7.221334e+01 7.012942e+01 5.984099e+01 9.655309e+01 1.222451e+02 6.768172e+01 5.081111e+01 5.520516e+01 4.338536e+01 5.535862e+01 3.945603e+01 4.020312e+00 3.842293e+00 3.096767e+00 2.755852e+00 4.018359e+00 5.481393e+00 3.489106e+00 3.171190e+00 3.141940e+00 2.499194e+00 3.051623e+00 2.176891e+00 3.698799e+00
<GCONST> 1.120795e+02
<STATE> 3
<MEAN> 25
 -5.084642e-01 5.881557e-01 6.052341e-02 -1.751990e-01 -6.813350e-01 -1.297149e-01 -6.495453e-02 -3.390915e-02 1.399168e-01 4.051879e-01 2.953362e-01 2.232256e-01 1.378498e-02 -1.750796e-02 2.965109e-02 5.122600e-03 -2.289309e-02 -2.429469e-02 -7.323820e-03 -2.519093e-03 1.252867e-02 -1.559744e-02 7.599851e-04 -1.145321e-02 4.083692e-02
<VARIANCE> 25
 1.317301e+02 7.372723e+01 7.213763e+01 6.053107e+01 9.875208e+01 1.236446e+02 6.905270e+01 5.158679e+01 5.583097e+01 4.345887e+01 5.588320e+01 3.948169e+01 4.060662e+00 3.892835e+00 3.177488e+00 2.781311e+00 4.059363e+00 5.577282e+00 3.537591e+00 3.201657e+00 3.156218e+00 2.529986e+00 3.085422e+00 2.191622e+00 3.674387e+00
<GCONST> 1.123678e+02
<STATE> 4
<MEAN> 25
 -2.935897e-01 4.100830e-01 2.859916e-01 -2.415413e-01 -8.408716e-01 -3.449323e-01 -1.823815e-01 -1.118001e-01 2.701734e-01 1.999993e-01 1.962516e-01 1.884400e-01 1.241233e-02 -1.594564e-02 3.242139e-02 6.085744e-03 -2.368093e-02 -1.497236e-02 -1.188300e-02 -3.010119e-03 9.515809e-03 -1.600677e-02 5.985559e-04 -1.058358e-02 3.143317e-02
<VARIANCE> 25
 1.287447e+02 7.430827e+01 7.424036e+01 6.068184e+01 9.917881e+01 1.343218e+02 6.930067e+01 5.334645e+01 5.768263e+01 4.427158e+01 5.545893e+01 3.887918e+01 4.002364e+00 3.817134e+00 3.211223e+00 2.745894e+00 4.015109e+00 5.774814e+00 3.568537e+00 3.297543e+00 3.213462e+00 2.574240e+00 3.110247e+00 2.211863e+00 3.527591e+00
<GCONST> 1.125739e+02
<TRANSP> 5
 0.000000e+00 1.000000e+00 0.000000e+00 0.000000e+00 0.000000e+00
 0.000000e+00 7.651373e-01 2.348627e-01 0.000000e+00 0.000000e+00
 0.000000e+00 0.000000e+00 7.651381e-01 2.348620e-01 0.000000e+00
 0.000000e+00 0.000000e+00 0.000000e+00 8.963081e-01 1.036920e-01
 0.000000e+00 0.000000e+00 0.000000e+00 0.000000e+00 0.000000e+00
<ENDHMM>
~h "r"
<BEGINHMM>
<NUMSTATES> 5
<STATE> 2
<MEAN> 25
 2.168918e+00 -4.938360e-01 -1.250408e+00 -7.712036e-01 4.806073e-01 -8.066991e-01 -3.464331e-01 -9.325042e-01 1.413939e-01 -2.838550e-01 -5.949411e-01 3.187601e-01 -4.726121e-02 4.619149e-02 2.469477e-02 3.475621e-03 2.409386e-02 1.058329e-02 -2.329537e-02 1.460798e-02 -9.480750e-03 2.535668e-02 -7.377365e-03 -1.356905e-02 -6.025355e-02
<VARIANCE> 25
 1.342632e+02 7.740766e+01 7.600649e+01 6.242911e+01 8.482686e+01 1.199194e+02 7.737384e+01 5.770349e+01 5.191799e+01 5.199719e+01 5.722718e+01 4.576163e+01 2.965333e+00 3.820699e+00 3.235748e+00 2.584207e+00 3.513511e+00 4.569413e+00 3.555932e+00 3.203977e+00 2.950549e+00 3.001046e+00 2.810035e+00 2.514648e+00 2.415828e+00
<GCONST> 1.118418e+02
<STATE> 3
<MEAN> 25
 1.944201e+00 -2.909655e-01 -1.127277e+00 -7.324448e-01 5.741488e-01 -7.559716e-01 -4.510484e-01 -8.506098e-01 1.106543e-01 -1.735487e-01 -6.240990e-01 2.604823e-01 -5.248895e-02 4.872741e-02 2.636520e-02 6.135501e-03 1.847316e-02 8.910296e-03 -2.177737e-02 2.270683e-02 -7.756350e-03 2.580686e-02 -8.175083e-03 -1.556047e-02 -6.759267e-02
<VARIANCE> 25
 1.345918e+02 7.634052e+01 7.525713e+01 6.317382e+01 8.461126e+01 1.209120e+02 7.590301e+01 5.749809e+01 5.149648e+01 5.185324e+01 5.704382e+01 4.541975e+01 2.981891e+00 3.786063e+00 3.213631e+00 2.598120e+00 3.513329e+00 4.616089e+00 3.508567e+00 3.186952e+00 2.930960e+00 2.967364e+00 2.814190e+00 2.500568e+00 2.400259e+00
<GCONST> 1.117515e+02
<STATE> 4
<MEAN> 25
 1.395847e+00 2.497977e-02 -7.151377e-01 -4.998590e-01 6.301745e-01 -7.699760e-01 -6.379688e-01 -6.929165e-01 1.150557e-01 6.666088e-02 -5.611749e-01 1.223035e-01 -5.488119e-02 4.373498e-02 2.978595e-02 1.412361e-02 4.193500e-03 8.713789e-03 -1.975162e-02 2.964330e-02 -1.734985e-03 2.167195e-02 -7.310891e-03 -1.525965e-02 -7.100043e-02
<VARIANCE> 25
 1.280114e+02 7.120914e+01 7.240890e+01 6.357307e+01 8.335810e+01 1.341222e+02 7.555085e+01 5.862883e+01 5.106293e+01 5.149922e+01 5.402768e+01 4.418383e+01 2.885164e+00 3.519323e+00 3.085614e+00 2.571559e+00 3.451356e+00 4.730347e+00 3.402634e+00 3.236423e+00 2.849962e+00 2.874602e+00 2.766299e+00 2.408515e+00 2.346790e+00
<GCONST> 1.113033e+02
<TRANSP> 5
 0.000000e+00 1.000000e+00 0.000000e+00 0.000000e+00 0.000000e+00
 0.000000e+00 7.660585e-01 2.339415e-01 0.000000e+00 0.000000e+00
 0.000000e+00 0.000000e+00 7.660574e-01 2.339426e-01 0.000000e+00
 0.000000e+00 0.000000e+00 0.000000e+00 8.981549e-01 1.018451e-01
 0.000000e+00 0.000000e+00 0.000000e+00 0.000000e+00 0.000000e+00
<ENDHMM>
~h "s"
<BEGINHMM>
<NUMSTATES> 5
<STATE> 2
<MEAN> 25
 -1.260517e+00 -1.320633e+00 1.435698e+00 -9.162067e-01 -1.900341e-01 2.027731e-01 -2.528465e-01 -6.947044e-01 8.599259e-01 8.007926e-02 6.421368e-01 5.993776e-02 1.416905e-02 1.157976e-02 -7.277842e-03 1.383330e-03 -4.403400e-03 -9.821449e-03 7.778513e-03 3.299330e-03 -4.708414e-03 -4.227265e-03 -7.858186e-03 5.483031e-03 -2.933652e-03
<VARIANCE> 25
 1.500789e+02 7.860175e+01 9.701624e+01 8.201601e+01 8.499318e+01 1.186246e+02 7.634819e+01 6.111146e+01 6.452532e+01 4.088683e+01 5.409459e+01 3.993012e+01 4.011157e+00 3.396076e+00 3.912219e+00 3.082608e+00 3.141727e+00 4.280451e+00 3.597727e+00 3.255926e+00 3.318138e+00 2.456469e+00 2.909253e+00 2.187374e+00 2.642992e+00
<GCONST> 1.126084e+02
<STATE> 3
<MEAN> 25
 -1.180680e+00 -1.264528e+00 1.404852e+00 -9.079664e-01 -1.982227e-01 1.413880e-01 -2.245767e-01 -6.804708e-01 8.218457e-01 6.560978e-02 6.031164e-01 7.947142e-02 2.041500e-02 1.211715e-02 -7.516553e-03 9.349964e-04 -9.618839e-04 -1.553024e-02 7.989522e-03 1.317037e-03 -1.146284e-02 -3.339306e-03 -7.678651e-03 4.519388e-03 3.136200e-03
<VARIANCE> 25
 1.500951e+02 7.858217e+01 9.647820e+01 8.138891e+01 8.432307e+01 1.184251e+02 7.667316e+01 6.157523e+01 6.447789e+01 4.106134e+01 5.413531e+01 3.988923e+01 4.033072e+00 3.431747e+00 3.906011e+00 3.078398e+00 3.128555e+00 4.277933e+00 3.618713e+00 3.282044e+00 3.346328e+00 2.465601e+00 2.926976e+00 2.190388e+00 2.652415e+00
<GCONST> 1.126456e+02
<STATE> 4
<MEAN> 25
 -9.409069e-01 -1.149896e+00 1.346800e+00 -9.667714e-01 -1.432951e-01 -6.864379e-02 -2.540370e-01 -7.215925e-01 6.827857e-01 6.898947e-02 4.924704e-01 6.456272e-02 3.277804e-02 1.574451e-02 -7.473806e-03 5.394128e-03 2.642285e-03 -2.324026e-02 4.418693e-03 2.153057e-03 -2.039452e-02 1.896607e-04 -8.707847e-03 5.142787e-05 8.639939e-03
<VARIANCE> 25
 1.477480e+02 7.564825e+01 9.496654e+01 7.943768e+01 8.265138e+01 1.247753e+02 7.620746e+01 6.290881e+01 6.550828e+01 4.182422e+01 5.266396e+01 3.977523e+01 3.939856e+00 3.362511e+00 3.844256e+00 3.029270e+00 3.070257e+00 4.312306e+00 3.592651e+00 3.354643e+00 3.415063e+00 2.494387e+00 2.930081e+00 2.182950e+00 2.655253e+00
<GCONST> 1.125618e+02
<TRANSP> 5
 0.000000e+00 1.000000e+00 0.000000e+00 0.000000e+00 0.000000e+00
 0.000000e+00 7.653681e-01 2.346319e-01 0.000000e+00 0.000000e+00
 0.000000e+00 0.000000e+00 7.653691e-01 2.346308e-01 0.000000e+00
 0.000000e+00 0.000000e+00 0.000000e+00 8.966159e-01 1.033840e-01
 0.000000e+00 0.000000e+00 0.000000e+00 0.000000e+00 0.000000e+00
<ENDHMM>
~h "t"
<BEGINHMM>
<NUMSTATES> 5
<STATE> 2
<MEAN> 25
 -4.320292e-01 -1.938087e-02 4.094516e-01 1.029270e+00 -3.007519e-01 -1.507145e-01 -5.864516e-01 -5.525396e-01 6.561170e-02 2.236653e-01 1.498772e-02 -4.504676e-01 3.643409e-02 -3.008237e-02 2.492983e-03 -3.172071e-03 5.187227e-03 -1.729090e-02 -1.214001e-02 -1.253618e-02 1.046446e-03 -4.987244e-03 4.963643e-03 2.787154e-03 5.296293e-02
<VARIANCE> 25
 1.158044e+02 7.039428e+01 6.941349e+01 6.776380e+01 8.437814e+01 1.083031e+02 7.163561e+01 5.546395e+01 5.398752e+01 4.417585e+01 4.799582e+01 4.100656e+01 3.838667e+00 4.950125e+00 3.395243e+00 3.189785e+00 3.926884e+00 5.235410e+00 3.711534e+00 3.811460e+00 3.301555e+00 2.944553e+00 3.084077e+00 2.424713e+00 4.602490e+00
<GCONST> 1.129909e+02
<STATE> 3
<MEAN> 25
 -3.090730e-01 -1.364502e-01 4.019778e-01 9.931090e-01 -2.780701e-01 -2.211330e-01 -6.311090e-01 -5.922512e-01 6.487527e-02 1.949986e-01 4.184765e-02 -4.296417e-01 3.178229e-02 -2.861360e-02 -3.265243e-03 -1.248314e-02 4.421422e-03 -1.398635e-02 -9.238966e-03 -7.805602e-03 1.703965e-03 -8.253275e-03 5.935230e-03 6.653827e-03 4.752839e-02
<VARIANCE> 25
 1.147401e+02 7.147354e+01 6.965893e+01 6.852272e+01 8.407690e+01 1.089249e+02 7.160014e+01 5.619085e+01 5.422812e+01 4.482789e+01 4.724981e+01 4.111528e+01 3.843023e+00 5.093792e+00 3.430450e+00 3.218915e+00 3.995051e+00 5.343260e+00 3.762701e+00 3.857104e+00 3.320274e+00 2.996343e+00 3.104900e+00 2.438934e+00 4.683281e+00
<GCONST> 1.131977e+02
<STATE> 4
<MEAN> 25
 -3.630378e-02 -2.445593e-01 3.799322e-01 8.061103e-01 -2.788194e-01 -4.230056e-01 -7.144831e-01 -6.717116e-01 3.668576e-02 8.633997e-02 5.307342e-02 -4.067413e-01 2.125557e-02 -1.878146e-02 -8.520665e-03 -2.063969e-02 7.515350e-03 -3.919924e-03 -1.326230e-03 -3.203415e-03 -1.676779e-03 -1.084384e-02 4.037067e-03 1.096053e-02 3.155789e-02
<VARIANCE> 25
 1.099111e+02 6.991917e+01 7.015031e+01 6.848508e+01 8.283557e+01 1.178794e+02 7.219445e+01 5.755890e+01 5.639892e+01 4.550587e+01 4.567013e+01 4.167382e+01 3.658857e+00 4.927125e+00 3.424322e+00 3.161422e+00 3.960082e+00 5.547386e+00 3.819660e+00 3.928910e+00 3.378150e+00 3.009162e+00 3.118433e+00 2.450024e+00 4.623063e+00
<GCONST> 1.132469e+02
<TRANSP> 5
 0.000000e+00 1.000000e+00 0.000000e+00 0.000000e+00 0.000000e+00
 0.000000e+00 7.661648e-01 2.338352e-01 0.000000e+00 0.000000e+00
 0.000000e+00 0.000000e+00 7.661650e-01 2.338350e-01 0.000000e+00
 0.000000e+00 0.000000e+00 0.000000e+00 8.976925e-01 1.023075e-01
 0.000000e+00 0.000000e+00 0.000000e+00 0.000000e+00 0.000000e+00
<ENDHMM>
~h "y"
<BEGINHMM>
<NUMSTATES> 5
<STATE> 2
<MEAN> 25
 1.647502e+00 -5.023873e-01 -8.017493e-01 1.746473e+00 2.257934e+00 -3.502370e+00 5.640230e-01 -1.954762e+00 8.446222e-02 3.075950e+00 -6.663870e-01 -5.394074e-01 2.794562e-02 1.212577e-02 1.461546e-03 6.302627e-02 6.684074e-03 8.050219e-02 -3.641311e-02 1.229779e-02 2.162458e-02 -3.071054e-02 1.430987e-02 1.242354e-02 -1.327748e-02
<VARIANCE> 25
 1.370918e+02 6.270349e+01 1.041279e+02 9.150931e+01 9.314104e+01 2.058162e+02 6.569191e+01 3.762495e+01 5.871862e+01 6.411852e+01 3.728948e+01 2.865421e+01 3.069197e+00 3.108752e+00 5.141597e+00 4.724093e+00 2.821818e+00 6.156220e+00 4.086739e+00 3.310673e+00 2.880105e+00 3.685341e+00 3.425243e+00 2.006410e+00 3.286149e+00
<GCONST> 1.134341e+02
<STATE> 3
<MEAN> 25
 1.748984e+00 -4.487148e-01 -7.867662e-01 2.009079e+00 2.272754e+00 -3.148924e+00 4.072757e-01 -1.889473e+00 1.710851e-01 2.932158e+00 -6.068280e-01 -4.958690e-01 2.631908e-03 -9.688307e-04 -5.982048e-03 5.862674e-02 -1.713701e-02 9.046395e-02 -4.101590e-02 1.439323e-02 1.944245e-02 -3.699414e-02 1.538666e-02 7.891264e-03 -3.429233e-02
<VARIANCE> 25
 1.374184e+02 6.549933e+01 1.034993e+02 9.223283e+01 8.968002e+01 2.020399e+02 6.614345e+01 3.796899e+01 5.757147e+01 6.496743e+01 3.719995e+01 2.901130e+01 3.022428e+00 3.152121e+00 5.143954e+00 4.684686e+00 2.701263e+00 6.035352e+00 4.036394e+00 3.269696e+00 2.823967e+00 3.720740e+00 3.364090e+00 1.991126e+00 3.159791e+00
<GCONST> 1.132722e+02
<STATE> 4
<MEAN> 25
 1.847170e+00 -4.924522e-01 -9.705422e-01 2.171519e+00 2.285505e+00 -2.897318e+00 3.025336e-01 -1.698953e+00 9.697437e-02 2.898084e+00 -5.854549e-01 -4.780104e-01 -2.409478e-02 -1.271454e-02 -9.382479e-03 4.475611e-02 -3.431002e-02 8.865728e-02 -4.052122e-02 1.924190e-02 1.336436e-02 -4.158465e-02 1.376179e-02 2.307838e-03 -5.048503e-02
<VARIANCE> 25
 1.377979e+02 6.747171e+01 1.009181e+02 8.883816e+01 8.810515e+01 2.078372e+02 6.734972e+01 3.882302e+01 6.047282e+01 7.004318e+01 3.699183e+01 3.035110e+01 2.909235e+00 3.261609e+00 5.024909e+00 4.523326e+00 2.588659e+00 6.203699e+00 4.000072e+00 3.254930e+00 2.851043e+00 3.790238e+00 3.258096e+00 1.979318e+00 2.998780e+00
<GCONST> 1.133033e+02
<TRANSP> 5
 0.000000e+00 1.000000e+00 0.000000e+00 0.000000e+00 0.000000e+00
 0.000000e+00 7.708157e-01 2.291843e-01 0.000000e+00 0.000000e+00
 0.000000e+00 0.000000e+00 7.708160e-01 2.291840e-01 0.000000e+00
 0.000000e+00 0.000000e+00 0.000000e+00 9.008236e-01 9.917648e-02
 0.000000e+00 0.000000e+00 0.000000e+00 0.000000e+00 0.000000e+00
<ENDHMM>
~h "aa"
<BEGINHMM>
<NUMSTATES> 5
<STATE> 2
<MEAN> 25
 1.072306e+00 -3.846847e-01 -7.991675e-01 -6.440197e-01 -1.432941e-01 -2.274346e-02 8.923941e-01 6.261764e-02 9.743729e-02 -9.345148e-02 1.019987e-02 3.390282e-01 8.697484e-03 6.450396e-03 3.704415e-04 1.285816e-03 -1.956083e-04 -3.177679e-03 -1.779133e-03 -1.254207e-03 3.302274e-03 -5.336798e-03 -5.451303e-03 3.269883e-03 3.079330e-03
<VARIANCE> 25
 1.325766e+02 7.399511e+01 7.461395e+01 6.820203e+01 7.674881e+01 1.122834e+02 7.265582e+01 5.688149e+01 5.947917e+01 4.629728e+01 5.208239e+01 4.019306e+01 3.476867e+00 3.866672e+00 3.244306e+00 2.935919e+00 3.295849e+00 4.460982e+00 3.407624e+00 3.144889e+00 3.008478e+00 2.831845e+00 2.911129e+00 2.291836e+00 3.271319e+00
<GCONST> 1.117661e+02
<STATE> 3
<MEAN> 25
 1.094461e+00 -3.530319e-01 -7.928632e-01 -6.307406e-01 -1.400425e-01 -3.823558e-02 8.745382e-01 5.618081e-02 1.125181e-01 -1.096215e-01 -1.243410e-02 3.517414e-01 2.794226e-03 7.394697e-03 2.004743e-03 3.504599e-03 4.651244e-04 -4.104626e-03 -4.979895e-03 -1.168109e-03 4.054340e-03 -3.529981e-03 -5.558872e-03 2.595175e-03 -3.028678e-03
<VARIANCE> 25
 1.321136e+02 7.388223e+01 7.448003e+01 6.821821e+01 7.691273e+01 1.121375e+02 7.246930e+01 5.678494e+01 5.915075e+01 4.633753e+01 5.211238e+01 4.020371e+01 3.465465e+00 3.866644e+00 3.235590e+00 2.937271e+00 3.300685e+00 4.458074e+00 3.402175e+00 3.150446e+00 3.004164e+00 2.833069e+00 2.915981e+00 2.296079e+00 3.260966e+00
<GCONST> 1.117471e+02
<STATE> 4
<MEAN> 25
 1.085555e+00 -2.753576e-01 -7.286185e-01 -6.097603e-01 -9.191950e-02 -1.478033e-01 8.216221e-01 2.971835e-02 7.131472e-02 -1.290501e-01 -4.963976e-02 3.139119e-01 -8.088632e-03 9.299494e-03 4.803659e-03 9.189178e-03 2.573094e-03 -1.350979e-03 -1.100194e-02 -1.313815e-03 5.197847e-03 -4.232781e-04 -5.571865e-03 1.937609e-03 -1.586099e-02
<VARIANCE> 25
 1.261048e+02 7.106261e+01 7.384035e+01 6.716275e+01 7.629475e+01 1.205511e+02 7.253284e+01 5.693825e+01 5.942986e+01 4.586923e+01 5.041372e+01 3.963803e+01 3.278825e+00 3.703792e+00 3.156963e+00 2.849380e+00 3.237434e+00 4.512143e+00 3.372392e+00 3.163134e+00 2.987941e+00 2.784453e+00 2.882539e+00 2.264037e+00 3.179015e+00
<GCONST> 1.114133e+02
<TRANSP> 5
 0.000000e+00 1.000000e+00 0.000000e+00 0.000000e+00 0.000000e+00
 0.000000e+00 7.661192e-01 2.338808e-01 0.000000e+00 0.000000e+00
 0.000000e+00 0.000000e+00 7.661207e-01 2.338793e-01 0.000000e+00
 0.000000e+00 0.000000e+00 0.000000e+00 8.974465e-01 1.025535e-01
 0.000000e+00 0.000000e+00 0.000000e+00 0.000000e+00 0.000000e+00
<ENDHMM>
~h "ah"
<BEGINHMM>
<NUMSTATES> 5
<STATE> 2
<MEAN> 25
 -2.691082e-01 -8.647708e-01 8.682636e-01 -8.739476e-01 9.404086e-02 2.409306e-01 -1.479139e-02 -8.434041e-01 1.184716e-01 2.324042e-02 3.288978e-01 7.279506e-02 8.038389e-03 -2.159153e-02 2.527863e-02 -7.470934e-03 2.183776e-02 3.789500e-03 5.382014e-03 -1.222160e-02 -4.161833e-03 3.437335e-03 1.326266e-02 1.272330e-03 4.218112e-02
<VARIANCE> 25
 1.634827e+02 7.776957e+01 9.865564e+01 8.081109e+01 8.251122e+01 1.154623e+02 6.622345e+01 6.151327e+01 7.238843e+01 4.385292e+01 5.372505e+01 3.920142e+01 3.842156e+00 3.858098e+00 3.866124e+00 3.318711e+00 3.486767e+00 4.892097e+00 3.563245e+00 3.388029e+00 4.019114e+00 2.796304e+00 3.143366e+00 2.229432e+00 3.327289e+00
<GCONST> 1.137149e+02
<STATE> 3
<MEAN> 25
 -1.986225e-01 -9.349710e-01 9.770272e-01 -9.085900e-01 1.867537e-01 2.409318e-01 1.457375e-02 -8.867637e-01 8.977298e-02 3.883280e-02 3.758556e-01 7.052457e-02 1.441002e-02 -1.597007e-02 2.372270e-02 -4.514500e-03 2.145208e-02 1.135764e-03 6.155021e-03 -8.279774e-03 -7.376926e-03 3.699310e-03 1.229824e-02 -1.369560e-03 4.012760e-02
<VARIANCE> 25
 1.644086e+02 7.926559e+01 1.004102e+02 8.162975e+01 8.353559e+01 1.152922e+02 6.741171e+01 6.231770e+01 7.282826e+01 4.370284e+01 5.399744e+01 3.943241e+01 3.873826e+00 3.913618e+00 3.910728e+00 3.341689e+00 3.527613e+00 4.930880e+00 3.612057e+00 3.425743e+00 4.050339e+00 2.797307e+00 3.166144e+00 2.245182e+00 3.361866e+00
<GCONST> 1.139403e+02
<STATE> 4
<MEAN> 25
 4.406188e-02 -9.555936e-01 1.118510e+00 -9.268078e-01 3.746284e-01 1.091945e-01 3.641245e-02 -8.956707e-01 -7.337801e-03 1.017067e-01 4.119816e-01 4.790001e-02 1.978658e-02 -1.390705e-03 1.466181e-02 -2.801220e-03 1.893075e-02 -3.608339e-03 9.691151e-03 2.618986e-03 -8.772559e-03 4.890383e-03 5.019279e-03 -4.285733e-03 2.852568e-02
<VARIANCE> 25
 1.612783e+02 7.852052e+01 1.005923e+02 8.130057e+01 8.394729e+01 1.203927e+02 6.797800e+01 6.446207e+01 7.382860e+01 4.329934e+01 5.338281e+01 3.938831e+01 3.786270e+00 3.907054e+00 3.866436e+00 3.298490e+00 3.561563e+00 5.083391e+00 3.644379e+00 3.547180e+00 4.077884e+00 2.785295e+00 3.171545e+00 2.233592e+00 3.399565e+00
<GCONST> 1.140366e+02
<TRANSP> 5
 0.000000e+00 1.000000e+00 0.000000e+00 0.000000e+00 0.000000e+00
 0.000000e+00 7.662450e-01 2.337549e-01 0.000000e+00 0.000000e+00
 0.000000e+00 0.000000e+00 7.662458e-01 2.337541e-01 0.000000e+00
 0.000000e+00 0.000000e+00 0.000000e+00 8.969045e-01 1.030955e-01
 0.000000e+00 0.000000e+00 0.000000e+00 0.000000e+00 0.000000e+00
<ENDHMM>
~h "ao"
<BEGINHMM>
<NUMSTATES> 5
<STATE> 2
<MEAN> 25
 -2.515384e-01 -1.558556e+00 6.239721e-01 8.985690e-01 6.096205e-01 -5.221227e-01 -1.313618e+00 -9.911489e-01 1.106342e-01 8.900164e-01 7.356017e-01 3.762617e-01 3.134521e-02 -1.510775e-02 -5.549636e-03 -4.486027e-02 -5.573213e-03 -2.596354e-02 -2.854129e-02 -8.717126e-03 2.318902e-03 -3.639939e-03 -3.225303e-02 8.058439e-03 4.125501e-02
<VARIANCE> 25
 1.477781e+02 7.806635e+01 8.104669e+01 7.069173e+01 1.128937e+02 1.290433e+02 9.716135e+01 6.825157e+01 5.231459e+01 4.336845e+01 5.698748e+01 3.567949e+01 3.397091e+00 3.903105e+00 3.202966e+00 2.527473e+00 3.414347e+00 3.954479e+00 3.949527e+00 3.044178e+00 2.903379e+00 2.632811e+00 2.821543e+00 1.868955e+00 2.694691e+00
<GCONST> 1.121377e+02
<STATE> 3
<MEAN> 25
 -1.179725e-01 -1.632008e+00 6.099083e-01 7.008104e-01 5.819014e-01 -6.523719e-01 -1.427266e+00 -1.014932e+00 1.180968e-01 8.877185e-01 6.291361e-01 4.054810e-01 3.282927e-02 -1.385614e-02 -5.118696e-03 -5.192032e-02 -8.847770e-03 -3.187239e-02 -2.620685e-02 -4.251956e-03 -4.871800e-04 -3.545583e-04 -3.039528e-02 6.025686e-03 4.310155e-02
<VARIANCE> 25
 1.476247e+02 7.800959e+01 7.964812e+01 7.087463e+01 1.137902e+02 1.291403e+02 9.650364e+01 6.793448e+01 5.362431e+01 4.366946e+01 5.678279e+01 3.663763e+01 3.429715e+00 3.960472e+00 3.207214e+00 2.541188e+00 3.415351e+00 4.002899e+00 3.961129e+00 3.043774e+00 2.961514e+00 2.634054e+00 2.828996e+00 1.905257e+00 2.770455e+00
<GCONST> 1.122889e+02
<STATE> 4
<MEAN> 25
 1.482839e-01 -1.723670e+00 6.179720e-01 3.009956e-01 3.225574e-01 -1.016385e+00 -1.524599e+00 -1.027763e+00 1.916694e-01 1.127237e+00 5.352167e-01 4.099835e-01 2.820114e-02 -6.988806e-03 -3.365403e-03 -4.212265e-02 -6.089727e-03 -3.051015e-02 -2.102089e-02 5.368738e-03 -5.492987e-03 5.805246e-03 -1.768430e-02 2.801014e-03 3.128348e-02
<VARIANCE> 25
 1.443977e+02 7.351628e+01 7.462563e+01 7.044613e+01 1.145163e+02 1.433372e+02 9.552746e+01 6.911391e+01 5.652020e+01 4.507095e+01 5.326616e+01 3.953144e+01 3.364581e+00 3.854141e+00 3.130500e+00 2.488052e+00 3.385224e+00 4.160901e+00 3.830212e+00 3.103217e+00 3.105320e+00 2.632505e+00 2.786960e+00 1.945620e+00 2.741829e+00
<GCONST> 1.123165e+02
<TRANSP> 5
 0.000000e+00 1.000000e+00 0.000000e+00 0.000000e+00 0.000000e+00
 0.000000e+00 7.657678e-01 2.342322e-01 0.000000e+00 0.000000e+00
 0.000000e+00 0.000000e+00 7.657680e-01 2.342321e-01 0.000000e+00
 0.000000e+00 0.000000e+00 0.000000e+00 8.981833e-01 1.018166e-01
 0.000000e+00 0.000000e+00 0.000000e+00 0.000000e+00 0.000000e+00
<ENDHMM>
~h "aw"
<BEGINHMM>
<NUMSTATES> 5
<STATE> 2
<MEAN> 25
 1.737358e+00 3.070943e+00 -1.355949e+00 -1.207345e+00 -8.220828e-01 -1.736530e+00 1.860009e+00 6.907581e-01 -9.198782e-01 6.228704e-01 -1.878636e+00 -2.227913e+00 -5.925206e-03 -6.380740e-03 -4.594351e-03 -2.948461e-02 -2.103819e-02 5.984776e-03 3.702494e-02 8.933858e-03 -1.349499e-02 -2.187632e-02 -8.729819e-03 3.113943e-02 2.757601e-03
<VARIANCE> 25
 1.417498e+02 5.424764e+01 3.571021e+01 4.893079e+01 3.682458e+01 8.843114e+01 1.127004e+02 2.579599e+01 4.134045e+01 3.806527e+01 5.836729e+01 3.251123e+01 2.873547e+00 2.164595e+00 2.219115e+00 1.736317e+00 1.897844e+00 2.267877e+00 2.143598e+00 1.561782e+00 2.110235e+00 2.292669e+00 2.419759e+00 1.320997e+00 2.323184e+00
<GCONST> 1.027593e+02
<STATE> 3
<MEAN> 25
 1.700488e+00 3.014356e+00 -1.370908e+00 -1.336892e+00 -9.073160e-01 -1.714414e+00 2.012306e+00 7.024758e-01 -9.907734e-01 5.313139e-01 -1.910773e+00 -2.076713e+00 -6.844262e-03 -1.197889e-02 -2.372042e-03 -3.084671e-02 -2.126576e-02 2.866779e-03 3.262348e-02 1.982386e-03 -1.360351e-02 -1.860558e-02 -7.036606e-03 3.542835e-02 6.145672e-03
<VARIANCE> 25
 1.428664e+02 5.521745e+01 3.589030e+01 4.861192e+01 3.791050e+01 8.576618e+01 1.120865e+02 2.560413e+01 4.005165e+01 3.779436e+01 5.898042e+01 3.205100e+01 2.950526e+00 2.151357e+00 2.233975e+00 1.732433e+00 1.907990e+00 2.230072e+00 2.144327e+00 1.560729e+00 2.131387e+00 2.275425e+00 2.453194e+00 1.322693e+00 2.338438e+00
<GCONST> 1.027631e+02
<STATE> 4
<MEAN> 25
 1.566073e+00 2.697927e+00 -1.302171e+00 -1.570004e+00 -1.044055e+00 -1.674912e+00 2.082125e+00 6.169828e-01 -1.007109e+00 4.751214e-01 -1.907714e+00 -1.717304e+00 -1.131612e-02 -2.670164e-02 2.067143e-03 -2.918432e-02 -1.538534e-02 -1.638248e-03 2.198010e-02 -1.686260e-02 -1.943045e-02 -1.244567e-02 -3.023559e-03 4.063496e-02 1.234941e-02
<VARIANCE> 25
 1.414650e+02 5.710004e+01 3.703559e+01 4.887891e+01 3.846907e+01 8.264682e+01 1.114315e+02 2.560777e+01 3.721386e+01 3.578479e+01 6.121206e+01 3.174392e+01 3.045649e+00 2.123480e+00 2.283239e+00 1.720662e+00 1.941184e+00 2.169938e+00 2.160732e+00 1.545873e+00 2.164900e+00 2.175826e+00 2.499749e+00 1.330734e+00 2.398787e+00
<GCONST> 1.027378e+02
<TRANSP> 5
 0.000000e+00 1.000000e+00 0.000000e+00 0.000000e+00 0.000000e+00
 0.000000e+00 7.777846e-01 2.222155e-01 0.000000e+00 0.000000e+00
 0.000000e+00 0.000000e+00 7.777847e-01 2.222153e-01 0.000000e+00
 0.000000e+00 0.000000e+00 0.000000e+00 9.069626e-01 9.303739e-02
 0.000000e+00 0.000000e+00 0.000000e+00 0.000000e+00 0.000000e+00
<ENDHMM>
~h "ch"
<BEGINHMM>
<NUMSTATES> 5
<STATE> 2
<MEAN> 25
 -2.971093e+00 -1.622033e+00 -1.103611e+00 1.761100e+00 -2.364064e+00 1.839067e+00 -2.124622e+00 7.391983e-01 -1.770352e-01 1.485145e+00 9.444637e-01 -5.992347e-01 4.661725e-02 -2.363004e-02 5.570870e-02 -3.087181e-02 1.342481e-02 -4.406627e-02 -3.763655e-03 -1.230834e-02 -1.896660e-03 1.093197e-02 -9.518087e-03 -1.097683e-02 1.018362e-01
<VARIANCE> 25
 1.638074e+02 8.211118e+01 1.143213e+02 9.033940e+01 7.757278e+01 1.418922e+02 3.834644e+01 6.676359e+01 7.769930e+01 4.505823e+01 3.217856e+01 3.361022e+01 3.460146e+00 5.903807e+00 3.577466e+00 4.187695e+00 4.353037e+00 5.389065e+00 3.162896e+00 4.061234e+00 4.616335e+00 3.135669e+00 2.615244e+00 1.697522e+00 4.668068e+00
<GCONST> 1.141330e+02
<STATE> 3
<MEAN> 25
 -2.701532e+00 -1.755957e+00 -7.998751e-01 1.576975e+00 -2.235974e+00 1.580431e+00 -2.104865e+00 6.456051e-01 -1.912633e-01 1.512464e+00 8.758671e-01 -6.563200e-01 5.343419e-02 -2.825155e-02 7.114861e-02 -4.104905e-02 3.247523e-02 -6.106385e-02 4.165424e-03 -1.873976e-02 -2.866723e-03 2.341231e-03 -1.868052e-02 -1.316129e-02 1.351012e-01
<VARIANCE> 25
 1.616192e+02 8.525185e+01 1.147251e+02 9.365127e+01 7.773011e+01 1.418513e+02 3.927546e+01 6.710675e+01 8.019190e+01 4.531828e+01 3.317794e+01 3.416342e+01 3.563208e+00 6.041055e+00 3.697780e+00 4.403167e+00 4.430295e+00 5.524255e+00 3.248089e+00 4.082517e+00 4.770592e+00 3.177302e+00 2.598220e+00 1.735923e+00 5.016817e+00
<GCONST> 1.146553e+02
<STATE> 4
<MEAN> 25
 -1.691064e+00 -2.067218e+00 3.835582e-01 6.696141e-01 -1.589593e+00 4.067426e-01 -1.931475e+00 4.318359e-01 -4.957348e-01 1.275472e+00 6.098682e-01 -9.677334e-01 9.046927e-02 -3.371304e-02 9.986372e-02 -7.878742e-02 6.790293e-02 -1.160434e-01 1.537047e-02 -3.669387e-02 -1.272826e-02 -1.156400e-02 -2.733404e-02 -2.451020e-02 2.146208e-01
<VARIANCE> 25
 1.558917e+02 9.314309e+01 1.154185e+02 1.007576e+02 7.890109e+01 1.481319e+02 4.388393e+01 7.136152e+01 9.213626e+01 4.554982e+01 3.816920e+01 3.707895e+01 3.656351e+00 6.063002e+00 4.015597e+00 4.731501e+00 4.463832e+00 5.899245e+00 3.492924e+00 4.208734e+00 5.336999e+00 3.260268e+00 2.554766e+00 1.873384e+00 5.750775e+00
<GCONST> 1.160776e+02
<TRANSP> 5
 0.000000e+00 1.000000e+00 0.000000e+00 0.000000e+00 0.000000e+00
 0.000000e+00 7.695971e-01 2.304029e-01 0.000000e+00 0.000000e+00
 0.000000e+00 0.000000e+00 7.695972e-01 2.304028e-01 0.000000e+00
 0.000000e+00 0.000000e+00 0.000000e+00 9.001694e-01 9.983059e-02
 0.000000e+00 0.000000e+00 0.000000e+00 0.000000e+00 0.000000e+00
<ENDHMM>
~h "eh"
<BEGINHMM>
<NUMSTATES> 5
<STATE> 2
<MEAN> 25
 7.657270e-01 -1.881240e+00 -1.347499e-01 3.430187e-01 1.460290e+00 -1.053822e+00 -2.268250e+00 -1.520275e+00 -4.983821e-01 1.502503e+00 1.315074e-01 3.607216e-01 2.523876e-02 4.356432e-02 -3.471256e-02 -3.011712e-03 -5.726376e-03 -8.805713e-04 5.220068e-03 6.115090e-02 3.240018e-02 -9.370122e-03 -4.387709e-02 -1.233341e-02 -2.283211e-02
<VARIANCE> 25
 1.353047e+02 6.534293e+01 6.718919e+01 6.712650e+01 1.051128e+02 1.333727e+02 1.031323e+02 7.091337e+01 4.777723e+01 4.372457e+01 6.474162e+01 4.183809e+01 3.175551e+00 3.422821e+00 2.828498e+00 2.426412e+00 2.878881e+00 3.659552e+00 3.627057e+00 3.130074e+00 2.345090e+00 2.507164e+00 2.972798e+00 2.175980e+00 1.935362e+00
<GCONST> 1.108376e+02
<STATE> 3
<MEAN> 25
 8.485198e-01 -1.688742e+00 -2.649220e-01 3.605812e-01 1.449832e+00 -1.037979e+00 -2.248149e+00 -1.261272e+00 -3.634302e-01 1.445696e+00 -4.794954e-02 3.089510e-01 1.972996e-02 4.863103e-02 -3.273086e-02 8.021603e-04 -1.069567e-02 3.754487e-03 1.234743e-02 6.730563e-02 3.811955e-02 -1.290152e-02 -4.304380e-02 -9.743815e-03 -3.086011e-02
<VARIANCE> 25
 1.338573e+02 6.459572e+01 6.599245e+01 6.712684e+01 1.014659e+02 1.319866e+02 1.014017e+02 7.102410e+01 4.817115e+01 4.385547e+01 6.427531e+01 4.222572e+01 3.141041e+00 3.397945e+00 2.784972e+00 2.456636e+00 2.840850e+00 3.685052e+00 3.554105e+00 3.139303e+00 2.365318e+00 2.482755e+00 2.971521e+00 2.221261e+00 1.964354e+00
<GCONST> 1.107382e+02
<STATE> 4
<MEAN> 25
 6.958092e-01 -1.375872e+00 -2.658454e-01 6.713095e-01 1.403752e+00 -9.625995e-01 -2.318911e+00 -9.538534e-01 -4.205485e-02 1.499447e+00 -2.175076e-01 2.622854e-01 8.972690e-03 4.964545e-02 -2.509437e-02 9.621567e-03 -1.252244e-02 1.107955e-02 1.814785e-02 6.484121e-02 3.237895e-02 -1.931365e-02 -3.561786e-02 -7.282083e-03 -4.002389e-02
<VARIANCE> 25
 1.253965e+02 5.892333e+01 6.213021e+01 6.637209e+01 9.497202e+01 1.440137e+02 9.930053e+01 7.269981e+01 4.854760e+01 4.484994e+01 5.837764e+01 4.252433e+01 2.919210e+00 3.193479e+00 2.647069e+00 2.452178e+00 2.783300e+00 3.732206e+00 3.357615e+00 3.294848e+00 2.339832e+00 2.423191e+00 2.846886e+00 2.188687e+00 2.016991e+00
<GCONST> 1.102034e+02
<TRANSP> 5
 0.000000e+00 1.000000e+00 0.000000e+00 0.000000e+00 0.000000e+00
 0.000000e+00 7.661376e-01 2.338624e-01 0.000000e+00 0.000000e+00
 0.000000e+00 0.000000e+00 7.661373e-01 2.338627e-01 0.000000e+00
 0.000000e+00 0.000000e+00 0.000000e+00 8.994581e-01 1.005419e-01
 0.000000e+00 0.000000e+00 0.000000e+00 0.000000e+00 0.000000e+00
<ENDHMM>
~h "hh"
<BEGINHMM>
<NUMSTATES> 5
<STATE> 2
<MEAN> 25
 4.097103e-01 -5.075613e-01 -5.648344e-01 -7.836798e-01 -3.882184e-01 7.157958e-01 -5.379584e-01 8.785595e-01 2.636953e-01 -3.150758e-01 -9.508361e-01 -5.158635e-01 -5.317551e-02 -3.892167e-02 1.145690e-02 1.090027e-02 2.816321e-03 8.107164e-03 2.831797e-02 -1.616086e-02 -1.104397e-03 1.954161e-02 1.231249e-02 2.689053e-02 -1.577909e-02
<VARIANCE> 25
 1.277151e+02 7.061112e+01 7.720461e+01 7.008737e+01 7.206709e+01 9.625159e+01 6.976479e+01 5.173080e+01 5.239397e+01 4.312045e+01 4.936766e+01 5.021836e+01 2.586807e+00 3.968854e+00 3.230197e+00 3.027564e+00 2.971275e+00 4.226010e+00 3.754470e+00 2.892134e+00 2.954560e+00 2.350707e+00 2.588860e+00 2.433935e+00 2.531644e+00
<GCONST> 1.104564e+02
<STATE> 3
<MEAN> 25
 1.900247e-01 -6.691522e-01 -5.030288e-01 -7.285119e-01 -3.687976e-01 7.359931e-01 -4.282258e-01 8.079558e-01 2.630877e-01 -2.406171e-01 -8.927646e-01 -4.091635e-01 -4.953634e-02 -3.567254e-02 1.982068e-02 1.843321e-02 7.946341e-03 2.487041e-03 2.485211e-02 -1.925096e-02 -7.983001e-04 1.801405e-02 1.756650e-02 2.654983e-02 -1.100694e-02
<VARIANCE> 25
 1.288903e+02 7.061987e+01 7.759401e+01 7.088959e+01 7.159117e+01 9.629721e+01 7.002169e+01 5.124120e+01 5.218029e+01 4.275037e+01 4.915533e+01 4.922933e+01 2.564083e+00 3.798221e+00 3.175979e+00 3.026028e+00 2.876364e+00 4.134322e+00 3.667446e+00 2.799212e+00 2.882795e+00 2.344966e+00 2.555742e+00 2.391186e+00 2.490107e+00
<GCONST> 1.101783e+02
<STATE> 4
<MEAN> 25
 -1.553664e-01 -7.583920e-01 -3.713804e-01 -6.303380e-01 -4.524695e-01 8.745942e-01 -1.149372e-01 8.466790e-01 1.519525e-01 -1.541388e-01 -6.191892e-01 -2.725387e-01 -4.099753e-02 -2.926883e-02 2.583100e-02 2.002049e-02 1.271491e-02 -3.992041e-03 2.102211e-02 -2.078372e-02 -4.104653e-05 1.604299e-02 2.198486e-02 2.438744e-02 -3.048737e-03
<VARIANCE> 25
 1.252321e+02 6.724011e+01 7.722832e+01 7.034261e+01 7.253642e+01 1.054886e+02 7.110815e+01 5.093409e+01 5.538905e+01 4.208337e+01 4.659165e+01 4.737995e+01 2.430912e+00 3.437554e+00 3.087217e+00 2.892748e+00 2.770695e+00 4.023873e+00 3.532095e+00 2.699378e+00 2.827215e+00 2.317704e+00 2.488420e+00 2.273240e+00 2.391594e+00
<GCONST> 1.096400e+02
<TRANSP> 5
 0.000000e+00 1.000000e+00 0.000000e+00 0.000000e+00 0.000000e+00
 0.000000e+00 7.567759e-01 2.432242e-01 0.000000e+00 0.000000e+00
 0.000000e+00 0.000000e+00 7.567753e-01 2.432248e-01 0.000000e+00
 0.000000e+00 0.000000e+00 0.000000e+00 8.881589e-01 1.118410e-01
 0.000000e+00 0.000000e+00 0.000000e+00 0.000000e+00 0.000000e+00
<ENDHMM>
~h "ih"
<BEGINHMM>
<NUMSTATES> 5
<STATE> 2
<MEAN> 25
 -4.665672e-01 -4.371062e-01 2.142770e+00 2.461560e+00 2.635667e+00 -1.126159e+00 -2.066636e+00 -3.481733e-01 -4.215019e-01 2.427929e-01 -2.804907e-01 -8.553425e-01 -2.572767e-02 7.346437e-03 -2.783002e-02 -1.562918e-02 -1.677459e-03 1.744051e-02 1.344312e-02 1.099540e-02 -1.049596e-02 1.028850e-02 9.347294e-03 8.077709e-03 -3.627322e-02
<VARIANCE> 25
 1.120720e+02 7.165775e+01 9.133282e+01 8.920215e+01 9.172372e+01 1.243963e+02 9.169067e+01 5.712671e+01 5.401750e+01 4.521531e+01 5.109797e+01 4.364050e+01 2.919059e+00 4.251557e+00 3.412136e+00 3.690763e+00 3.669651e+00 5.148139e+00 3.908931e+00 3.427955e+00 3.074586e+00 2.739702e+00 2.941667e+00 2.457869e+00 3.185011e+00
<GCONST> 1.132132e+02
<STATE> 3
<MEAN> 25
 -5.761064e-01 -4.041938e-01 2.004555e+00 2.379020e+00 2.611543e+00 -1.026732e+00 -1.991430e+00 -3.020277e-01 -4.622011e-01 2.874514e-01 -2.357775e-01 -8.068076e-01 -2.285572e-02 8.093893e-03 -3.653824e-02 -2.146162e-02 -7.890163e-03 2.518932e-02 1.822191e-02 9.925541e-03 -8.834304e-03 9.423818e-03 1.170954e-02 1.208094e-02 -3.833653e-02
<VARIANCE> 25
 1.126592e+02 7.073328e+01 8.976053e+01 8.768197e+01 9.065424e+01 1.237673e+02 9.075710e+01 5.623438e+01 5.383972e+01 4.500081e+01 5.102586e+01 4.341442e+01 2.893151e+00 4.130545e+00 3.361272e+00 3.616128e+00 3.621590e+00 5.049569e+00 3.844197e+00 3.353595e+00 3.039501e+00 2.706887e+00 2.902525e+00 2.433172e+00 3.131952e+00
<GCONST> 1.129053e+02
<STATE> 4
<MEAN> 25
 -6.474670e-01 -3.691108e-01 1.741457e+00 2.146211e+00 2.463185e+00 -8.805723e-01 -1.818572e+00 -2.379416e-01 -4.948576e-01 3.467112e-01 -2.004781e-01 -6.908103e-01 -1.802422e-02 6.655863e-03 -4.507925e-02 -2.895785e-02 -1.761997e-02 3.607410e-02 2.663403e-02 7.793748e-03 -4.081273e-03 8.250987e-03 1.315164e-02 1.805215e-02 -3.851087e-02
<VARIANCE> 25
 1.097638e+02 6.683475e+01 8.775343e+01 8.259653e+01 8.545988e+01 1.312421e+02 8.711768e+01 5.557831e+01 5.497488e+01 4.429539e+01 4.996880e+01 4.281543e+01 2.762501e+00 3.794561e+00 3.266632e+00 3.389465e+00 3.470056e+00 4.976175e+00 3.665167e+00 3.295155e+00 3.012752e+00 2.651805e+00 2.827653e+00 2.389918e+00 3.047713e+00
<GCONST> 1.122097e+02
<TRANSP> 5
 0.000000e+00 1.000000e+00 0.000000e+00 0.000000e+00 0.000000e+00
 0.000000e+00 7.629997e-01 2.370003e-01 0.000000e+00 0.000000e+00
 0.000000e+00 0.000000e+00 7.629990e-01 2.370010e-01 0.000000e+00
 0.000000e+00 0.000000e+00 0.000000e+00 8.942165e-01 1.057836e-01
 0.000000e+00 0.000000e+00 0.000000e+00 0.000000e+00 0.000000e+00
<ENDHMM>
~h "jh"
<BEGINHMM>
<NUMSTATES> 5
<STATE> 2
<MEAN> 25
 6.286117e-01 -1.324207e-01 1.143846e+00 1.451562e+00 1.841852e+00 1.303852e-01 -1.680834e+00 -2.725606e-01 -8.737485e-01 -7.384524e-01 -6.964570e-01 -1.755543e+00 1.524499e-02 2.879797e-03 -1.076045e-02 -4.049392e-02 -2.385606e-02 2.768786e-02 3.766164e-02 -2.824611e-03 8.783595e-03 1.539506e-02 -1.082182e-02 5.550345e-03 1.135377e-02
<VARIANCE> 25
 9.853358e+01 7.851309e+01 5.736851e+01 5.166580e+01 5.721377e+01 9.248884e+01 6.195043e+01 6.249465e+01 5.502118e+01 5.424267e+01 4.137972e+01 4.964420e+01 2.953876e+00 6.072317e+00 3.013125e+00 2.907489e+00 3.637749e+00 4.286915e+00 4.053455e+00 3.668023e+00 3.100513e+00 2.872756e+00 2.676281e+00 2.587828e+00 3.243834e+00
<GCONST> 1.111612e+02
<STATE> 3
<MEAN> 25
 6.843018e-01 -1.164560e-01 1.084993e+00 1.279421e+00 1.737273e+00 2.472228e-01 -1.514049e+00 -2.690311e-01 -8.546528e-01 -6.789806e-01 -7.360892e-01 -1.733303e+00 1.877462e-02 3.492014e-03 -1.742249e-02 -4.309102e-02 -3.050760e-02 2.374499e-02 3.977557e-02 -1.880171e-03 7.035135e-03 1.640966e-02 -1.398997e-02 8.578320e-03 1.091560e-02
<VARIANCE> 25
 9.914911e+01 7.759538e+01 5.754510e+01 5.195303e+01 5.676300e+01 9.168837e+01 6.158902e+01 6.184477e+01 5.528201e+01 5.303516e+01 4.192823e+01 4.980426e+01 2.924009e+00 5.955465e+00 3.017791e+00 2.919014e+00 3.625124e+00 4.204097e+00 3.989883e+00 3.596679e+00 3.060285e+00 2.781947e+00 2.669781e+00 2.569817e+00 3.147234e+00
<GCONST> 1.109626e+02
<STATE> 4
<MEAN> 25
 7.043585e-01 -1.252495e-01 9.888064e-01 1.026494e+00 1.354430e+00 5.086215e-01 -1.257746e+00 -3.563340e-01 -1.011454e+00 -5.579052e-01 -6.559702e-01 -1.582927e+00 1.764873e-02 6.345648e-03 -2.368557e-02 -3.925513e-02 -3.283248e-02 1.641585e-02 4.239272e-02 9.855792e-03 -1.944690e-03 8.994763e-03 -9.547763e-03 1.174320e-02 4.154029e-03
<VARIANCE> 25
 9.424475e+01 7.024104e+01 5.682399e+01 5.071238e+01 5.616767e+01 1.009720e+02 6.112407e+01 6.241851e+01 5.868099e+01 5.123751e+01 4.131614e+01 5.063743e+01 2.679467e+00 5.171576e+00 2.850243e+00 2.788056e+00 3.426841e+00 4.052305e+00 3.857878e+00 3.529212e+00 3.009499e+00 2.622483e+00 2.589225e+00 2.427003e+00 2.851829e+00
<GCONST> 1.101509e+02
<TRANSP> 5
 0.000000e+00 1.000000e+00 0.000000e+00 0.000000e+00 0.000000e+00
 0.000000e+00 7.620202e-01 2.379798e-01 0.000000e+00 0.000000e+00
 0.000000e+00 0.000000e+00 7.620205e-01 2.379794e-01 0.000000e+00
 0.000000e+00 0.000000e+00 0.000000e+00 8.957835e-01 1.042165e-01
 0.000000e+00 0.000000e+00 0.000000e+00 0.000000e+00 0.000000e+00
<ENDHMM>
~h "ng"
<BEGINHMM>
<NUMSTATES> 5
<STATE> 2
<MEAN> 25
 1.039121e+00 3.039109e-01 -4.765487e-02 -9.825537e-01 -5.733213e-01 -8.562511e-01 1.120442e+00 4.505369e-01 1.703639e-01 -3.597136e-01 2.323252e-01 8.561705e-02 6.628081e-03 2.311691e-02 -4.337113e-02 4.694307e-03 -8.170303e-03 -3.877042e-03 5.744479e-03 -1.324394e-03 -3.940144e-03 -1.307128e-02 -2.068743e-02 1.755870e-02 -2.976471e-02
<VARIANCE> 25
 1.355079e+02 8.257681e+01 8.252932e+01 7.410922e+01 6.645279e+01 1.104061e+02 7.955139e+01 5.636785e+01 6.031247e+01 4.757328e+01 5.740322e+01 4.396876e+01 3.541038e+00 3.638730e+00 3.092116e+00 3.042467e+00 2.941040e+00 3.984586e+00 3.247760e+00 3.041280e+00 2.896954e+00 2.745584e+00 2.775089e+00 2.267247e+00 2.192660e+00
<GCONST> 1.113398e+02
<STATE> 3
<MEAN> 25
 1.060821e+00 3.847528e-01 -2.332677e-01 -9.450480e-01 -6.074200e-01 -8.497972e-01 1.136514e+00 4.387331e-01 1.576764e-01 -4.072903e-01 1.481382e-01 1.657201e-01 4.753479e-03 1.887335e-02 -4.474076e-02 8.886836e-03 -1.023991e-02 1.549945e-03 1.591075e-03 -1.846018e-03 -8.152949e-04 -1.317233e-02 -1.933471e-02 1.926164e-02 -3.150436e-02
<VARIANCE> 25
 1.353639e+02 8.019670e+01 8.135514e+01 7.190566e+01 6.619536e+01 1.089463e+02 7.863450e+01 5.606558e+01 6.001904e+01 4.741477e+01 5.807648e+01 4.413476e+01 3.447757e+00 3.606785e+00 3.029222e+00 2.985328e+00 2.921604e+00 3.935609e+00 3.247430e+00 3.023185e+00 2.916456e+00 2.747500e+00 2.761469e+00 2.265776e+00 2.179025e+00
<GCONST> 1.111335e+02
<STATE> 4
<MEAN> 25
 1.192207e+00 4.786464e-01 -4.651144e-01 -8.475087e-01 -5.116532e-01 -8.373801e-01 9.333088e-01 3.106135e-01 5.855880e-02 -4.749660e-01 -1.138978e-01 1.850179e-01 -2.031150e-03 1.015997e-02 -4.086120e-02 1.727853e-02 -9.224689e-03 1.205970e-02 3.157314e-03 -4.298518e-03 -6.016544e-04 -8.872583e-03 -1.563827e-02 1.904139e-02 -3.335527e-02
<VARIANCE> 25
 1.286918e+02 7.470957e+01 7.881877e+01 6.654784e+01 6.572288e+01 1.154755e+02 7.772879e+01 5.601992e+01 5.981180e+01 4.703646e+01 5.719552e+01 4.320284e+01 3.116143e+00 3.415615e+00 2.871239e+00 2.764595e+00 2.824625e+00 3.898247e+00 3.220291e+00 3.025176e+00 2.916174e+00 2.722565e+00 2.720350e+00 2.214513e+00 2.124975e+00
<GCONST> 1.104843e+02
<TRANSP> 5
 0.000000e+00 1.000000e+00 0.000000e+00 0.000000e+00 0.000000e+00
 0.000000e+00 7.631261e-01 2.368739e-01 0.000000e+00 0.000000e+00
 0.000000e+00 0.000000e+00 7.631254e-01 2.368747e-01 0.000000e+00
 0.000000e+00 0.000000e+00 0.000000e+00 8.943895e-01 1.056105e-01
 0.000000e+00 0.000000e+00 0.000000e+00 0.000000e+00 0.000000e+00
<ENDHMM>
~h "ny"
<BEGINHMM>
<NUMSTATES> 5
<STATE> 2
<MEAN> 25
 1.443935e+00 -1.543033e+00 2.415958e-01 1.141837e-01 3.528615e+00 -2.482393e+00 -2.975345e+00 1.089428e+00 -5.455726e-01 -7.561981e-01 -1.315215e+00 -5.041172e-01 1.274473e-01 8.464346e-02 -6.082116e-02 4.123844e-02 7.101031e-03 -1.763993e-02 -5.188717e-02 5.361144e-02 1.387413e-02 1.595308e-02 -5.023997e-02 -4.390338e-02 4.728003e-04
<VARIANCE> 25
 1.388055e+02 8.463482e+01 5.533827e+01 5.875139e+01 1.037242e+02 1.259785e+02 1.020964e+02 5.513580e+01 5.484330e+01 6.713480e+01 4.708023e+01 5.700935e+01 2.791343e+00 3.790666e+00 2.700314e+00 3.281865e+00 3.843259e+00 5.600809e+00 4.838031e+00 4.331757e+00 3.531229e+00 2.622045e+00 3.106992e+00 2.040139e+00 2.738161e+00
<GCONST> 1.133570e+02
<STATE> 3
<MEAN> 25
 1.937462e+00 -1.135342e+00 -2.533632e-02 3.088233e-01 3.465099e+00 -2.522550e+00 -3.132463e+00 1.345839e+00 -4.412993e-01 -6.309801e-01 -1.515285e+00 -7.267096e-01 1.017068e-01 8.839691e-02 -5.784698e-02 4.220111e-02 -1.849732e-02 -7.968039e-03 -2.860343e-02 5.566834e-02 2.354006e-02 3.063792e-02 -4.168646e-02 -5.018573e-02 -2.254985e-02
<VARIANCE> 25
 1.326183e+02 8.075675e+01 5.145802e+01 5.826231e+01 1.057478e+02 1.260717e+02 1.024756e+02 5.449629e+01 5.471835e+01 6.403124e+01 4.656478e+01 5.621353e+01 2.699619e+00 3.720966e+00 2.632144e+00 3.243393e+00 3.938720e+00 5.578042e+00 4.860576e+00 4.341360e+00 3.545126e+00 2.588571e+00 3.132842e+00 2.043167e+00 2.751552e+00
<GCONST> 1.130646e+02
<STATE> 4
<MEAN> 25
 2.315020e+00 -4.021950e-01 -3.835626e-01 5.897226e-01 2.776291e+00 -2.371800e+00 -2.975557e+00 1.819824e+00 -2.216858e-02 -3.229169e-01 -1.712280e+00 -1.216054e+00 4.259795e-02 6.836812e-02 -3.172028e-02 2.583243e-02 -5.993601e-02 4.254682e-03 1.502610e-02 4.710845e-02 3.610325e-02 3.791956e-02 -1.427629e-02 -4.552400e-02 -4.338709e-02
<VARIANCE> 25
 1.255066e+02 7.714738e+01 4.600447e+01 5.851542e+01 1.033541e+02 1.293301e+02 9.986099e+01 5.315015e+01 5.696813e+01 5.716903e+01 4.760997e+01 5.415646e+01 2.496911e+00 3.587471e+00 2.499753e+00 3.128822e+00 3.886676e+00 5.488776e+00 4.587188e+00 4.261896e+00 3.685634e+00 2.509057e+00 3.181546e+00 1.972255e+00 2.740612e+00
<GCONST> 1.123956e+02
<TRANSP> 5
 0.000000e+00 1.000000e+00 0.000000e+00 0.000000e+00 0.000000e+00
 0.000000e+00 7.846283e-01 2.153718e-01 0.000000e+00 0.000000e+00
 0.000000e+00 0.000000e+00 7.846283e-01 2.153716e-01 0.000000e+00
 0.000000e+00 0.000000e+00 0.000000e+00 9.150063e-01 8.499362e-02
 0.000000e+00 0.000000e+00 0.000000e+00 0.000000e+00 0.000000e+00
<ENDHMM>
~h "uw"
<BEGINHMM>
<NUMSTATES> 5
<STATE> 2
<MEAN> 25
 6.152065e-01 1.558885e+00 1.426163e+00 -2.054256e-01 -1.614486e+00 -1.296139e+00 -1.208462e+00 5.242257e-01 -6.401379e-01 -7.773365e-01 -4.335880e-01 -1.177813e+00 7.865517e-03 -1.269662e-02 -4.448669e-03 -7.301880e-03 -8.458192e-03 -1.241250e-03 4.794509e-03 1.773172e-03 -4.768483e-04 -4.350330e-04 -4.201496e-03 -1.141625e-03 1.173610e-02
<VARIANCE> 25
 1.196478e+02 7.339043e+01 6.757014e+01 5.977935e+01 1.066319e+02 1.291251e+02 7.334644e+01 5.629793e+01 6.025974e+01 4.943931e+01 5.092031e+01 4.765007e+01 3.403933e+00 4.336179e+00 3.238694e+00 2.986561e+00 4.504480e+00 5.667910e+00 3.966627e+00 3.460868e+00 3.613941e+00 2.765475e+00 3.152171e+00 2.619292e+00 3.193210e+00
<GCONST> 1.133752e+02
<STATE> 3
<MEAN> 25
 6.330737e-01 1.486821e+00 1.398267e+00 -2.342056e-01 -1.631139e+00 -1.287080e+00 -1.180099e+00 5.334908e-01 -6.408994e-01 -7.714732e-01 -4.470891e-01 -1.175076e+00 6.143802e-03 -1.846839e-02 -6.092116e-03 -7.037333e-03 -2.898437e-03 1.294305e-03 6.503108e-03 -2.566003e-04 7.541013e-04 1.869066e-03 -5.168934e-03 2.128419e-03 1.388734e-02
<VARIANCE> 25
 1.197723e+02 7.299757e+01 6.797816e+01 6.059069e+01 1.063036e+02 1.292847e+02 7.336971e+01 5.650763e+01 6.069304e+01 4.952950e+01 5.089117e+01 4.772009e+01 3.368150e+00 4.298791e+00 3.229805e+00 3.023369e+00 4.476555e+00 5.632545e+00 3.961817e+00 3.445739e+00 3.604232e+00 2.759531e+00 3.135294e+00 2.618417e+00 3.170179e+00
<GCONST> 1.133569e+02
<STATE> 4
<MEAN> 25
 6.313011e-01 1.257015e+00 1.356443e+00 -2.915956e-01 -1.599564e+00 -1.219201e+00 -1.138900e+00 5.322745e-01 -6.523402e-01 -7.557775e-01 -4.450859e-01 -1.042753e+00 7.645451e-04 -2.860219e-02 -7.932028e-03 -5.118300e-03 8.003884e-03 6.175991e-03 8.874202e-03 -2.263771e-03 1.837729e-03 6.202671e-03 -3.443111e-03 5.965165e-03 1.589133e-02
<VARIANCE> 25
 1.163774e+02 6.950866e+01 6.813625e+01 6.087460e+01 1.019080e+02 1.369953e+02 7.262646e+01 5.786835e+01 6.326413e+01 4.949089e+01 4.956661e+01 4.707706e+01 3.152013e+00 3.984036e+00 3.109504e+00 2.969499e+00 4.238200e+00 5.563439e+00 3.858958e+00 3.481843e+00 3.592529e+00 2.698172e+00 3.037385e+00 2.546858e+00 3.049675e+00
<GCONST> 1.129111e+02
<TRANSP> 5
 0.000000e+00 1.000000e+00 0.000000e+00 0.000000e+00 0.000000e+00
 0.000000e+00 7.653214e-01 2.346786e-01 0.000000e+00 0.000000e+00
 0.000000e+00 0.000000e+00 7.653185e-01 2.346814e-01 0.000000e+00
 0.000000e+00 0.000000e+00 0.000000e+00 8.972324e-01 1.027676e-01
 0.000000e+00 0.000000e+00 0.000000e+00 0.000000e+00 0.000000e+00
<ENDHMM>
~h "sil"
<BEGINHMM>
<NUMSTATES> 5
<STATE> 2
<MEAN> 25
 -1.274072e+01 7.948413e-01 -4.041294e+00 2.311702e+00 -8.980035e-02 6.436393e+00 7.411223e-01 1.850651e+00 1.597147e+00 2.147826e+00 2.702415e+00 1.646560e+00 1.589361e-01 5.116047e-02 2.086238e-02 5.230878e-02 -4.075938e-02 -6.860045e-02 -1.949774e-03 -5.745236e-02 3.065385e-02 9.444243e-02 2.406119e-03 -1.507194e-03 9.029610e-02
<VARIANCE> 25
 6.074448e+01 1.474220e+01 1.705964e+01 3.337643e+01 3.617846e+01 4.109829e+01 3.352757e+01 1.845401e+01 2.767364e+01 1.668151e+01 2.291749e+01 9.645443e+00 8.884790e-01 6.297029e-01 7.950097e-01 7.471962e-01 7.834086e-01 1.375490e+00 1.186289e+00 9.858016e-01 1.154970e+00 9.223246e-01 8.729987e-01 8.656730e-01 6.221242e-01
<GCONST> 8.279232e+01
<STATE> 3
<MEAN> 25
 -1.196280e+01 8.634087e-01 -3.795502e+00 2.597698e+00 -1.910336e-01 6.471351e+00 9.348496e-01 1.624064e+00 1.848187e+00 2.503693e+00 2.643386e+00 1.804931e+00 2.017671e-01 1.646421e-02 7.380848e-02 7.281042e-02 -1.809552e-02 3.075289e-02 5.116129e-02 -5.041809e-02 5.964389e-02 7.086265e-02 -1.708613e-02 4.712093e-02 1.507328e-01
<VARIANCE> 25
 4.372214e+01 1.289837e+01 1.397983e+01 2.623255e+01 3.315395e+01 4.237988e+01 3.374538e+01 1.769485e+01 2.458824e+01 1.797098e+01 2.395672e+01 9.447544e+00 1.190121e+00 5.362970e-01 5.894672e-01 7.545704e-01 7.430332e-01 1.242274e+00 1.174099e+00 1.029841e+00 1.133936e+00 9.681786e-01 8.958837e-01 8.068563e-01 7.825632e-01
<GCONST> 8.171379e+01
<STATE> 4
<MEAN> 25
 -1.008347e+01 6.977377e-01 -3.464482e+00 2.737666e+00 -3.884818e-01 6.607069e+00 1.095891e+00 1.276705e+00 2.184879e+00 2.206798e+00 2.100712e+00 1.737014e+00 1.331787e-01 -1.678423e-02 4.670516e-02 -1.455188e-02 -3.291516e-02 -3.405372e-02 2.250078e-02 -4.149827e-02 -4.178109e-03 -6.177014e-02 -3.303924e-02 1.258854e-02 1.582394e-01
<VARIANCE> 25
 4.334515e+01 1.558312e+01 1.571978e+01 2.230366e+01 3.230600e+01 4.726194e+01 3.508318e+01 2.194857e+01 2.610876e+01 2.072406e+01 2.583067e+01 1.236471e+01 1.164889e+00 8.003866e-01 7.998230e-01 8.045109e-01 8.970786e-01 1.644912e+00 1.402695e+00 1.317207e+00 1.294632e+00 1.147925e+00 1.005288e+00 9.080262e-01 9.867182e-01
<GCONST> 8.514299e+01
<TRANSP> 5
 0.000000e+00 1.000000e+00 0.000000e+00 0.000000e+00 0.000000e+00
 0.000000e+00 7.654774e-01 2.345227e-01 0.000000e+00 0.000000e+00
 0.000000e+00 0.000000e+00 7.654774e-01 2.345227e-01 0.000000e+00
 0.000000e+00 0.000000e+00 0.000000e+00 8.967850e-01 1.032150e-01
 0.000000e+00 0.000000e+00 0.000000e+00 0.000000e+00 0.000000e+00
<ENDHMM>
